svm_type c_svc
kernel_type rbf
gamma 0.01
nr_class 6
total_sv 1588
rho -0.534942 -1.50053 2.01536 0.336768 -1.52804 0.25329 0.485403 0.570683 0.621024 -1.46422 1.6871 2.6179 1.5692 2.01944 0.726995
label 11 2 4 12 9 3
nr_sv 356 8 121 191 370 542
SV
0.2240875628140127 0 10 10 10 2:1 6:1 8:1 14:0.92745805 20:0.81847882 42:1.56489 58:3.6902008 
0 0 10 10 10 2:1 6:1 8:1 14:0.61068207 20:1.2309185 42:1.0303973 58:2.4298024 
0 0 10 10 10 2:1 6:1 8:1 14:1.4899898 20:1.1338645 42:0.94915378 58:2.23822 
0 0 3.883548502499056 10 10 2:1 6:1 8:1 14:2.2423694 20:1.0006319 42:0.83762527 58:1.9752223 
0 0 0 10 10 2:1 6:1 8:1 14:2.906342 20:0.88305461 42:0.73920166 58:1.7431276 
0 0 0 10 10 2:1 6:1 8:1 14:3.1909196 20:0.68772358 42:0.57569087 58:1.3575491 
0 0 0 10 10 2:1 6:1 8:1 14:3.7434347 20:0.60691392 42:0.50804543 58:1.1980329 
0 0 10 10 10 2:1 6:1 8:1 14:4.2310276 20:0.53559965 42:0.44834852 58:1.0572604 
0 0 10 10 10 2:1 6:1 8:1 14:4.6613264 20:0.47266507 42:0.39566615 58:0.93302894 
0 0 10 10 10 2:1 6:1 8:1 14:1.1081971 20:0.018327214 42:0.015341641 58:0.03617746 
0 0 10 10 10 2:1 6:1 8:1 14:1.9054387 20:0.016173707 42:0.013538951 58:0.031926498 
0 0 10 10 10 2:1 6:1 8:1 14:1.9473659 20:0.008657163 42:0.007246878 58:0.017089019 
0 0 3.470074932489783 10 10 2:1 6:1 8:1 14:2.6460021 20:0.0076399185 42:0.0063953479 58:0.015081009 
0 0 10 10 10 2:1 6:1 8:1 14:2.5323393 20:0.0046338448 42:0.0038789748 58:0.0091470936 
0 0 0 10 10 2:1 6:1 8:1 14:3.1622398 20:0.0040893541 42:0.0034231832 58:0.0080722822 
0 0 10 10 10 2:1 6:1 8:1 14:2.4211943 20:0.001931674 42:0.0016169972 58:0.0038130758 
0 0 0 10 10 2:1 6:1 8:1 14:2.8130856 20:0.0015043892 42:0.0012593186 58:0.0029665763 
0 0 10 10 10 2:1 6:1 8:1 14:2.1001272 20:0.0006271227 42:0.00052496209 58:0.0012352122 
0 0 0 10 10 2:1 6:1 8:1 14:2.7808139 20:0.0005534339 42:0.00046327745 58:0.001020649 
0 0 0 10 10 2:1 6:1 8:1 14:3.0931582 20:0.00043101475 42:0.00036080083 58:0.00072546024 
0 0 10 10 10 2:1 6:1 8:1 14:3.6571605 20:0.00038036914 42:0.00031840563 58:0.00057079457 
0 0 10 10 10 2:1 6:1 8:1 14:4.1548901 20:0.00033567462 42:0.00028099195 58:0.00043430249 
0 0 10 10 10 2:1 6:1 8:1 14:4.16329 20:0.00026142364 42:0.00021883677 58:0.00026881319 
0 0 10 10 10 2:1 6:1 8:1 14:0.92976075 20:1.4458934e-007 42:1.2103519e-007 58:1.051678e-007 
0 0 10 10 10 2:1 6:1 8:1 14:1.6515564 20:1.1260629e-007 42:9.4262312e-008 58:4.3508578e-008 
0 0 10 10 10 2:1 6:1 8:1 14:0.92747277 20:1.006675e-012 42:4.9943058e-013 58:3.8895696e-013 
0 0 10 10 10 2:1 6:1 8:1 14:1.7459499 20:8.8838756e-013 42:4.4074596e-013 
0 0 10 10 10 2:1 6:1 8:1 14:0.93236202 20:1.4027978e-015 42:1.2379648e-015 
0 0 10 10 10 2:1 6:1 8:1 14:1.6535823 20:1.0925e-015 
0 0 10 10 10 2:1 6:1 8:1 14:0.92753309 20:4.9599423e-020 
0 0 10 10 10 2:1 6:1 8:1 14:1.7460033 
0 0 10 10 10 2:1 6:1 8:1 14:1.7522115 
0 0 10 10 10 2:1 6:1 8:1 14:2.4737792 
0 0 0 10 10 2:1 6:1 8:1 14:3.1105604 
0 0 10 10 10 2:1 6:1 8:1 14:3.6725178 
0 0 0 10 10 2:1 6:1 8:1 14:2.8932152 
0 0 10 10 10 2:1 6:1 8:1 14:3.4807115 
0 0 0 10 10 2:1 6:1 8:1 14:3.0386159 
0 0 10 10 10 2:1 6:1 8:1 14:3.6090276 
0 0 10 10 10 2:1 6:1 8:1 14:4.1124134 
10 0 10 10 10 2:1 6:1 8:1 14:4.5566506 
0 0 10 10 10 2:1 6:1 8:1 14:1.4077255 
0 0 10 10 10 2:1 6:1 8:1 14:2.1697714 
0 10 10 10 10 2:1 6:1 8:1 14:0.00047926867 20:0.69199347 
7.644952121963169 10 10 10 10 2:1 6:1 8:1 14:0.0004229531 20:1.3026755 
0 0 10 10 10 2:1 6:1 8:1 14:0.92755646 20:0.30339834 
0 0 10 10 10 2:1 6:1 8:1 14:1.746024 20:0.26774812 
0 0 10 10 10 2:1 6:1 8:1 14:1.8620373 20:0.14331523 
0 0 10 10 10 2:1 6:1 8:1 14:2.5706999 20:0.12647524 
0 0 10 10 10 2:1 6:1 8:1 14:2.1417706 20:0.059742674 
0 0 10 10 10 2:1 6:1 8:1 14:2.8175638 20:0.052722726 
0 0 10 10 10 2:1 6:1 8:1 14:2.1019931 20:0.021978103 
0 0 0 10 10 2:1 6:1 8:1 14:2.7824605 20:0.019395607 
0 0 10 10 10 2:1 6:1 8:1 14:2.4168017 20:0.010381721 
0 0 0 10 10 2:1 6:1 8:1 14:2.8096647 20:0.0080852918 
0 0 10 10 10 2:1 6:1 8:1 14:1.4807138 20:0.0015920884 
0 0 10 10 10 2:1 6:1 8:1 14:2.2341835 20:0.001405013 
0 0 10 10 10 2:1 6:1 8:1 14:1.0039077 20:4.8076901e-005 
0 0 10 10 10 2:1 6:1 8:1 14:1.8134032 20:4.2427717e-005 
0 0 10 10 10 2:1 6:1 8:1 14:2.3397381 20:3.3042739e-005 
0 0 0 10 10 2:1 6:1 8:1 14:2.99227 20:2.9160115e-005 
0 0 10 10 10 2:1 6:1 8:1 14:1.8989059 20:9.4669031e-006 
0 0 10 10 10 2:1 6:1 8:1 14:2.6032364 20:8.3545128e-006 
0 0 10 10 10 2:1 6:1 8:1 14:3.5306942 20:8.3545128e-006 
0 0 10 10 10 2:1 6:1 8:1 14:3.6771657 20:6.5065014e-006 
0 0 0 10 10 2:1 6:1 8:1 14:2.8957031 20:3.4826794e-006 
0 0 10 10 10 2:1 6:1 8:1 14:3.4829068 20:3.0734536e-006 
0 0 10 10 10 2:1 6:1 8:1 14:4.001112 20:2.7123133e-006 
0.6908788577760123 0 10 10 10 2:1 6:1 8:1 14:4.4584274 20:2.3936082e-006 
0 0 10 10 10 2:1 6:1 8:1 14:3.9916875 20:1.6451012e-006 
0 0 10 10 10 2:1 6:1 8:1 14:4.0361862 20:1.2812061e-006 
0 0 10 10 10 2:1 6:1 8:1 14:0.92969048 20:7.0861506e-010 
0 0 10 10 10 2:1 6:1 8:1 14:1.7479067 20:3.3219211e-010 
0 0 10 10 10 2:1 6:1 8:1 14:2.2887292 
0 0 0 10 10 2:1 6:1 8:1 14:2.9472542 
0 0 10 10 10 2:1 6:1 8:1 14:0.98862636 
0 0 10 10 10 2:1 6:1 8:1 14:1.6069305 
0 0 10 10 10 2:1 6:1 8:1 14:1.7875861 
0 0 10 10 10 2:1 6:1 8:1 14:2.5049965 
0 0 10 10 10 2:1 6:1 8:1 14:3.4324546 
0 0 10 10 10 2:1 6:1 8:1 14:1.9945227 20:0.69199347 
0 0 10 10 10 2:1 6:1 8:1 14:0.17456131 20:0.060563516 42:0.068627454 
0.1246268607580787 0 10 10 10 2:1 6:1 8:1 14:3.2865474 20:0.81847882 42:0.92745805 
9.729085057827774 10 10 3.088399886488233 10 1:1 5:1 8:1 14:0.9297145 17:0.63513285 20:3.8763962 
0 10 10 0 10 1:1 5:1 8:1 14:1.4913584 17:0.38522756 20:2.3509393 
0 0 0 0 10 1:1 5:1 8:1 14:2.2433028 17:0.33996215 20:2.074697 
0 0 0 0 10 1:1 5:1 8:1 14:2.9069233 17:0.30001554 20:1.8309135 
0 0 0 0 10 1:1 5:1 8:1 14:3.4928088 17:0.26476276 20:1.6152625 
0 0 0 0 10 1:1 5:1 8:1 14:3.6472609 17:0.20619744 20:1.2579678 
0 10 10 10 10 1:1 5:1 8:1 14:1.0132334 17:0.0048492993 20:0.0295725 
0 0 0 0 10 1:1 5:1 8:1 14:1.8216333 17:0.0042794915 20:0.026085576 
0 0 10 10 10 1:1 5:1 8:1 14:1.0594168 17:0.00031000533 20:0.0018883613 
0 0 0 0 10 1:1 5:1 8:1 14:1.8623899 17:0.00027357874 20:0.0016653509 
0 0 0 0 10 1:1 5:1 8:1 14:1.8071886 17:0.00012922945 20:0.0007860554 
0 0 0 0 10 1:1 5:1 8:1 14:2.5222967 17:0.0001140446 20:0.0006930909 
0 0 0 0 10 1:1 5:1 8:1 14:1.4241276 17:2.2456712e-005 20:0.00013635943 
0 0 0 0 10 1:1 5:1 8:1 14:2.1842463 17:1.8377172e-005 20:0.00012033677 
0 0 0 0 10 1:1 5:1 8:1 14:1.479722 17:4.646477e-006 20:3.0061608e-005 
0 0 0 0 10 1:1 5:1 8:1 14:2.2333081 17:3.7362086e-006 20:2.6529277e-005 
0 0 0 10 10 1:1 5:1 8:1 14:1.3672228 17:6.639695e-007 20:5.2239243e-006 
0 0 0 0 10 1:1 5:1 8:1 14:2.1340272 17:5.8595106e-007 20:4.5383636e-006 
0 0 0 0 10 1:1 5:1 8:1 14:2.5894406 17:3.9303455e-007 20:3.534481e-006 
0 0 0 0 10 1:1 5:1 8:1 14:3.2126312 17:3.4685178e-007 20:2.9673085e-006 
0 0 0 10 10 1:1 5:1 8:1 14:1.3111521 17:2.3288464e-008 20:3.543945e-007 
0 0 0 0 10 1:1 5:1 8:1 14:2.0845459 20:3.1275204e-007 
0 0 0 0 10 1:1 5:1 8:1 14:1.6943196 20:1.0648769e-007 
0 0 0 0 10 1:1 5:1 8:1 14:2.422689 20:8.540772e-008 
0 0 0 10 10 1:1 5:1 8:1 14:1.4045137 20:1.4651611e-008 
0 0 0 0 10 1:1 5:1 8:1 14:2.1669376 20:1.0148591e-008 
0 0 0 0 10 1:1 5:1 8:1 14:1.548296 20:2.1107327e-009 
0 0 0 0 10 1:1 5:1 8:1 14:2.293824 20:1.1594643e-009 
0 0 0 10 10 1:1 5:1 8:1 14:1.2792273 
0 0 0 0 10 1:1 5:1 8:1 14:2.0563724 
0 0 0 0 10 1:1 5:1 8:1 14:2.7421994 
0 0 0 0 10 1:1 5:1 8:1 14:3.3474407 
0 0 10 10 10 1:1 5:1 8:1 14:1.0572523 
0 0 0 0 10 1:1 5:1 8:1 14:1.8604798 
0 0 0 10 10 1:1 5:1 8:1 14:1.1496605 
0 0 0 0 10 1:1 5:1 8:1 14:1.94203 
0 0 0 0 10 1:1 5:1 8:1 14:2.1053586 
0 0 0 0 10 1:1 5:1 8:1 14:2.7854307 
0 0 0 0 10 1:1 5:1 8:1 14:3.3855917 
0 0 0 0 10 1:1 5:1 8:1 14:3.9152324 
0 10 10 10 10 1:1 5:1 8:1 14:0.93102831 
0 0 0 0 10 1:1 5:1 8:1 14:1.7490873 
0 10 10 10 10 1:1 5:1 8:1 14:1.0261347 
0 0 0 0 10 1:1 5:1 8:1 14:1.8330187 
0 0 0 0 10 1:1 5:1 8:1 14:2.3550146 
0 0 0 0 10 1:1 5:1 8:1 14:2.1880069 
0 0 0 0 10 1:1 5:1 8:1 14:2.0986137 
0 0 0 0 10 1:1 5:1 8:1 14:2.7794778 
0 0 0 0 10 1:1 5:1 8:1 14:3.7069356 
0 0 0 0 10 1:1 5:1 8:1 14:3.8144226 
0.9961127877390779 0 0 0 10 1:1 5:1 8:1 14:3.5490696 
0 0 0 0 10 1:1 5:1 8:1 14:2.8271384 
0 0 0 0 10 1:1 5:1 8:1 14:1.8452952 
0 0 0 0 10 1:1 5:1 8:1 14:2.0466864 
0 0 0 0 10 1:1 5:1 8:1 14:2.5214183 
0 0 0 0 10 1:1 5:1 8:1 14:3.1526027 
0.1122627123828489 0 0 0 10 1:1 5:1 8:1 14:3.7096198 
0 0 0 0 10 1:1 5:1 8:1 14:3.4770398 
0 0 0 0 10 1:1 5:1 8:1 14:3.3171899 
0 0 0 0 10 1:1 5:1 8:1 14:3.2073264 
0 0 0 0 10 1:1 5:1 8:1 14:3.4253261 
0 0 0 0 10 1:1 5:1 8:1 14:3.0050237 
0 0 0 0 10 1:1 5:1 8:1 14:3.5793817 
0.1639698432888887 0 0 0 10 1:1 5:1 8:1 14:3.7150834 
0 0 0 0 10 1:1 5:1 8:1 14:4.2060089 
0 0 0 10 10 1:1 5:1 8:1 14:4.6392474 
0.03635053953306604 0 0 10 10 1:1 5:1 8:1 14:4.5405078 
0 0 0 0 10 1:1 5:1 8:1 14:4.4636097 
0 0 0 10 10 1:1 5:1 8:1 14:1.1005309 
0 0 0 0 10 1:1 5:1 8:1 14:1.4473118 
0 0 0 0 10 1:1 5:1 8:1 14:2.2047062 
0 0 0 0 10 1:1 5:1 8:1 14:2.8731003 
0 0 0 10 10 1:1 5:1 8:1 14:1.2302803 
0 0 0 0 10 1:1 5:1 8:1 14:2.0131762 
0 0 0 0 10 1:1 5:1 8:1 14:1.4364684 
0 0 0 0 10 1:1 5:1 8:1 14:2.195137 
0 0 0 0 10 1:1 5:1 8:1 14:2.2588756 
0 0 0 0 10 1:1 5:1 8:1 14:2.9209082 
0 0 3.534660864907291 10 10 1:1 5:1 8:1 14:1.0922443 
0 0 0 0 10 1:1 5:1 8:1 14:1.5120944 
0 0 0 10 10 1:1 5:1 8:1 14:1.3606802 
0 0 0 0 10 1:1 5:1 8:1 14:1.7527521 
0 0 0 0 10 1:1 5:1 8:1 14:1.9905558 
0 0 0 0 10 1:1 5:1 8:1 14:2.6841173 
0 0 0 0 10 1:1 5:1 8:1 14:3.2961831 
0 0 0 0 10 1:1 5:1 8:1 14:2.9266939 
0 0 0 0 10 1:1 5:1 8:1 14:2.0041289 
0 0 0 0 10 1:1 5:1 8:1 14:2.3048739 
0 0 0 0 10 1:1 5:1 8:1 14:3.232332 
0 0 0 0 10 1:1 5:1 8:1 14:3.1490047 
0 0 0 0 10 1:1 5:1 8:1 14:3.3799062 
0 0 0 0 10 1:1 5:1 8:1 14:3.559731 
0 0 0 0 10 1:1 5:1 8:1 14:3.3740239 
0 0 0 0 10 1:1 5:1 8:1 14:3.9050229 
0 0 0 0 10 1:1 5:1 8:1 14:4.3736291 
0 0 0 0 10 1:1 5:1 8:1 14:3.2684929 
0 0 0 0 10 1:1 5:1 8:1 14:3.4729624 
0 0 0 0 10 1:1 5:1 8:1 14:3.3143883 
0 0 0 0 10 1:1 5:1 8:1 14:3.2054014 
0 0 0 0 10 1:1 5:1 8:1 14:3.4238269 
0.7831570289735107 0 0 0 10 1:1 5:1 8:1 14:3.9489744 
0 0 0 0 10 1:1 5:1 8:1 14:4.412415 
0 0 0 10 10 1:1 5:1 8:1 14:4.8213997 
0 0 0 10 10 1:1 5:1 8:1 14:5.1823258 
0 0 0 10 10 1:1 5:1 8:1 14:4.9634542 
0 0 0 10 10 1:1 5:1 8:1 14:5.3076878 
0 0 0 10 10 1:1 5:1 8:1 14:5.0610843 
0 0 0 10 10 1:1 5:1 8:1 14:5.3937879 
4.959442864022423 0 0.3034780535175804 10 10 1:1 5:1 8:1 14:6.3211312 
0 0 0 10 10 1:1 5:1 8:1 14:5.8500495 
0 0 0 0 10 1:1 5:1 8:1 14:3.3659072 
0 0 0 0 10 1:1 5:1 8:1 14:3.8975499 
0 0 0 0 10 1:1 5:1 8:1 14:4.3667231 
0 0 0 0 10 1:1 5:1 8:1 14:3.2646067 
0.03398906099366876 0 0 0 10 1:1 5:1 8:1 14:3.4696944 
0.008947239929355862 0 0 0 10 1:1 5:1 8:1 14:3.6291456 
0 0 0 0 10 1:1 5:1 8:1 14:1.9670119 
0 0 0 0 10 1:1 5:1 8:1 14:2.4592021 
0 0 0 0 10 1:1 5:1 8:1 14:2.4188921 
0 0 0 0 10 1:1 5:1 8:1 14:2.5898068 
0 0 0 10 10 1:1 5:1 8:1 14:1.3245922 
0 0 0 0 10 1:1 5:1 8:1 14:1.6364413 
0 0 0 0 10 1:1 5:1 8:1 14:2.0521517 
0 0 0 0 10 1:1 5:1 8:1 14:2.5256615 
0 0 0 0 10 1:1 5:1 8:1 14:2.6633005 
0 0 0 0 10 1:1 5:1 8:1 14:3.2777922 
0 0 0 0 10 1:1 5:1 8:1 14:3.4801831 
0 0 0 0 10 1:1 5:1 8:1 14:3.3193281 
0.06607624310820318 0 0 0 10 1:1 5:1 8:1 14:3.5125308 
0.06142829746902185 0 0 0 10 1:1 5:1 8:1 14:4.0272336 
0.05035992313794123 0 0 8.738672621637329 10 1:1 5:1 8:1 14:4.4814558 
0 0 0 10 10 1:1 5:1 8:1 14:4.8823066 
0 0 0 10 10 1:1 5:1 8:1 14:4.7297831 
0 0 0 0 10 1:1 5:1 8:1 14:1.8889152 20:0.69199347 
0 0 0 0 10 1:1 5:1 8:1 14:3.1616228 20:0.81847882 
0 0 6.424946630858043 0 10 1:1 5:1 8:1 14:1.6212687 20:1.1117088 
0 4.305435257423438 10 0 10 1:1 5:1 8:1 14:1.4307557 20:1.6730729 
0 10 10 0 10 1:1 5:1 8:1 14:0.86779189 20:1.7067636 
0 10 10 0 10 1:1 5:1 8:1 14:0.86778486 20:2.398757 
0 10 10 7.476504066158717 10 1:1 5:1 8:1 14:0.7658025 20:2.8088887 
0 10 10 10 10 1:1 5:1 8:1 14:0.67580354 20:3.1708293 
1.699678421332116 10 10 0 10 1:1 5:1 8:1 14:1.6328464 20:3.3097219 
0 10 10 0 10 1:1 5:1 8:1 14:1.0751215 20:2.8712704 
0 0 10 0 10 1:1 5:1 8:1 14:2.0496442 20:2.9970412 
0 0 0 0 10 1:1 5:1 8:1 14:2.5236936 20:2.3340983 
0 0 0 0 10 1:1 5:1 8:1 14:3.154521 20:2.0598345 
0 0 0 0 10 1:1 5:1 8:1 14:3.3841119 20:1.6042008 
0 0 0 0 10 1:1 5:1 8:1 14:3.9137969 20:1.4157022 
0 0 0 0 10 1:1 5:1 8:1 14:4.3812051 20:1.2493528 
0 0 0 0 10 1:1 5:1 8:1 14:4.3386979 20:0.97299695 
0 0 0 0 10 1:1 5:1 8:1 14:4.7549515 20:0.85866684 
0 0 0 5.077931227644991 10 1:1 5:1 8:1 14:5.1218972 20:0.75777078 
0 0 0 0 10 1:1 5:1 8:1 14:4.9146056 20:0.59015244 
0 0 0 0 10 1:1 5:1 8:1 14:4.3034234 20:0.40560547 
0 0 0 0 10 1:1 5:1 8:1 14:3.5363853 20:0.24601215 
0 0 0 0 10 1:1 5:1 8:1 14:4.0469136 20:0.21710494 
0 0 0 0 10 1:1 5:1 8:1 14:4.4970551 20:0.19159445 
0 0 0 0 10 1:1 5:1 8:1 14:3.6536658 20:0.11620791 
0 0 0 0 10 1:1 5:1 8:1 14:1.5620953 20:0.020193907 
0 0 0 0 10 1:1 5:1 8:1 14:2.3057275 20:0.01782106 
0 0 0 0 10 1:1 5:1 8:1 14:2.9619813 20:0.01572703 
0 0 0 0 10 1:1 5:1 8:1 14:3.541086 20:0.013879057 
0 10 10 10 10 1:1 5:1 8:1 14:0.96679598 20:0.00014772514 
0 0 0 0 10 1:1 5:1 8:1 14:1.7806462 20:0.00013036699 
0 0 0 0 10 1:1 5:1 8:1 14:1.880569 20:6.4751504e-005 
0 0 0 0 10 1:1 5:1 8:1 14:2.5870543 20:5.2114094e-005 
0 0 0 0 10 1:1 5:1 8:1 14:3.2105262 20:3.8673512e-005 
0 0 0 0 10 1:1 5:1 8:1 14:3.7607369 20:2.7672007e-005 
0 0 0 0 10 1:1 5:1 8:1 14:4.2462974 20:1.7963215e-005 
0 0 0 10 10 1:1 5:1 8:1 14:4.6748009 20:9.3952367e-006 
0 0 0 1.007342513455095 10 1:1 5:1 8:1 14:1.4201778 20:9.9025067e-007 
0 0 0 0 10 1:1 5:1 8:1 14:2.0334933 
0 0 0 0 10 1:1 5:1 8:1 14:2.9609504 
0.01820565544726342 0 0 0 10 1:1 5:1 8:1 14:3.5404866 
0 0 0 0 10 1:1 5:1 8:1 14:3.0748706 
0 0 0 0 10 1:1 5:1 8:1 14:3.6410213 
0 0 0 0 10 1:1 5:1 8:1 14:1.8480521 
0 0 0 0 10 1:1 5:1 8:1 14:2.3667221 
0 0 0 0 10 1:1 5:1 8:1 14:3.0160832 
0 0 0 0 10 1:1 5:1 8:1 14:3.5891418 
0 0 0 0 10 1:1 5:1 8:1 14:1.7283039 
0 0 0 0 10 1:1 5:1 8:1 14:2.1153026 
0 0 0 0 10 1:1 5:1 8:1 14:2.7942066 
0 0 0 0 10 1:1 5:1 8:1 14:2.4230888 
0 0 0 0 10 1:1 5:1 8:1 14:3.0658259 
0 0 0 0 10 1:1 5:1 8:1 14:2.568476 
0 10 10 10 10 1:1 5:1 8:1 14:0.98076499 
0 0 0 0 10 1:1 5:1 8:1 14:1.7929801 
0 10 10 10 10 1:1 5:1 8:1 14:0.92757654 
0 0 0 0 10 1:1 5:1 8:1 14:1.7460412 
0 0 0 0 10 1:1 5:1 8:1 14:1.6553165 
0 0 0 0 10 1:1 5:1 8:1 14:2.3882694 
0 0 0 0 10 1:1 5:1 8:1 14:2.7874444 
0 0 0 0 10 1:1 5:1 8:1 14:3.3873687 
0 0 0 0 10 1:1 5:1 8:1 14:2.3395231 
0 0 0 0 10 1:1 5:1 8:1 14:2.7494805 
0 0 0 0 10 1:1 5:1 8:1 14:2.0736122 
0 0 0 0 10 1:1 5:1 8:1 14:2.1851676 
0 0 0 0 10 1:1 5:1 8:1 14:2.4293001 
0 0 0 0 10 1:1 5:1 8:1 14:2.59709 
0 0 0 0 10 1:1 5:1 8:1 14:3.2193816 
0 0 0 0 10 1:1 5:1 8:1 14:3.1401048 
0 0 0 0 10 1:1 5:1 8:1 14:3.0856185 
0 0 0 0 10 1:1 5:1 8:1 14:3.3305397 
0 0 0 0 10 1:1 5:1 8:1 14:3.5212848 
0 0 0 0 10 1:1 5:1 8:1 14:4.0349817 
0 0 0 10 10 1:1 5:1 8:1 14:1.352742 
0 0 0 0 10 1:1 5:1 8:1 14:1.857183 
0 0 0 0 10 1:1 5:1 8:1 14:2.3738337 
0 0 0 0 10 1:1 5:1 8:1 14:2.5589685 
0 0 0 0 10 1:1 5:1 8:1 14:2.2971749 
0 0 0 0 10 1:1 5:1 8:1 14:2.9547083 
0 0 0 0 10 1:1 5:1 8:1 14:2.5089991 
0 0 0 0 10 1:1 5:1 8:1 14:2.4492428 
0 0 0 0 10 1:1 5:1 8:1 14:2.8349304 
0 0 0 0 10 1:1 5:1 8:1 14:2.2665846 
0 0 0 0 10 1:1 5:1 8:1 14:3.1940424 
0 0 0 0 10 1:1 5:1 8:1 14:2.8647408 
0 0 0 0 10 1:1 5:1 8:1 14:3.1585183 
0 0 0 0 10 1:1 5:1 8:1 14:3.3873103 
0.1789169193285536 0 0 0 10 1:1 5:1 8:1 14:3.9167452 
0 0 0 0 10 1:1 5:1 8:1 14:2.7775948 
0 0 0 0 10 1:1 5:1 8:1 14:3.0906484 
0.04985383960688321 0 0 0 10 1:1 5:1 8:1 14:3.6549418 
0.005471213540977113 0 0 0 10 1:1 5:1 8:1 14:3.7739251 
0 0 0 0 10 1:1 5:1 8:1 14:4.2579255 
0 0 0 0 10 1:1 5:1 8:1 14:2.4938555 
0 0 0 0 10 1:1 5:1 8:1 14:3.1282706 
0 0 0 0 10 1:1 5:1 8:1 14:1.8237195 
0 0 0 0 10 1:1 5:1 8:1 14:1.9036226 
0 0 0 0 10 1:1 5:1 8:1 14:2.8310785 
0 0 0 0 10 1:1 5:1 8:1 14:2.6445911 
0 0 0 0 10 1:1 5:1 8:1 14:3.2612998 
0.04769195846311152 0 0 0 10 1:1 5:1 8:1 14:3.8055408 
0 0 0 0 10 1:1 5:1 8:1 14:4.2858324 
0 0 0 0 10 1:1 5:1 8:1 14:4.265245 
0.5489027334035852 0 0 0 10 1:1 5:1 8:1 14:3.8588929 
0.02959251216073303 0 0 0 10 1:1 5:1 8:1 14:4.3328934 
0 0 0 0 10 1:1 5:1 8:1 14:2.9741545 
0 0 0 0 10 1:1 5:1 8:1 14:3.2437062 
0 0 0 0 10 1:1 5:1 8:1 14:2.8948474 
0 0 0 0 10 1:1 5:1 8:1 14:2.4769409 
0 0 0 0 10 1:1 5:1 8:1 14:2.6298132 
0 0 0 0 10 1:1 5:1 8:1 14:2.7348828 
0 0 0 0 10 1:1 5:1 8:1 14:3.3409512 
0 0 0 0 10 1:1 5:1 8:1 14:3.2236354 
0 0 0 0 10 1:1 5:1 8:1 14:2.4501784 
0 0 0 0 10 1:1 5:1 8:1 14:3.0897119 
0 0 0 0 10 1:1 5:1 8:1 14:3.6540966 
0.02246531616058792 0 0 0 10 1:1 5:1 8:1 14:4.1521645 
0 0 0 0 10 1:1 5:1 8:1 14:2.8887789 
0 0 0 0 10 1:1 5:1 8:1 14:3.4767706 
0 0 0 0 10 1:1 5:1 8:1 14:3.9956725 
0 0 0 0 10 1:1 5:1 8:1 14:3.06617 
0 0 0 0 10 1:1 5:1 8:1 14:3.6333261 
0.2575681963396873 0 0 0 10 1:1 5:1 8:1 14:3.7570579 
0 0 0 0 10 1:1 5:1 8:1 14:4.2430124 
0 0 0 0 10 1:1 5:1 8:1 14:4.2318192 
0.02688127951876562 0 0 0 10 1:1 5:1 8:1 14:4.2230535 
0.01448105772910697 0 0 10 10 1:1 5:1 8:1 14:4.6541615 
0 0 0 0 10 1:1 5:1 8:1 14:3.7502196 
0 0 0 0 10 1:1 5:1 8:1 14:4.2368846 
0 0 0 0 10 1:1 5:1 8:1 14:3.1952205 
0 0 0 0 10 1:1 5:1 8:1 14:2.4367316 
0 0 0 0 10 1:1 5:1 8:1 14:3.0778179 
0.0904391890800573 0 0 0 10 1:1 5:1 8:1 14:3.6435616 
0 0 0 0 10 1:1 5:1 8:1 14:3.1373477 
0 0 0 0 10 1:1 5:1 8:1 14:2.409394 
0 0 0 0 10 1:1 5:1 8:1 14:2.3887966 
0 0 0 0 10 1:1 5:1 8:1 14:3.0355155 
0 0 0 0 10 1:1 5:1 8:1 14:3.29145 
0 0 0 0 10 1:1 5:1 8:1 14:2.1671798 20:0.69199347 
0 0 0 0 10 1:1 5:1 8:1 14:3.4906497 20:0.81847882 
-6.598613757374706 10 0 0 0 0:1 4:1 8:1 14:0.92745805 17:0.58579862 20:3.4779236 
-0 10 3.518853157973724 0 0 0:1 4:1 8:1 14:0.61068207 17:0.38522598 20:2.9820225 
-0 3.393595589747775 0 0 0 0:1 4:1 8:1 14:1.56489 17:0.39179698 20:3.1126444 
-7.817713916994962 0 0.5455163659825471 9.945662805808324 10 0:1 4:1 8:1 14:4.8417988 17:5.340861e-007 20:8.3278992e-006 
-10 2.209129741030699 10 10 10 0:1 4:1 8:1 14:5.0736527 17:1.9499193e-007 20:5.5286837e-006 
-0 4.144717850896543 4.218492396126561 3.506862174570405 7.917633819187506 0:1 4:1 8:1 14:0.92745805 17:0.20442429 20:3.6072187 
-9.178124329894711 0 10 10 10 0:1 4:1 8:1 14:0.69199347 17:0.14653781 20:3.3834054 
-5.081423289564101 3.808794323995215 9.264783685028441 9.524852470235027 5.573575177784337 0:1 4:1 8:1 14:0.92745817 17:4.7032955e-009 20:1.1363739e-007 
-0 -0 0 4.24756767325225 10 1:1 5:1 8:1 14:1.6504719e-005 20:1.5578029 42:0.41972709 58:0.32689571 
-0 -0 10 0 0 1:1 5:1 8:1 14:4.0014097e-006 20:3.5780001 42:0.10612363 58:0.082652189 
-0 -0 10 0 0 1:1 5:1 8:1 14:2.5105594e-006 17:0.56722689 20:2.2841341 42:0.067747496 58:0.05276373 
-0 -0 10 0 0 1:1 5:1 8:1 14:2.9849057e-006 17:0.69199347 20:3.4785433 42:0.082649164 58:0.064369574 
-0 -0 10 0 0 1:1 5:1 8:1 14:2.5459278e-006 17:0.61068207 20:3.761797 42:0.072937623 58:0.056805961 
-0 -0 10 0 0 1:1 5:1 8:1 14:1.9133804e-006 17:1.0678029 20:3.0835438 42:0.059786957 58:0.04656383 
-0 -0 10 0 0 1:1 5:1 8:1 14:9.0490295e-007 17:1.1387806 20:1.6505022 42:0.032001652 58:0.024923822 
-0 -0 10 0 0 1:1 5:1 8:1 14:7.313609e-007 17:1.081961 20:2.2601438 42:0.030404929 58:0.023680247 
-0 -0 10 0 0 1:1 5:1 8:1 14:5.1967851e-007 17:1.081961 20:2.952137 42:0.030404929 58:0.023680247 
-0 -0 10 0 0 1:1 5:1 8:1 14:2.2279897e-007 17:1.3498986 20:2.1355243 42:0.021994393 58:0.017129874 
-0 -0 10 0 0 1:1 5:1 8:1 14:2.7180559e-007 17:1.6468209 20:3.2972445 42:0.026832255 58:0.020897744 
-0 -0 10 0 0 1:1 5:1 8:1 17:1.4533142 20:3.6018016 42:0.023679381 58:0.018442193 
-0 -0 10 0 0 1:1 5:1 8:1 17:1.2825453 20:3.870573 42:0.02089674 58:0.016275177 
-0 -0 10 0 0 1:1 5:1 8:1 17:1.1318423 20:4.1077619 42:0.018441308 58:0.014362795 
-0 -0 10 0 0 1:1 5:1 8:1 17:0.28617454 20:1.730598 42:0.004662693 58:0.0036314146 
-10 -0 10 10 10 1:1 5:1 8:1 17:0.030162573 20:0.87439746 42:0.00049143605 58:0.00038274829 
-0 -0 10 0 0 1:1 5:1 8:1 17:0.026618378 20:1.4636462 42:0.00043369079 58:0.00033776692 
-0 -0 10 0 0 1:1 5:1 8:1 17:0.020730413 20:1.8318822 42:0.00033775871 58:0.00026304676 
-0 -0 10 0 0 1:1 5:1 8:1 17:0.58222294 20:1.3251516 42:0.00024432875 
-0 -0 10 0 0 1:1 5:1 8:1 17:1.0810368 20:1.1692743 42:0.00021561937 
-0 -0 10 0 0 1:1 5:1 8:1 17:0.70591366 20:1.4555262 
-0 -0 10 0 0 1:1 5:1 8:1 17:1.1458642 20:1.1929462 
-0 -0 10 0 0 1:1 5:1 8:1 17:1.5784484 20:1.0526034 
-0 -0 10 0 0 1:1 5:1 8:1 17:1.7965238 20:0.81963754 
-0 -0 10 0 0 1:1 5:1 8:1 17:2.191685 20:1.6917371 
-0 -0 10 0 0 1:1 5:1 8:1 17:1.9663612 20:1.0798604 
-0 -0 10 0 0 1:1 5:1 8:1 17:2.0986304 20:0.84090602 
-0 -0 10 0 0 1:1 5:1 8:1 17:2.5602429 20:1.7176324 
-0 -0 10 0 0 1:1 5:1 8:1 17:2.4192619 20:1.2422606 
-0 -0 10 0 0 1:1 5:1 8:1 17:2.9513998 20:2.2071626 
-10 -10 10 10 10 1:1 5:1 8:1 14:1.7898387 20:1.8037022 
-10 -9.357025258707983 0 10 10 1:1 5:1 8:1 14:1.7896339 20:2.4956956 
-10 -0 10 10 10 1:1 5:1 8:1 14:0.95779794 20:2.0278432 
-10 -0 0 10 10 1:1 5:1 8:1 14:0.65818757 20:2.0857086 
-10 -0 0 0 10 1:1 5:1 8:1 14:0.5807516 20:2.5326245 
-10 -0 0 0 10 1:1 5:1 8:1 14:0.58054674 20:3.2246177 
-10 -0 0 0 10 1:1 5:1 8:1 14:0.45194936 20:3.2033286 
-10 -0 0 0 10 1:1 5:1 8:1 14:0.35181895 20:3.1867485 
-0 -0 8.245648404885307 0 5.133355748425541 1:1 5:1 8:1 14:0.27376476 20:3.173835 
-0 -0 10 0 0 1:1 5:1 8:1 14:0.27350172 20:3.8658285 
-0 -0 10 0 0 1:1 5:1 8:1 14:0.16568235 20:3.0367372 
-0 -0 1.702673236068575 0 0 1:1 5:1 8:1 14:0.11371215 20:2.7791104 
-10 -0 10 10 10 1:1 5:1 8:1 14:1.5873042e-005 20:0.69238222 
-10 -0 10 1.218463655636238 10 1:1 5:1 8:1 14:1.088409e-005 20:1.1678606 
-0 -0 10 0 10 1:1 5:1 8:1 14:5.8104988e-006 20:1.3171041 
-0 -0 10 0 0 1:1 5:1 8:1 14:3.5089122e-006 20:1.4908578 
-0 -0 10 0 6.225860807390109 1:1 5:1 8:1 14:1.6492849e-006 20:1.3962246 
-0 -0 8.033355689818093 0 0 1:1 5:1 8:1 14:9.713516e-007 20:2.0777721 
-0 -0 4.019334868781245 0 0 1:1 5:1 8:1 14:6.5226533e-007 20:2.1200237 
-10 -0 10 10 10 1:1 5:1 8:1 14:2.8823931e-011 20:0.69208974 
-0 -0 10 0 10 1:1 5:1 8:1 14:2.4289237e-011 20:1.3027605 
-0 -0 3.320567583019364 0 0 1:1 5:1 8:1 14:1.9290814e-011 20:1.8416755 
-0 -0 5.348063569899191 0 0 1:1 5:1 8:1 14:1.0828488e-011 20:1.9577576 
-0 -0 10 0 0 1:1 5:1 8:1 14:3.1200292e-012 20:2.648221 
-0 -0 10 0 0 1:1 5:1 8:1 14:3.1200292e-012 20:3.3402145 
-0 -0 10 0 0 1:1 5:1 8:1 20:3.6397221 
-0 -0 10 0 0 1:1 5:1 8:1 20:4.3317156 
-0 -0 10 0 0 1:1 5:1 8:1 20:4.065537 
-0 -0 10 0 0 1:1 5:1 8:1 20:4.2798176 
-0 -1.400663907976795 10 0 0 1:1 5:1 8:1 20:4.9718118 
-0 -0 10 0 0 1:1 5:1 8:1 20:4.564043 
-0 -0 10 0 0 1:1 5:1 8:1 20:2.8478951 
-0 -0 10 0 0 1:1 5:1 8:1 20:2.9099369 
-0 -0 10 0 0 1:1 5:1 8:1 20:2.6919615 
-0 -0 10 0 0 1:1 5:1 8:1 20:3.0676413 
-0 -0 10 0 0 1:1 5:1 8:1 20:3.3991771 
-0 -0 10 0 0 1:1 5:1 8:1 20:3.0282114 
-0 -0 10 0 0 1:1 5:1 8:1 20:3.3643806 
-0 -0 10 0 0 1:1 5:1 8:1 20:3.6610489 
-0 -0 10 0 0 1:1 5:1 8:1 20:3.9228573 
-0 -0 10 0 0 1:1 5:1 8:1 20:3.3881319 
-0 -0 10 0 0 1:1 5:1 8:1 20:3.0206203 
-0 -0 10 0 0 1:1 5:1 8:1 20:3.0444541 
-0 -0 10 0 0 1:1 5:1 8:1 20:3.3787143 
-0 -0 10 0 0 1:1 5:1 8:1 20:3.3233397 
-0 -0 10 0 0 1:1 5:1 8:1 20:3.2802122 
-0 -0 10 0 0 1:1 5:1 8:1 20:3.2466245 
-0 -0 10 0 0 1:1 5:1 8:1 20:3.5556161 
-0 -0 10 0 0 1:1 5:1 8:1 20:3.8283005 
-0 -0 10 0 0 1:1 5:1 8:1 20:3.6721406 
-0 -0 10 0 0 1:1 5:1 8:1 20:3.9309309 
-0 -0 10 0 0 1:1 5:1 8:1 20:4.1590838 
-0 -0 10 0 0 1:1 5:1 8:1 20:2.6555655 
-0 -0 10 0 0 1:1 5:1 8:1 20:3.3465183 
-0 -0 0 7.880785592329261 4.509943938673023 3:1 5:1 11:1 17:1.7650847 20:1.5543122 
-0 -0 8.63407945009395 0 0 3:1 5:1 11:1 17:2.153331 20:2.5881903 
-0 -0 1.31883425543042 0 0 0:1 5:1 11:1 17:2.3461995 20:3.9260445 
-0 -4.506298889965493 0 0 0 0:1 5:1 11:1 17:1.6125176 20:4.5399289 
-0 -4.421625827198591 0 0 0 0:1 5:1 11:1 17:1.5966302 20:2.8982129 
-0 -3.870623621821371 0 0 0 0:1 5:1 10:1 17:2.1063306 20:2.9342432 
-0 -0 9.799382807302708 0 0 0:1 5:1 10:1 17:2.5696366 20:4.2716498 
-0 -0 10 0 0 1:1 5:1 8:1 17:1.7683111 20:3.5173678 
-0 -0 10 0 0 1:1 5:1 8:1 17:0.44709909 20:1.5736361 
-0 -0 10 0 0 1:1 5:1 8:1 17:0.38777947 20:2.0807223 
-10 -0 10 10 10 1:1 5:1 8:1 17:0.5690794 20:0.010141676 
-10 -0 10 0 10 1:1 5:1 8:1 17:0.69425368 20:0.70431417 
-9.005459762235613 -0 10 0 10 1:1 5:1 8:1 17:1.0693952 20:0.50948834 
-0 -0 10 0 0 1:1 5:1 8:1 17:1.1513216 20:1.2404617 
-0 -0 10 0 0 1:1 5:1 8:1 17:0.69831187 20:1.4443361 
-0 -0 10 0 0 1:1 5:1 8:1 17:0.6162225 20:1.9666156 
-0 -0 10 0 0 1:1 5:1 8:1 17:1.0129913 20:1.4225895 
-0 -0 10 0 0 1:1 5:1 8:1 17:1.4611629 20:1.2554309 
-0 -0 10 0 0 1:1 5:1 8:1 17:1.7825587 20:2.2235358 
-0 -0 10 0 0 1:1 5:1 8:1 17:1.3882303 20:2.4236851 
-0 -0 10 0 0 1:1 5:1 8:1 17:1.225109 20:2.830863 
-0 -0 10 0 0 1:1 5:1 8:1 17:1.0811273 20:3.1902218 
-0 -0 10 0 0 1:1 5:1 8:1 17:0.74304712 20:2.884577 
-0 -0 0.5922040462970082 0 0 1:1 5:1 10:1 17:3.5816438 20:3.1404271 
-5.299975495187825 -0 0 10 10 1:1 5:1 10:1 17:0.027346186 20:0.74722689 
-0 -0 10 0 0 1:1 5:1 8:1 17:0.0015427643 20:2.448055 
-0 -0 10 0 0 1:1 5:1 8:1 17:0.0013614828 20:2.8523946 
-0 -0 10 0 0 1:1 5:1 8:1 17:0.0011428107 20:3.2092226 
-10 -0 10 0 10 1:1 5:1 8:1 17:0.00016505626 20:1.1841439 
-0 -0 2.899151795933396 0 0 1:1 5:1 8:1 17:0.00012060263 20:1.6142056 
-0 -0 10 0 0 1:1 5:1 8:1 17:5.9094567e-005 20:2.0949361 
-0 -0 10 0 0 1:1 5:1 8:1 17:5.2150775e-005 20:2.5407634 
-0 -0 10 0 0 1:1 5:1 8:1 17:3.6363308e-005 20:2.6707418 
-0 -0 10 0 0 1:1 5:1 8:1 17:1.6885057e-005 20:2.1215389 
-0 -0 10 0 0 1:1 5:1 8:1 17:5.1366528e-006 20:2.6220679 
-0 -0 10 0 0 1:1 5:1 8:1 17:2.7822814e-006 20:2.7340624 
-0 -0 10 0 0 1:1 5:1 8:1 17:2.7822814e-006 20:3.4260547 
-10 -0.08535934604642448 -2.668682270454945 10 10 2:1 6:1 8:1 14:0.96882945 20:0.95099068 42:0.74897105 58:2.9215622 
-10 -0 -0 10 10 2:1 6:1 8:1 14:0.063262954 20:0.062100206 42:0.11753567 58:0.1907796 
-10 -0 -0 10 10 2:1 6:1 8:1 14:0.56292444 20:1.2445928 42:1.0458922 58:1.6976544 
-10 -0 -0 10 10 2:1 6:1 8:1 14:1.4459722 20:1.1464607 42:0.96342707 58:1.5637995 
-10 -0 -0 10 10 2:1 6:1 8:1 14:1.7014158 20:0.61365616 42:0.51568538 58:0.83704156 
-10 -0 -0 10 10 2:1 6:1 8:1 14:2.0963094 20:0.42175928 42:0.35442501 58:0.57528979 
-10 -0 -0 10 10 2:1 6:1 8:1 14:2.7767859 20:0.37220126 42:0.31277895 58:0.50769144 
-10 -0 -0 10 10 2:1 6:1 8:1 14:2.6109176 20:0.22575147 42:0.18971002 58:0.30793038 
-10 -0 -0 10 10 2:1 6:1 8:1 14:3.2308383 20:0.19922498 42:0.16741849 58:0.27174762 
-10 -0 -0 10 10 2:1 6:1 8:1 14:3.7780044 20:0.1758154 42:0.14774631 58:0.23981641 
-10 -0 -0 10 10 2:1 6:1 8:1 14:3.2189336 20:0.10612448 42:0.08961267 58:0.145456 
-10 -0 -0 10 10 2:1 6:1 8:1 14:3.7681568 20:0.093654528 42:0.078569941 58:0.12836449 
-10 -0 -0 10 10 2:1 6:1 8:1 14:3.8617022 20:0.072938219 42:0.061190329 58:0.099970363 
-10 -0 -0 10 10 2:1 6:1 8:1 14:3.9349544 20:0.05680434 42:0.04765508 58:0.077545866 
-10 -0 -0 10 10 2:1 6:1 8:1 14:3.9920034 20:0.043964699 42:0.037113816 58:0.06039279 
-10 -0 -0 10 10 2:1 6:1 8:1 14:4.0364337 20:0.034239739 42:0.028661961 58:0.047033951 
-10 -0 -0 10 10 2:1 6:1 8:1 14:2.2378964 20:0.011116017 42:0.0093051763 58:0.015180548 
-10 -0 -0 10 10 2:1 6:1 8:1 14:2.6703331 20:0.008657163 42:0.007246878 58:0.011753201 
-10 -0 -0 10 10 2:1 6:1 8:1 14:2.1888342 20:0.0040893541 42:0.0034231832 58:0.0055146599 
-10 -0 -0 10 10 2:1 6:1 8:1 14:2.8590972 20:0.0036088424 42:0.0030209483 58:0.0048245639 
-10 -0 -0 10 10 2:1 6:1 8:1 14:3.154125 20:0.002810569 42:0.0023527169 58:0.0037152676 
-10 -0 -0 10 10 2:1 6:1 8:1 14:3.7109637 20:0.0024803183 42:0.0020762654 58:0.0029261585 
-10 -0 -0 10 10 2:1 6:1 8:1 14:2.1322317 20:0.00080524152 42:0.00067406474 58:0.00082028727 
-10 -0 -0 10 10 2:1 6:1 8:1 14:2.8091462 20:0.00071062316 42:0.00059486006 58:0.00059420377 
-10 -0 -0 10 10 2:1 6:1 8:1 14:2.4310851 20:0.00038036914 42:0.00031840563 58:0.00022891483 
-10 -0 -0 10 10 2:1 6:1 8:1 14:2.8207889 20:0.0002962318 42:0.00024797453 58:8.9139525e-005 
-10 -0 -0 10 10 2:1 6:1 8:1 14:2.2599044 20:0.00013992999 42:0.00011713488 
-10 -0 -0 10 10 2:1 6:1 8:1 14:2.4806659 20:9.6172385e-005 42:4.7712947e-005 
-10 -0 -0 10 10 2:1 6:1 8:1 14:3.1166384 20:4.7712947e-005 42:4.2106531e-005 
-10 -0 -0 10 10 2:1 6:1 8:1 14:3.6778486 20:4.2106531e-005 42:3.7158883e-005 
-10 -0 -0 10 10 2:1 6:1 8:1 14:0.92758799 20:1.4887817e-009 
-10 -0 -0 10 10 2:1 6:1 8:1 14:1.7460514 
-10 -0 -0 10 10 2:1 6:1 8:1 14:1.1952236 
-10 -0 -0 10 10 2:1 6:1 8:1 14:1.9822392 
-10 -0 -0 10 10 2:1 6:1 8:1 14:0.92746079 
-10 -0 -0 10 10 2:1 6:1 8:1 14:1.7459391 
-10 -0 -0 10 10 2:1 6:1 8:1 14:1.427678 
-10 -0 -0 10 10 2:1 6:1 8:1 14:2.0393348 
-10 -0 -0 10 10 2:1 6:1 8:1 14:1.0751868 
-10 -0 -0 10 10 2:1 6:1 8:1 14:1.8763071 
-10 -0 -0 10 10 2:1 6:1 8:1 14:2.583293 
-10 -0 -0 10 10 2:1 6:1 8:1 14:2.9393289 
-10 -0 -0 10 10 2:1 6:1 8:1 14:2.9476273 
-10 -0 -0 10 10 2:1 6:1 8:1 14:3.5287297 
-10 -0 -0 10 10 2:1 6:1 8:1 14:4.0415511 
-10 -2.605494884835946 -0 10 10 2:1 6:1 8:1 14:4.0750213 
-10 -0 -0 10 10 2:1 6:1 8:1 14:3.7281764 
-10 -10 -1.38360360922631 10 10 2:1 6:1 8:1 14:4.2175622 
-10 -0 -0 10 10 2:1 6:1 8:1 14:2.9196937 
-10 -0 -0 10 10 2:1 6:1 8:1 14:3.5040781 
-10 -0 -0 10 10 2:1 6:1 8:1 14:3.0527885 
-10 -0 -0 10 10 2:1 6:1 8:1 14:3.6215348 
-10 -0 -0 10 10 2:1 6:1 8:1 14:2.4371386 
-10 -0 -0 10 10 2:1 6:1 8:1 14:3.0782251 
-10 -0 -0 10 10 2:1 6:1 8:1 14:3.3247824 
-10 -0 -0 10 10 2:1 6:1 8:1 14:3.5168011 
-10 -0 -0 10 10 2:1 6:1 8:1 14:3.3445177 
-10 -0 -0 10 10 2:1 6:1 8:1 14:3.878984 
-10 -0 -4.973162696481517 10 10 2:1 6:1 8:1 14:0.10455959 16:0.025 
-10 -0 -3.453014172836817 10 10 2:1 6:1 8:1 14:4.8064427 16:0.92745805 
-10 -0 -0 10 10 2:1 6:1 8:1 14:2.7929158 16:0.53892505 20:0.69199347 
-10 -2.99744398393534 -0 10 10 2:1 6:1 8:1 14:4.2308741 16:0.63743198 20:0.81847882 
-10 -10 -10 0 10 1:1 5:1 8:1 14:0.37039742 20:1.7782753 
-10 -2.907495329741498 -10 0 10 1:1 5:1 8:1 14:0.32687455 20:2.2613158 
-10 -0 -10 0 10 1:1 5:1 8:1 14:0.2884658 20:2.6875975 
-10 -0 -10 10 10 1:1 5:1 8:1 14:0.1116936 17:0.56722689 20:1.0406344 
-10 -0 -10 0 10 1:1 5:1 8:1 14:0.098569252 17:1.0678029 20:0.91835678 
-0 -0 -10 0 0 1:1 5:1 8:1 14:0.082646839 17:0.89531493 20:1.4620031 
-0 -0 -10 0 0 1:1 5:1 8:1 14:0.082646839 17:0.89531493 20:2.1539967 
-0 -0 -10 0 10 1:1 5:1 8:1 14:0.039039601 17:0.42291683 20:1.7094693 
-0 -0 -10 0 0 1:1 5:1 8:1 14:0.030404072 17:0.329368 20:2.0233295 
-10 -0 -10 10 10 1:1 5:1 8:1 14:9.3006758e-009 17:1.0075443e-007 20:0.69199401 
-10 -0 -10 10 10 1:1 5:1 8:1 14:6.3922552e-009 17:6.9247434e-008 20:1.1675935 
-10 -0 -10 10 10 1:1 5:1 8:1 14:3.6012102e-009 17:0.56722689 20:0.65778822 
-0 -0 -10 0 9.501322444828279 1:1 5:1 8:1 14:3.8770986e-009 17:0.61068207 20:1.4001749 
-0 -0 -10 0 0 1:1 5:1 8:1 14:3.8770986e-009 17:0.61068207 20:2.0921681 
-0 -0 -10 0 0 1:1 5:1 8:1 14:2.475073e-009 17:0.95707583 20:1.3356042 
-10 -0 -10 5.91253647800177 10 1:1 5:1 8:1 14:9.8028408e-010 17:0.379062 20:1.2209764 
-0 -0 -10 0 10 1:1 5:1 8:1 14:8.0353862e-010 17:0.87794387 20:1.0008341 
-0 -0 -10 0 0 1:1 5:1 8:1 14:7.0912032e-010 17:1.3420098 20:0.88323295 
-0 -0 -10 0 0 1:1 5:1 8:1 14:7.6344597e-010 17:1.444821 20:1.6428908 
-0 -0 -10 0 0 1:1 5:1 8:1 14:6.7373873e-010 17:1.2750499 20:2.1418395 
-0 -0 -10 0 0 1:1 5:1 8:1 14:5.9457234e-010 17:1.1252277 20:2.58216 
-0 -0 -10 0 0 1:1 5:1 8:1 14:4.8737075e-010 17:1.4895757 20:2.1165962 
-0 -0 -10 0 0 1:1 5:1 8:1 14:5.2470828e-010 17:1.6036921 20:2.9707415 
-0 -0 -10 0 0 1:1 5:1 8:1 14:4.630534e-010 17:1.4152532 20:3.3136637 
-0 -0 -10 0 0 1:1 5:1 8:1 14:3.3496472e-010 17:1.5909963 20:2.3970468 
-10 -1.903451870469884 -10 10 10 1:1 5:1 8:1 14:4.5332547e-011 17:0.78254485 20:0.32440495 
-0 -0 -10 0 0 1:1 5:1 8:1 17:0.95467257 20:1.0877542 
-0 -0 -10 0 0 1:1 5:1 8:1 17:0.95467257 20:1.7797477 
-0 -0 -10 0 0 1:1 5:1 8:1 17:0.8424955 20:2.262615 
-0 -0 -10 0 0 1:1 5:1 8:1 17:1.2578202 20:1.8546652 
-0 -0 -10 0 0 1:1 5:1 8:1 17:1.3541819 20:2.6887441 
-0 -0 -10 0 0 1:1 5:1 8:1 17:1.0546378 20:2.7859898 
-0 -0 -10 0 0 1:1 5:1 8:1 17:0.63967025 20:2.3817821 
-0 -0 -10 0 0 1:1 5:1 8:1 17:0.56450695 20:2.7939084 
-0 -0 -10 0 0 1:1 5:1 8:1 17:0.49817559 20:3.157609 
-0 -0 -10 0 0 1:1 5:1 8:1 17:0.49817559 20:3.8496025 
-0 -0 -10 0 0 1:1 5:1 8:1 17:0.43963847 20:4.0892558 
-0 -0 -10 0 0 1:1 5:1 8:1 17:0.38797966 20:4.3007493 
-0 -0 -10 0 0 1:1 5:1 8:1 17:0.38797966 20:4.9918251 
-0 -2.115015107822841 -10 0 5.345393260068645 1:1 5:1 8:1 17:0.34239078 20:5.0960836 
-0 -0 -10 0 0 1:1 5:1 8:1 17:0.14201468 20:2.8163569 
-0 -0 -10 0 0 1:1 5:1 8:1 17:0.14201468 20:3.50754 
-0 -0 -10 0 0 1:1 5:1 8:1 17:0.12532751 20:3.7866719 
-0 -0 -10 0 0 1:1 5:1 8:1 17:0.085505255 20:3.2945333 
-0 -0 -10 0 0 1:1 5:1 8:1 17:0.075458109 20:3.5976934 
-0 -0 -10 0 0 1:1 5:1 8:1 17:0.073742829 20:4.2896867 
-0 -0 -10 0 0 1:1 5:1 8:1 17:0.055917241 20:4.0328045 
-0 -0 -10 0 0 1:1 5:1 8:1 17:0.04354839 20:3.8314085 
-0 -0 -10 0 0 1:1 5:1 8:1 17:0.03843132 20:4.0718632 
-0 -0 -10 0 0 1:1 5:1 8:1 17:0.59176075 20:2.5984418 
-0 -0 -10 0 0 1:1 5:1 8:1 17:1.0886012 20:2.2931168 
-0 -0 -10 0 0 1:1 5:1 8:1 17:0.71085322 20:2.1887608 
-0 -0 -10 0 0 1:1 5:1 8:1 17:0.48856178 20:2.1958134 
-0 -0 -10 0 0 1:1 5:1 8:1 17:0.48800492 20:2.8878067 
-0 -0 -10 0 0 1:1 5:1 8:1 17:0.37685406 20:2.9410198 
-0 -0 -10 0 0 1:1 5:1 8:1 17:0.33257255 20:3.2846067 
-0 -0 -10 0 0 1:1 5:1 8:1 17:0.29349425 20:3.5881522 
-0 -0 -10 0 0 1:1 5:1 8:1 17:0.25900775 20:3.8560307 
-0 -0 -10 0 0 1:1 5:1 8:1 17:0.19977176 20:3.6950734 
-0 -0 -10 0 0 1:1 5:1 8:1 17:0.17629796 20:3.9509406 
-0 -0 -10 0 0 1:1 5:1 8:1 17:0.15558241 20:4.1764827 
-0 -0 -10 0 0 1:1 5:1 8:1 17:0.137301 20:4.3745222 
-0 -0 -10 0 0 1:1 5:1 8:1 17:0.1211677 20:4.5492911 
-0 -0 -10 0 0 1:1 5:1 8:1 17:0.064856395 20:3.1251104 
-0 -0 -10 0 0 1:1 5:1 8:1 17:0.057235569 20:3.4481781 
-10 -0 -10 10 10 1:1 5:1 8:1 17:0.0087773595 20:1.2204907 
-10 -0 -10 0 10 1:1 5:1 8:1 17:0.0077459924 20:1.7687746 
-0 -0 -10 0 10 1:1 5:1 8:1 17:0.0068358141 20:2.2526684 
-0 -0 -10 0 0 1:1 5:1 8:1 17:0.0053237374 20:2.4461412 
-10 -0 -10 0 10 1:1 5:1 8:1 17:0.0025147554 20:1.8472059 
-0 -0 -10 0 10 1:1 5:1 8:1 17:0.0022192639 20:2.3219142 
-0 -0 -10 0 0 1:1 5:1 8:1 17:0.0019584936 20:2.7408433 
-0 -0 -10 0 0 1:1 5:1 8:1 17:0.0017283645 20:3.1104815 
-0 -0 -10 0 0 1:1 5:1 8:1 17:0.0013460516 20:3.1141758 
-0 -0 -10 0 0 1:1 5:1 8:1 17:0.00092512683 20:2.8321524 
-0 -0 -10 0 0 1:1 5:1 8:1 17:0.00092512683 20:3.5239134 
-0 -0 -10 0 0 1:1 5:1 8:1 17:0.00081642158 20:3.8015728 
-0 -0 -10 0 0 1:1 5:1 8:1 17:0.56774807 20:2.4266689 
-0 -0 -10 0 0 1:1 5:1 8:1 17:0.69233125 20:3.6524296 
-0 -0 -10 0 0 1:1 5:1 8:1 17:0.61068207 20:3.9152508 
-0 -0 -10 0 0 1:1 5:1 8:1 17:1.0089836 20:2.8318212 
-0 -0 -10 0 0 1:1 5:1 8:1 17:1.1792064 20:1.7172312 
-0 -0 -10 0 0 1:1 5:1 8:1 17:1.4855937 20:1.3371041 
-0 -0 -10 0 0 1:1 5:1 8:1 17:1.7242085 20:1.0410607 
-0 -0 -10 0 0 1:1 5:1 8:1 17:2.1034634 20:1.9616621 
-0 -0 -10 0 0 1:1 5:1 8:1 17:2.1034634 20:2.6532221 
-0 -0 -10 0 0 1:1 5:1 8:1 17:1.9100418 20:1.6934575 
-0 -0 -10 0 0 1:1 5:1 8:1 17:2.05637 20:2.5147531 
-0 -0 -10 0 0 1:1 5:1 8:1 17:1.1006956 20:2.0377805 
-0 -0 -10 0 0 1:1 5:1 8:1 17:0.85722256 20:2.2787862 
-0 -0 -10 0 0 1:1 5:1 8:1 17:0.66760558 20:2.4665093 
-0 -0 -10 0 0 1:1 5:1 8:1 17:0.58915991 20:2.8684752 
-0 -0 -10 0 0 1:1 5:1 8:1 17:0.58915991 20:3.560086 
-10 -0 -10 10 10 1:1 5:1 8:1 17:0.003969728 20:0.71597832 
-10 -0 -10 10 10 1:1 5:1 8:1 17:0.0035032725 20:1.3238251 
-10 -0 -10 10 10 1:1 5:1 8:1 17:4.4099692e-005 20:0.70865774 
-10 -0 -10 10 10 1:1 5:1 8:1 17:3.4344874e-005 20:1.2438965 
-10 -0 -10 0 10 1:1 5:1 8:1 17:3.0309246e-005 20:1.7897283 
-0 -0 -10 0 10 1:1 5:1 8:1 17:2.3604864e-005 20:2.0858343 
-0 -0 -10 0 0 1:1 5:1 8:1 17:2.0831218e-005 20:2.5327361 
-10 -0 -0 10 10 2:1 6:1 8:1 14:0.96468407 20:2.2613158 
-10 -0 -0 0 2.560150018973936 2:1 6:1 8:1 14:0.75095898 20:2.4531078 
-0 -0 -0 7.655749483694168 0 2:1 6:1 8:1 14:0.54298609 17:0.56722689 20:1.7745355 
-0 -0 -0 10 10 2:1 6:1 8:1 14:0.047710162 17:0.10693012 20:1.3567467 
-0 -0 -0 10 10 2:1 6:1 8:1 14:0.017523866 17:0.039337393 20:1.1911126 
-0 -0 -0 10 10 2:1 6:1 8:1 14:0.010576965 17:0.023859335 20:1.4144399 
-6.459215186712036 -0 -0 10 10 2:1 6:1 9:1 17:0.017753117 20:0.17518067 25:1.178406 
-0 -0 -0 10 10 2:1 6:1 9:1 17:0.012169938 20:0.12039977 25:1.5983673 
-0 -0 -0 10 10 2:1 6:1 9:1 17:0.0082938634 20:0.77428859 25:1.0925076 
-0 -0 -0 10 0 2:1 6:1 9:1 17:0.0064592678 20:1.2949884 25:0.85084581 
-0 -0 -7.250280078806856 0 0 2:1 6:1 9:1 17:0.0020970171 20:1.812548 25:0.53079939 
-0 -0 -0 8.014750269727166 0 2:1 6:1 9:1 17:0.56874382 20:1.3110175 25:0.38397098 
-0 -0.07938775201026621 -0 0 0 2:1 6:1 9:1 17:3.158319 20:2.5411041 25:0.11843734 
-0 -4.661165954033847 -0 0 0 2:1 6:1 8:1 17:0.36943409 20:4.9131885 
-10 -0 -0 10 10 2:1 6:1 8:1 17:0.0013323874 20:0.70969164 
-0 -0 -0 10 10 2:1 6:1 8:1 17:0.0011513606 20:1.318294 
-0 -0 -0 10 0 2:1 6:1 8:1 17:0.00027416527 20:1.6869829 
-0 -0 -10 0 0 2:1 6:1 8:1 17:0.00012716114 20:4.2266612 
-0 -0 -3.693528688133295 0 0 2:1 6:1 8:1 17:9.903319e-005 20:3.983711 
-1.157493797559717 -0 -0 7.218107940508133 0 2:1 6:1 8:1 20:0.15556265 25:2.3471236 
-0 -0 -0 10 0 2:1 6:1 8:1 20:0.95073569 25:0.52083784 
-0 -0 -0 10 0 2:1 6:1 8:1 20:1.5305811 25:0.45963779 
-10 -0 -0 10 10 2:1 6:1 8:1 17:0.0036605215 20:0.92021835 25:0.054868612 
-0 -0 -0 10 0 2:1 6:1 8:1 17:0.003230399 20:1.5038508 25:0.048421383 
-10 -0 -0 10 10 2:1 6:1 8:1 17:0.00081677269 20:1.0721411 25:0.012242843 
-0 -0 -0 10 0 2:1 6:1 8:1 17:0.00072079938 20:1.6380581 25:0.010804271 
-0 -0 -0 10 0 2:1 6:1 8:1 17:0.00049539772 20:1.8177378 25:0.0074256598 
-0 -0 -0 10 0 2:1 6:1 8:1 20:1.7016995 25:0.00041892703 
-0 -0.1928313762152248 -0.4910241915895159 0 0 2:1 6:1 8:1 20:0.14850551 25:4.3709974 
-0 -0 -0 -0 10 2:1 6:1 8:1 14:1.6497631 20:1.4559108 34:0.25299937 42:1.2187376 50:1.6472908 54:0.20184499 58:1.4705473 
-0 -0 -0 -10 10 2:1 6:1 8:1 14:0.04447002 16:0.025 20:0.039244656 34:0.006819699 42:0.032851554 50:0.044403378 54:0.0054402757 58:0.039639186 
-0 -0 -0 -0 10 2:1 6:1 8:1 14:4.1640868 16:0.16116804 20:0.25299937 34:0.043964699 42:0.21178484 50:0.26913965 54:0.010303129 58:0.25554278 
-0 -0 -0 -0 10 2:1 6:1 8:1 14:3.7893903 16:0.11076907 20:0.17388374 34:0.030216467 42:0.14555743 50:0.1849768 58:0.17563182 
-10 -0 -0 -10 10 2:1 6:1 8:1 14:0.92745805 16:1.6538871e-011 20:2.5962491e-011 34:4.5116042e-012 42:2.1733105e-011 50:2.313918e-011 58:2.6223496e-011 
-10 -0 -0 -2.243017440232929 9.160733348280695 2:1 6:1 8:1 14:1.7459369 16:1.4595502e-011 20:2.2911818e-011 34:2.2382927e-012 42:1.9179398e-011 50:2.0420252e-011 58:2.314215e-011 
-0 -0 -0 -0 10 2:1 6:1 8:1 14:2.4682419 16:1.2880485e-011 20:2.0219607e-011 42:1.6925759e-011 50:1.8020811e-011 58:2.0422877e-011 
-0 -0 -0 -0 10 2:1 6:1 8:1 14:3.1056738 16:1.1366989e-011 20:1.7843742e-011 42:1.493693e-011 50:1.3665017e-011 58:1.8023126e-011 
-0 -0 -0 -0 10 2:1 6:1 8:1 14:2.3944745 16:5.3693851e-012 20:8.4287872e-012 42:7.0557063e-012 50:5.2568249e-012 58:8.5135215e-012 
-0 -0.01431488283014494 -0 -0 10 2:1 6:1 8:1 14:3.0405741 16:4.7384657e-012 20:7.438378e-012 42:6.226639e-012 50:3.2815387e-012 58:7.5131568e-012 
-0 -0 -0 -0 10 2:1 6:1 8:1 14:2.7716594 16:2.8740248e-012 20:4.5116042e-012 42:3.7766474e-012 50:1.9903541e-012 58:3.7335382e-012 
-0 -0 -0 -0 10 2:1 6:1 8:1 14:3.3734391 16:2.5363179e-012 20:3.9814766e-012 42:3.3328795e-012 50:1.7564812e-012 58:2.4714139e-012 
-0 -0 -0 -0 10 2:1 6:1 8:1 14:4.3008971 16:2.5363179e-012 20:3.9814766e-012 42:3.3328795e-012 50:9.3305929e-013 58:2.4714139e-012 
-0 -0.04270827758495779 -0 -0 10 2:1 6:1 8:1 14:4.2770004 16:1.9752863e-012 20:3.1007774e-012 42:2.5956494e-012 58:1.924739e-012 
-10 -0 -0 -10 10 2:1 6:1 8:1 14:4.7018981 16:1.7431842e-012 20:2.7364265e-012 42:2.2906525e-012 58:1.0572947e-012 
-10 -0 -0 -6.138374159193659 10 2:1 6:1 8:1 14:5.0768685 16:1.5383546e-012 20:2.4148877e-012 42:1.1980718e-012 58:9.3305929e-013 
-10 -0.03476647539429866 -0 -10 10 2:1 6:1 8:1 14:4.8813272 16:1.1980718e-012 20:1.8807165e-012 42:9.3305929e-013 
-10 -1.353983767109306 -0 -0 10 2:1 6:1 8:1 14:5.2352138 16:1.0572947e-012 20:9.3305929e-013 42:8.234219e-013 
-0 -0 -0 -10 10 2:1 6:1 8:1 14:4.5255647 16:7.2666726e-013 20:6.4128162e-013 42:5.6592903e-013 
-4.069173019265473 -0.02108192510141664 -0 -0 10 2:1 6:1 8:1 14:4.0378294 16:4.9943058e-013 20:4.4074596e-013 
-6.937775604924257 -0 -0 -0 0 2:1 6:1 8:1 14:1.9483812 16:1.2627583e-013 
-0 -0 -0 -0 10 2:1 6:1 8:1 14:2.6468983 16:1.1143803e-013 
-0 -0.1659970588152474 -0 -0 10 2:1 6:1 8:1 14:2.5328827 
-0 -0.07655628922967202 -0 -0 10 2:1 6:1 8:1 14:3.1627192 
-0 -0.1095250940762994 -0 -0 10 2:1 6:1 8:1 14:3.7185481 
-10 -0.03486973637295946 -0 -0 10 2:1 6:1 8:1 14:4.2090654 
-5.97195780327568 -0.05452348982195352 -0 -10 10 2:1 6:1 8:1 14:4.6419458 
-0 -0 -0 -0 10 2:1 6:1 8:1 14:3.4121113 
-0 -0 -0 -0 10 2:1 6:1 8:1 14:2.9970078 
-0 -0 -0 -0 10 2:1 6:1 8:1 14:3.5723085 
-10 -0.01176653170580102 -0 -0 10 2:1 6:1 8:1 14:4.0800099 
-0 -0.02816276675554697 -0 -10 10 2:1 6:1 8:1 14:4.5280547 
-0 -0 -0 -0 10 2:1 6:1 8:1 14:3.3511505 
-0 -0 -0 -0 10 2:1 6:1 8:1 14:3.8845949 
-10 -0 -0 -10 10 2:1 6:1 8:1 14:1.2463025 
-0 -0 -0 -0 10 2:1 6:1 8:1 14:2.7165155 
-0 -0 -0 -0 10 2:1 6:1 8:1 14:2.794457 
-5.573970217384637 -0.1176133216419089 -0 -0 10 2:1 6:1 8:1 14:0.92745805 20:0.72230506 34:0.50995696 40:0.29095036 42:0.56253177 50:2.2526205 58:1.9071087 
-0 -0 -0 -10 10 2:1 6:1 8:1 14:0.068627454 20:0.053447116 34:0.037734374 40:0.021248467 42:0.11025211 50:0.16668312 58:0.1411169 
-0 -0 -0 -4.093188666687763 10 2:1 6:1 8:1 14:0.61068207 20:1.1675932 34:0.33577973 40:0.18625167 42:0.98107946 50:1.4832317 58:1.2557302 
-0 -0 -0 -0 10 2:1 6:1 8:1 14:1.56489 20:1.2187376 34:0.35048798 40:0.19106516 42:1.0240541 50:1.548202 58:1.3107353 
-0 -0 -0 -10 10 2:1 6:1 8:1 14:0.03722569 16:0.025 20:0.028991397 34:0.0083374269 40:0.0044138809 42:0.024360254 50:0.036828712 58:0.031179843 
-0 -0 -0 -0 10 2:1 6:1 8:1 14:2.3084686 16:0.92745805 20:1.0755322 34:0.30930454 40:0.15749842 42:0.90372455 50:1.3662834 58:1.1567198 
-0 -0 -0 -0 10 2:1 6:1 8:1 14:2.7252953 16:0.72230506 20:0.83762527 34:0.24088663 40:0.11098491 42:0.70382136 50:1.0640626 58:0.90085429 
-0 -0 -0 -0 10 2:1 6:1 8:1 14:3.0499201 16:0.56253177 20:0.65234327 34:0.1876027 40:0.074760161 42:0.54813659 50:0.82869279 58:0.70158601 
-0 -0 -0 -0 10 2:1 6:1 8:1 14:3.3027382 16:0.43810016 20:0.50804543 34:0.14610513 40:0.044993795 42:0.42688924 50:0.64538658 58:0.54639578 
-0 -0 -0 -0 6.693757208918904 2:1 6:1 8:1 14:4.230196 16:0.43810016 20:0.50804543 34:0.14610513 40:0.028006807 42:0.42688924 50:0.64538658 58:0.54639578 
-0 -0 -0 -0 10 2:1 6:1 8:1 14:4.660593 16:0.38662204 20:0.44834852 34:0.12893732 40:0.024715919 42:0.37672842 50:0.54773998 58:0.48219252 
-0 -0 -0 -0 10 2:1 6:1 8:1 14:3.5077143 16:0.16116804 20:0.18689945 34:0.043445945 42:0.15704376 50:0.22833197 58:0.20100775 
-0 -0 -0 -0 10 2:1 6:1 8:1 14:3.6592691 16:0.1255178 20:0.14555743 34:0.023532607 42:0.12230581 50:0.17782514 58:0.156545 
-0 -0 -0 -0 10 2:1 6:1 8:1 14:4.1567512 16:0.11076907 20:0.128454 34:0.011674974 42:0.1079345 50:0.1569301 58:0.13815048 
-0 -0 -0 -0 10 2:1 6:1 8:1 14:5.0842094 16:0.11076907 20:0.128454 42:0.1079345 50:0.1569301 58:0.13815048 
-0 -0 -0 -0 10 2:1 6:1 8:1 14:4.8870444 16:0.086267032 20:0.10004007 42:0.084059469 50:0.10898783 58:0.1075917 
-0 -0 -0 -0 10 2:1 6:1 8:1 14:5.2402601 16:0.07613039 20:0.088285051 42:0.074182227 50:0.084506452 58:0.094949342 
-0 -0 -0 -0 10 2:1 6:1 8:1 14:5.5519714 16:0.067184836 20:0.077911288 42:0.065465584 50:0.062901706 58:0.083792508 
-0 -0 -0 -0 10 2:1 6:1 8:1 14:5.2513385 16:0.052323602 20:0.060677368 42:0.050984643 50:0.039895415 58:0.065257668 
-0 -0 -0 -0 10 2:1 6:1 8:1 14:5.5617476 16:0.046175417 20:0.053547591 42:0.044993795 50:0.024904452 58:0.057589687 
-0 -0 -0 -0 10 2:1 6:1 8:1 14:5.2589512 16:0.035961449 20:0.041702904 42:0.035041202 50:0.019395607 58:0.035758413 
-0 -0 -0 -0 10 2:1 6:1 8:1 14:5.0231338 16:0.028006807 20:0.032478258 42:0.027290115 50:0.015105315 58:0.020767452 
-0 -0 -0 -0 10 2:1 6:1 8:1 14:4.8394785 16:0.021811724 20:0.025294092 42:0.021253563 50:0.0062491633 58:0.016173707 
-0 -0 -0 -0 10 2:1 6:1 8:1 14:4.6964478 16:0.016986987 20:0.019699059 42:0.016552292 58:0.012596097 
-0 -0 -0 -0 10 2:1 6:1 8:1 14:4.5850554 16:0.013229479 20:0.015341641 42:0.012890938 58:0.0055148671 
-0 -0 -0 -0 10 2:1 6:1 8:1 14:4.0787172 16:0.0090924781 20:0.010544145 42:0.0055148671 58:0.0037903092 
-0 -0 -0 -10 10 2:1 6:1 8:1 14:4.5269136 16:0.0080240844 20:0.0093051763 42:0.0048668534 
-0 -0 -0 -0 10 2:1 6:1 8:1 14:4.9224443 16:0.0070812297 20:0.0048668534 42:0.0042949826 
-0 -0 -0 -0 10 2:1 6:1 8:1 14:5.2677107 16:0.0062491633 20:0.0042949826 42:0.0037903092 
-0 -0 -0 -10 10 2:1 6:1 8:1 14:5.0299559 16:0.0048668534 20:0.0033449361 
-3.112431975343394 -0 -0 -0 10 2:1 6:1 8:1 14:5.9574137 16:0.0048668534 
-10 -3.500690459761239 -0 -0 10 2:1 6:1 8:1 14:6.1810665 16:0.0042949826 
-10 -0.07133465852442725 -0 -10 10 2:1 6:1 8:1 14:4.6764646 
-10 -0.44185552019604 -0 -10 10 2:1 6:1 8:1 14:0.92745805 
-0 -0 -0 -10 10 2:1 6:1 8:1 14:1.56489 
-10 -0 -0 -0 0 2:1 6:1 8:1 14:2.3084686 
-0 -0.1782702796577273 -0 -0 10 2:1 6:1 8:1 14:2.9646745 
-10 -0 -0 -0 0 2:1 6:1 8:1 14:2.1633182 
-0 -0.7204383312330951 -0 -0 0 2:1 6:1 8:1 14:0.92745805 16:0.56253177 20:3.8950543 42:3.0095 
-0 -0 -0 -10 0 2:1 6:1 8:1 14:1.3655581 16:0.2657212 20:1.8398935 42:1.4215872 
-0 -0 -0 -8.152203676014253 0 2:1 6:1 8:1 14:2.2417223 16:0.040749662 20:0.28215683 42:0.21800746 
-0 -0 -0 -0 10 2:1 6:1 8:1 14:3.8332291 16:0.035961449 20:0.24900249 42:0.19239092 
-0 -0 -0 -0 10 2:1 6:1 8:1 14:3.561995 16:0.024715919 20:0.17113674 42:0.1322282 
-0 -0 -0 -0 10 2:1 6:1 8:1 14:3.7015429 16:0.019248778 20:0.13328142 42:0.10297943 
-0 -0 -0 -0 10 2:1 6:1 8:1 14:4.1940584 16:0.016986987 20:0.11762045 42:0.090879031 
-0 -0 -0 -0 7.358272112433851 2:1 6:1 8:1 14:2.9085908 16:0.0080240844 20:0.05555997 42:0.042928211 
-0 -0 -0 -0 10 2:1 6:1 8:1 14:3.1926706 16:0.0062491633 20:0.043270145 42:0.033432528 
-0 -0 -0 -0 10 2:1 6:1 8:1 14:2.9204547 16:0.0022989388 20:0.015918197 42:0.012299139 
-0 -0 -0 -0 10 2:1 6:1 8:1 14:3.2019107 16:0.0017904153 20:0.012397105 42:0.0095785791 
-0 -0 -0 -0 10 2:1 6:1 8:1 14:3.753134 16:0.0015800359 20:0.010940407 42:0.0084530665 
-0 -0 -0 -0 10 2:1 6:1 8:1 14:3.8504019 16:0.0012305331 20:0.0076746647 42:0.0065832548 
-0 -0 -0 -0 10 2:1 6:1 8:1 14:4.3254266 16:0.0010859417 20:0.0056869262 42:0.005809702 
-0 -0 -0 -0 10 2:1 6:1 8:1 14:4.7446337 20:0.0050186943 42:0.0051270439 
-0 -0 -0 -0 10 2:1 6:1 8:1 14:4.1883931 20:0.002790638 42:0.0035237623 
-0 -0 -0 -0 10 2:1 6:1 8:1 14:3.8060954 20:0.0019179755 42:0.0019088816 
-10 -0 -0 -10 0 2:1 6:1 8:1 14:1.3414254 20:0.69248867 42:0.0006727688 
-10 -0.1830810540466067 -0 -10 0 2:1 6:1 8:1 14:2.7253301 20:0.92812175 42:0.0006271227 
-0 -0 -0 -10 10 2:1 6:1 8:1 14:0.1779656 20:0.060606856 42:0.068650477 
-0 -0 -0 -10 0 2:1 6:1 8:1 14:1.5836282 20:1.2311233 42:0.61088693 
-0 -0 -0 -10 10 2:1 6:1 8:1 14:0.12231383 20:0.095087595 42:0.11579437 
-10 -0 -0 -0.1146584995870848 0 2:1 6:1 8:1 14:0.78720421 20:0.61195517 42:0.74534178 58:1.0677603 
-10 -0 -0 -10 10 2:1 6:1 8:1 14:0.69451481 20:0.54004854 42:0.65776181 58:1.5094995 
-0 -0 -0 -10 10 2:1 6:1 8:1 14:0.074131086 20:0.05766394 42:0.13886029 58:0.16117755 
-10 -0 -0 -0 8.885494812495173 2:1 6:1 8:1 14:0.61241478 20:0.47659114 42:1.1476771 58:1.899333 
-10 -0 -0 -10 0 2:1 6:1 8:1 14:0.58154386 20:1.1448231 42:1.090457 58:1.8046374 
-0 -0 -0 -10 10 2:1 6:1 8:1 14:0.044882875 20:0.088422067 42:0.15285048 58:0.13938378 
-0.8501213263044944 -0 -0 -0 0 2:1 6:1 8:1 14:1.5329366 20:1.1949701 42:2.0656805 58:1.8836864 
-0 -0 -0 -10 0 2:1 6:1 8:1 14:1.0085477 20:1.4788182 42:1.3601415 58:1.2403079 
-1.333057273903125 -0 -0 -0 0 2:1 6:1 8:1 14:1.8557384 20:1.3622181 42:1.2528987 58:1.1425136 
-10 -0 -0 -0 0 2:1 6:1 8:1 14:2.5251794 20:0.64346623 42:0.59182739 58:0.53968525 
-10 -0 -0 -0 0 2:1 6:1 8:1 14:2.8934889 20:0.50113195 42:0.46091565 58:0.42030725 
-10 -0 -0 -0 0 2:1 6:1 8:1 14:3.1799512 20:0.39028198 42:0.35896146 58:0.32733563 
-10 -0 -0 -0 0 2:1 6:1 8:1 14:3.1121583 20:0.26823664 42:0.24671037 58:0.22497427 
-10 -0 -0 -0 0 2:1 6:1 8:1 14:3.6721377 20:0.23671798 42:0.21772112 58:0.19853908 
-10 -0 -0 -0 0 2:1 6:1 8:1 14:2.8919251 20:0.126706 42:0.11653773 58:0.10627031 
-10 -0 -0 -0 10 2:1 6:1 8:1 14:3.1786058 20:0.098678738 42:0.09075968 58:0.082763411 
-10 -0 -0 -0 10 2:1 6:1 8:1 14:2.9736316 20:0.041135419 42:0.037834264 58:0.034500919 
-10 -0 -0 -0 10 2:1 6:1 8:1 14:3.9003434 20:0.041135419 42:0.037834264 58:0.034500919 
-10 -0 -0 -0 10 2:1 6:1 8:1 14:3.9643896 20:0.032036297 42:0.029465353 58:0.026869345 
-10 -0 -0 -0 10 2:1 6:1 8:1 14:4.4251752 20:0.028271932 42:0.026003081 58:0.023712113 
-10 -0 -0 -0 10 2:1 6:1 8:1 14:4.8315744 20:0.024949893 42:0.022947639 58:0.020925866 
-0 -0 -0 -0 10 2:1 6:1 8:1 14:2.9415576 20:0.0094423229 42:0.0095659988 58:0.0087231994 
-0 -0 -0 -0 10 2:1 6:1 8:1 14:2.7110217 20:0.0057270583 42:0.0058020717 58:0.0052908873 
-10 -0 -0 -0 10 2:1 6:1 8:1 14:3.0388041 20:0.0044602375 42:0.0040056957 58:0.0041205473 
-10 -0 -0 -0 10 2:1 6:1 8:1 14:3.6091931 20:0.0034231832 42:0.0035350139 58:0.0036363702 
-10 -0 -0 -0 10 2:1 6:1 8:1 14:4.1125598 20:0.0030209483 42:0.002538376 58:0.0032090854 
-10 -0 -0 -10 10 2:1 6:1 8:1 14:4.5567794 20:0.0026659775 42:0.002240109 58:0.0022507454 
-0 -0 -0 -0 10 2:1 6:1 8:1 14:2.8270061 20:0.0011113448 42:0.00093381642 58:0.00066368119 
-0 -0 -0 -0 10 2:1 6:1 8:1 14:3.1291318 20:0.00086551619 42:0.00072725693 58:0.00027456906 
-9.913248100084374 -0 -0 -10 10 2:1 6:1 8:1 14:1.6256616 20:0.00019312277 42:0.00010100831 58:6.126464e-005 
-0 -0 -0 -0 10 2:1 6:1 8:1 14:2.519917 20:6.126464e-005 42:5.4065855e-005 
-0 -0.09719634597399765 -0 -0 10 2:1 6:1 8:1 14:2.8899717 20:4.7712947e-005 
-0 -0 -0 -0 10 2:1 6:1 8:1 14:3.4778116 20:4.2106531e-005 
-0 -0 -0 -0 10 2:1 6:1 8:1 14:3.3177204 
-0 -0 -0 -0 10 2:1 6:1 8:1 14:2.7032833 
-0 -0 -0 -0 10 2:1 6:1 8:1 14:3.3130651 
-0 -0 -0 -0 10 2:1 6:1 8:1 14:3.8511899 
-0 -0 -0 -0 10 2:1 6:1 8:1 14:3.9267309 
-10 -0 -0 -10 10 2:1 6:1 8:1 14:4.8541412 
-10 -0 -0 -10 10 2:1 6:1 8:1 14:4.7078123 
-10 -0.04899998432794789 -0 -0 10 2:1 6:1 8:1 14:5.0820351 
-10 -0.08293508260872098 -0 -10 10 2:1 6:1 8:1 14:4.4202161 
-0 -0.03379383943978651 -0 -10 10 2:1 6:1 8:1 14:4.3698568 
-0 -0.04146466285980083 -0 -0 10 2:1 6:1 8:1 14:3.9307241 
-0 -0.03658190195953876 -0 -10 10 2:1 6:1 8:1 14:4.3962097 
-10 -0.06257712727065823 -0 -10 10 2:1 6:1 8:1 14:4.8070097 
-10 -0 -0 -0 10 2:1 6:1 8:1 14:5.1695294 
-0 -0.05932414538885557 -0 -0 10 2:1 6:1 8:1 14:3.3693166 
-0 -0.03962598706247485 -0 -0 10 2:1 6:1 8:1 14:3.5514362 
-0 -0.09002709738526447 -0 -0 10 2:1 6:1 8:1 14:3.0814431 
-0 -0.05263761949627561 -0 -10 0 2:1 6:1 9:1 14:0.050852749 16:0.025 
-0 -0 -0 -10 0 2:1 6:1 9:1 14:0.96742201 16:0.47559971 20:0.69199347 
-0 -0 -0 -10 0 2:1 6:1 9:1 14:2.2240648 16:0.63743198 20:0.92745805 
-0 -0 -0 -5.747708432143267 10 3:1 7:1 8:1 14:0.92745805 20:2.5723026 34:8.3975481e-037 50:1.2076256e-032 58:8.5833165e-033 
-0 -0 -4.383763085602608 -10 10 3:1 7:1 8:1 14:0.69199347 20:2.6112356 34:6.2655646e-037 50:9.0100224e-033 58:6.4041696e-033 
-0 -0 -0 -0 10 3:1 7:1 8:1 14:0.022062423 16:0.025 20:0.083252512 34:1.0611509e-038 50:2.8726127e-034 58:2.0418038e-034 
-0 -0 -0 -0 10 3:1 7:1 8:1 14:1.6497631 16:0.81847882 20:2.7256162 50:9.404691e-033 58:6.6846933e-033 
-0 -0 -0 -0 10 3:1 7:1 8:1 14:2.383369 16:0.72230506 20:2.4053481 50:8.2991047e-033 58:5.8992213e-033 
-0 -0 -0 -0 10 3:1 7:1 8:1 14:3.49298 16:0.49643254 20:1.6531698 50:5.7029351e-033 58:4.0544718e-033 
-0 -0 -0 -0 0.8561610391213989 3:1 7:1 8:1 14:3.3281455 16:0.34119275 20:1.1362059 50:3.9191202e-033 58:2.7865948e-033 
-0 -0 -0 -0 10 3:1 7:1 8:1 14:3.8645363 16:0.30110154 20:1.0026982 50:3.4580384e-033 58:2.4591614e-033 
-0 -0 -0 -0 10 3:1 7:1 8:1 14:3.5835123 16:0.20694387 20:0.68914372 50:2.325112e-033 58:1.6901552e-033 
-0 -0 -0 -0 10 3:1 7:1 8:1 14:4.0898967 16:0.18262732 20:1.426646 50:1.8180666e-033 58:1.4915567e-033 
-0 -0 -0 -0 10 3:1 7:1 8:1 14:4.5367794 16:0.16116804 20:1.2590107 50:1.4456207e-033 58:1.3162941e-033 
-0 -0 -0 -0 10 3:1 7:1 8:1 14:5.4642377 16:0.16116804 20:1.2590107 50:1.1489106e-033 58:1.3162941e-033 
-0 -0 -0 -0 10 3:1 7:1 8:1 14:5.1830106 16:0.1255178 20:0.98051864 50:6.3292675e-034 58:1.0251309e-033 
-0 -0 -0 -0 10 3:1 7:1 8:1 14:0.34314856 16:0.0028280192 20:0.7140854 50:7.5752367e-036 58:9.726796e-036 
-10 -9.72982785380486 -10 -10 10 3:1 7:1 8:1 14:0.92745805 20:3.207444 22:1.758439e-031 42:2.0278371e-031 59:6.4071542e-032 
-1.562956557354656 -0 -10 -10 10 3:1 7:1 8:1 14:0.61068207 20:2.8039255 22:1.1578391e-031 42:1.3284044e-031 59:4.2187728e-032 
-0 -0 -0 -0 10 3:1 7:1 8:1 14:0.022062423 16:0.025 20:0.10129887 22:4.1829842e-033 42:4.7991945e-033 59:1.5241374e-033 
-0 -0 -0 -0 10 3:1 7:1 8:1 14:1.6497631 16:0.81847882 20:3.3164387 22:1.3694736e-031 42:1.5712157e-031 59:4.9898965e-032 
-0 -0 -0 -0 10 3:1 7:1 8:1 14:2.5772212 16:0.81847882 20:3.3164387 22:1.3694736e-031 42:1.5712157e-031 59:4.9898965e-032 
-0 -0 -0 -0 10 3:1 7:1 8:1 14:3.5269241 16:0.046175417 20:0.18710069 22:1.5068183e-033 42:8.8641928e-033 59:2.8151073e-033 
-0 -0 -0 -0 10 3:1 7:1 8:1 14:3.6742291 16:0.035961449 20:0.14571413 42:6.9034396e-033 59:2.1924077e-033 
-0 -0 -0 -0 10 3:1 7:1 8:1 14:3.7889507 16:0.028006807 20:0.11348229 42:3.869586e-033 59:1.7074489e-033 
-0 -0 -0 -0 10 3:1 7:1 8:1 14:3.8782954 16:0.021811724 20:0.088380113 42:3.0136365e-033 59:1.3297625e-033 
-0 -0 -0 -0 10 3:1 7:1 8:1 14:4.3500414 16:0.019248778 20:0.077995174 42:2.6595249e-033 
-0 -0 -0 -0 10 3:1 7:1 8:1 14:0.9276576 16:1.2465416e-008 20:5.0177103e-008 
-0 -0 -0 -0 10 3:1 7:1 8:1 14:0.9282223 16:3.3651368e-015 20:3.3651368e-015 
-0 -0 -0 -0 10 3:1 7:1 8:1 14:3.3789899 
-0 -0 -0 -0 10 3:1 7:1 8:1 14:3.9094059 
-0 -0 -0 -0 10 3:1 7:1 8:1 14:3.9721062 
-0 -0 -0 -0 10 3:1 7:1 8:1 14:3.6222267 
-0 -0 -0 -0 10 3:1 7:1 8:1 14:3.7484515 
-0 -0 -0 -0 10 3:1 7:1 8:1 14:3.4204061 
-0 -0 -0 -0 10 3:1 7:1 8:1 14:3.9459558 
-0 -0 -0 -0 10 3:1 7:1 8:1 14:3.6394711 
-10 -0 -10 -10 10 1:1 5:1 9:1 14:0.92745805 
-0 -0 -0 -0 10 1:1 5:1 9:1 14:1.7459369 
-0 -0 -0 -0 10 1:1 5:1 9:1 14:2.1274219 
-0 -0 -0 -0 1.828831118245456 1:1 5:1 9:1 14:2.8049011 
-10 -0 -10 -10 10 1:1 5:1 9:1 14:0.92766798 
-0 -0 -0 -0 10 1:1 5:1 9:1 14:1.7461222 
-0 -0 -0 -0 10 1:1 5:1 9:1 14:2.4684055 
-10 -0 -0 -0 0 1:1 5:1 9:1 14:3.105818 
-0 -0 -0 -0 10 1:1 5:1 9:1 14:2.3945427 
-0 -0 -0 -0 10 1:1 5:1 9:1 14:1.9146076 
-0 -0 -0 -0 10 1:1 5:1 9:1 14:2.6170931 
-10 -0 -0 -0 0 1:1 5:1 9:1 14:3.2370346 
-10 -0 -0 -0 0 1:1 5:1 9:1 14:3.7841311 
-0 -0 -0 -0 10 1:1 5:1 9:1 14:2.7149549 
-0.8794282123836524 -0 -0 -0 0 1:1 5:1 9:1 14:3.041867 
-0 -0 -0 -0 10 1:1 5:1 9:1 14:1.526437 
-0 -0 -0 -0 10 1:1 5:1 9:1 14:2.274534 
-0 -0 -0 -0 10 1:1 5:1 9:1 14:1.3227128 
-0 -0 -0 -0 10 1:1 5:1 9:1 14:2.0947478 
-0 -0 -0 -0 10 1:1 5:1 9:1 14:1.3948594 
-0 -0 -0 -0 10 1:1 5:1 9:1 14:2.158417 
-0 -0 -0 -0 10 1:1 5:1 9:1 14:1.4090662 
-0 -0 -0 -0 10 1:1 5:1 9:1 14:2.0248396 
-0 -0 -0 -0 10 1:1 5:1 9:1 14:2.7143731 
-0.7804803094713735 -0 -0 -0.4223245007638352 10 1:1 5:1 9:1 14:1.2103536 
-0 -0 -0 -0 10 1:1 5:1 9:1 14:1.8700823 
-0 -0 -0 -0 10 1:1 5:1 9:1 14:1.928441 
-10 -0 -0 -0 10 1:1 5:1 8:1 14:2.4293296 
-10 -0 -8.145826777995554 -10 10 1:1 5:1 8:1 14:1.7161461 
-10 -0 -0 -0 10 1:1 5:1 8:1 14:2.2639935 
-10 -0 -0 -0 10 1:1 5:1 8:1 14:2.9254253 
-10 -0.2185078201616306 -0 -0 10 1:1 5:1 8:1 14:3.5091362 
-10 -0 -10 -10 10 1:1 5:1 8:1 14:1.5372546 
-10 -0 -0 -0 10 1:1 5:1 8:1 14:2.2840807 
-10 -0 -0 -0 10 1:1 5:1 8:1 14:2.497282 
-10 -0 -0 -0 10 1:1 5:1 8:1 14:3.1313019 
-10 -0 -0 -0 10 1:1 5:1 8:1 14:2.6035233 
-10 -0 -0 -0 10 1:1 5:1 8:1 14:2.7168312 
-10 -0 -0 -0 10 1:1 5:1 8:1 14:3.043328 
-10 -0.06681102378283869 -0 -0 10 1:1 5:1 8:1 14:3.6131856 
-10 -0.09628034860405454 -0 -0 10 1:1 5:1 8:1 14:4.5406442 
-10 -0.5481618986944475 -0 -0 10 1:1 5:1 8:1 14:4.9345632 
-10 -6.460936233255361 -0 -0 10 1:1 5:1 8:1 14:5.2821932 
-10 -0 -0 -0 10 1:1 5:1 8:1 14:3.754812 
-10 -0.03232660539188129 -0 -0 10 1:1 5:1 8:1 14:3.8517091 
-10 -0 -0 -10 10 1:1 5:1 8:1 14:1.9013221 
-10 -0 -0 -0 10 1:1 5:1 8:1 14:2.6053691 
-10 -3.173911541553308 -10 -10 10 1:1 5:1 8:1 14:0.054694179 16:0.025 
-10 -0 -0 -0 10 1:1 5:1 8:1 14:2.9565198 16:0.92745805 
-10 -0 -0 -0 10 1:1 5:1 8:1 14:3.5365741 16:0.81847882 
-10 -0.218651527037911 -0 -10 10 1:1 5:1 8:1 14:2.3286443 16:0.53892505 20:0.69199347 
-10 -0.128246066937827 -0 -0 10 1:1 5:1 8:1 14:4.0484648 16:0.72230506 20:0.92745805 
-0 -0 -0 -0 10 3:1 7:1 8:1 14:0.92745805 30:3.5587658e-023 50:9.683948e-025 54:1.6652965e-026 
-0 -0 -0 -0 10 3:1 7:1 8:1 14:0.92809647 30:2.1865812e-028 50:5.9500236e-030 54:1.023177e-031 
-0 -0 -0 -0 10 3:1 7:1 8:1 14:0.92769593 30:9.9270615e-033 50:2.7013067e-034 54:4.2973717e-036 
-0 -0 -0 -0 10 3:1 7:1 8:1 14:3.6802888 30:1.329111e-036 50:2.8517301e-038 
-0 -0 -0 -0 10 3:1 7:1 8:1 14:3.7936697 30:1.0129034e-036 50:2.2209294e-038 
-0 -0 -0 -0 10 3:1 7:1 8:1 14:0.92745805 
-0 -0 -0 -0 10 3:1 7:1 8:1 14:0.93913305 
-0 -0 -0 -0 10 3:1 7:1 8:1 14:3.7517583 
-0 -0 -0 -0 10 3:1 7:1 8:1 14:3.4459989 
-0 -0 -0 -0 10 3:1 7:1 8:1 14:3.2958565 
-0 -0 -0 -0 10 3:1 7:1 8:1 14:4.2233148 
-0 -0 -0 -0 10 3:1 7:1 8:1 14:3.4890273 
-0 -0 -0 -0 4.476232304559252 3:1 7:1 8:1 14:3.2658954 
-0 -0 -0 -0 10 3:1 7:1 8:1 14:3.8096008 
-0 -0 -0 -0 10 3:1 7:1 8:1 14:0.090622999 16:0.025 
-0 -0 -0 -0 10 3:1 7:1 8:1 14:0.070577271 16:0.04447002 
-0 -0 -0 -0 9.727248718571014 3:1 7:1 8:1 14:3.2380972 16:1.4559108 
-0 -0 -0 -0 8.953576240777933 3:1 7:1 8:1 14:3.7850692 16:1.2848368 
-0 -0 -0 -0 10 3:1 7:1 8:1 14:0.090039454 16:0.05556377 
-0 -0 -0 -0 10 3:1 7:1 8:1 14:1.5116369 16:0.93283844 20:0.69199347 
-10 -0 -0 -10 5.173492514641961 2:1 6:1 8:1 14:0.92745805 20:0.72230506 42:0.63743198 50:0.017686009 58:1.7604077 71:0.53559965 
-0 -0 -0 -10 10 2:1 6:1 8:1 14:0.068627454 20:0.053447116 42:0.11579437 50:0.0012283254 58:0.13026176 71:0.03963181 
-0 -0 -0 -10 0 2:1 6:1 8:1 14:0.69199347 20:1.2309185 42:1.1675932 50:0.01120672 58:1.3134725 71:0.39962074 
-10 -0 -0 -0 0 2:1 6:1 8:1 14:1.7459369 20:1.4559108 42:1.3810105 50:0.011675095 58:1.5535544 71:0.47266507 
-0 -0 -0 -10 10 2:1 6:1 8:1 14:0.041532442 16:0.025 20:0.034633286 42:0.032851554 50:0.0002351373 58:0.036956046 71:0.011243782 
-0 -0 -0 -0 10 2:1 6:1 8:1 14:4.5564251 16:0.18262732 20:0.25299937 42:0.23998365 58:0.26752228 71:0.082136869 
-0 -0 -0 -0 10 2:1 6:1 8:1 14:3.8982391 16:0.086267032 20:0.11950844 42:0.11336026 58:0.12516955 71:0.038798712 
-10 -0 -0 -10 10 2:1 6:1 8:1 14:0.93409914 16:0.00014696622 20:0.00020359694 42:0.00019312277 58:0.00020678408 71:6.6098248e-005 
-10 -0 -0 -10 10 2:1 6:1 8:1 14:1.2318749 16:2.2538001e-005 20:3.1222604e-005 42:2.9616336e-005 58:2.9148456e-005 71:1.0136495e-005 
-10 -0 -0 -10 10 2:1 6:1 8:1 14:1.2364047 16:3.0501869e-006 20:4.2255197e-006 42:4.008135e-006 58:3.4734853e-006 71:1.3718254e-006 
-10 -0 -0 -10 10 2:1 6:1 8:1 14:1.3778644 16:6.006174e-007 20:8.3205418e-007 42:7.8924859e-007 58:5.3599598e-007 71:2.7012842e-007 
-9.043335328435123 -0 -0 -0 0 2:1 6:1 8:1 14:2.1434193 16:5.30043e-007 20:7.3428521e-007 42:6.9650946e-007 58:3.6864316e-007 71:2.3838751e-007 
-10 -0 -0 -10 10 2:1 6:1 8:1 14:1.0483812 16:2.9902981e-008 20:4.1425537e-008 42:3.9294378e-008 58:2.0797422e-008 71:7.560657e-009 
-8.01732618656138 -0 -0 -0 0 2:1 6:1 8:1 14:1.8526512 16:2.6389287e-008 20:3.6557907e-008 42:3.4677164e-008 58:1.2465416e-008 71:6.6722565e-009 
-6.971586534550437 -0 -0 -0 0 2:1 6:1 8:1 14:1.9191107 16:1.4125167e-008 20:1.9568038e-008 42:1.8561348e-008 58:6.6722565e-009 
-0 -0 -0 -0 10 2:1 6:1 8:1 14:2.621067 16:1.2465416e-008 20:1.7268732e-008 42:1.6380334e-008 
-0 -0.07469053960080609 -0 -0 10 2:1 6:1 8:1 14:3.2405417 16:1.1000691e-008 20:1.5239603e-008 42:8.5673468e-009 
-0 -0.02514705839325937 -0 -0 10 2:1 6:1 8:1 14:3.787226 16:9.7080761e-009 20:7.560657e-009 42:7.560657e-009 
-10 -0 -0 -10 10 2:1 6:1 8:1 14:1.5082479 16:1.4887817e-009 20:1.1594643e-009 42:1.1594643e-009 
-0 -0 -0 -0 10 2:1 6:1 8:1 14:3.18594 16:1.3138453e-009 
-0 -0 -0 -0 10 2:1 6:1 8:1 14:3.7390404 16:1.1594643e-009 
-0 -0 -0 -0 10 2:1 6:1 8:1 14:2.928822 
-5.983102752602945 -0.04570981783043973 -0 -0 10 2:1 6:1 8:1 14:3.5121341 
-0 -0 -0 -0 10 2:1 6:1 8:1 14:3.0576751 
-0 -0 -0 -0 10 2:1 6:1 8:1 14:3.6258473 
-0 -0.2430030509082491 -0 -0 10 2:1 6:1 8:1 14:2.6401863 
-0 -0.07686053342050429 -0 -0 10 2:1 6:1 8:1 14:3.2574146 
-0 -0.1891116178744318 -0 -0 10 2:1 6:1 8:1 14:2.9031796 
-0 -0 -0 -0 10 2:1 6:1 8:1 14:3.1884568 
-0 -0 -0 -0 10 2:1 6:1 8:1 14:2.8613546 
-0 -0.01790959378243963 -0 -0 10 2:1 6:1 8:1 14:3.4525943 
-3.221991554332188 -0 -0 -10 10 2:1 6:1 8:1 14:1.5274287 
-10 -0 -0 -0 0 2:1 6:1 8:1 14:1.7645345 
-0 -0 -0 -0 10 2:1 6:1 8:1 14:2.4846532 
-0 -0 -0 -10 10 2:1 6:1 8:1 14:1.5556771 
-4.808011289954486 -0 -0 -0 0 2:1 6:1 8:1 14:2.3003383 
-0 -0 -0 -0 10 2:1 6:1 8:1 14:2.8325391 
-0 -0 -0 -0 10 2:1 6:1 8:1 14:2.6655259 
-0 -0 -0 -0 10 2:1 6:1 8:1 14:3.0033703 
-0 -0 -0 -0 10 2:1 6:1 8:1 14:3.5779207 
-10 -0 -0 -10 10 2:1 6:1 8:1 14:1.4761496 
-7.293997732434364 -0 -0 -0 0 2:1 6:1 8:1 14:2.2301545 
-10 -0 -0 -10 10 2:1 6:1 8:1 14:0.98688978 
-10 -0 -0 -0 0 2:1 6:1 8:1 14:1.798385 
-0 -0 -0 -0 10 2:1 6:1 8:1 14:2.5145271 
-0 -0.02144401224054016 -0 -0 10 2:1 6:1 8:1 14:3.1465206 
-10 -0 -0 -10 10 2:1 6:1 8:1 14:1.3032564 
-9.067609127887222 -0 -0 -0 0 2:1 6:1 8:1 14:2.0775776 
-10 -0 -0 -10 10 2:1 6:1 8:1 14:1.3910279 
-10 -0 -0 -10 10 2:1 6:1 8:1 14:1.6270959 
-0 -0 -0 -0 3.100124218719282 2:1 6:1 8:1 14:2.3633647 
-0 -0 -0 -0 10 2:1 6:1 8:1 14:3.0131202 
-3.191873543866878 -0 -0 -0 10 2:1 6:1 8:1 14:3.5865271 
-10 -0 -0 -10 10 2:1 6:1 8:1 14:1.187265 
-10 -0 -0 -10 10 2:1 6:1 8:1 14:0.94682229 
-0 -0.2342558427569144 -0 -0 0 3:1 7:1 9:1 14:4.9893603 
-0 -0 -0 -0 10 3:1 7:1 8:1 14:0.93793786 
-0 -0 -0 -0 1.129084128197147 3:1 7:1 8:1 14:0.94154978 
-0 -0 -0 -0 10 3:1 7:1 8:1 14:0.93045366 
-0 -0 -0 -0 10 3:1 7:1 8:1 14:3.7799294 
-0 -0 -0 -0 10 3:1 7:1 8:1 14:3.8712707 
-0 -0 -0 -0 10 3:1 7:1 8:1 14:4.343842 
-0 -0 -0 -0 10 3:1 7:1 8:1 14:0.93141913 
-0 -0 -0 -0 10 3:1 7:1 8:1 14:0.94012839 
-0 -0 -0 -0 10 3:1 7:1 8:1 14:0.9276554 
-0 -0 -0 -0 10 3:1 7:1 8:1 14:0.92926228 
-0 -0 -0 -0 10 3:1 7:1 8:1 14:3.6692998 
-0 -0 -0 -0 10 3:1 7:1 8:1 14:4.1656036 
-0 -0 -0 -0 10 3:1 7:1 8:1 14:4.1716337 
-7.867544336895503 -4.946580915610138 -0 -0 10 3:1 7:1 8:1 14:4.6089115 
-0 -0 -0 -0 10 3:1 7:1 8:1 14:4.0951133 
-0 -0 -0 -0 10 3:1 7:1 8:1 14:4.1167355 
-10 -0 -10 -5.56652315216572 10 1:1 5:1 8:1 14:0.92745805 20:1.5033888 42:1.7766767 58:0.9345327 
-10 -2.886482111023695 -10 -10 10 1:1 5:1 8:1 14:0.92745805 
-0 -0 -0.8172270576195884 -10 0 2:1 6:1 8:1 14:0.92745805 20:2.3289559 25:0.87241983 
-4.536650529635105 -4.811568623043124 -10 -10 0 2:1 6:1 8:1 14:0.61068207 20:2.2250538 25:0.57444239 
-4.52406144932126 -0 -0 -10 0 2:1 6:1 8:1 14:1.56489 20:2.3217719 25:0.59960485 
-0 -0 -0 -10 0 2:1 6:1 8:1 14:2.3084686 20:2.0471661 25:0.52914941 
-0 -0 -0 -10 0 2:1 6:1 8:1 14:2.7252953 20:1.5927547 25:0.41210198 
-0 -0 -0 -10 0 2:1 6:1 8:1 14:3.0499201 20:1.2390443 25:0.32094526 
-0 -0 -0 -10 0 2:1 6:1 8:1 14:3.6190031 20:1.0934527 25:0.28183886 
-0 -0 -0 -10 10 2:1 6:1 8:1 14:4.1212168 20:0.9649685 25:0.24732752 
-0 -0 -0 -10 10 2:1 6:1 8:1 14:4.5644193 20:0.85158187 25:0.21703525 
-0 -0 -0 -10 0 2:1 6:1 8:1 14:2.4093082 20:0.27646813 25:0.070008352 
-0 -0 -0 -10 0 2:1 6:1 8:1 14:3.0536649 20:0.24398227 25:0.061329462 
-10 -0 -0 -10 10 2:1 6:1 8:1 14:0.9658981 20:0.0030712835 25:0.00076137786 
-0 -0 -0 -10 0 2:1 6:1 8:1 14:1.77986 20:0.0027103981 25:0.00066126743 
-10 -0 -0 -10 10 2:1 6:1 8:1 14:0.94285685 20:2.3449538e-005 25:5.6167114e-006 
-10 -0 -0 -0 0 2:1 6:1 8:1 14:1.7595264 20:2.0694148e-005 25:4.804871e-006 
-10 -0 -0 -10 10 2:1 6:1 8:1 14:1.3200616 20:4.6174882e-006 25:1.02281e-006 
-10 -0 -0 -0 0 2:1 6:1 8:1 14:2.0924079 20:4.0749192e-006 25:8.5332488e-007 
-0 -0 -0 -10 10 2:1 6:1 8:1 14:1.5269428 20:1.1674838e-006 25:2.2634461e-007 
-10 -0 -0 -10 10 2:1 6:1 8:1 14:1.1390641 20:9.583291e-008 25:1.4980854e-008 
-9.965720320259232 -0 -0 -0 0 2:1 6:1 8:1 14:1.8145618 20:7.4634741e-008 25:9.9800896e-009 
-10 -0 -0 -10 10 2:1 6:1 8:1 14:1.3862512 20:1.8870619e-008 25:1.8201112e-009 
-0 -0 -0 -0 10 2:1 6:1 8:1 14:2.6025186 20:1.2969573e-008 
-0 -0.08311148568354178 -0 -0 10 2:1 6:1 8:1 14:3.2241724 20:1.0824992e-008 
-0 -0 -0 -0 10 2:1 6:1 8:1 14:2.6696775 20:2.1915325e-009 
-0 -0 -0 -0 10 2:1 6:1 8:1 14:2.7280567 20:3.7642295e-010 
-0 -0.1887385726283178 -0 -0 10 2:1 6:1 8:1 14:3.3349593 20:3.3219211e-010 
-0 -0.08243959219580524 -0 -0 10 2:1 6:1 8:1 14:3.8705494 
-0 -0.343876193092613 -0 -0 10 2:1 6:1 8:1 14:2.7245648 
-0 -0.2260832576728507 -0 -0 10 2:1 6:1 8:1 14:2.8000221 
-0 -0 -0 -0 10 2:1 6:1 8:1 14:3.3984685 
-10 -0 -0 -10 10 2:1 6:1 8:1 14:0.92987156 
-10 -0 -0 -0 0 2:1 6:1 8:1 14:1.7480665 
-10 -0 -0 -10 10 2:1 6:1 8:1 14:0.93043619 
-10 -0 -0 -10 10 2:1 6:1 8:1 14:1.6520823 
-10 -0 -0 -10 10 2:1 6:1 8:1 14:0.92746419 
-10 -0 -0 -6.323145645142739 0 2:1 6:1 8:1 14:1.7459424 
-10 -0 -0 -10 10 2:1 6:1 8:1 14:0.94256335 
-9.911439228953112 -0 -0 -0 0 2:1 6:1 8:1 14:1.7592673 
-0 -0 -0 -0 10 2:1 6:1 8:1 14:2.480006 
-0 -0 -0 -0 10 2:1 6:1 8:1 14:3.1160555 
-0 -1.777322501439974 -10 -10 -0 1:1 5:1 8:1 14:0.92745805 17:0.43038717 20:2.7693264 
-9.974966215025553 -0 -10 -10 -0 1:1 5:1 8:1 14:0.61068207 17:0.28167194 20:2.5154488 
-10 -0 -10 -10 -0 1:1 5:1 8:1 14:1.2285596 17:0.13792218 20:1.2402612 
-10 -0 -0 -0 -0 1:1 5:1 8:1 14:2.0116582 17:0.12048537 20:1.0945268 
-10 -0 -0 -0 -0 1:1 5:1 8:1 14:2.1475904 17:0.072119728 20:0.66386408 
-10 -0 -0 -0 -0 1:1 5:1 8:1 14:1.1272149 17:0.0066071716 20:0.061748981 
-10 -0 -0 -0 -0 1:1 5:1 8:1 14:1.9222218 17:0.0056838421 20:0.054493289 
-10 -0 -0 -0 -0 1:1 5:1 8:1 14:0.95165527 17:7.1549017e-005 20:0.00068411912 
-10 -0 -0 -0 -10 1:1 5:1 8:1 14:1.6686078 17:5.4089778e-005 20:0.00053279253 
-10 -0 -0 -0 -0 1:1 5:1 8:1 14:2.3999996 17:4.7734062e-005 20:0.00046874702 
-10 -0 -0 -0 -0 1:1 5:1 8:1 14:3.0454502 17:4.0492516e-005 20:0.00041366779 
-10 -0 -0 -0 -0 1:1 5:1 8:1 14:0.96129 17:4.4983122e-007 20:4.5772967e-006 
-10 -0 -0 -0 -10 1:1 5:1 8:1 14:1.6761116 17:3.2393962e-007 20:3.5648022e-006 
-10 -0 -0 -0 -0 1:1 5:1 8:1 14:2.4066212 17:2.8587573e-007 20:3.1226384e-006 
-10 -0 -0 -0 -0 1:1 5:1 8:1 14:2.8017368 17:2.2264024e-007 20:2.4113617e-006 
-10 -0 -0 -0 -10 1:1 5:1 8:1 14:2.0953956 17:9.2810254e-008 20:9.927395e-007 
-10 -0 -0 -0 -0 1:1 5:1 8:1 14:2.7766378 17:8.1904766e-008 20:8.6362417e-007 
-10 -0 -0 -0 -0 1:1 5:1 8:1 14:3.3778329 17:7.2280699e-008 20:7.4968023e-007 
-10 -0 -0 -0 -0 1:1 5:1 8:1 14:3.5581169 17:5.6292269e-008 20:5.6972635e-007 
-10 -0 -0 -0 -0 1:1 5:1 8:1 14:4.4855747 17:5.6292269e-008 20:5.5372044e-007 
-10 -0 -0 -0 -0 1:1 5:1 8:1 14:4.4208269 17:4.3840462e-008 20:4.1310088e-007 
-10 -6.253785460744417 -0 -0 -10 1:1 5:1 8:1 14:5.3482852 17:2.3288464e-008 20:4.1310088e-007 
-10 -0 -0 -0 -0 1:1 5:1 8:1 14:4.6032777 20:2.8391977e-007 
-10 -0 -0 -0 -0 1:1 5:1 8:1 14:3.7194865 20:1.5974064e-007 
-10 -0 -0 -0 -0 1:1 5:1 8:1 14:4.2098937 20:1.2850519e-007 
-10 -0 -0 -0 -0 1:1 5:1 8:1 14:4.6426749 20:1.0094003e-007 
-10 -0 -0 -0 -0 1:1 5:1 8:1 14:3.412503 20:4.546196e-008 
-10 -0 -0 -0 -0 1:1 5:1 8:1 14:2.3500009 20:1.4904435e-008 
-10 -0 -0 -0 -0 1:1 5:1 8:1 14:2.7576404 20:7.560657e-009 
-10 -0 -0 -0 -0 1:1 5:1 8:1 14:2.6000519 20:4.5857704e-009 
-10 -0 -0 -0 -0 1:1 5:1 8:1 14:2.5044692 
-10 -0 -0 -0 -0 1:1 5:1 8:1 14:3.1376441 
-10 -0 -0 -0 -0 1:1 5:1 8:1 14:3.3710566 
-10 -0 -0 -0 -0 1:1 5:1 8:1 14:3.24435 
-10 -0 -0 -0 -0 1:1 5:1 8:1 14:3.45416 
-10 -0 -0 -0 -0 1:1 5:1 8:1 14:2.3673658 
-10 -0 -0 -0 -0 1:1 5:1 8:1 14:2.7711632 
-10 -0 -0 -0 -0 1:1 5:1 8:1 14:3.3729992 
-10 -0 -0 -0 -0 1:1 5:1 8:1 14:2.9732845 
-10 -0 -0 -0 -0 1:1 5:1 8:1 14:3.9007411 
-10 -0 -0 -0 -0 1:1 5:1 8:1 14:2.0002298 20:0.69199347 
-10 -0 -0 -0 -0 1:1 5:1 8:1 14:3.6081915 20:0.92745805 
-6.652494796491742 -0 -0 -10 -0 1:1 5:1 8:1 14:0.92745805 17:0.2601932 20:2.6569793 42:1.4750572 58:1.4559108 
-10 -0 -10 -10 -6.377603199261591 1:1 5:1 8:1 14:0.068627454 17:0.018274132 20:0.19660375 42:0.17777464 58:0.10773043 
-0 -0 -0 -0 -3.774057027409724 1:1 5:1 8:1 14:1.7459369 17:0.20471524 20:2.3447762 42:2.1202121 58:1.2848368 
-9.939921087891884 -0 -0 -10 -3.045958649356634 1:1 5:1 8:1 14:1.1496072 17:0.12360913 20:2.2359047 42:1.3960477 58:0.8459971 
-10 -0 -10 -10 -0 1:1 5:1 8:1 14:0.041532442 16:0.025 17:0.0040077986 20:0.080777667 42:0.050435726 58:0.030563768 
-0 -0 -0 -0 -10 1:1 5:1 8:1 14:3.0670915 16:0.49643254 17:0.056051463 20:1.5923513 42:1.0015174 58:0.60691392 
-10 -0 -0 -0 -10 1:1 5:1 8:1 14:2.3762493 16:0.23449811 17:0.026476836 20:0.74509227 42:0.47308329 58:0.28668582 
-10 -0 -0 -0 -10 1:1 5:1 8:1 14:3.0244908 16:0.20694387 17:0.017116562 20:0.65754163 42:0.41749454 58:0.25299937 
-10 -0 -0 -0 -10 1:1 5:1 8:1 14:3.5965617 16:0.18262732 17:0.0080240844 20:0.58027846 42:0.36843765 58:0.22327116 
-10 -0 -0 -0 -0 1:1 5:1 8:1 14:0.92900729 16:7.8665355e-005 17:3.4563145e-006 20:0.00024649431 42:0.00015870178 58:9.6172385e-005 
-10 -0 -0 -0 -10 1:1 5:1 8:1 14:1.747304 16:6.9421934e-005 20:0.0002175305 42:0.00014005382 58:8.4871834e-005 
-10 -0 -0 -0 -10 1:1 5:1 8:1 14:1.6558428 16:2.8939368e-005 20:8.9047542e-005 42:5.8383117e-005 58:3.5379842e-005 
-10 -0 -0 -0 -0 1:1 5:1 8:1 14:2.3887341 16:2.55389e-005 20:7.6734141e-005 42:5.1522926e-005 58:3.1222604e-005 
-10 -0 -0 -0 -0 1:1 5:1 8:1 14:2.7878065 16:1.9889716e-005 20:5.791058e-005 42:4.0126091e-005 58:2.4316189e-005 
-10 -0 -0 -0 -0 1:1 5:1 8:1 14:3.3876882 16:1.7552613e-005 20:4.9255872e-005 42:3.5411151e-005 58:2.145896e-005 
-10 -0 -0 -0 -0 1:1 5:1 8:1 14:1.2055362 16:1.4408063e-006 20:3.8710891e-006 42:2.9067241e-006 58:1.7614586e-006 
-10 -0 -0 -0 -10 1:1 5:1 8:1 14:1.8663307 16:1.122101e-006 20:2.880791e-006 42:2.2637591e-006 58:1.3718254e-006 
-10 -0 -0 -0 -10 1:1 5:1 8:1 14:1.3438926 16:2.5037457e-007 20:6.0890682e-007 42:5.0511295e-007 58:3.0609561e-007 
-10 -0 -0 -0 -10 1:1 5:1 8:1 14:2.1134393 16:2.2095479e-007 20:4.9384983e-007 42:4.4576061e-007 58:2.7012842e-007 
-10 -0 -0 -0 -0 1:1 5:1 8:1 14:1.1009398 16:1.8137074e-008 20:3.6490736e-008 42:3.6590258e-008 58:2.2173491e-008 
-10 -0 -0 -0 -10 1:1 5:1 8:1 14:1.899034 16:1.6005911e-008 20:3.2202962e-008 42:2.770502e-008 58:1.9568038e-008 
-10 -0 -0 -0 -0 1:1 5:1 8:1 14:0.93742329 16:8.3991314e-011 20:1.4171764e-010 42:1.4538259e-010 58:1.0268364e-010 
-10 -0 -0 -0 -8.458937754850934 1:1 5:1 8:1 14:1.657524 16:6.5412502e-011 20:1.1036981e-010 42:8.5956096e-011 58:7.99701e-011 
-10 -0 -0 -0 -10 1:1 5:1 8:1 14:1.6184168 16:2.7267986e-011 20:4.6008981e-011 42:2.123633e-011 58:3.33365e-011 
-10 -0 -0 -0 -0 1:1 5:1 8:1 14:2.3557057 16:2.4063914e-011 20:4.0602785e-011 42:1.8740997e-011 58:1.6538871e-011 
-10 -0 -0 -0 -0 1:1 5:1 8:1 14:3.006361 16:2.123633e-011 20:2.123633e-011 42:1.6538871e-011 58:1.4595502e-011 
-10 -0 -0 -0 -0 1:1 5:1 8:1 14:2.9936979 16:1.4595502e-011 20:1.4595502e-011 42:1.1366989e-011 
-10 -0 -0 -0 -10 1:1 5:1 8:1 14:1.8993694 16:4.7384657e-012 20:4.7384657e-012 42:3.6903211e-012 
-10 -0 -0 -0 -0 1:1 5:1 8:1 14:2.4066885 16:3.6903211e-012 20:3.6903211e-012 
-10 -0 -0 -0 -0 1:1 5:1 8:1 14:2.3871877 16:2.2382927e-012 20:2.2382927e-012 
-10 -0 -0 -0 -0 1:1 5:1 8:1 14:3.0341442 16:1.9752863e-012 
-10 -0 -0 -0 -0 1:1 5:1 8:1 14:3.9616022 
-10 -0 -0 -0 -0 1:1 5:1 8:1 14:2.7987857 
-10 -0 -0 -0 -0 1:1 5:1 8:1 14:3.1071551 
-10 -0 -0 -0 -0 1:1 5:1 8:1 14:2.5905983 
-10 -0 -0 -10 -10 1:1 5:1 8:1 14:0.92750663 20:0.81851625 42:0.92750108 58:0.63791329 
-10 -0 -10 -10 -10 1:1 5:1 8:1 14:0.6107139 20:1.2309432 42:0.61071044 58:0.42003217 
-10 -0 -0 -1.549838053346951 -0 1:1 5:1 8:1 14:1.6498005 20:1.45594 42:0.72233862 58:0.4968074 
-10 -0 -0 -0 -0 1:1 5:1 8:1 14:2.3834016 20:1.2848625 42:0.63746154 58:0.43843096 
-10 -0 -0 -0 -0 1:1 5:1 8:1 14:2.5655439 20:0.88307232 42:0.43812051 58:0.30132887 
-10 -0 -0 -0 -0 1:1 5:1 8:1 14:2.9255044 20:0.68773735 42:0.34120861 58:0.23467518 
-10 -0 -0 -0 -7.384001562572522 1:1 5:1 8:1 14:2.4933672 20:0.36811927 42:0.1826358 58:0.12561257 
-10 -0 -0 -0 -0 1:1 5:1 8:1 14:3.1278462 20:0.32486412 42:0.16117553 58:0.11085272 
-10 -0 -0 -0 -0 1:1 5:1 8:1 14:3.077193 20:0.22327563 42:0.11077421 58:0.076187886 
-10 -0 -0 -0 -0 1:1 5:1 8:1 14:4.0046496 20:0.22327563 42:0.11077421 58:0.076187886 
-10 -0 -0 -0 -0 1:1 5:1 8:1 14:4.0462818 20:0.17388722 42:0.08627104 58:0.05933518 
-10 -0 -0 -0 -10 1:1 5:1 8:1 14:4.4982882 20:0.15345494 42:0.076133922 58:0.052363113 
-10 -0 -0 -0 -0 1:1 5:1 8:1 14:4.430728 20:0.11950971 42:0.059293162 58:0.040780436 
-10 -0 -0 -0 -0 1:1 5:1 8:1 14:3.6148298 20:0.072486304 42:0.03596244 58:0.024734583 
-10 -0 -0 -0 -0 1:1 5:1 8:1 14:3.7426903 20:0.056451786 42:0.028007578 58:0.019263312 
-10 -0 -0 -0 -0 1:1 5:1 8:1 14:3.8422682 20:0.043964699 42:0.021812323 58:0.015001814 
-10 -0 -0 -0 -0 1:1 5:1 8:1 14:4.3182492 20:0.038798712 42:0.019248778 58:0.013239055 
-10 -0 -0 -0 -10 1:1 5:1 8:1 14:4.7382994 20:0.034239739 42:0.016986987 58:0.011682895 
-10 -0 -0 -0 -5.218127679709759 1:1 5:1 8:1 14:4.61765 20:0.026665937 42:0.013229479 58:0.0090981172 
-10 -0 -0 -0 -0 1:1 5:1 8:1 14:3.7282033 20:0.016173707 42:0.0080240844 58:0.0055179233 
-10 -0 -0 -0 -0 1:1 5:1 8:1 14:4.2175851 20:0.014273248 42:0.0070812297 58:0.0048692287 
-10 -0 -0 -0 -0 1:1 5:1 8:1 14:2.9197047 20:0.0067422045 42:0.0033449361 58:0.0022998888 
-10 -0 -0 -0 -0 1:1 5:1 8:1 14:3.2013264 20:0.0052508344 42:0.0026050387 58:0.0017910033 
-10 -0 -0 -0 -0 1:1 5:1 8:1 14:3.4206529 20:0.0040893541 42:0.0020288064 58:0.0013947006 
-10 -0 -0 -0 -0 1:1 5:1 8:1 14:3.9461741 20:0.0036088424 42:0.0017904153 58:0.0012306849 
-10 -0 -0 -0 -10 1:1 5:1 8:1 14:1.925207 20:0.00091245817 42:0.00045268788 58:0.00031112751 
-10 -0 -0 -0 -0 1:1 5:1 8:1 14:2.426811 20:0.00071062316 42:0.00035255367 
-10 -0 -0 -0 -4.234383329843062 1:1 5:1 8:1 14:2.2264364 20:0.0002138346 42:0.00018870838 
-10 -0 -0 -0 -10 1:1 5:1 8:1 14:1.6502761 20:6.9421934e-005 
-10 -0 -0 -0 -10 1:1 5:1 8:1 14:1.4002523 20:1.9889716e-005 
-10 -0 -10 -10 -0 1:1 5:1 8:1 14:0.029395344 16:0.025 
-10 -0 -0 -0 -10 1:1 5:1 8:1 14:1.8898209 16:0.81847882 
-10 -0 -0 -0 -10 1:1 5:1 8:1 14:2.8172619 16:0.81847882 
-10 -0 -0 -0 -0 1:1 5:1 8:1 14:1.8550009 16:0.53892505 20:0.69199347 
-10 -0 -0 -0 -2.443116143234682 1:1 5:1 8:1 14:3.4136312 16:0.72230506 20:0.92745805 
-10 -0 -0 -10 -10 2:1 6:1 8:1 14:0.00048836344 16:0.025090164 20:0.002902041 34:0.025584817 40:0.022062423 42:0.0030556708 50:0.048387233 58:0.021637967 
-0 -0 -0 -0 -10 2:1 6:1 9:1 16:0.00037905344 34:0.00038792053 40:1.2360717 50:0.00066778419 58:0.0001592183 
-0 -0.08271661230881042 -2.804221911080609 -10 -10 2:1 6:1 9:1 16:0.025 40:0.02516265 
-0 -0 -0 -0 -9.882604219030599 2:1 6:1 9:1 16:0.34226176 40:1.5140499 50:0.49798793 
-6.449658962613217 -0 -0 -10 -10 2:1 6:1 8:1 34:2.703302e-005 40:0.90432292 50:0.0001778123 
-8.764696018095785 -0 -10 -10 -0 1:1 5:1 8:1 14:0.92745805 17:0.41297224 20:3.5235858 58:1.5407839 
-0 -0 -10 -10 -0 1:1 5:1 8:1 14:0.69199347 17:0.30641091 20:3.3210061 58:1.1496072 
-0 -0 -0 -10 -0 1:1 5:1 8:1 14:1.6497631 17:0.31983271 20:3.4644477 58:1.1999638 
-5.980383049424494 -0 -0 -0 -0 1:1 5:1 8:1 14:2.2122948 17:0.24908593 20:2.6960859 58:0.9345327 
-10 -0 -0 -0 -0 1:1 5:1 8:1 14:2.4479446 17:0.1697997 20:1.852991 58:0.64229429 
-10 -0 -0 -0 -0 1:1 5:1 8:1 14:2.4122114 17:0.10203039 20:1.123896 58:0.38957119 
-10 -0 -0 -0 -0 1:1 5:1 8:1 14:3.0562272 17:0.090041503 20:0.99087614 58:0.34379536 
-10 -0 -10 -10 -0 1:1 5:1 8:1 14:0.92749321 17:1.0335775e-006 20:1.1360044e-005 58:3.9463926e-006 
-10 -0 -0 -0 -10 1:1 5:1 8:1 14:1.6497905 17:7.4908473e-007 20:8.8472116e-006 58:3.0734536e-006 
-10 -0 -0 -0 -10 1:1 5:1 8:1 14:2.212316 17:5.340861e-007 20:6.890215e-006 58:2.3936082e-006 
-10 -0 -0 -0 -0 1:1 5:1 8:1 14:2.8798203 17:4.7132937e-007 20:6.0370849e-006 58:2.1123517e-006 
-10 -0 -0 -0 -0 1:1 5:1 8:1 14:3.8072782 17:4.7132937e-007 20:5.9812187e-006 58:2.1123517e-006 
-10 -0 -0 -0 -0 1:1 5:1 8:1 14:3.8925691 17:3.6707169e-007 20:4.6146693e-006 58:1.6451012e-006 
-10 -0 -0 -0 -0 1:1 5:1 8:1 14:1.2469797 17:3.0131076e-008 20:3.7420938e-007 58:1.3503814e-007 
-10 -0 -0 -0 -10 1:1 5:1 8:1 14:1.8986067 17:2.3466107e-008 20:2.8476228e-007 58:1.051678e-007 
-10 -0 -0 -0 -0 1:1 5:1 8:1 14:2.6029723 17:2.0708768e-008 20:2.4462958e-007 58:9.2810254e-008 
-10 -0 -0 -0 -0 1:1 5:1 8:1 14:3.2245729 17:1.8275422e-008 20:2.073175e-007 58:8.1904766e-008 
-10 -0 -0 -0 -0 1:1 5:1 8:1 14:3.7731338 17:8.5673468e-009 20:1.8295704e-007 58:7.2280699e-008 
-10 -0 -0 -0 -0 1:1 5:1 8:1 14:3.8659778 17:6.6722565e-009 20:1.3581483e-007 58:5.6292269e-008 
-10 -0 -0 -0 -0 1:1 5:1 8:1 14:0.96090543 20:1.1750285e-009 58:4.8702353e-010 
-10 -0 -0 -0 -10 1:1 5:1 8:1 14:1.7754539 20:9.7154662e-010 58:4.2979675e-010 
-10 -0 -0 -0 -0 1:1 5:1 8:1 14:2.4942904 20:7.8326468e-010 58:3.7929432e-010 
-10 -0 -0 -0 -0 1:1 5:1 8:1 14:2.8700135 20:5.4459465e-010 58:2.9539471e-010 
-10 -0 -0 -0 -0 1:1 5:1 8:1 14:3.4602361 20:4.2287679e-010 58:2.6068492e-010 
-10 -0 -0 -0 -0 1:1 5:1 8:1 14:3.9811056 20:3.0777497e-010 58:2.3005362e-010 
-10 -0 -0 -0 -0 1:1 5:1 8:1 14:3.6636291 20:1.6058713e-010 58:1.5811338e-010 
-10 -0 -0 -0 -0 1:1 5:1 8:1 14:3.4454315 20:6.5412502e-011 58:1.0866964e-010 
-10 -0 -0 -0 -10 1:1 5:1 8:1 14:1.6059036 20:1.2880485e-011 58:1.1366989e-011 
-10 -0 -0 -0 -0 1:1 5:1 8:1 14:2.3446634 20:1.1366989e-011 
-10 -0 -0 -0 -0 1:1 5:1 8:1 14:2.5389197 20:7.8124096e-012 
-10 -0 -0 -0 -0 1:1 5:1 8:1 14:2.9047706 
-10 -0 -0 -0 -0 1:1 5:1 8:1 14:2.9238758 
-10 -0 -0 -0 -0 1:1 5:1 8:1 14:3.2045746 
-10 -0 -0 -0 -0 1:1 5:1 8:1 14:3.7554855 
-10 -0 -0 -0 -0 1:1 5:1 8:1 14:4.2416615 
-10 -0 -0 -0 -0 1:1 5:1 8:1 14:3.5001564 
-10 -0 -0 -0 -0 1:1 5:1 8:1 14:3.3330774 
-10 -0 -0 -0 -0 1:1 5:1 8:1 14:3.218246 
-10 -0 -0 -0 -0 1:1 5:1 8:1 14:2.447649 
-10 -0 -0 -0 -0 1:1 5:1 8:1 14:2.6097009 
-10 -0 -0 -0 -0 1:1 5:1 8:1 14:3.230511 
-10 -0 -0 -0 -10 1:1 5:1 8:1 14:2.1158972 
-10 -0 -0 -0 -0 1:1 5:1 8:1 14:2.3816907 
-10 -0 -0 -0 -0 1:1 5:1 8:1 14:3.0292916 
-10 -0 -0 -0 -0 1:1 5:1 8:1 14:3.6007979 
-10 -0 -0 -0 -0 1:1 5:1 8:1 14:4.1051497 
-10 -0 -0 -0 -0 1:1 5:1 8:1 14:4.1245518 
-10 -0 -0 -0 -0 1:1 5:1 8:1 14:4.1396618 
-10 -0 -0 -0 -0 1:1 5:1 8:1 14:4.1513753 
-10 -0 -0 -0 -0 1:1 5:1 8:1 14:4.5909801 
-10 -0 -0 -0 -0 1:1 5:1 8:1 14:2.6676803 20:0.69199347 
-10 -0 -0 -0 -0 1:1 5:1 8:1 14:4.0826936 20:0.81847882 
-10 -0 -0 -0 -10 2:1 6:1 9:1 14:0.92745805 20:0.72230506 42:0.72230506 50:1.913164 58:3.6083498 
-0.4349997107561441 -0 -0 -10 -10 2:1 6:1 9:1 14:0.068627454 20:0.053447116 42:0.12207457 50:0.14156497 58:0.26700062 
-0 -0 -0 -9.376695907056273 -10 2:1 6:1 9:1 14:0.61068207 20:1.1675932 42:1.0862818 50:1.2597173 58:2.3759077 
-0 -0 -0 -10 -10 2:1 6:1 9:1 14:0.022062423 16:0.025 20:0.042182233 42:0.039244656 50:0.045510452 58:0.085835628 
-0 -0 -0 -0 -10 2:1 6:1 9:1 14:1.3655581 16:0.49643254 20:0.83762527 42:0.77929294 50:0.9037146 58:1.7044638 
-0 -0 -0 -0 -10 2:1 6:1 9:1 14:2.2930162 16:0.49643254 20:0.83762527 42:0.77929294 50:0.9037146 58:1.7044638 
-0 -0 -0 -0 -10 2:1 6:1 9:1 14:2.3182425 16:0.30110154 20:0.50804543 42:0.47266507 50:0.54813063 58:1.0338095 
-0 -0 -0 -1.717118329852975 -10 2:1 6:1 9:1 14:0.9274742 16:2.0963607e-006 20:3.537167e-006 42:3.2908383e-006 50:3.8162525e-006 58:7.197697e-006 
-0 -0 -0 -0 -10 2:1 6:1 9:1 14:1.5649012 16:1.4408063e-006 20:2.4310571e-006 42:2.2617578e-006 50:2.6228697e-006 58:4.9469004e-006 
-0 -0 -0 -0 -10 2:1 6:1 9:1 14:2.3084784 16:1.2715071e-006 20:2.1454002e-006 42:1.9959941e-006 50:2.3146745e-006 58:4.3656237e-006 
-0 -0 -0 -0 -10 2:1 6:1 9:1 14:2.9646831 16:1.122101e-006 20:1.893309e-006 42:1.7614586e-006 50:2.0426928e-006 58:3.8526496e-006 
-0 -0 -0 -0 -10 2:1 6:1 9:1 14:3.2363555 16:8.7389316e-007 20:1.4745106e-006 42:1.3718254e-006 50:1.5908508e-006 58:3.0004464e-006 
-0 -0 -0 -0 -10 2:1 6:1 9:1 14:3.7835319 16:7.7120802e-007 20:1.301251e-006 42:1.2106317e-006 50:1.4039209e-006 58:2.6478849e-006 
-10 -0 -0 -0 -10 2:1 6:1 8:1 14:3.2222862 16:4.6776131e-007 20:7.8924859e-007 42:7.3428521e-007 50:8.0801243e-007 58:1.6060233e-006 
-0 -0 -0 -0 -10 2:1 6:1 8:1 14:3.7711151 16:4.127979e-007 20:6.9650946e-007 42:6.480044e-007 50:6.6955994e-007 58:1.4173105e-006 
-10 -0 -0 -0 -10 2:1 6:1 8:1 14:3.519305 16:2.8371156e-007 20:4.787035e-007 42:4.4536648e-007 50:4.2629688e-007 58:9.7410236e-007 
-10 -0 -0 -10 -10 2:1 6:1 8:1 14:3.0620244 16:1.7207977e-007 20:2.9034834e-007 42:2.7012842e-007 50:2.3527366e-007 58:5.9082288e-007 
-10 -0 -0 -10 -10 2:1 6:1 8:1 14:2.0539136 16:6.3304611e-008 20:1.0681319e-007 42:9.9374702e-008 50:7.6844266e-008 58:2.1735161e-007 
-10 -0 -0 -10 -10 2:1 6:1 8:1 14:2.0268388 16:3.3884515e-008 20:5.7172979e-008 42:5.3191446e-008 50:3.0131076e-008 58:1.1633994e-007 
-10 -0 -0 -10 -10 2:1 6:1 8:1 14:2.7161367 16:2.9902981e-008 20:5.0454979e-008 42:4.6941285e-008 50:2.6590584e-008 58:9.1668944e-008 
-10 -0 -0 -10 -10 2:1 6:1 8:1 14:2.79423 16:2.0551997e-008 20:3.4677164e-008 42:3.2262243e-008 50:1.8275422e-008 58:5.4435738e-008 
-10 -0 -0 -0 -10 2:1 6:1 8:1 14:3.3933568 16:1.8137074e-008 20:3.0602489e-008 42:2.8471327e-008 50:8.5673468e-009 58:4.8039364e-008 
-0 -0 -0 -0 -10 2:1 6:1 8:1 14:3.9220848 16:1.6005911e-008 20:2.7006603e-008 42:2.5125857e-008 58:4.2394589e-008 
-0 -0 -0 -0 -10 2:1 6:1 8:1 14:4.3886852 16:1.4125167e-008 20:2.3833243e-008 42:2.2173491e-008 58:3.0740839e-008 
-0 -0 -0 -0 -10 2:1 6:1 8:1 14:4.8004599 16:1.2465416e-008 20:2.1032763e-008 42:1.9568038e-008 58:1.9568038e-008 
-0 -0 -0 -0 -10 2:1 6:1 8:1 14:5.1638494 16:1.1000691e-008 20:1.8561348e-008 42:9.7080761e-009 58:1.7268732e-008 
-0 -0 -0 -0 -10 2:1 6:1 8:1 14:4.4765162 16:7.560657e-009 20:1.2757015e-008 42:6.6722565e-009 58:6.6722565e-009 
-0 -0 -0 -0 -10 2:1 6:1 8:1 14:4.4137716 16:5.8882459e-009 20:5.8882459e-009 42:5.1963585e-009 58:5.1963585e-009 
-10 -0 -0 -0 -10 2:1 6:1 8:1 14:3.6045456 16:3.5714016e-009 20:3.5714016e-009 42:3.1517509e-009 
-0 -0 -0 -0 -10 2:1 6:1 8:1 14:4.108458 16:3.1517509e-009 20:3.1517509e-009 42:2.7814104e-009 
-10 -0 -0 -0 -10 2:1 6:1 8:1 14:3.4193635 16:1.9116335e-009 20:1.9116335e-009 
-0 -0 -0 -0 -10 2:1 6:1 8:1 14:3.9450366 16:1.6870106e-009 
-10 -0 -0 -0 -10 2:1 6:1 8:1 14:3.3202438 
-10 -0 -0 -0 -10 2:1 6:1 8:1 14:3.5132661 
-0 -0 -0 -0 -10 2:1 6:1 8:1 14:4.0279045 
-0 -0 -0 -0 -10 2:1 6:1 8:1 14:4.4820724 
-0 -0 -0 -0 -10 2:1 6:1 8:1 14:4.4178848 
-0 -0 -0 -0 -10 2:1 6:1 8:1 14:4.8259535 
-0 -0 -0 -0 -10 2:1 6:1 8:1 14:4.6856723 
-0 -0 -0 -0 -10 2:1 6:1 8:1 14:5.0623064 
-10 -0 -0 -0 -10 2:1 6:1 8:1 14:3.3185754 
-0 -0 -0 -0 -10 2:1 6:1 8:1 14:3.8559439 
-0 -0 -0 -0 -10 2:1 6:1 8:1 14:3.9302809 
-0 -0 -0 -0 -10 2:1 6:1 8:1 14:4.3957305 
-0 -0 -0 -0 -10 2:1 6:1 8:1 14:3.9484081 
-0 -0 -0 -0 -10 2:1 6:1 8:1 14:4.4116411 
-0 -0 -0 -0 -10 2:1 6:1 8:1 14:4.8200593 
-0 -0 -0 -7.971236368686835 -10 2:1 6:1 8:1 14:5.1800604 
-0 -0 -0 -0 -10 2:1 6:1 8:1 14:4.9607348 
-0 -0 -0 -0 -10 2:1 6:1 8:1 14:3.9354489 
-10 -0 -0 -0 -10 2:1 6:1 8:1 14:3.3138475 
-10 -0 -0 -10 -10 2:1 6:1 8:1 14:2.9370091 
-10 -0 -0 -0 -10 2:1 6:1 8:1 14:3.2144496 
-0 -0 -0 -0 -10 2:1 6:1 8:1 14:4.1415086 
-0 -0 -0 -0 -10 2:1 6:1 8:1 14:4.1525164 
-0 -0 -0 -0 -10 2:1 6:1 8:1 14:3.7810848 
-0 -0 -0 -0 -10 2:1 6:1 8:1 14:4.263855 
-0 -0 -0 -0 -10 2:1 6:1 8:1 14:3.857506 
-10 -0 -0 -10 -10 2:1 6:1 8:1 14:2.749373 
-10 -0 -0 -2.405015121919669 -10 2:1 6:1 8:1 14:3.0683601 
-10 -0 -0 -0 -10 2:1 6:1 8:1 14:3.3168249 
-0 -0 -0 -0 -10 2:1 6:1 8:1 14:3.8541462 
-0 -0 -0 -0 -10 2:1 6:1 8:1 14:4.3282781 
-10 -0 -0 -10 -10 2:1 6:1 8:1 14:2.7315388 
-10 -0 -0 -0 -10 2:1 6:1 8:1 14:3.3378186 
-10 -0 -0 -0 -10 2:1 6:1 8:1 14:3.5267401 
-10 -0 -0 -0 -10 2:1 6:1 8:1 14:3.6738973 
-0 -0 -0 -0 -10 2:1 6:1 8:1 14:4.1694469 
-0 -0 -0 -0 -10 2:1 6:1 8:1 14:4.6067681 
-0 -0 -0 -0 -10 2:1 6:1 8:1 14:4.9925184 
-0 -0 -0 -10 -10 2:1 6:1 8:1 14:5.3329401 
-0 -0 -0 -0 -10 2:1 6:1 8:1 14:5.0803566 
-0 -0 -0 -10 -10 2:1 6:1 8:1 14:5.4104576 
-0 -6.449578982055023 -0 -10 -10 2:1 6:1 8:1 14:5.7016568 
-0 -0 -0 -10 -10 2:1 6:1 8:1 14:5.3674617 
-10 -0 -0 -0 -10 2:1 6:1 8:1 14:3.4626241 
-0 -0 -0 -0 -10 2:1 6:1 8:1 14:3.9829707 
-0 -0 -0 -0 -10 2:1 6:1 8:1 14:4.4421444 
-0 -0 -0 -0 -10 2:1 6:1 8:1 14:4.8472357 
-10 -0 -0 -10 -10 2:1 6:1 8:1 14:2.9478118 
-10 -0 -0 -10 -10 2:1 6:1 8:1 14:2.7151217 
-10 -0 -0 -10 -10 2:1 6:1 8:1 14:2.3805692 
-10 -0 -0 -10 -10 2:1 6:1 8:1 14:3.028136 
-0 -0 -0 -0 -10 2:1 6:1 8:1 14:3.9553804 
-0 -0 -0 -0 -10 2:1 6:1 8:1 14:4.0076694 
-10 -0 -0 -0 -10 2:1 6:1 8:1 14:3.3580656 
-0 -0 -0 -0 -10 2:1 6:1 8:1 14:3.8907266 
-10 -0 -0 -0 -10 2:1 6:1 8:1 14:3.2870286 
-0 -0 -0 -0 -10 2:1 6:1 8:1 14:3.8279397 
-10 -0 -0 -0 -10 2:1 6:1 8:1 14:3.2489781 
-10 -0 -0 -0 -10 2:1 6:1 8:1 14:3.4575503 
-10 -0 -0 -0 -10 2:1 6:1 8:1 14:3.6200128 
-0 -0 -0 -0 -10 2:1 6:1 8:1 14:4.1217098 
-10 -0 -0 -0 -10 2:1 6:1 8:1 14:3.4271257 
-10 -0 -0 -10 -10 2:1 6:1 8:1 14:2.5461512 
-10 -0 -0 -0 -10 2:1 6:1 8:1 14:3.1742404 
-3.268701497370896 -0 -0 -0 -10 2:1 6:1 8:1 14:3.7285261 
-0 -0 -0 -0 -10 2:1 6:1 8:1 14:4.6557708 
-0 -0 -0 -0 -10 2:1 6:1 8:1 14:5.0359473 
-10 -0 -0 -0 -10 2:1 6:1 8:1 14:3.3061564 
-0 -0 -0 -0 -10 2:1 6:1 8:1 14:3.8450007 
-0 -0 -0 -0 -10 2:1 6:1 8:1 14:4.7723122 
-0 -0 -0 -0 -10 2:1 6:1 8:1 14:5.1388626 
-0 -0 -0 -10 -10 2:1 6:1 8:1 14:5.4623222 
-0 -0 -0 -0 -10 2:1 6:1 8:1 14:3.8510389 
-0 -0 -0 -0 -10 2:1 6:1 8:1 14:3.9264836 
-10 -0 -0 -0 -10 2:1 6:1 8:1 14:3.3088758 
-0 -0 -0 -0 -10 2:1 6:1 8:1 14:4.2362041 
-10 -0 -0 -0 -10 2:1 6:1 8:1 14:3.4966569 
-0 -0 -0 -0 -10 2:1 6:1 8:1 14:4.0129719 
-0 -0 -0 -0 -10 2:1 6:1 8:1 14:4.0523643 
-10 -0 -0 -10 -10 2:1 6:1 8:1 14:1.3545263 
-10 -0 -0 -10 -10 2:1 6:1 8:1 14:1.6524582 
-10 -0 -0 -10 -10 2:1 6:1 8:1 14:2.3857183 
-10 -0 -0 -10 -10 2:1 6:1 8:1 14:3.032805 
-10 -0 -0 -0 -10 2:1 6:1 8:1 14:3.603857 
-0 -0 -0 -0 -10 2:1 6:1 8:1 14:3.7340903 
-0 -0 -0 -0 -10 2:1 6:1 8:1 14:3.8355231 
-0 -0 -0 -0 -10 2:1 6:1 8:1 14:4.3122263 
-0 -0 -0 -10 -10 2:1 6:1 8:1 14:5.2395949 
-10 -0 -0 -10 -10 2:1 6:1 8:1 14:0.12463706 16:0.025 
-0 -0.1428346163075792 -0 -9.97919763553255 -10 2:1 6:1 8:1 14:5.5511684 16:0.92745805 
-0 -0 -0 -0 -10 3:1 7:1 8:1 14:2.1274219 16:0.72230506 20:1.0755322 30:9.6087479e-024 42:0.94915378 50:0.5314424 54:6.9360642e-024 58:1.1513817 65:8.2864797e-024 67:7.3187186e-024 
-0 -0 -0 -0 -10 3:1 7:1 8:1 14:2.5842957 16:0.56253177 20:0.83762527 30:7.4833002e-024 42:0.73920166 50:0.41388774 54:5.4018122e-024 58:0.89669704 65:6.1845764e-024 67:5.6998238e-024 
-0 -0 -0 -0 -10 3:1 7:1 8:1 14:2.9401095 16:0.43810016 20:0.65234327 30:5.8280002e-024 42:0.57569087 50:0.32233608 54:4.2069356e-024 58:0.69834828 65:4.5476127e-024 67:4.4390268e-024 
-0 -0 -0 -0 -10 3:1 7:1 8:1 14:2.948164 16:0.30110154 20:0.44834852 30:4.0055221e-024 42:0.39566615 50:0.22153814 54:2.8913817e-024 58:0.4799673 65:2.9160746e-024 67:3.0508957e-024 
-0 -0 -0 -0 -10 3:1 7:1 8:1 14:2.5054967 16:0.16116804 20:0.23998365 30:2.1440015e-024 42:0.21178484 50:0.11858082 54:1.5476452e-024 58:0.256908 65:1.3977416e-024 67:1.6330267e-024 
-0 -0 -0 -0 -10 3:1 7:1 8:1 14:2.4471185 16:0.097753353 20:0.14555743 30:1.3004026e-024 42:0.128454 50:0.071922898 54:9.3869429e-025 58:0.15582258 65:5.0244681e-025 67:9.9048083e-025 
-0 -0 -0 -0 -10 3:1 7:1 8:1 14:3.3745766 16:0.097753353 20:0.14555743 30:1.3004026e-024 42:0.128454 50:0.071922898 54:9.3869429e-025 58:0.15582258 65:5.0244681e-025 67:6.4515451e-025 
-0 -0 -0 -0 -10 3:1 7:1 8:1 14:3.9055114 16:0.086267032 20:0.128454 30:1.1476013e-024 42:0.11336026 50:0.063471735 54:8.2839477e-025 58:0.13751294 67:5.693468e-025 
-0 -0 -0 -0 -10 3:1 7:1 8:1 14:1.6061341 16:0.014990963 20:0.022321958 30:1.1211104e-025 42:0.019699059 50:0.011029734 54:1.4395342e-025 58:0.023896165 67:9.8937647e-026 
-0 -0 -0 -0 -10 3:1 7:1 8:1 14:2.3448663 16:0.013229479 20:0.019699059 30:9.8937647e-026 42:0.017384358 50:0.0097337067 54:1.2703844e-025 58:0.021088291 67:8.731216e-026 
-0 -0 -0 -0 -10 3:1 7:1 8:1 14:2.1825747 16:0.0070812297 20:0.010544145 30:5.2957508e-026 42:0.0093051763 50:0.0052100774 54:6.7998781e-026 58:0.01128775 
-0 -0 -0 -0 -10 3:1 7:1 8:1 14:2.8535728 16:0.0062491633 20:0.0093051763 42:0.0082117897 50:0.0045978776 54:6.0008711e-026 58:0.0099614039 
-0 -0 -0 -0 -10 3:1 7:1 8:1 14:3.4457276 16:0.0055148671 20:0.0082117897 42:0.007246878 50:0.0040576127 54:5.2957508e-026 58:0.0087909084 
-0 -0 -0 -0 -10 3:1 7:1 8:1 14:3.9683018 16:0.0048668534 20:0.007246878 42:0.0063953479 50:0.0035808305 54:4.6734835e-026 58:0.0077579492 
-10 -0 -0 -0 -10 3:1 7:1 8:1 14:1.3457139 16:0.00051296252 20:0.00076381536 42:0.00067406474 50:0.00037741676 54:4.9258154e-027 58:0.00081768184 
-0 -0 -0 -0 -10 3:1 7:1 8:1 14:1.9755009 16:0.00039949565 20:0.00059486006 42:0.00052496209 50:0.00029393245 58:0.00063681125 
-0 -0 -0 -0 -10 3:1 7:1 8:1 14:1.9848675 16:0.0002138346 20:0.00031840563 42:0.00028099195 50:0.00015733071 58:0.00027143856 
-0 -0 -0 -0 -10 3:1 7:1 8:1 14:2.6790972 16:0.00018870838 20:0.00028099195 42:0.00024797453 50:0.00013884387 58:0.00017827905 
-0 -0 -0 -0 -10 3:1 7:1 8:1 14:3.0139413 16:0.00014696622 20:0.00021883677 42:0.00019312277 50:5.4065855e-005 58:0.00013884387 
-0 -0 -0 -0 -10 3:1 7:1 8:1 14:3.5872517 16:0.00012969725 20:0.00019312277 42:0.00017043026 58:0.00012252928 
-0 -0 -0 -0 -10 3:1 7:1 8:1 14:1.4775807 16:1.9889716e-005 20:2.9616336e-005 42:2.6136324e-005 58:9.3952367e-006 
-0 -0 -0 -0 -10 3:1 7:1 8:1 14:2.0781987 16:1.5490126e-005 20:2.3065226e-005 42:2.035499e-005 
-2.136683738080582 -0 -0 -0 -10 3:1 7:1 8:1 14:1.4529091 16:3.9165175e-006 20:5.8318024e-006 42:3.0501869e-006 
-0 -0 -0 -0 -10 3:1 7:1 8:1 14:2.058985 16:3.0501869e-006 20:2.6917803e-006 42:2.3754878e-006 
-0 -0 -0 -0 -10 3:1 7:1 8:1 14:1.9000527 16:1.4408063e-006 20:1.2715071e-006 42:1.122101e-006 
-0 -0 -0 -0 -10 3:1 7:1 8:1 14:2.4072204 16:1.122101e-006 20:9.9025067e-007 
-0 -0 -0 -0 -10 3:1 7:1 8:1 14:2.387511 16:6.805887e-007 
-0 -0 -0 -0 -10 3:1 7:1 8:1 14:2.7868536 16:5.30043e-007 
-0 -0 -0 -0 -10 3:1 7:1 8:1 14:1.7259048 
-0 -0 -0 -0 -10 3:1 7:1 8:1 14:2.4505632 
-0 -0 -0 -0 -10 3:1 7:1 8:1 14:3.0900729 
-0 -0 -0 -0 -10 3:1 7:1 8:1 14:3.6544373 
-0 -0 -0 -0 -10 3:1 7:1 8:1 14:3.7735369 
-0 -0 -0 -0 -10 3:1 7:1 8:1 14:3.5209689 
-0 -0 -0 -0 -10 3:1 7:1 8:1 14:4.0346999 
-0 -7.194762625593656 -0 -0 -10 3:1 7:1 8:1 14:4.0696869 
-0 -0 -0 -0 -10 3:1 7:1 8:1 14:3.7245095 
-6.397494924249707 -0 -0 -0 -10 3:1 7:1 8:1 14:0.088598818 16:0.025 
-0 -0 -0 -0 -10 3:1 7:1 8:1 14:2.1642268 16:0.61068207 20:0.69199347 
-0 -0 -0 -0 -10 3:1 7:1 8:1 14:3.1864829 16:0.63743198 20:0.72230506 
-0 -6.644158806352478 -0 -10 -10 3:1 7:1 8:1 14:0.92745805 20:3.4319398 42:0.10004007 50:0.11521899 54:0.013330393 58:0.12866451 
-0 -0.4536309902591282 -6.985466749700196 -10 -10 3:1 7:1 8:1 14:0.69199347 20:3.2526267 42:0.074641734 50:0.085668944 54:0.0099460501 58:0.09599895 
-0 -0 -6.922857280099344 -0 -10 3:1 7:1 8:1 14:0.019470019 16:0.025 20:0.091516353 42:0.0021001296 50:0.0024103927 54:0.00014865544 58:0.0027010392 
-0 -0 -0 -0 -10 3:1 7:1 8:1 14:1.56489 16:0.81847882 20:2.9961674 42:0.068756469 50:0.078914218 58:0.088429734 
-0 -0 -0 -0 -10 3:1 7:1 8:1 14:2.4923482 16:0.81847882 20:2.9961674 42:0.068756469 50:0.071832985 58:0.088429734 
-0 -0 -0 -0 -10 3:1 7:1 8:1 14:3.1269474 16:0.72230506 20:2.6441085 42:0.060677368 50:0.054299906 58:0.078038976 
-0 -0 -0 -0 -10 3:1 7:1 8:1 14:3.6869795 16:0.63743198 20:2.3334177 42:0.053547591 50:0.039895415 58:0.068869151 
-0 -0 -0 -0 -10 3:1 7:1 8:1 14:3.7988806 16:0.49643254 20:1.8172672 42:0.041702904 50:0.021978103 58:0.053635344 
-0 -0 -0 -0 -10 3:1 7:1 8:1 14:4.2799587 16:0.43810016 20:1.6037328 42:0.036802687 50:0.019395607 58:0.039308943 
-0 -0 -0 -0 -10 3:1 7:1 8:1 14:4.2606931 16:0.34119275 20:1.2489885 42:0.028661961 50:0.015105315 58:0.023532607 
-0 -0 -0 -0 -10 3:1 7:1 8:1 14:5.1881509 16:0.34119275 20:1.2489885 42:0.028661961 50:0.0080240844 58:0.023532607 
-0 -0 -0 -0 -10 3:1 7:1 8:1 14:4.4932184 16:0.23449811 20:0.8584162 42:0.019699059 58:0.016173707 
-0 -0 -0 -0 -10 3:1 7:1 8:1 14:4.0155988 16:0.16116804 20:0.58998042 42:0.013538951 58:0.0062491633 
-0 -0 -0 -0 -10 3:1 7:1 8:1 14:3.6873362 16:0.11076907 20:0.40548724 42:0.0055148671 58:0.0042949826 
-0 -0 -0 -0 -10 3:1 7:1 8:1 14:4.1815209 16:0.097753353 20:0.35784122 42:0.0048668534 
-0 -0 -0 -0 -10 3:1 7:1 8:1 14:4.6176376 16:0.086267032 20:0.31244877 42:0.0042949826 
-0 -0 -0 -0 -10 3:1 7:1 8:1 14:3.7281961 16:0.052323602 20:0.18950975 
-0 -0 -0 -0 -10 3:1 7:1 8:1 14:2.4816017 16:0.021811724 20:0.077605046 
-0 -0 -0 -0 -10 3:1 7:1 8:1 14:1.733116 16:0.0070812297 20:0.024681706 
-0 -0 -0 -0 -10 3:1 7:1 8:1 14:2.4569278 16:0.0062491633 20:0.021328846 
-0 -0 -0 -0 -10 3:1 7:1 8:1 14:3.0956888 16:0.0055148671 20:0.018241376 
-0 -0 -0 -0 -10 3:1 7:1 8:1 14:0.05735122 16:0.02510217 20:0.0003257402 
-0 -0 -0 -0 -10 3:1 7:1 8:1 14:0.96284735 16:0.42143053 20:0.69716418 
-0 -0 -0 -0 -10 3:1 7:1 8:1 14:2.2179329 16:0.56483072 20:0.93387514 
-0 -6.998817524542729 -10 -10 -4.214890517528127 1:1 5:1 8:1 14:0.92745805 17:0.02239817 20:3.9941118 
-0 -0 -10 -10 -0.7100633560058955 1:1 5:1 8:1 14:0.69199347 17:0.016711624 20:3.6720734 
-10 -0 -10 -10 -0 1:1 5:1 8:1 14:0.019470019 16:0.025 17:0.00044436805 20:0.10331797 
-0 -0 -10 -10 -0 1:1 5:1 8:1 14:1.3655581 16:0.56253177 17:0.0093401885 20:2.324785 
-0 -0 -0 -2.284179268947706 -0 1:1 5:1 8:1 14:2.1325588 16:0.49643254 17:0.0082426872 20:2.0500357 
-10 -0 -0 -0 -0 1:1 5:1 8:1 14:2.5882967 16:0.38662204 17:0.0051888782 20:1.5965693 
-10 -0 -0 -0 -0 1:1 5:1 8:1 14:3.2116218 16:0.34119275 17:0.0045791687 20:1.407573 
-10 -0 -7.504351478102018 -10 -0 1:1 5:1 8:1 14:1.2826201 16:0.1362616 17:0.0012719051 20:1.2541336 
-10 -0 -0 -0 -0 1:1 5:1 8:1 14:2.444521 16:0.16116804 17:0.00084573228 20:1.4833694 
-10 -0 -10 -10 -0 1:1 5:1 8:1 14:1.2535481 16:0.082646839 17:0.00043369079 20:1.4522812 
-10 -0 -10 -10 -0 1:1 5:1 8:1 14:0.67097598 16:0.044237662 20:1.4693437 
-10 -0 -0 -10 -0 1:1 5:1 8:1 14:1.5455297 16:0.040749662 20:1.353248 
-10 -0 -10 -10 -0 1:1 5:1 8:1 14:1.1531481 16:0.030404072 20:1.7014723 
-10 -0 -0 -0 -0 1:1 5:1 8:1 14:2.1311176 16:0.031735867 20:1.7757273 
-10 -0 -0 -0 -0 1:1 5:1 8:1 14:3.0585759 16:0.031735867 20:1.7753278 
-10 -0 -0 -0 -0 1:1 5:1 8:1 14:3.6266418 16:0.028006807 20:1.566322 
-10 -0 -0 -0 -0 1:1 5:1 8:1 14:2.868659 16:0.014990963 20:0.83764529 
-10 -0 -0 -0 -0 1:1 5:1 8:1 14:3.1615725 16:0.011674974 20:0.65161252 
-10 -0 -0 -0 -0 1:1 5:1 8:1 14:3.7175355 16:0.010303129 20:0.57438731 
-10 -0 -0 -0 -0 1:1 5:1 8:1 14:4.2081718 16:0.0090924781 20:0.50623643 
-10 -0 -0 -0 -0 1:1 5:1 8:1 14:2.681685 16:0.0037903092 20:0.21071959 
-10 -0 -0 -0 -0 1:1 5:1 8:1 14:2.5539823 16:0.0022989388 20:0.12753332 
-10 -0 -0 -0 -0 1:1 5:1 8:1 14:3.4814401 16:0.0022989388 20:0.12695205 
-10 -0 -0 -0 -0 1:1 5:1 8:1 14:2.5719736 16:0.0010859417 20:0.059615355 
-10 -0 -0 -0 -0 1:1 5:1 8:1 14:3.1972165 16:0.00095834018 20:0.05225781 
-10 -0 -0 -0 -0 1:1 5:1 8:1 14:3.7489917 16:0.00084573228 20:0.045764808 
-10 -0 -0 -0 -0 1:1 5:1 8:1 14:0.97465086 16:1.0646198e-005 20:0.00057106488 
-10 -0 -0 -0 -10 1:1 5:1 8:1 14:1.7875843 16:9.3952367e-006 20:0.00049952505 
-10 -0 -0 -0 -0 1:1 5:1 8:1 14:2.5049958 16:8.2912675e-006 20:0.00043639133 
-10 -0 -0 -0 -0 1:1 5:1 8:1 14:3.1381032 16:7.3170177e-006 20:0.00038511396 
-10 -0 -0 -0 -0 1:1 5:1 8:1 14:2.8308146 16:4.4379954e-006 20:0.00023012715 
-10 -0 -0 -0 -0 1:1 5:1 8:1 14:3.132098 20:0.00017922318 
-10 -0 -0 -0 -0 1:1 5:1 8:1 14:3.366734 20:0.00013957918 
-10 -0 -0 -0 -0 1:1 5:1 8:1 14:3.5494692 20:0.00010870436 
-10 -0 -0 -0 -0 1:1 5:1 8:1 14:1.0346427 20:3.2825874e-006 
-10 -0 -0 -0 -10 1:1 5:1 8:1 14:1.6385565 20:2.2560869e-006 
-10 -0 -0 -0 -0 1:1 5:1 8:1 14:1.0798675 20:1.8929678e-007 
-10 -0 -0 -0 -10 1:1 5:1 8:1 14:1.5054696 20:1.0132327e-007 
-10 -0 -0 -0 -0 1:1 5:1 8:1 14:2.2560301 20:7.3411556e-008 
-10 -0 -0 -0 -0 1:1 5:1 8:1 14:2.9183977 20:3.8396188e-008 
-10 -0 -0 -0 -0 1:1 5:1 8:1 14:3.5029352 20:3.3884515e-008 
-10 -0 -0 -0 -0 1:1 5:1 8:1 14:3.6555464 
-10 -0 -0 -0 -0 1:1 5:1 8:1 14:3.7744002 
-10 -0 -0 -0 -0 1:1 5:1 8:1 14:4.2583542 
-10 -0 -0 -0 -10 1:1 5:1 8:1 14:1.8776253 
-10 -0 -0 -0 -10 1:1 5:1 8:1 14:2.2179301 
-10 -0 -0 -0 -0 1:1 5:1 8:1 14:2.8847737 
-10 -0 -0 -0 -0 1:1 5:1 8:1 14:3.1741223 
-10 -0 -0 -0 -0 1:1 5:1 8:1 14:3.1089981 
-10 -0 -0 -0 -0 1:1 5:1 8:1 14:3.6711392 
-10 -0 -0 -0 -0 1:1 5:1 8:1 14:2.6615815 
-10 -0 -0 -0 -0 1:1 5:1 8:1 14:3.2762952 
-10 -0 -0 -0 -0 1:1 5:1 8:1 14:2.2932212 
-10 -0 -0 -0 -0 1:1 5:1 8:1 14:2.7134206 
-10 -0 -0 -0 -0 1:1 5:1 8:1 14:3.3220434 
-10 -0 -0 -0 -0 1:1 5:1 8:1 14:3.8591502 
-10 -0 -0 -0 -0 1:1 5:1 8:1 14:3.5798101 
-10 -0 -0 -0 -0 1:1 5:1 8:1 14:3.7154169 
-10 -0 -0 -0 -0 1:1 5:1 8:1 14:4.2063012 
-10 -0 -0 -0 -0 1:1 5:1 8:1 14:4.6395059 
-10 -0 -0 -0 -9.698197858537249 1:1 5:1 8:1 14:1.3082918 
-10 -0 -0 -0 -10 1:1 5:1 8:1 14:2.0820212 
-10 -0 -0 -0 -0 1:1 5:1 8:1 14:0.94335443 
-10 -0 -0 -0 -10 1:1 5:1 8:1 14:1.6621429 
-10 -0 -0 -0 -0 1:1 5:1 8:1 14:2.3942947 
-10 -0 -0 -0 -10 1:1 5:1 8:1 14:2.0584426 
-10 -0 -0 -0 -0 1:1 5:1 8:1 14:2.7440271 
-10 -0 -0 -0 -0 1:1 5:1 8:1 14:3.3490534 
-10 -0 -0 -0 -0 1:1 5:1 8:1 14:3.882987 
-10 -0 -0 -0 -0 1:1 5:1 8:1 14:3.282609 
-10 -0 -0 -0 -0 1:1 5:1 8:1 14:3.8243496 
-10 -0 -0 -0 -0 1:1 5:1 8:1 14:4.302434 
-10 -0 -0 -0 -0 1:1 5:1 8:1 14:3.8844755 
-10 -0 -0 -0 -0 1:1 5:1 8:1 14:3.5972161 
-10 -0 -0 -0 -0 1:1 5:1 8:1 14:4.1019893 
-10 -0 -0 -0 -0 1:1 5:1 8:1 14:4.5474515 
-10 -0 -0 -0 -10 1:1 5:1 8:1 14:4.9405684 
-10 -0 -0 -0 -0 1:1 5:1 8:1 14:3.2531028 20:0.69199347 
-10 -0 -0 -0 -0 1:1 5:1 8:1 14:2.3531435 20:0.50055605 58:0.5672043 
-10 -0 -0 -0 -0 1:1 5:1 8:1 14:4.7751746 20:0.81847882 58:0.92745805 
-0 -0.02774623056887794 -0 -0 -0 2:1 6:1 8:1 34:2.6183167 40:0.88 50:0.99712014 54:0.77241743 
-0 -0 -0 -0 -10 2:1 6:1 8:1 34:1.4816933 40:0.49798793 50:1.0622536 54:0.43710744 
-0 -0 -0 -0 -10 2:1 6:1 8:1 34:1.3075898 40:0.43947279 50:1.4354235 54:0.38574597 
-0 -0 -0 -0 -10 2:1 6:1 8:1 34:1.0183519 40:0.34226176 50:1.6158969 54:0.30041927 
-10 -0 -0 -10 -10 2:1 6:1 8:1 34:3.8591894e-005 40:0.88058257 50:6.1092607e-005 54:1.1221539e-005 
