svm_type c_svc
kernel_type rbf
gamma 0.01
nr_class 4
total_sv 1951
rho 0.0414749 -0.898846 1.55914 -0.0482474 0.0673725 0.717057
label 17 5 13 21
nr_sv 928 72 464 487
SV
0 10 0 2:1 6:1 8:1 14:1.0953076e-005 20:8.6758067e-005 30:0.47439358 50:0.77762562 67:0.46354991 
0 10 0 2:1 6:1 8:1 14:6.6433768e-006 20:5.2621428e-005 30:0.28773427 50:0.47165382 67:0.74470711 
0 0 10 2:1 6:1 8:1 14:4.5659217e-006 20:3.6166148e-005 30:0.19775668 50:0.32416263 67:1.3363922 
0 10 10 2:1 6:1 8:1 14:3.5559431e-006 20:2.8166221e-005 30:0.15401304 50:0.2524581 67:1.5043333 
0 6.490522937891644 10 2:1 6:1 8:1 14:3.1381087e-006 20:2.4856607e-005 30:0.13591604 50:0.22279347 67:1.7911195 
0 10 0 2:1 6:1 8:1 14:2.3959757e-008 20:1.897825e-007 30:0.0010377318 50:0.0017010493 67:0.47722527 
0 10 10 2:1 6:1 8:1 14:1.8659877e-008 20:1.4780277e-007 30:0.00080818631 50:0.0013247784 67:0.83521324 
0 10 10 2:1 6:1 8:1 14:6.8645853e-009 20:5.4373601e-008 30:0.00029731513 50:0.00048735875 67:0.77080768 
0 10 10 2:1 6:1 8:1 14:4.1635815e-009 20:3.2979255e-008 30:0.00018033074 50:0.00029559803 67:0.9310683 
0 10 10 2:1 6:1 8:1 14:2.2837647e-009 20:2.0002929e-008 30:0.00010937612 50:0.00017928927 67:1.0282716 
0 10 10 2:1 6:1 8:1 14:2.9393921e-009 20:3.0428613e-008 30:0.0001663838 50:0.00027273622 65:0.70515573 67:1.5642146 
0 10 0 2:1 6:1 8:1 14:2.0593158e-009 20:2.6853154e-008 30:0.00014683319 50:0.00024068888 65:1.3274535 67:1.3804146 
0 10 0 2:1 6:1 8:1 14:7.4410333e-010 20:1.3747799e-008 30:7.5173033e-005 50:0.0001232236 65:0.67960596 67:1.1702698 
0 10 10 2:1 6:1 8:1 20:1.213239e-008 30:6.633997e-005 50:0.00010874444 65:0.59975016 67:1.4963095 
0 10 10 2:1 6:1 8:1 20:9.9626929e-009 30:5.8544818e-005 50:9.5966629e-005 65:0.52927762 67:1.7840385 
0 10 10 2:1 6:1 8:1 20:6.1031495e-009 30:4.0237224e-005 50:6.595684e-005 65:0.36376685 67:1.6897002 
0 10 10 2:1 6:1 8:1 20:4.5428306e-009 30:3.5509231e-005 50:5.8206704e-005 65:0.32102311 67:1.9547054 
0 10 0 2:1 6:1 8:1 20:1.6255132e-010 30:1.5601667e-006 50:2.5574241e-006 65:0.01410477 67:0.54943359 
0 10 10 2:1 6:1 8:1 20:1.014716e-010 30:1.3768422e-006 50:2.2569188e-006 65:0.012447417 67:0.94842345 
0 10 10 2:1 6:1 8:1 20:3.2693619e-011 30:8.3509701e-007 50:1.3688904e-006 65:0.0075497394 67:1.0387977 
0 10 10 2:1 6:1 8:1 30:6.503742e-007 50:1.066093e-006 65:0.005879743 67:1.2725662 
0 10 10 2:1 6:1 8:1 30:2.7111628e-007 50:3.9224798e-007 65:0.0024510417 67:0.99403453 
0 10 10 2:1 6:1 8:1 30:2.1114558e-007 50:2.5331738e-007 65:0.0019088732 67:1.2377046 
0 10 10 2:1 6:1 8:1 30:1.8633533e-007 50:1.6444035e-007 65:0.0016845746 67:1.5558208 
0 10 10 2:1 6:1 8:1 30:1.4511809e-007 50:7.5900601e-008 65:0.0013119481 67:1.6752242 
0 10 10 2:1 6:1 8:1 30:8.6006651e-008 50:7.5900601e-008 65:0.0013119481 67:2.1387739 
0 10 10 2:1 6:1 8:1 30:5.911145e-008 65:0.00090168783 67:1.9335066 
0 10 10 2:1 6:1 8:1 65:0.00079573673 67:2.1698637 
0 10 10 2:1 6:1 8:1 65:0.00054690137 67:1.9548737 
0 10 10 2:1 6:1 8:1 65:9.5037198e-005 67:0.80325603 
0 10 10 2:1 6:1 8:1 65:7.4015043e-005 67:1.0891261 
0 10 10 2:1 6:1 8:1 65:5.7642974e-005 67:1.3117622 
0 10 0 2:1 6:1 8:1 65:0.7052089 67:1.2103097 
0 10 0 2:1 6:1 8:1 65:1.3275005 67:1.0680946 
0 10 0 2:1 6:1 8:1 65:0.59977138 67:0.94611931 
0 10 0 2:1 6:1 8:1 30:0.63749999 65:0.64238554 67:1.0133402 
0 10 0 2:1 6:1 8:1 30:1.1339855 65:0.50029033 67:0.78918713 
0 10 0 2:1 6:1 8:1 30:1.6382387 65:0.44150472 67:0.69645089 
0 7.680245856901451 3.221301870115264 2:1 6:1 8:1 30:1.7634438 65:0.30344144 67:0.47865811 
0 0 10 2:1 6:1 8:1 30:1.1315954 65:0.19471401 67:0.77070302 
0 10 10 2:1 6:1 8:1 30:0.99862939 65:0.17183128 67:1.1436932 
0 10 10 2:1 6:1 8:1 30:1.3406211 65:0.93583256 67:1.535358 
0 10 0 2:1 6:1 8:1 30:1.0440768 65:1.4339828 67:1.1957332 
0 10 0 2:1 6:1 8:1 30:0.92139447 65:1.9706411 67:1.0552256 
0 10 0 2:1 6:1 8:1 30:0.81312788 65:2.4442406 67:0.93122727 
0 10 0 2:1 6:1 8:1 30:0.81312788 65:3.1493964 67:0.93122011 
0 10 0 2:1 6:1 8:1 30:0.63326466 65:3.1579082 67:0.72510821 
0 10 0 2:1 6:1 8:1 30:0.41629067 65:2.0759213 67:0.94012165 
0 10 0 2:1 6:1 8:1 30:0.36737522 65:1.8319944 67:1.2930675 
0 10 0 2:1 6:1 8:1 30:0.32420751 65:1.6167291 67:1.6045221 
0 10 0 2:1 6:1 8:1 30:0.49318695 65:3.1645367 67:2.4402442 
0 10 0 2:1 6:1 8:1 30:0.28611213 65:1.8358401 67:1.8787841 
0 10 10 2:1 6:1 8:1 30:0.43523598 65:3.4978495 67:2.8572924 
0 10 0 2:1 6:1 8:1 30:0.26398396 65:2.8267088 67:1.7324678 
0 10 0 2:1 6:1 8:1 30:0.13514979 65:1.4471679 67:1.3502172 
0 10 0 2:1 6:1 8:1 30:0.10525476 65:1.1270554 67:1.514771 
0 10 0 2:1 6:1 8:1 30:0.16011436 65:2.4196413 67:2.303714 
0 10 0 2:1 6:1 8:1 30:0.013142987 65:0.90377206 67:0.18903257 
0 10 0 2:1 6:1 8:1 30:0.010235769 65:1.4090141 67:0.14691497 
0 10 0 2:1 6:1 8:1 30:0.0048350347 65:1.3707271 67:0.069213495 
0 10 0 2:1 6:1 8:1 30:0.0042669033 65:1.914818 67:0.060871936 
0 10 0 2:1 6:1 8:1 30:0.0020155425 65:1.6094891 67:0.028753866 
0 10 0 2:1 6:1 8:1 30:0.001324962 65:1.0579126 67:0.48245192 
0 10 0 2:1 6:1 8:1 30:0.0011692748 65:0.93360454 67:0.88915682 
0 10 0 2:1 6:1 8:1 30:0.00085567264 65:0.82390302 67:1.248228 
0 10 0 2:1 6:1 8:1 30:0.00095747272 65:1.9584837 67:1.8988142 
0 10 0 2:1 6:1 8:1 30:0.63789952 65:1.3789278 67:1.3369157 
0 10 0 2:1 6:1 8:1 30:0.40908137 65:0.88485265 67:1.3214438 
0 0 10 3:1 7:1 9:1 20:8.4077908e-045 30:1.2844868e-007 50:6.3775175e-008 54:2.5201313e-026 67:0.46354991 
0 0 10 3:1 7:1 9:1 20:1.5414283e-044 30:1.521754e-007 50:7.555559e-008 54:2.9856441e-026 65:0.70515573 67:0.54917586 
0 0 10 3:1 7:1 9:1 20:7.0064923e-045 30:8.8281382e-008 50:4.3831996e-008 54:1.7320591e-026 65:0.40908137 67:0.78214282 
0 0 10 3:1 7:1 9:1 20:1.1210388e-044 30:1.0458853e-007 50:5.1928545e-008 54:2.0520013e-026 65:1.1898017 67:0.92661858 
0 0 8.677751352144867 3:1 7:1 9:1 30:1.5341005e-008 50:7.6168591e-009 54:3.0098674e-027 65:1.4543061 67:0.9604789 
0.9463030742681955 0 10 3:1 7:1 9:1 30:6.7540018e-010 45:0.020408163 50:3.3533842e-010 54:1.3251185e-028 65:0.064027019 67:0.042285871 
0 0 10 3:1 7:1 9:1 30:8.2114484e-009 45:0.2481204 50:4.0770107e-009 65:0.77843398 67:1.5069349 
0 0 10 3:1 7:1 9:1 30:7.2465776e-009 45:0.21896547 50:3.5979493e-009 65:0.68696564 67:1.7934153 
0 0 10 3:1 7:1 9:1 30:6.3950827e-009 45:0.19323635 50:3.1751792e-009 65:0.60624504 67:2.0462332 
0 0 10 3:1 7:1 9:1 30:5.6436411e-009 45:0.17053048 50:2.8020857e-009 65:0.53500944 67:2.2693443 
4.578189335503917 0 10 3:1 7:1 9:1 30:8.5851486e-009 45:0.25941229 50:4.2625548e-009 65:1.5190161 67:3.4521446 
0 0 10 3:1 7:1 9:1 30:6.686121e-009 45:0.20203051 50:3.319681e-009 65:1.8881667 67:2.6885328 
0 0 10 3:1 7:1 9:1 30:4.3952713e-009 45:0.13280928 50:2.1822666e-009 65:1.2412286 67:2.2309172 
0 0 10 3:1 7:1 8:1 30:3.1128524e-009 45:0.10343197 50:1.6995509e-009 65:0.9666698 67:2.20099 
0 0 10 3:1 7:1 8:1 30:3.7070222e-009 45:0.1388534 50:2.2815811e-009 65:2.0028725 67:2.9547434 
0 0 10 3:1 7:1 8:1 30:2.1313808e-009 45:0.095432453 50:1.5681062e-009 65:2.0817084 67:2.0307636 
0 0 10 3:1 7:1 8:1 30:1.4645211e-009 45:0.084218845 50:1.3838488e-009 65:2.5422568 67:1.7921425 
0 0 10 3:1 7:1 8:1 30:1.0065497e-009 45:0.057882708 50:5.3468863e-010 65:2.4524217 67:1.2317203 
0 0 10 3:1 7:1 8:1 45:0.020366961 65:2.1815767 67:0.89451802 
0 0 10 3:1 7:1 8:1 45:0.021199472 65:0.084760033 67:0.034616888 
0 0 10 3:1 7:1 8:1 45:0.041607637 65:0.084583469 67:0.034616888 
0 0 10 3:1 7:1 8:1 45:0.24982668 65:1.4085193 67:0.34670514 
0 0 10 3:1 7:1 8:1 45:0.16422917 65:0.9240272 67:0.6914643 
0 0 10 3:1 7:1 8:1 45:0.12790179 65:0.71773875 67:1.0020628 
0 0 10 3:1 7:1 8:1 45:0.12790179 65:0.71773875 67:1.4637184 
0 0 10 3:1 7:1 8:1 45:0.025377486 65:0.027886048 67:0.056774817 
0 0 10 3:1 7:1 8:1 45:0.39469391 65:0.43533054 67:1.3498645 
0 0 10 3:1 7:1 8:1 45:0.52986121 65:1.2895701 67:1.8101604 
0 0 10 3:1 7:1 8:1 45:0.46760088 65:1.8431973 67:1.5954802 
0 0 10 3:1 7:1 8:1 45:0.27126887 65:1.0692923 67:1.3872401 
0 0 10 3:1 7:1 8:1 45:0.030947674 65:0.041544836 67:0.053814534 
0 0 10 3:1 7:1 8:1 45:0.62034577 65:0.83276576 67:1.5403672 
0 0 10 3:1 7:1 8:1 45:0.16398609 65:1.683391 67:0.40589425 
0 0 10 3:1 7:1 8:1 45:0.087775432 65:2.0333409 67:0.21675876 
0 0 10 3:1 7:1 8:1 45:0.039657377 65:0.91830057 67:0.56148261 
0 0 10 3:1 7:1 8:1 45:0.034997512 65:0.81002426 67:0.95905656 
0 0 10 3:1 7:1 8:1 45:0.021767907 65:0.031450499 67:0.037261881 
0 0 10 3:1 7:1 8:1 45:0.49443513 65:0.71382225 67:1.3099144 
0 0 10 3:1 7:1 8:1 45:0.43633747 65:0.62940317 67:1.6195453 
0 0 10 3:1 7:1 8:1 45:0.38506642 65:0.55490357 67:1.8927937 
0 0 10 3:1 7:1 8:1 45:0.29989004 65:0.43173668 67:1.937659 
0 0 10 3:1 7:1 8:1 45:0.40259075 65:1.2847456 67:2.6005034 
0 0 10 3:1 7:1 8:1 45:0.26410931 65:0.84455615 67:2.1730492 
0 0 10 3:1 7:1 8:1 45:0.20526582 65:0.65774095 67:2.1559219 
0 0 10 3:1 7:1 8:1 45:0.27556136 65:1.5881474 67:2.8935988 
0 0 10 3:1 7:1 8:1 45:0.15986118 65:0.92078787 67:2.142211 
0 0 10 3:1 7:1 8:1 45:0.18939038 65:1.793785 67:2.5379152 
0 0 10 3:1 7:1 8:1 45:0.10987087 65:1.0406269 67:1.9345663 
0 0 10 3:1 7:1 8:1 45:0.075513072 65:0.71521175 67:1.7920078 
0 0 10 3:1 7:1 8:1 45:0.11487108 65:1.7931415 67:2.7242677 
0 0 10 3:1 7:1 8:1 45:0.065491028 65:1.0402536 67:2.043977 
0 0 10 3:1 7:1 8:1 45:0.077588379 65:1.9375629 67:2.4195554 
0 0 10 3:1 7:1 8:1 45:0.047059733 65:1.8789858 67:1.4675345 
0 0 10 3:1 7:1 8:1 45:0.041530069 65:2.3619936 67:1.2950946 
0 0 10 3:1 7:1 8:1 45:0.027300721 65:1.5527092 67:1.3138952 
0 0 10 3:1 7:1 8:1 45:0.020366961 65:1.2092514 67:1.4868126 
0 0 10 3:1 7:1 8:1 45:0.013997994 65:0.83110535 67:1.4847233 
0 0 10 3:1 7:1 8:1 45:0.021293858 65:1.9683796 67:2.2585728 
0 0 10 3:1 7:1 8:1 45:0.010901649 65:1.0065868 67:1.6198537 
0 0 10 3:1 7:1 8:1 45:0.014635039 65:2.0542147 67:2.1745906 
0 0 10 3:1 7:1 8:1 45:0.0047513018 65:1.3707005 67:0.7059862 
0 0 10 3:1 7:1 8:1 45:0.0037003176 65:1.7714571 67:0.54982269 
0 0 10 3:1 7:1 8:1 45:0.0028818103 65:2.0832253 67:0.42820227 
0 0 10 3:1 7:1 8:1 45:0.0022443561 65:2.3275733 67:0.33173633 
0 0 10 3:1 7:1 8:1 45:0.00032920128 65:0.34140757 67:0.51191825 
0 0 10 3:1 7:1 8:1 65:0.30129108 67:0.91531622 
0 0 10 3:1 7:1 8:1 65:0.18274228 67:1.0185411 
0 0 10 3:1 7:1 8:1 65:0.98314476 67:1.549109 
0 0 10 3:1 7:1 8:1 65:0.57035089 67:1.3620334 
0 0 10 3:1 7:1 8:1 65:1.4708296 67:1.8281327 
0 0 10 3:1 7:1 8:1 65:2.0028138 67:1.6133214 
0 0 10 3:1 7:1 8:1 65:2.2649491 67:1.2561879 
0 0 10 3:1 7:1 8:1 65:1.0233154 67:1.0309465 
0 0 10 3:1 7:1 8:1 65:0.90291685 67:1.3733571 
0 0 10 3:1 7:1 8:1 65:0.70319241 67:1.5329843 
0 0 10 3:1 7:1 8:1 65:0.62040961 67:1.8164037 
0 0 10 3:1 7:1 8:1 65:1.0523502 67:1.0163991 
0 0 10 3:1 7:1 8:1 65:1.5247269 67:0.79146057 
0 0 10 3:1 7:1 8:1 65:0.68882865 67:0.8211357 
0 0 10 3:1 7:1 8:1 65:0.60788924 67:1.1881492 
0 0 10 3:1 7:1 8:1 65:1.1419187 67:0.85376567 
0 0 10 3:1 7:1 8:1 65:0.51588988 67:0.84928554 
0 0 10 3:1 7:1 8:1 65:0.45523649 67:1.2130418 
0 0 10 3:1 7:1 8:1 65:1.3976651 67:1.8452359 
0 0 10 3:1 7:1 8:1 65:0.81082612 67:1.5339856 
0 0 10 3:1 7:1 8:1 65:1.9385909 67:2.3334239 
0 0 10 3:1 7:1 8:1 65:1.1245823 67:1.817237 
0 0 10 3:1 7:1 8:1 65:1.8809179 67:1.8998715 
0 0 10 3:1 7:1 8:1 65:2.3649921 67:1.6766307 
0 0 10 3:1 7:1 8:1 65:2.7920699 67:1.4796213 
0 0 10 3:1 7:1 8:1 65:3.1689398 67:1.3057611 
0 0 10 3:1 7:1 8:1 65:2.0829976 67:1.3219212 
0 0 10 3:1 7:1 8:1 65:1.838039 67:1.6301414 
0 10 10 3:1 7:1 8:1 65:3.501195 67:2.4784222 
0 0 10 3:1 7:1 8:1 65:3.4318888 67:1.9289961 
0 0 10 3:1 7:1 8:1 65:1.9909387 67:1.5814675 
0 0 10 3:1 7:1 8:1 45:0.020408163 65:0.068224601 67:0.054224316 
0 0 10 3:1 7:1 8:1 45:0.46354991 65:1.5496501 67:1.6941841 
0 0 10 3:1 7:1 8:1 45:0.030048296 65:0.032203116 67:0.035232797 
0 0 10 3:1 7:1 8:1 45:0.32239744 65:0.97290051 67:0.84103072 
0 0 10 3:1 7:1 8:1 45:0.28451473 65:0.85858172 67:1.205214 
0 0 10 3:1 7:1 8:1 45:0.38194999 65:1.8577683 67:1.6170176 
0 0 10 3:1 7:1 8:1 45:0.14051154 65:1.3885906 67:0.59447765 
0 0 10 3:1 7:1 8:1 45:0.12400101 65:1.9296471 67:0.52462465 
0 0 10 3:1 7:1 8:1 45:0.058573924 65:1.6160889 67:0.2478151 
0 0 10 3:1 7:1 8:1 45:0.04561742 65:1.9637672 67:0.19235554 
0 0 10 3:1 7:1 8:1 45:0.018188419 65:1.1433845 67:0.53995472 
0 0 10 3:1 7:1 8:1 45:0.021208923 65:0.050338421 67:0.023732552 
0 0 10 3:1 7:1 8:1 45:0.4251326 65:1.0090333 67:0.93837374 
0 0 10 3:1 7:1 8:1 45:0.12180252 65:1.4139388 67:0.73177874 
0 0 10 3:1 7:1 8:1 45:0.025770618 65:0.062225904 67:0.032217152 
0 0 10 3:1 7:1 8:1 45:0.45587295 65:1.5088136 67:1.4419985 
0 0 10 3:1 7:1 8:1 45:0.18955712 65:1.6497166 67:1.0640349 
0 0 10 3:1 7:1 8:1 30:0.63749999 45:0.05816773 65:0.50623405 67:0.32636398 
0 0 10 3:1 7:1 8:1 30:0.46354991 45:0.042069655 65:0.36810157 67:0.70086133 
0 0 10 3:1 7:1 8:1 30:0.43947279 45:0.03988453 50:0.49798793 65:0.34876758 67:0.6644581 
0 0 10 3:1 7:1 8:1 30:0.40908137 45:0.03712634 50:0.46354991 65:0.32427576 67:1.0820578 
10 0 0 1:1 5:1 8:1 17:0.00047898502 20:0.14588319 30:0.36101303 42:0.064202189 50:1.7847843 58:0.22066692 67:0.46354991 
10 0 0 1:1 5:1 8:1 20:0.20062679 30:1.1339855 42:0.088294476 50:2.4545364 58:0.30347359 67:0.63749999 
10 0 0 1:1 5:1 8:1 20:0.0048018708 30:0.02827207 42:0.0022013225 45:0.020408163 50:0.061195508 58:0.0075660818 67:0.015893893 
10 0 0 1:1 5:1 8:1 20:0.15704069 30:0.97687447 42:0.07606148 45:0.70515573 50:2.114466 58:0.26142803 65:0.70515573 67:0.54917586 
10 0 0 1:1 5:1 8:1 20:0.0033129123 30:0.02201831 42:0.0017143914 45:0.036302056 50:0.04765911 58:0.00589247 65:0.015893893 67:0.012378177 
10 0 0 1:1 5:1 8:1 20:0.082236096 30:0.59250426 42:0.046133615 45:0.97687447 50:1.2824882 58:0.15856412 65:1.1328543 67:0.33309197 
10 0 0 1:1 5:1 8:1 20:0.033144191 30:0.26769638 42:0.0208434 45:0.44135675 50:0.57943475 58:0.071640059 65:0.51182926 67:0.61404252 
10 0 0 1:1 5:1 8:1 20:0.021802228 30:0.20848216 42:0.016232856 45:0.34372896 50:0.4512642 58:0.055793334 65:0.39861304 67:0.94176668 
10 0 0 1:1 5:1 8:1 20:0.013856217 30:0.16236606 42:0.012642161 45:0.26769638 50:0.3514449 58:0.04345189 65:0.31044012 67:1.1969986 
10 0 0 1:1 5:1 8:1 20:4.5594752e-005 30:0.0007519041 42:5.8544818e-005 45:0.0012396802 50:0.0016275126 58:0.0002012222 65:0.0014376231 67:0.46909311 
10 0 0 1:1 5:1 8:1 20:1.0498951e-006 30:2.9213465e-005 42:2.2746212e-006 45:0.020456327 50:6.3233172e-005 58:7.8180137e-006 65:5.585546e-005 67:0.018225508 
10 0 0 1:1 5:1 8:1 20:3.6276637e-005 30:0.0010094021 42:4.6580124e-005 45:0.70681995 50:0.0021848723 58:0.00027013296 65:0.70708567 67:0.62973928 
10 0 0 1:1 5:1 8:1 30:0.00066355302 42:3.0620486e-005 45:0.46464393 50:0.0014362748 58:0.00017757794 65:0.4648186 67:0.87752312 
10 0 0 1:1 5:1 8:1 30:0.00066355302 42:3.0620486e-005 45:0.46464393 50:0.0014362748 58:0.00015373068 65:0.4648186 67:1.341073 
10 0 0 1:1 5:1 8:1 30:0.00051677565 45:0.36186504 50:0.0011185721 58:0.00011972558 65:0.36200109 67:1.5079787 
10 0 0 1:1 5:1 8:1 30:0.00045605289 45:0.31934482 50:0.00098713639 58:7.863497e-005 65:0.31946486 67:1.7943366 
10 0 0 1:1 5:1 8:1 30:1.2177983e-005 45:0.028935628 50:2.5541849e-005 58:2.0997902e-006 65:0.0085306717 67:0.047914181 
10 0 0 1:1 5:1 8:1 30:0.0002441075 45:0.58001429 50:0.00049341377 58:4.2090269e-005 65:0.1709972 67:1.4239889 
10 0 0 1:1 5:1 8:1 30:0.00032770488 45:0.77864671 50:0.00066238886 58:2.8252274e-005 65:0.93471283 67:1.9116499 
10 0 0 1:1 5:1 8:1 30:0.00016777246 45:0.39863762 50:0.00033911801 65:0.47853759 67:1.4422423 
10 0 0 1:1 5:1 8:1 30:0.00014805869 45:0.35179648 50:0.00028480648 65:0.42230797 67:1.7363244 
10 0 0 1:1 5:1 8:1 30:7.9250109e-005 45:0.18830308 50:0.00014250491 65:0.22604516 67:1.3929374 
10 0 0 1:1 5:1 8:1 30:6.1720042e-005 45:0.14665058 50:0.00010104191 65:0.17604414 67:1.5483704 
10 0 10 1:1 5:1 8:1 30:5.4467746e-005 45:0.12941869 50:7.7904529e-005 65:0.15535842 67:1.8299823 
10 0 0 1:1 5:1 8:1 30:8.2856757e-005 45:0.19687273 50:0.00010137311 65:0.94148815 67:2.7837832 
10 0 4.161123594567608 1:1 5:1 8:1 30:4.8067621e-005 45:0.1142116 50:4.2419524e-005 65:0.54618472 67:2.0785034 
10 2.100566526306931 0 1:1 5:1 8:1 30:7.3120835e-005 45:0.17373955 50:3.6276637e-005 65:1.5360161 67:3.1618357 
10 0 0 1:1 5:1 8:1 30:1.9417485e-005 45:0.082068756 50:1.713587e-005 65:1.4307183 67:1.4935454 
10 0 0 1:1 5:1 8:1 30:1.713587e-005 45:0.072425425 65:1.9677602 67:1.3180493 
10 0 0 1:1 5:1 8:1 30:5.5632022e-006 45:0.023513092 65:1.3439939 67:0.42790228 
10 0 0 1:1 5:1 8:1 45:0.013640628 65:0.77969003 67:0.71178859 
10 0 0 1:1 5:1 8:1 45:0.020743927 65:1.8912263 67:1.0827783 
10 0 0 1:1 5:1 8:1 30:0.63749999 45:0.012889192 65:1.1751052 67:0.67278183 
10 0 0 1:1 5:1 8:1 30:1.1339855 45:0.010034196 65:0.91517282 67:0.52396309 
10 0 0 1:1 5:1 8:1 30:0.82456291 45:0.0072962362 65:0.66545254 67:0.84454286 
7.572625627041935 0 0 1:1 6:1 10:1 30:0.4025825 50:0.40790486 65:2.799438 67:0.34088391 
2.74745055850371 0 0 1:1 6:1 10:1 30:0.11534182 50:0.11686669 65:2.5410299 67:0.09766487 
0.01448285652380366 0 0 1:1 6:1 10:1 30:1.2601008 50:1.3005899 65:0.72027451 67:0.54290015 
10 0 0 1:1 6:1 10:1 30:1.1120352 50:1.6457546 65:0.63563991 67:0.47910768 
0 10 0 2:1 6:1 8:1 30:0.94476104 50:0.92786872 65:0.35887375 67:0.73404765 
0 10 0 2:1 6:1 8:1 30:1.9338363 50:1.2760574 65:0.49354336 67:1.0095036 
0 10 0 2:1 6:1 8:1 30:2.143573 50:0.99118924 65:0.384372 67:0.78620231 
0 1.903594243826881 0 2:1 6:1 8:1 30:1.844342 50:0.85386211 65:1.036274 67:0.67727578 
0 10 0 2:1 6:1 8:1 30:0.98522437 45:0.37744269 50:0.45374906 65:1.2598333 67:1.6151034 
0 10 0 2:1 6:1 8:1 30:0.57155734 45:0.21896547 50:0.26323304 65:0.72956389 67:1.4005183 
0 10 0 2:1 6:1 8:1 30:0.76729357 45:0.29395264 50:0.35338011 65:1.684567 67:1.8781608 
0 10 0 2:1 6:1 8:1 30:0.39282525 45:0.15049262 50:0.18091723 65:0.86095911 67:1.4250971 
0 10 0 2:1 6:1 8:1 30:0.34666708 45:0.13280928 50:0.15965891 65:0.75812197 67:1.7211938 
0 10 0 2:1 6:1 8:1 30:0.11766827 45:0.045079097 50:0.054192599 65:0.96154761 67:0.58422023 
0 10 0 2:1 6:1 8:1 30:0.11766827 45:0.045079097 50:0.054192599 65:1.6657677 67:0.58422023 
0 10 0 2:1 6:1 8:1 30:0.080872148 45:0.030982381 50:0.037245989 65:1.8492913 67:0.40152824 
0 10 0 2:1 6:1 8:1 30:0.062983289 45:0.024129102 50:0.029007208 65:2.1440241 67:0.31271055 
0 10 0 2:1 6:1 8:1 30:0.043287739 45:0.016583674 50:0.019936344 65:2.1776605 67:0.21492259 
0 10 0 2:1 6:1 8:1 30:0.022161683 45:0.0084902132 50:0.010206653 65:1.1141826 67:0.57358217 
0 10 0 2:1 6:1 8:1 30:0.019557614 45:0.0074925865 50:0.0090073394 65:0.98326278 67:0.96883959 
0 10 0 2:1 6:1 8:1 30:0.020447681 45:0.0078335721 50:0.009417261 65:1.7318056 67:1.0129313 
0 10 0 2:1 6:1 8:1 30:0.007537799 45:0.0031233747 50:0.0037548176 65:0.69049942 67:0.86742228 
0 10 0 2:1 6:1 8:1 30:0.0066520837 45:0.0027563686 50:0.003313615 65:0.60936362 67:1.2284323 
0 10 10 2:1 6:1 8:1 30:0.0066520837 45:0.0027563686 50:0.0026985861 65:0.60936362 67:1.6919822 
0 10 0 2:1 6:1 8:1 30:0.00022808227 45:0.020502672 50:6.5450178e-005 65:0.020893456 67:0.058013566 
0 2.397052487428857 0 2:1 6:1 8:1 30:0.0030129468 45:0.36268485 50:0.0011577901 65:0.36959767 67:1.8988705 
0 10 0 2:1 6:1 8:1 30:0.0045833178 45:0.55171907 50:0.00093558681 65:1.2673905 67:2.888576 
0 10 0 2:1 6:1 8:1 30:0.0025208101 45:0.3034437 50:0.49798793 65:0.69706088 67:1.5887078 
0 10 0 2:1 6:1 8:1 30:0.63998055 45:0.3884539 50:0.63749999 65:0.89234334 67:2.0337863 
0 10 0 2:1 6:1 8:1 30:0.40997624 45:0.24926943 50:0.87263131 65:0.57261342 67:1.7679261 
0 10 0 2:1 6:1 8:1 30:1.2000917 45:0.34280938 50:1.2000917 65:0.78749031 67:2.4313514 
0 10 0 2:1 6:1 8:1 30:0.99333501 45:0.052487541 50:1.8185272 65:0.11604855 67:0.37106881 
0 10 0 2:1 6:1 8:1 30:0.3235192 45:0.17053048 50:0.49491146 65:1.4084436 67:0.80693638 
0 10 0 2:1 6:1 8:1 30:0.28550473 45:0.15049262 50:0.4367578 65:1.2429471 67:1.1647671 
0 10 0 2:1 6:1 8:1 30:0.38327894 45:0.20203051 50:0.58633035 65:2.3737638 67:1.5470711 
0 10 0 2:1 6:1 8:1 30:0.3382425 45:0.17829129 50:0.51743472 65:2.7853599 67:1.3652854 
0 10 0 2:1 6:1 8:1 30:0.29849797 45:0.15734151 50:0.44005087 65:3.1632271 67:1.2048601 
0 10 0 2:1 6:1 8:1 30:0.15089785 45:0.084218845 50:0.23554227 65:2.3983092 67:0.6449151 
0 10 0 2:1 6:1 8:1 30:0.099196076 45:0.055363145 50:0.1482268 65:1.5765823 67:0.88749933 
0 10 0 2:1 6:1 8:1 30:0.085423373 45:0.67337906 50:0.13676283 65:2.1598041 67:0.81275862 
0 2.850435601437675 0 2:1 6:1 8:1 30:0.85348248 45:0.067395337 50:2.462296 65:0.22837631 67:0.19578311 
0 10 0 2:1 6:1 8:1 30:2.0509992 45:0.067192003 50:2.4548674 65:0.21163742 67:0.75153434 
0 10 0 2:1 6:1 8:1 30:0.17811728 45:0.068569891 50:0.21319084 65:0.85492516 67:0.61731726 
0 10 0 2:1 6:1 8:1 30:0.15718795 45:0.060512718 50:0.18814024 65:0.75092965 67:1.0083305 
0 10 0 2:1 6:1 8:1 30:0.23911551 45:0.092052415 50:0.28620043 65:1.8474756 67:1.5284963 
0 10 0 2:1 6:1 8:1 30:0.1080336 45:0.038050495 50:0.12930678 65:0.8346988 67:1.1541321 
0 10 0 2:1 6:1 8:1 30:0.084136643 45:0.029633753 50:0.10070422 65:0.64694065 67:1.362389 
0 10 0 2:1 6:1 8:1 30:0.12188852 45:0.045079097 50:0.15319204 65:1.6892869 67:2.0724769 
0 10 0 2:1 6:1 8:1 30:0.070711076 45:0.026151696 50:0.088871159 65:0.98000449 67:1.6618434 
0 10 0 2:1 6:1 8:1 30:0.10756625 45:0.039782163 50:0.12909071 65:2.195946 67:2.5280094 
0 10 0 2:1 6:1 8:1 30:0.051946469 45:0.42944834 50:0.062550306 65:1.1242414 67:1.7577949 
0 10 0 2:1 6:1 8:1 30:0.079021379 45:0.65328014 50:0.089051224 65:2.4153602 67:2.6739712 
0 10 0 2:1 6:1 8:1 30:0.045842599 45:0.37898681 50:0.047650713 65:1.4012208 67:2.0147986 
0 10 0 2:1 6:1 8:1 30:0.040455952 45:0.33445472 50:0.038041115 65:1.2365731 67:2.2416034 
0 10 0 2:1 6:1 8:1 30:0.040455952 45:0.33445472 50:0.033496633 65:1.2365731 67:2.705153 
0 10 0 2:1 6:1 8:1 30:0.047928885 45:0.39623445 50:0.031850483 65:2.1701458 67:3.204843 
0 10 0 2:1 6:1 8:1 30:0.020527283 45:0.20285702 50:0.016306242 65:1.1110325 67:2.1043081 
0 10 0 2:1 6:1 8:1 30:0.031226262 45:0.30858767 50:0.017892078 65:2.3952668 67:3.2010901 
0 10 0 2:1 6:1 8:1 30:0.014746675 45:0.1871679 50:0.010852095 65:2.1579587 67:1.9415593 
0 10 0 2:1 6:1 8:1 30:0.011484724 45:0.1457665 50:0.0047513018 65:2.3857753 67:1.5120881 
0 10 0 2:1 6:1 8:1 30:0.0040410846 45:0.051290289 65:0.83947343 67:0.99560231 
0 10 0 2:1 6:1 8:1 30:0.0035662446 45:0.045263518 65:0.74083281 67:1.340494 
0 10 0 2:1 6:1 8:1 30:0.0022443561 45:0.0536245 65:1.5828335 67:1.5881072 
0 10 0 2:1 6:1 8:1 45:0.047323454 65:2.1020014 67:1.4014996 
0 10 0 2:1 6:1 8:1 45:0.026151696 65:1.219432 67:1.2766007 
0 10 0 2:1 6:1 8:1 45:0.7449379 65:2.5579214 67:1.9390931 
0 10 0 2:1 6:1 8:1 45:0.43216017 65:1.4803852 67:1.5884743 
0 10 0 2:1 6:1 8:1 45:0.51198786 65:2.4542434 67:1.8818939 
0 10 0 2:1 6:1 8:1 45:0.45182768 65:2.8641045 67:1.6607654 
0 10 0 2:1 6:1 8:1 45:0.2621184 65:1.6615504 67:1.4218585 
0 10 0 2:1 6:1 8:1 45:0.85971218 65:2.6667109 67:1.6775883 
0 10 0 2:1 6:1 8:1 45:0.49874407 65:1.5470368 67:1.4309325 
0 10 0 2:1 6:1 8:1 20:4.0800736e-032 30:0.72767425 42:3.7495546e-035 50:1.3832121 58:0.14217536 67:0.46354991 
0 0 10 2:1 6:1 8:1 20:1.3202384e-032 30:0.23624125 50:0.44906324 58:0.04615758 67:1.6322575 
0 0 10 2:1 6:1 8:1 20:1.0268231e-032 30:0.18398488 50:0.34973079 58:0.035947561 67:1.7347531 
0 0 10 2:1 6:1 8:1 20:7.9831127e-033 30:0.14328755 50:0.27237061 58:0.027995989 67:1.8145772 
0 0 10 2:1 6:1 8:1 20:7.0328989e-033 30:0.12645082 50:0.24036622 58:0.024706373 67:2.0649087 
0 10 10 2:1 6:1 8:1 20:1.7751179e-033 30:0.031971775 50:0.060774092 58:0.0062467493 67:0.98564053 
0 10 0 2:1 6:1 8:1 20:2.3770147e-033 30:0.042920865 50:0.08158686 58:0.0083860187 65:0.70515573 67:1.3231841 
0 10 10 2:1 6:1 8:1 20:1.3744971e-033 30:0.024899643 50:0.047330912 58:0.0048649735 65:0.40908137 67:1.2311673 
0 10 0 2:1 6:1 8:1 20:1.8391972e-033 30:0.033426803 50:0.063539915 58:0.0065310374 65:1.2543316 67:1.6527946 
0 10 0 2:1 6:1 8:1 20:1.6162735e-033 30:0.029499052 50:0.056073774 58:0.0057636206 65:1.8120995 67:1.4585861 
0 10 0 2:1 6:1 8:1 20:1.0830641e-033 30:0.022973884 50:0.0436703 58:0.0044887122 65:2.1164203 67:1.1359482 
0 10 0 2:1 6:1 8:1 20:7.0017182e-034 30:0.020274382 50:0.03853891 58:0.0039612744 65:2.57289 67:1.0024706 
0 10 0 2:1 6:1 8:1 20:2.556289e-034 30:0.013934365 50:0.026487375 58:0.0027225416 65:2.4734755 67:0.68898731 
0 10 0 2:1 6:1 8:1 30:0.012297034 50:0.023375029 58:0.0024026346 65:2.8879902 67:0.60802919 
0 10 0 2:1 6:1 8:1 30:0.00957694 50:0.01820449 58:0.00093558681 65:2.9543247 67:0.47353357 
0 10 0 2:1 6:1 8:1 30:0.0058087073 50:0.011041582 65:2.4970441 67:0.28721264 
0 10 0 2:1 6:1 8:1 30:0.0033698003 50:0.0060325088 65:1.4486082 67:0.63017035 
0 10 0 2:1 6:1 8:1 30:0.0029738382 50:0.0049009672 65:1.2783921 67:1.0196733 
0 10 0 2:1 6:1 8:1 30:0.0035231591 50:0.0053054802 65:2.2196898 67:1.2080251 
0 10 0 2:1 6:1 8:1 30:0.0010094021 50:0.0013574649 65:1.3411075 67:0.34610495 
0 10 0 2:1 6:1 8:1 30:0.00051677565 50:0.00058809464 65:0.68659621 67:0.64074248 
0 10 0 2:1 6:1 8:1 30:0.00045605289 50:0.00038176018 65:0.60591906 67:1.0290033 
0 1.165008723067434 0 2:1 6:1 8:1 30:2.00781e-005 45:0.020408163 50:9.961127e-006 65:0.026676079 67:0.045302704 
0 10 0 2:1 6:1 8:1 30:0.00022625651 45:0.40908137 65:0.53472173 67:1.7807233 
0 10 0 2:1 6:1 8:1 45:0.54917586 65:1.4229989 67:2.390552 
0 10 0 2:1 6:1 8:1 45:0.48464599 65:1.9609479 67:2.1093509 
0 10 0 2:1 6:1 8:1 45:0.37744269 65:2.2323432 67:1.642374 
0 10 0 2:1 6:1 8:1 45:0.29395264 65:2.4437065 67:1.2786404 
0 10 0 2:1 6:1 8:1 45:0.22893055 65:2.6083162 67:0.99541605 
0 10 0 2:1 6:1 8:1 45:0.10813913 65:1.9372373 67:0.46999252 
0 10 0 2:1 6:1 8:1 45:0.071087681 65:1.2734863 67:0.77233368 
0 10 0 2:1 6:1 8:1 45:0.062734656 65:1.1238475 67:1.1449325 
0 10 0 2:1 6:1 8:1 45:0.62349874 65:2.0365982 67:1.3550936 
0 10 0 2:1 6:1 8:1 45:0.28169984 65:0.91960239 67:1.075788 
0 10 0 2:1 6:1 8:1 45:0.24859923 65:0.81154621 67:1.4123868 
0 10 0 2:1 6:1 8:1 45:0.13306558 65:0.43406028 67:1.219546 
0 10 0 2:1 6:1 8:1 45:0.2024204 65:1.3648839 67:1.8551831 
0 10 0 2:1 6:1 8:1 45:0.11742996 65:0.79138625 67:1.5397958 
0 10 0 2:1 6:1 8:1 45:0.13912137 65:1.6421577 67:1.8242234 
0 10 0 2:1 6:1 8:1 45:0.13912137 65:2.346488 67:1.8242234 
0 10 0 2:1 6:1 8:1 45:0.095616624 65:2.3172288 67:1.2537693 
0 10 0 2:1 6:1 8:1 45:0.018008467 65:0.43627214 67:0.69968516 
0 10 0 2:1 6:1 8:1 45:0.024175668 65:1.2904902 67:0.9393003 
0 10 0 2:1 6:1 8:1 45:0.014025008 65:0.74865073 67:1.008239 
0 10 0 2:1 6:1 8:1 45:0.021334952 65:1.8440093 67:1.5333511 
0 10 0 2:1 6:1 8:1 45:9.8800432e-005 65:0.71369284 67:0.0071008247 
0 10 0 2:1 6:1 8:1 45:5.9925493e-005 65:1.1380277 67:0.0043068682 
0 10 0 2:1 6:1 8:1 45:4.6670015e-005 65:1.5914524 67:0.0033492821 
0 10 0 2:1 6:1 8:1 45:4.1186147e-005 65:2.1096075 67:0.0029508215 
0 9.733625384844709 0 2:1 6:1 8:1 45:2.8252274e-005 65:2.3481197 67:0.002298102 
0 10 0 2:1 6:1 8:1 45:2.4932544e-005 65:2.7773643 67:0.0020246941 
0 10 0 2:1 6:1 8:1 45:2.2002894e-005 65:3.1561706 67:0.0017834118 
0 10 0 2:1 6:1 8:1 45:9.9410172e-006 65:1.4259722 67:0.46435565 
0 10 0 2:1 6:1 8:1 45:8.7729168e-006 65:1.2584143 67:0.87334239 
0 10 0 2:1 6:1 8:1 45:1.3345429e-005 65:2.6194615 67:1.3285353 
0 10 0 2:1 6:1 8:1 45:4.1440326e-006 65:0.81339574 67:0.87608767 
0 10 0 2:1 6:1 8:1 45:3.6570957e-006 65:0.71781784 67:1.2366945 
0 10 0 2:1 6:1 8:1 45:1.406598e-006 65:0.98124266 67:0.4756594 
0 10 0 2:1 6:1 8:1 45:1.2413183e-006 65:1.5710994 67:0.41976684 
0 10 0 2:1 6:1 8:1 45:7.5289762e-007 65:1.6580758 67:0.25460067 
0 10 0 2:1 6:1 8:1 65:1.089973 67:0.63091749 
0 10 0 2:1 6:1 8:1 65:2.1684015 67:0.84698212 
0 10 0 2:1 6:1 8:1 65:2.6187632 67:0.74745798 
0 10 0 2:1 6:1 8:1 65:3.0162063 67:0.65962827 
0 10 0 2:1 6:1 8:1 30:0.63749999 65:2.4064083 67:0.52626705 
0 10 0 2:1 6:1 8:1 30:0.43947279 50:0.49798793 65:1.6589028 67:0.36279228 
0 10 0 2:1 6:1 8:1 30:0.40908137 50:0.46354991 65:1.5441827 67:0.80125237 
0 10 0 2:1 6:1 8:1 30:0.36101303 50:0.78981107 58:0.00099333806 67:0.46354991 
0 10 0 2:1 6:1 8:1 30:0.34226176 50:1.2467756 58:0.00093602698 67:0.43947279 
0 10 0 2:1 6:1 8:1 30:1.0756469 50:1.5960617 58:0.001180702 67:0.56259173 
0 10 0 2:1 6:1 8:1 30:0.81773794 50:1.2133725 58:0.00086105044 65:0.70515573 67:1.0499964 
0 10 0 2:1 6:1 8:1 30:0.63685501 50:0.94497538 58:0.00064858393 65:1.2543316 67:0.81773794 
0 10 0 2:1 6:1 8:1 30:0.56202251 50:0.83393788 58:0.00055037037 65:1.8120995 67:0.7216512 
0 10 0 2:1 6:1 8:1 30:0.49598315 50:0.73594755 58:0.00045368611 65:2.304328 67:0.63685501 
0 10 0 2:1 6:1 8:1 30:0.43770358 50:0.6494714 58:0.00036409998 65:2.738718 67:0.56202251 
0 10 0 2:1 6:1 8:1 30:0.38627207 50:0.57315648 58:0.00028504047 65:3.122066 67:0.49598315 
0 10 0 2:1 6:1 8:1 30:0.20675653 50:0.30678856 58:0.00013056827 65:2.3762772 67:0.26548064 
0 10 0 2:1 6:1 8:1 30:0.12540418 50:0.18607667 58:6.4071311e-005 65:2.1464407 67:0.16102216 
0 10 0 2:1 6:1 8:1 30:0.059236735 50:0.087896399 58:2.2170731e-005 65:1.7190624 67:0.07606148 
0 10 0 2:1 6:1 8:1 30:0.052276239 50:0.077560209 58:1.9565601e-005 65:2.222223 67:0.067124017 
0 10 0 2:1 6:1 8:1 30:0.024693545 50:0.03663303 58:9.242136e-006 65:1.7548596 67:0.031707142 
0 10 0 2:1 6:1 8:1 30:0.02179198 50:0.032328531 58:4.3326268e-006 65:2.2538137 67:0.027981455 
0 10 0 2:1 6:1 8:1 30:0.01697161 50:0.025174512 58:3.3742529e-006 65:2.460428 67:0.02179198 
0 10 0 2:1 6:1 8:1 30:0.011664405 50:0.017302172 65:2.3961811 67:0.014977393 
0 10 0 2:1 6:1 8:1 30:0.010293802 50:0.015266791 65:2.8197782 67:0.013217503 
0 0.1649293750299216 0 2:1 6:1 8:1 30:0.0033419081 50:0.0049554342 65:1.6206039 67:0.0042910948 
0 10 0 2:1 6:1 8:1 30:0.0002043415 50:0.00012110639 65:1.3834435 67:0.46381229 
0 10 0 2:1 6:1 8:1 30:0.000106876 50:0.000106876 65:1.2208847 67:0.87286282 
0 10 0 2:1 6:1 8:1 30:0.00011173991 50:0.00011173991 65:1.9816027 67:0.91248804 
0 10 0 2:1 6:1 8:1 30:6.7773683e-005 65:1.9070586 67:0.55345196 
0 10 0 2:1 6:1 8:1 65:1.1063402 67:0.7846235 
0 10 0 2:1 6:1 8:1 65:0.86161846 67:1.0745759 
0 10 0 2:1 6:1 8:1 65:2.0157893 67:1.6346534 
0 10 0 2:1 6:1 8:1 65:1.1549196 67:0.36474049 
0 10 0 2:1 6:1 8:1 65:0.59126377 67:0.65028322 
0 10 0 2:1 6:1 8:1 65:0.46046674 67:0.96999097 
0 10 0 2:1 6:1 8:1 65:1.4056044 67:1.4755578 
0 10 0 2:1 6:1 8:1 65:1.9455802 67:1.3021753 
0 10 0 2:1 6:1 8:1 65:2.2203498 67:1.014135 
0 10 0 2:1 6:1 8:1 65:1.7539556 67:0.47904348 
0 10 0 2:1 6:1 8:1 65:0.61714292 67:0.63210905 
0 10 0 2:1 6:1 8:1 65:0.54461223 67:1.0213841 
0 10 0 2:1 6:1 8:1 65:1.5335776 67:1.5537379 
0 5.4282764843671 0 2:1 6:1 8:1 45:0.020408163 65:0.044382282 67:0.044967271 
0 10 0 2:1 6:1 8:1 45:0.46354991 65:1.0080523 67:1.4849341 
0 10 0 2:1 6:1 8:1 45:0.62229776 65:2.0583398 67:1.9934664 
0 10 0 2:1 6:1 8:1 45:0.40908137 65:1.3530309 67:1.7739997 
0 10 0 2:1 6:1 8:1 45:0.48464599 65:2.3078787 67:2.1016889 
0 10 0 2:1 6:1 8:1 45:0.37744269 65:2.5023253 67:1.6367971 
0 10 0 2:1 6:1 8:1 45:0.29395264 65:2.6536648 67:1.2747389 
0 10 0 2:1 6:1 8:1 45:0.15734151 65:2.1253762 67:0.68231851 
0 10 0 2:1 6:1 8:1 45:0.1388534 65:2.5805569 67:0.602144 
0 10 0 2:1 6:1 8:1 45:0.12253769 65:2.9821448 67:0.53139019 
0 10 0 2:1 6:1 8:1 45:0.071087681 65:1.7298027 67:0.77182472 
0 10 0 2:1 6:1 8:1 45:0.46444452 65:1.3469456 67:1.0643572 
0 10 0 2:1 6:1 8:1 45:0.36170977 65:1.0490021 67:1.2922157 
0 10 0 2:1 6:1 8:1 45:0.31920773 65:0.92541194 67:1.6039264 
0 10 0 2:1 6:1 8:1 45:0.37817109 65:1.8008649 67:1.9002 
0 10 0 2:1 6:1 8:1 45:0.33373481 65:2.2944133 67:1.6762776 
0 10 0 2:1 6:1 8:1 45:0.29451993 65:2.7299683 67:1.4785813 
0 10 0 2:1 6:1 8:1 45:0.25991294 65:3.1137016 67:1.3048434 
0 10 0 2:1 6:1 8:1 45:0.2024204 65:3.1278641 67:1.0162129 
0 10 0 2:1 6:1 8:1 45:0.2024204 65:3.83302 67:1.0133312 
0 10 0 2:1 6:1 8:1 45:0.080708355 65:1.5282885 67:0.86610633 
0 10 0 2:1 6:1 8:1 45:0.071224868 65:1.3474077 67:1.2278862 
0 10 0 2:1 6:1 8:1 45:0.52640563 65:1.1861094 67:1.5471556 
0 10 0 2:1 6:1 8:1 45:0.36179298 65:0.8127678 67:1.5268934 
0 10 0 2:1 6:1 8:1 45:0.55036229 65:1.9415445 67:2.3158088 
0 10 0 2:1 6:1 8:1 45:0.29458767 65:1.7443898 67:1.2353703 
0 10 0 2:1 6:1 8:1 45:0.19365382 65:1.143957 67:1.2756482 
0 10 0 2:1 6:1 8:1 45:0.79843098 65:1.7577566 67:1.8796011 
0 10 0 2:1 6:1 8:1 45:0.46319309 65:1.0197258 67:1.5522895 
0 10 0 2:1 6:1 8:1 45:0.40876648 65:0.89801031 67:1.8334404 
0 10 0 2:1 6:1 8:1 45:0.62181872 65:2.0675156 67:2.7890439 
0 10 0 2:1 6:1 8:1 45:0.36073512 65:1.1966696 67:2.0815554 
0 10 0 2:1 6:1 8:1 45:0.31834763 65:1.0515127 67:2.3005164 
5.472143678333277 10 0 2:1 6:1 8:1 45:0.48427293 65:2.2968915 67:3.499563 
0 10 0 2:1 6:1 8:1 45:0.2809408 65:1.3273441 67:2.4937482 
0 10 4.938226849274148 2:1 6:1 8:1 45:0.24792939 65:1.1713771 67:2.6591253 
0 10 2.425446889907616 2:1 6:1 8:1 45:0.10091986 65:0.48830256 67:1.5720381 
0 10 10 2:1 6:1 8:1 45:0.078596458 65:0.38029045 67:1.6857079 
0 10 0 2:1 6:1 8:1 45:0.012601695 65:0.76612926 67:0.26983458 
0 10 0 2:1 6:1 8:1 45:0.011120956 65:1.3812623 67:0.23768622 
0 10 0 2:1 6:1 8:1 45:0.00010902603 65:0.71869153 67:0.0023301935 
0 10 0 2:1 6:1 8:1 45:9.6215124e-005 65:1.3393934 67:0.0020563889 
0 10 0 2:1 6:1 8:1 45:2.2471939e-013 65:0.70515573 67:4.8028873e-012 
0 10 0 2:1 6:1 8:1 45:3.041246e-014 65:0.90872735 67:6.5000007e-013 
0 10 10 2:1 6:1 8:1 45:4.2183321e-015 65:3.6618631 67:1.085628e-013 
0 10 0 2:1 6:1 8:1 45:2.8992144e-015 65:3.2219148 67:7.2621454e-014 
0 10 0 2:1 6:1 8:1 65:3.5484855 67:6.4088214e-014 
0 10 0 2:1 6:1 8:1 65:3.1439922 67:4.2054542e-014 
0 10 0 2:1 6:1 8:1 65:3.4797189 67:3.7113003e-014 
0 10 0 2:1 6:1 8:1 65:1.0612259 67:0.46354991 
0 10 0 2:1 6:1 8:1 65:0.93652862 67:0.87263131 
0 10 0 2:1 6:1 8:1 65:0.72936922 67:1.1431558 
0 10 10 2:1 6:1 8:1 65:0.64366615 67:1.4723815 
0 10 0 2:1 6:1 8:1 65:0.052835338 67:0.58441037 
0 10 10 2:1 6:1 8:1 65:0.036313158 67:0.86520892 
0 10 10 2:1 6:1 8:1 65:0.032046247 67:1.2270941 
0 10 10 2:1 6:1 8:1 65:0.028280713 67:1.5464567 
0 10 10 2:1 6:1 8:1 65:0.024957646 67:1.8282932 
0 10 10 2:1 6:1 8:1 65:0.73866051 67:2.4544127 
0 10 10 2:1 6:1 8:1 65:0.48557493 67:2.077013 
0 10 10 2:1 6:1 8:1 65:1.3570215 67:2.7883091 
0 10 0 2:1 6:1 8:1 65:0.83137822 67:0.25935316 
0 10 0 2:1 6:1 8:1 65:1.4388415 67:0.22887836 
0 10 0 2:1 6:1 8:1 65:0.73663074 67:0.58072686 
0 10 0 2:1 6:1 8:1 65:0.57367969 67:0.91582042 
0 10 10 2:1 6:1 8:1 65:0.57366693 67:1.3793703 
0 10 10 2:1 6:1 8:1 65:0.50624663 67:1.68084 
0 10 10 2:1 6:1 8:1 65:0.16434954 67:1.0092387 
0 10 0 2:1 6:1 8:1 65:0.95515376 67:1.5352619 
0 10 0 2:1 6:1 8:1 65:1.5480627 67:1.354864 
0 0 10 3:1 7:1 8:1 30:2.0680542 50:1.4967599 54:0.28624082 67:0.46354991 
0 0 10 3:1 7:1 8:1 30:2.2216938 50:2.1059451 54:0.3075062 67:0.49798793 
6.051725896928967 0 0 3:1 7:1 8:1 30:3.1474133 50:2.3791487 54:0.34739888 67:0.56259173 
0 0 10 3:1 7:1 8:1 30:1.7823644 50:1.3473001 54:0.1967285 67:0.78214282 
0 0 10 3:1 7:1 8:1 30:0.24121676 50:0.18233719 54:0.026624041 67:0.56940144 
0 0 10 3:1 7:1 8:1 30:0.32382414 50:0.24478061 54:0.035695162 65:0.70515573 67:0.76439935 
0 0 10 3:1 7:1 8:1 30:0.14630537 50:0.1105931 54:0.016103406 65:0.31859291 67:0.8089093 
0 0 10 3:1 7:1 8:1 30:0.19640929 50:0.14846693 54:0.02149158 65:1.1328543 67:1.0859294 
0 0 10 3:1 7:1 8:1 30:0.19640929 50:0.14846693 54:0.021348102 65:1.8380101 67:1.0859294 
0 0 10 3:1 7:1 8:1 30:0.1529637 50:0.11562617 54:0.015800266 65:2.1365995 67:0.84572268 
0 0 7.019391148074699 3:1 7:1 8:1 30:0.13498999 50:0.10203974 54:0.012883527 65:2.5906982 67:0.74634761 
0 0 10 3:1 7:1 8:1 30:0.056272198 50:0.04253649 54:0.0031091771 65:2.1182113 67:0.31112394 
0 0 10 3:1 7:1 8:1 30:0.019800277 50:0.01435212 65:1.3874971 67:0.57302392 
0 0 10 3:1 7:1 8:1 30:0.026581105 50:0.018331578 65:2.5678167 67:0.76926237 
0 0 10 3:1 7:1 8:1 30:0.017473686 50:0.011353754 65:1.6880118 67:0.9692418 
0 0 10 3:1 7:1 8:1 30:0.022397587 50:0.015241973 65:2.9712455 67:1.3011694 
0 0 9.863965348700525 3:1 7:1 8:1 30:0.017443256 50:0.010934873 65:3.0191641 67:1.0133518 
0 0 10 3:1 7:1 8:1 30:0.0023814938 50:0.0014866319 65:2.4589181 67:0.7086125 
0 0 10 3:1 7:1 8:1 30:0.0014866319 50:0.0013119481 65:2.1699879 67:1.0888983 
0 0 10 3:1 7:1 8:1 30:0.0011577901 50:0.00054276112 65:1.6899885 67:1.3115848 
0 0 10 3:1 7:1 8:1 30:0.00082565245 50:0.00072863576 65:2.9738996 67:1.7607516 
0 0 10 3:1 7:1 8:1 30:0.00047898502 50:0.00042270281 65:1.7252456 67:1.4845904 
0 0 10 3:1 7:1 8:1 30:0.00032920128 65:1.1857424 67:1.483893 
0 0 10 3:1 7:1 8:1 65:0.92345744 67:1.619207 
0 0 10 3:1 7:1 8:1 65:0.81494832 67:1.8922044 
0 0 10 3:1 7:1 8:1 65:1.9448615 67:2.8751705 
0 0 10 3:1 7:1 8:1 65:2.2169335 67:2.2391853 
0 0 10 3:1 7:1 8:1 65:1.4573507 67:1.932772 
0 9.458626263030959 10 3:1 7:1 8:1 65:2.9173379 67:2.9401479 
0 0 10 3:1 7:1 8:1 65:3.2755044 67:2.5946715 
0 0 10 3:1 7:1 8:1 65:3.5910273 67:2.2897897 
0 0 10 3:1 7:1 8:1 65:3.8694746 67:2.0207322 
0 0 10 3:1 7:1 8:1 65:0.75379753 67:0.025437262 
0 0 10 3:1 7:1 8:1 65:1.3702532 67:0.022448305 
0 0 10 3:1 7:1 8:1 65:1.1499652 67:0.0072878981 
0 0 10 3:1 7:1 8:1 65:1.7199439 67:0.0064315484 
0 0 10 3:1 7:1 8:1 65:2.0446496 67:0.0049561122 
0 0 10 3:1 7:1 8:1 65:0.96965516 67:0.00045542701 
0 0 10 3:1 7:1 8:1 65:1.460319 67:0.00035468693 
0 0 10 3:1 7:1 8:1 65:0.84098601 67:3.2991025e-005 
0 0 10 3:1 7:1 8:1 65:1.3601156 67:2.5693435e-005 
0 0 10 3:1 7:1 8:1 65:1.3476284 67:1.2136719e-005 
0 0 10 3:1 7:1 8:1 65:1.7546895 67:9.4520865e-006 
0 0 10 3:1 7:1 8:1 65:0.76519787 67:3.234326e-007 
0 0 10 3:1 7:1 8:1 65:1.3804407 67:2.8542831e-007 
0 0 10 3:1 7:1 8:1 65:1.653918 67:1.8669422e-007 
0 0 10 3:1 7:1 8:1 65:2.1647325 67:1.5527948e-007 
0 0 10 3:1 7:1 8:1 65:1.1817075 67:0.46354994 
0 0 10 3:1 7:1 8:1 65:1.042853 67:0.87263131 
0 0 10 3:1 7:1 8:1 65:1.9406426 67:1.0338218 
0 0 10 3:1 7:1 8:1 65:2.4177666 67:0.91234457 
0 0 10 3:1 7:1 8:1 65:2.8388274 67:0.80514127 
0 0 10 3:1 7:1 8:1 65:2.2246706 67:0.43096107 
0 0 10 3:1 7:1 8:1 65:1.5035754 67:0.47765467 
0 0 10 3:1 7:1 8:1 65:1.3268769 67:0.88507873 
0 0 10 3:1 7:1 8:1 65:2.2770705 67:1.0485685 
0 0 10 3:1 7:1 8:1 65:2.9821494 67:1.0485685 
0 0 10 3:1 7:1 8:1 65:2.0343683 67:0.23396726 
0 0 10 3:1 7:1 8:1 65:2.2886977 67:0.18221387 
0 0 10 3:1 7:1 8:1 65:1.7114264 67:0.040085621 
0 0 10 3:1 7:1 8:1 65:2.2150943 67:0.035375439 
0 0 10 3:1 7:1 8:1 65:2.227263 67:0.024313159 
0 0 10 3:1 7:1 8:1 65:1.851145 
0 0 10 3:1 7:1 8:1 65:1.7712966 
0 0 10 3:1 7:1 8:1 65:1.3954238 
0 0 10 3:1 7:1 8:1 65:1.9365604 
0 0 10 3:1 7:1 8:1 65:2.2132978 
0 0 10 3:1 7:1 8:1 65:2.1379926 
0 0 10 3:1 7:1 8:1 65:1.8494878 
0 0 10 3:1 7:1 8:1 65:1.9762477 
0 0 10 3:1 7:1 8:1 65:1.601253 
0 0 10 3:1 7:1 8:1 65:1.0525984 67:0.46354991 
0 0 10 3:1 7:1 8:1 65:1.8056328 67:0.48464599 
0 0 10 3:1 7:1 8:1 30:0.63749999 65:1.4405612 67:0.38666329 
0 0 10 3:1 7:1 8:1 30:0.43947279 50:0.49798793 65:0.99305296 67:0.26655373 
0 0 10 3:1 7:1 8:1 30:0.40908137 50:0.46354991 65:0.92432165 67:0.71167028 
0 0 10 3:1 7:1 8:1 30:1.1339855 50:0.56259173 65:1.1217333 67:0.86372542 
0 0 10 3:1 7:1 8:1 30:0.88582134 50:0.93746072 65:0.87618065 67:0.67470562 
0 0 10 3:1 7:1 8:1 30:0.78173459 50:1.3252941 65:0.77315724 67:0.59542561 
0 0 10 3:1 7:1 8:1 14:9.0266131e-035 16:0.020243349 30:0.87654769 34:0.044125475 40:0.042264231 50:0.12606899 67:0.46354991 
0 0 10 3:1 7:1 8:1 14:1.0755291e-034 16:0.024568534 30:1.7013304 34:0.053553306 40:0.05129439 50:0.15300484 67:0.56259173 
0 0 10 3:1 7:1 8:1 14:9.8175853e-035 16:0.023982655 30:1.6607594 34:0.052276239 40:0.050071191 50:0.14935619 65:0.70515573 67:0.54917586 
0 0 10 3:1 7:1 8:1 14:4.6310322e-035 16:0.012278211 30:0.85024595 34:0.026763454 40:0.025634553 50:0.076464705 65:0.36101303 67:0.74470711 
0 0 10 3:1 7:1 8:1 14:3.9082291e-035 16:0.011328604 30:0.78448719 34:0.024693545 40:0.023651958 50:0.070550859 65:1.0382477 67:0.6871109 
0 0 10 3:1 7:1 8:1 14:1.8413146e-035 16:0.0060637644 30:0.41990572 34:0.013217503 40:0.01265998 50:0.037763152 65:1.2608898 67:0.36778396 
0 0 10 3:1 7:1 8:1 14:9.4372645e-036 16:0.0041675605 30:0.28859669 34:0.009084248 40:0.0087010693 50:0.025954213 65:1.5717517 67:0.25277397 
0 0 10 3:1 7:1 8:1 14:3.6463503e-036 16:0.0028643196 30:0.19834943 34:0.0062435064 40:0.0059801508 50:0.017838053 65:1.7854038 67:0.17372882 
0 0 10 3:1 7:1 8:1 16:0.0022307346 30:0.15447466 34:0.0048624473 40:0.0046573463 50:0.013892288 65:2.0956297 67:0.13530016 
0 0 10 3:1 7:1 8:1 16:0.00095747272 30:0.082684338 34:0.0026026806 40:0.0023086697 50:0.0074360059 65:2.254564 67:0.072420955 
0 0 10 3:1 7:1 8:1 16:0.00058073655 30:0.050150592 34:0.0015786056 40:0.0012568022 50:0.0045101661 65:2.072618 67:0.043925527 
0 0 10 3:1 7:1 8:1 16:0.00035223452 30:0.030417867 34:0.00095747272 40:0.00065054919 50:0.002735554 65:1.962262 67:0.026642181 
0 0 10 3:1 7:1 8:1 16:0.0001625806 30:0.02368946 34:0.00074568053 40:0.00050664821 50:0.0021304516 65:2.2333667 67:0.020748951 
0 0 10 3:1 7:1 8:1 16:6.7773683e-005 30:0.009875237 34:0.00031084588 40:9.8610129e-005 50:0.00088810432 65:1.9692537 67:0.0086494498 
0 0 10 3:1 7:1 8:1 30:0.0076908413 34:0.00024208703 40:7.6797638e-005 50:0.00069165631 65:2.238812 67:0.006736198 
0 0 3.778002635790431 3:1 7:1 8:1 30:0.0031074097 50:0.00011173991 65:4.3936448 67:0.0028080652 
0 0 10 3:1 7:1 8:1 30:0.0027422793 65:4.5825338 67:0.0024781087 
0 0 10 3:1 7:1 8:1 30:0.00093021762 65:1.6124383 67:0.46442187 
0 0 10 3:1 7:1 8:1 30:0.00072659645 65:1.4229716 67:0.87340081 
0 0 10 3:1 7:1 8:1 30:0.00057179073 65:2.0180738 67:0.80585128 
0 0 10 3:1 7:1 8:1 30:0.00017620875 65:1.1707432 67:0.93104762 
0 0 10 3:1 7:1 8:1 30:0.00015550367 65:1.033177 67:1.2850595 
0 0 10 3:1 7:1 8:1 65:2.2768333 67:1.9548422 
0 0 10 3:1 7:1 8:1 65:2.7142169 67:1.7251422 
0 0 10 3:1 7:1 8:1 65:1.7842518 67:1.5974112 
0 0 10 3:1 7:1 8:1 65:3.1000023 67:2.1444623 
0 0 10 3:1 7:1 8:1 65:2.037313 67:1.8732604 
0 0 10 3:1 7:1 8:1 65:1.7972254 67:2.1166964 
0 0 10 3:1 7:1 8:1 65:1.0894572 67:1.7473911 
0 0 10 3:1 7:1 8:1 65:0.66031033 67:1.5233961 
0 0 10 3:1 7:1 8:1 65:0.45345119 67:1.510564 
0 0 10 3:1 7:1 8:1 65:0.35266909 67:1.6399783 
0 0 10 3:1 7:1 8:1 65:0.21342567 67:1.4582469 
0 0 10 3:1 7:1 8:1 65:0.11381581 67:1.2440932 
0 0 10 3:1 7:1 8:1 65:0.099963129 67:1.5614582 
0 0 10 3:1 7:1 8:1 65:0.087738164 67:1.8415321 
0 0 10 3:1 7:1 8:1 65:0.076533802 67:2.0886967 
0 0 10 3:1 7:1 8:1 65:0.058709715 67:2.0902283 
0 0 10 3:1 7:1 8:1 65:0.045026258 67:2.0914214 
0 0 10 3:1 7:1 8:1 65:0.03894582 67:2.3092229 
0 0 10 3:1 7:1 8:1 65:0.026152015 67:2.0506542 
0 0 10 3:1 7:1 8:1 65:0.0030401777 67:0.70846552 
0 0 10 3:1 7:1 8:1 65:0.7091105 67:0.95108753 
0 0 10 3:1 7:1 8:1 65:0.32031485 67:0.89325595 
0 0 10 3:1 7:1 8:1 65:1.0006294 67:0.82417095 
0 0 10 3:1 7:1 8:1 65:1.3928248 67:0.56644374 
0 0 10 3:1 7:1 8:1 65:1.9343194 67:0.49979785 
0 0 10 3:1 7:1 8:1 65:1.0017933 67:0.076631367 
0 0 10 3:1 7:1 8:1 65:1.3936603 67:0.052667912 
0 0 10 3:1 7:1 8:1 65:1.7905396 67:0.041002695 
0 0 10 3:1 7:1 8:1 65:1.0387439 67:0.48732683 
0 0 10 3:1 7:1 8:1 65:2.0996158 67:0.6542173 
0 0 10 3:1 7:1 8:1 65:1.3802195 67:0.89361429 
0 0 10 3:1 7:1 8:1 65:1.0749161 67:1.1594895 
0 0 10 3:1 7:1 8:1 65:2.3403132 67:1.7638247 
0 0 10 3:1 7:1 8:1 65:1.3576838 67:1.4867883 
0 0 10 3:1 7:1 8:1 65:2.7704747 67:2.2617004 
0 0 10 3:1 7:1 8:1 65:1.4183782 67:1.6214436 
0 0 10 3:1 7:1 8:1 65:1.104634 67:1.7263172 
0 0 10 3:1 7:1 8:1 65:0.02023208 67:0.49516812 
0 0 10 3:1 7:1 8:1 65:0.017854745 67:0.90053385 
0 0 10 3:1 7:1 8:1 65:0.00053916662 67:0.4907437 
0 0 10 3:1 7:1 8:1 65:0.00041990343 67:0.84574133 
0 0 10 3:1 7:1 8:1 65:1.9445383e-006 67:0.46746644 
0 0 10 3:1 7:1 8:1 65:1.7160492e-006 67:0.87608755 
0 0 10 3:1 7:1 8:1 65:1.738374e-011 67:0.46355882 
0 0 10 3:1 7:1 8:1 65:1.5341096e-011 67:0.87263912 
0 0 10 3:1 7:1 8:1 65:1.353847e-011 67:1.2336513 
0 0 10 3:1 7:1 8:1 65:1.1947657e-011 67:1.5522434 
0 0 10 3:1 7:1 8:1 45:0.020408163 65:4.096534e-013 67:0.053222295 
0 0 10 3:1 7:1 8:1 45:0.70515573 65:0.70515573 67:1.8389703 
0 0 10 3:1 7:1 8:1 45:0.46354991 65:0.46354991 67:1.6724383 
0 0 10 3:1 7:1 8:1 45:0.28115723 65:0.28115723 67:1.477935 
0 0 10 3:1 7:1 8:1 45:0.2481204 65:0.2481204 67:1.767823 
0 0 10 3:1 7:1 8:1 45:0.031331867 65:0.010923703 67:0.077829845 
0 0 10 3:1 7:1 8:1 45:0.95538974 65:1.0382477 67:2.3732338 
0 0 10 3:1 7:1 8:1 45:0.38092968 65:0.41396651 67:1.4097974 
0 0 10 3:1 7:1 8:1 45:0.0047951965 65:0.0052110692 67:0.48129663 
0 0 10 3:1 7:1 8:1 45:0.0064373654 65:0.71215141 67:0.64612204 
0 0 10 3:1 7:1 8:1 45:0.0029084338 65:0.32175359 67:0.75547099 
0 0 10 3:1 7:1 8:1 45:0.0017640544 65:0.1951534 67:0.92176616 
0 0 10 3:1 7:1 8:1 45:0.0013738469 65:0.15198562 67:1.1814222 
0 0 10 3:1 7:1 8:1 45:0.0020899065 65:0.93635738 67:1.7971886 
0 0 10 3:1 7:1 8:1 45:0.001844336 65:1.5314883 67:1.5860133 
0 0 10 3:1 7:1 8:1 45:0.0012124156 65:1.0067582 67:1.5061516 
0 0 10 3:1 7:1 8:1 45:0.0016276208 65:2.0566895 67:2.02195 
0 0 10 3:1 7:1 8:1 45:0.0014363704 65:2.5201778 67:1.7843646 
0 0 10 3:1 7:1 8:1 45:0.0012675924 65:2.9292049 67:1.5746961 
0 0 10 3:1 7:1 8:1 45:0.00083328027 65:1.9255785 67:1.4987115 
0 0 10 3:1 7:1 8:1 45:0.0011186464 65:3.29017 67:2.0119622 
0 0 10 3:1 7:1 8:1 45:0.00073536724 65:2.1628668 67:1.7861584 
0 10 10 3:1 7:1 8:1 45:0.00098720193 65:3.6087205 67:2.3978484 
0 0 10 3:1 7:1 8:1 45:0.00057270459 65:2.0935237 67:1.8546115 
0 0 10 3:1 7:1 8:1 45:0.00023873878 65:0.87271053 67:1.2366669 
0 0 10 3:1 7:1 8:1 30:0.63749999 45:0.00032832706 65:1.2002007 67:1.7006727 
0 0 10 3:1 7:1 8:1 30:0.40908137 45:0.00021068624 65:0.77016425 67:1.5548208 
0 3.570424364479957 0 2:1 6:1 8:1 30:0.993945 34:0.0019387382 40:0.0014377459 50:0.76115745 54:0.23050354 67:0.46354991 
0 10 0 2:1 6:1 8:1 30:0.092451289 34:0.00018033074 40:9.5444062e-005 50:0.07079868 54:0.021440165 67:0.57775444 
0 10 10 2:1 6:1 8:1 30:0.063540779 34:0.00012393938 40:4.4552547e-005 50:0.048659164 54:0.014735596 67:0.86063439 
0 10 0 2:1 6:1 8:1 30:0.096658729 34:0.00018853755 40:6.7773683e-005 50:0.073967919 54:0.022415902 65:0.70515573 67:1.3092036 
0 10 0 2:1 6:1 8:1 30:0.075277895 34:0.00014683319 50:0.057606272 54:0.017457524 65:1.2543316 67:1.019609 
0 10 0 2:1 6:1 8:1 30:0.010187754 34:1.17773e-005 50:0.0077961613 54:0.0023626189 65:0.87491107 67:0.13798904 
0 10 0 2:1 6:1 8:1 30:0.0035847255 50:0.0027432048 54:0.00083132548 65:0.30785152 67:0.51210362 
0 10 0 2:1 6:1 8:1 30:0.0048123542 50:0.0036763421 54:0.0011160222 65:1.1184344 67:0.68747914 
0 10 0 2:1 6:1 8:1 30:0.0031635093 50:0.0024054612 54:0.0007336422 65:0.73522794 67:0.91547978 
0 10 0 2:1 6:1 8:1 30:0.0010737814 50:0.00081214664 54:0.00024901822 65:0.95471221 67:0.31073886 
0 10 0 2:1 6:1 8:1 30:0.00062293187 50:0.00046120893 54:0.00014446271 65:0.55385637 67:0.64381856 
0 10 0 2:1 6:1 8:1 30:0.0005497355 50:0.00039575077 54:0.00012748789 65:0.4887765 67:1.0317178 
0 10 0 2:1 6:1 8:1 30:0.00073799846 50:0.00053128006 54:0.00015602518 65:1.3613192 67:1.3850411 
0 10 0 2:1 6:1 8:1 30:0.00057475374 50:0.00040041588 54:0.00012151254 65:1.7653524 67:1.0786711 
0 10 0 2:1 6:1 8:1 30:0.0003950221 50:0.00027520157 54:7.3120835e-005 65:1.9184633 67:0.74135911 
0 10 0 2:1 6:1 8:1 30:0.00023959304 50:0.00016061423 54:4.4350028e-005 65:1.8687626 67:0.44965702 
0 10 0 2:1 6:1 8:1 30:0.00018659524 50:0.00011174107 54:3.4539837e-005 65:2.1605496 67:0.3501932 
0 10 0 2:1 6:1 8:1 30:0.00012824489 50:7.6798438e-005 54:1.3345429e-005 65:2.190078 67:0.24068406 
0 10 0 2:1 6:1 8:1 30:0.00011317573 50:5.7380952e-005 54:1.17773e-005 65:2.6378927 67:0.21240294 
0 10 0 2:1 6:1 8:1 30:1.1928634e-005 50:6.0479083e-006 65:0.98318768 67:0.022387102 
0 10 0 2:1 6:1 8:1 30:4.3882992e-006 50:1.7682456e-006 65:1.0668504 67:0.0082357554 
0 10 0 2:1 6:1 8:1 30:3.8726607e-006 50:1.1038157e-006 65:1.646648 67:0.0072680283 
0 10 0 2:1 6:1 8:1 30:2.613034e-006 50:8.5965257e-007 65:1.9875665 67:0.0056603462 
0 10 0 2:1 6:1 8:1 30:9.6128156e-007 50:1.6799416e-007 65:1.4363405 67:0.0020823248 
0 1.156515124720682 0 2:1 6:1 8:1 30:2.4443005e-007 65:2.7478137 67:0.001262994 
0 10 0 2:1 6:1 8:1 65:0.93071008 67:0.00010367285 
0 10 10 2:1 6:1 8:1 65:3.7016802 67:3.3414741e-005 
0.4427290408668334 10 10 2:1 6:1 8:1 65:3.9718757 67:2.9488405e-005 
0 10 0 2:1 6:1 8:1 65:0.83922845 67:1.0189361e-007 
0 10 0 2:1 6:1 8:1 65:3.3662052 
0 10 0 2:1 6:1 8:1 65:1.3517134 67:0.46354991 
0 10 0 2:1 6:1 8:1 65:1.1928819 67:0.87263131 
0 10 0 2:1 6:1 8:1 65:2.3065517 67:1.1714736 
0 10 0 2:1 6:1 8:1 65:2.740665 67:1.0338218 
0 10 0 2:1 6:1 8:1 65:2.36744 67:0.62704462 
0 10 0 2:1 6:1 8:1 65:2.7943969 67:0.55336493 
0 10 0 2:1 6:1 8:1 65:2.8814187 67:0.43096107 
0 10 0 2:1 6:1 8:1 65:3.2479844 67:0.3803218 
0 10 0 2:1 6:1 8:1 65:3.5714762 67:0.3356328 
0 10 0 2:1 6:1 8:1 65:2.071909 67:0.65826029 
0 10 0 2:1 6:1 8:1 45:0.36101303 65:1.423967 67:0.91596514 
0 10 0 2:1 6:1 8:1 45:0.54917586 65:2.8712585 67:1.3933733 
0 10 0 2:1 6:1 8:1 45:0.33309197 65:2.44663 67:0.84512359 
0 10 0 2:1 6:1 8:1 45:0.25941229 65:2.6105652 67:0.65818292 
0 10 0 2:1 6:1 8:1 45:0.22893055 65:3.008404 67:0.5808444 
0 10 0 2:1 6:1 8:1 45:0.15049262 65:1.977219 67:0.84538102 
0 10 0 2:1 6:1 8:1 45:0.13280928 65:1.7444668 67:1.209596 
0 10 0 2:1 6:1 8:1 45:0.15734151 65:2.7712133 67:1.43303 
0 10 0 2:1 6:1 8:1 45:0.1388534 65:3.1500149 67:1.2646446 
0 10 0 2:1 6:1 8:1 45:0.12253769 65:3.4842083 67:1.116045 
0 10 0 2:1 6:1 8:1 45:0.095432453 65:3.4179311 67:0.86917657 
0 10 0 2:1 6:1 8:1 45:0.065589696 65:3.0536954 67:0.59737581 
0 10 0 2:1 6:1 8:1 45:0.057882708 65:3.3986712 67:0.52718228 
0 10 0 2:1 6:1 8:1 45:0.051081311 65:3.7029302 67:0.46523666 
0 10 0 2:1 6:1 8:1 45:0.033579443 65:2.4320571 67:0.76938367 
0 10 0.8460258019547664 2:1 6:1 8:1 45:0.045079097 65:3.9659054 67:1.0328677 
0 10 0 2:1 6:1 8:1 45:0.37898681 65:1.5766929 67:0.87537134 
0 10 0 2:1 6:1 8:1 45:0.50877512 65:2.8218048 67:1.170959 
0 10 0 2:1 6:1 8:1 45:0.44899243 65:3.195389 67:1.0291747 
0 10 0 2:1 6:1 8:1 45:0.34967566 65:3.1900272 67:0.80152208 
0 10 0 2:1 6:1 8:1 45:0.1871679 65:2.4104102 67:0.4290238 
0 10 0 2:1 6:1 8:1 45:0.084563389 65:1.0873635 67:0.65738505 
0 10 0 2:1 6:1 8:1 45:0.11352307 65:2.1623561 67:0.88251394 
0 10 0 2:1 6:1 8:1 45:0.07462693 65:1.4193261 67:1.0436902 
0 10 0 2:1 6:1 8:1 45:0.058119513 65:1.1034777 67:1.2763766 
0 10 0 2:1 6:1 8:1 45:0.07802318 65:2.1836498 67:1.7134861 
0 10 0 2:1 6:1 8:1 45:0.068855211 65:2.6322203 67:1.5092646 
0 10 0 2:1 6:1 8:1 45:0.038050495 65:1.5270276 67:1.339118 
0 10 0 2:1 6:1 8:1 45:0.029633753 65:1.1892502 67:1.5045617 
0 10 0 2:1 6:1 8:1 45:0.02307879 65:0.92471373 67:1.6353036 
0 10 0 2:1 6:1 8:1 45:0.030982381 65:1.9432826 67:2.1953316 
0 10 0 2:1 6:1 8:1 45:0.020366961 65:1.2747039 67:1.9067004 
0 10 0 2:1 6:1 8:1 45:0.027341854 65:2.4122028 67:2.5596712 
0 10 0 2:1 6:1 8:1 45:0.024129102 65:2.8339176 67:2.2552018 
0 10 0 2:1 6:1 8:1 45:0.021293858 65:3.206079 67:1.9865083 
0 10 0 2:1 6:1 8:1 45:0.013997994 65:2.1044648 67:1.7694255 
0 10 0 2:1 6:1 8:1 45:0.0047513018 65:1.4182674 67:0.6005913 
0 10 0 2:1 6:1 8:1 45:0.002146662 65:0.64016527 67:0.73490012 
0 10 0 2:1 6:1 8:1 45:0.0018944226 65:0.56424689 67:1.112097 
0 10 0 2:1 6:1 8:1 45:0.0028818103 65:1.5619501 67:1.6917306 
0 10 0 2:1 6:1 8:1 45:0.001671822 65:0.90511853 67:1.4449723 
0 10 10 2:1 6:1 8:1 45:0.0014753777 65:0.79775029 67:1.7387334 
0 10 10 2:1 6:1 8:1 45:0.0013020163 65:0.70401222 67:1.9970816 
0 10 10 2:1 6:1 8:1 45:0.0011490254 65:0.62039375 67:2.2259684 
0 10 10 2:1 6:1 8:1 65:0.20141236 67:1.1862161 
0 10 10 2:1 6:1 8:1 65:0.13842854 67:1.2784942 
0 10 10 2:1 6:1 8:1 65:0.91516691 67:1.9448555 
0 10 10 2:1 6:1 8:1 65:0.5305419 67:1.5918173 
0 10 0 2:1 6:1 8:1 45:0.020408163 65:0.020594349 67:0.061846301 
0 10 0 2:1 6:1 8:1 45:0.48464599 65:1.1933975 67:2.0898013 
0 10 0 2:1 6:1 8:1 45:0.37744269 65:1.6335149 67:1.6275387 
0 10 0 2:1 6:1 8:1 45:0.33309197 65:2.1467273 67:1.4353622 
0 10 0 2:1 6:1 8:1 45:0.25941229 65:2.3770287 67:1.1169258 
0 10 0 2:1 6:1 8:1 45:0.17053048 65:1.5618962 67:1.1977859 
0 10 0 2:1 6:1 8:1 45:0.59635919 65:1.2157907 67:1.3956897 
0 10 0 2:1 6:1 8:1 45:0.52628517 65:1.0729316 67:1.694452 
0 10 0 2:1 6:1 8:1 45:0.70651734 65:2.1455247 67:2.273375 
0 10 0 2:1 6:1 8:1 45:0.46444499 65:1.4093949 67:1.9580039 
0 10 0 2:1 6:1 8:1 45:0.15764533 65:1.1835428 67:0.66425574 
0 10 0 2:1 6:1 8:1 45:0.13912152 65:1.7492845 67:0.58620369 
0 10 0 2:1 6:1 8:1 45:0.10834794 65:2.0671961 67:0.45653588 
0 10 0 2:1 6:1 8:1 45:0.07122495 65:1.3586913 67:0.76366395 
0 10 0 2:1 6:1 8:1 45:0.095616721 65:2.5291464 67:1.0248857 
0 10 0 2:1 6:1 8:1 45:0.062855795 65:1.661696 67:1.1372814 
0 10 0 2:1 6:1 8:1 45:0.033644281 65:0.88944173 67:1.0715958 
0 10 0 2:1 6:1 8:1 45:0.029690973 65:0.78492957 67:1.4085331 
0 10 10 2:1 6:1 8:1 45:0.020406289 65:0.53899473 67:1.4316193 
0 10 10 2:1 6:1 8:1 45:0.018008487 65:0.47566116 67:1.7264708 
0 10 10 2:1 6:1 8:1 45:0.0051595178 65:0.1362792 67:0.95803654 
0 10 10 2:1 6:1 8:1 45:0.0045532584 65:0.12026598 67:1.3088588 
0 10 10 2:1 6:1 8:1 45:0.0040182364 65:0.10613435 67:1.6184582 
0 10 10 2:1 6:1 8:1 45:0.0061125727 65:0.8666082 67:2.4612823 
0 10 0 2:1 6:1 8:1 45:0.0047604763 65:1.3800709 67:1.9160231 
0 10 10 2:1 6:1 8:1 45:0.0031294059 65:0.90667766 67:1.7230906 
0 10 0 2:1 6:1 8:1 45:0.020529749 65:0.035226833 67:0.066922739 
0 10 0 2:1 6:1 8:1 45:0.70842123 65:1.9223355 67:2.3123569 
0 10 0 2:1 6:1 8:1 45:0.48689035 65:2.0263562 67:1.5884323 
0 10 0 2:1 6:1 8:1 45:0.33463448 65:2.0972054 67:1.0917126 
0 10 0 2:1 6:1 8:1 45:0.19413121 65:1.2161709 67:1.096884 
0 10 0 2:1 6:1 8:1 45:0.58040154 65:1.0721731 67:1.4315467 
0 10 0 2:1 6:1 8:1 45:0.58040154 65:1.0721731 67:1.8944815 
0 10 0 2:1 6:1 8:1 45:0.77810639 65:2.1445067 67:2.543268 
0 10 0 2:1 6:1 8:1 45:0.51150566 65:1.4097394 67:2.134727 
0 10 0 2:1 6:1 8:1 45:0.60598987 65:2.375299 67:2.5281138 
0 10 0 2:1 6:1 8:1 45:0.5347842 65:2.8004141 67:2.2310529 
0 10 0 2:1 6:1 8:1 45:0.32436299 65:2.4036927 67:1.3526343 
0 10 0 2:1 6:1 8:1 45:0.28624934 65:2.824163 67:1.1936957 
0 10 0 2:1 6:1 8:1 45:0.14654882 65:1.4445624 67:1.0746766 
0 10 0 2:1 6:1 8:1 30:0.63749999 45:0.15696123 65:1.545409 67:1.1510334 
0 10 0 2:1 6:1 8:1 30:0.43947279 45:0.10820423 50:0.49798793 65:1.0653573 67:0.79225248 
0 10 0 2:1 6:1 8:1 30:0.40908137 45:0.10072143 50:0.46354991 65:0.99038124 67:1.2010145 
0.01127730377368367 0 0 2:1 6:1 9:1 30:0.38783339 50:0.88582134 54:0.56859869 67:0.49798793 
3.00146301415072 0 0 2:1 6:1 9:1 30:1.0756469 50:1.0007386 54:0.64236283 67:0.56259173 
0 5.900176626665799 0 2:1 6:1 9:1 30:0.00018853755 50:0.00017540777 54:0.00011259226 65:1.7055131 67:1.2263428 
0 10 0 2:1 6:1 9:1 30:0.0001663838 50:0.00015479681 54:9.9362325e-005 65:2.2102659 67:1.0822438 
0 10 0 2:1 6:1 8:1 30:0.00010091688 50:9.3889015e-005 54:6.0266295e-005 65:2.5949254 67:0.65641403 
0 10 0 2:1 6:1 8:1 30:0.00010091688 50:9.3889015e-005 54:6.0266295e-005 65:3.300081 67:0.65641403 
0 10 0 2:1 6:1 8:1 30:8.9058834e-005 50:8.2856757e-005 54:5.318482e-005 65:3.6174672 67:0.5792833 
0 10 0 2:1 6:1 8:1 30:2.0944631e-006 50:1.9486042e-006 54:1.2507871e-006 65:0.79023045 67:0.013623438 
0 10 0 2:1 6:1 8:1 30:1.4395021e-006 50:1.3392548e-006 54:4.566555e-007 65:1.2482727 67:0.0093632424 
0 10 0 2:1 6:1 8:1 30:1.1210853e-006 50:1.0430127e-006 65:1.6773115 67:0.0072921002 
0 10 0 2:1 6:1 8:1 30:9.8935425e-007 50:5.1745849e-007 65:2.1853781 67:0.0064352565 
0 10 0 2:1 6:1 8:1 30:5.1745849e-007 50:4.566555e-007 65:2.6337452 67:0.0056790942 
0 10 0 2:1 6:1 8:1 30:3.5564364e-007 50:3.138544e-007 65:2.5153005 67:0.0039028663 
0 10 0 2:1 6:1 8:1 30:2.4443005e-007 65:2.4338946 67:0.0026823985 
0 10 0 2:1 6:1 8:1 65:3.0831008 67:0.0018435838 
0 10 0 2:1 6:1 8:1 65:2.8241382 67:0.0012670752 
0 10 0 2:1 6:1 8:1 65:2.9045968 67:0.00098679913 
0 10 0 2:1 6:1 8:1 65:2.9672575 67:0.00076840451 
0 10 0 2:1 6:1 8:1 65:1.8041717 67:0.46389705 
0 10 0 2:1 6:1 8:1 65:2.8425901 67:0.54958701 
0 10 0 2:1 6:1 8:1 65:1.6490692 67:0.78238124 
0 10 0 2:1 6:1 8:1 65:1.8193458e-009 67:0.46354991 
0 10 10 2:1 6:1 8:1 65:1.6055668e-009 67:0.87263131 
0 10 10 2:1 6:1 8:1 65:9.7382558e-010 67:0.99282753 
0 10 0 2:1 6:1 8:1 65:0.70515573 67:1.038011 
0 10 0 2:1 6:1 8:1 65:0.46354991 67:1.1459097 
0 10 0 2:1 6:1 8:1 65:1.3274535 67:1.5383393 
0 10 0 2:1 6:1 8:1 65:1.6175003 67:1.057284 
0 10 0 2:1 6:1 8:1 65:2.1325948 67:0.93304992 
0 10 0 2:1 6:1 8:1 65:2.5871639 67:0.82341355 
0 10 0 2:1 6:1 8:1 65:1.7007303 67:1.0048393 
0 10 0 2:1 6:1 8:1 65:2.4832859 67:1.0505693 
0 10 0 2:1 6:1 8:1 65:1.6324435 67:1.1541651 
0 0 10 3:1 7:1 8:1 17:2.8582048e-007 20:2.9116243e-006 67:0.46354991 
0 0 10 3:1 7:1 8:1 17:3.0705465e-007 20:3.1279305e-006 50:0.49798793 67:0.49798793 
0 0 10 3:1 7:1 8:1 17:3.9307648e-007 20:4.004221e-006 30:0.63749999 50:0.63749999 67:0.63749999 
0 0 10 3:1 7:1 8:1 17:2.2259724e-007 20:2.2675645e-006 30:0.36101303 50:0.36101303 67:0.82456291 
0 0 10 3:1 7:1 8:1 17:3.3861664e-007 20:3.4494267e-006 30:0.54917586 50:0.54917586 65:0.70515573 67:1.2543316 
0 0 10 3:1 7:1 8:1 17:2.9882813e-007 20:3.0440988e-006 30:0.48464599 50:0.48464599 65:1.3274535 67:1.1069437 
0 0 10 3:1 7:1 8:1 17:2.3272759e-007 20:2.3707339e-006 30:0.37744269 50:0.37744269 65:1.7389776 67:0.86208868 
0 0 10 3:1 7:1 8:1 17:9.2792334e-008 20:9.4520323e-007 30:0.15049262 50:0.15049262 65:0.69335902 67:0.80727887 
0 0 10 3:1 7:1 8:1 17:1.2457011e-007 20:1.2688058e-006 30:0.20203051 50:0.20203051 65:1.6359634 67:1.0837406 
0 0 10 3:1 7:1 8:1 17:8.1888949e-008 20:8.3342121e-007 30:0.13280928 50:0.13280928 65:1.0754371 67:1.175971 
0 0 10 3:1 7:1 8:1 17:5.2349858e-009 20:5.3231261e-008 30:0.0084902132 50:0.0084902132 65:0.068750396 67:0.53872722 
0 0 10 3:1 7:1 8:1 17:7.9635001e-009 20:7.9976886e-008 30:0.012915378 50:0.012915378 65:0.80973935 67:0.81951606 
0 0 10 3:1 7:1 8:1 17:4.6198583e-009 20:4.5740251e-008 30:0.0074925865 50:0.0074925865 65:0.46975338 67:0.9389751 
0 0 10 3:1 7:1 8:1 17:6.2019803e-009 20:6.0405576e-008 30:0.010058506 50:0.010058506 65:1.3357815 67:1.2605375 
0 0 10 3:1 7:1 8:1 17:3.5979493e-009 20:3.3816217e-008 30:0.0058352323 50:0.0058352323 65:0.77492565 67:1.1948242 
0 0 10 3:1 7:1 8:1 17:3.1751792e-009 20:2.8615887e-008 30:0.0051495745 50:0.0051495745 65:0.68386948 67:1.5179788 
0 0 10 3:1 7:1 8:1 17:3.319681e-009 20:2.8635535e-008 30:0.0053839306 50:0.0053839306 65:1.4201481 67:1.5870616 
0 0 10 3:1 7:1 8:1 17:1.6469568e-009 20:2.5270772e-008 30:0.0047513018 50:0.0047513018 65:1.9584318 67:1.4005771 
0 0 10 3:1 7:1 8:1 17:7.779673e-010 20:1.1331186e-008 30:0.0022443561 50:0.0022443561 65:1.6302534 67:0.66158575 
0 0 10 3:1 7:1 8:1 17:1.9869797e-011 20:2.7187091e-010 30:5.732233e-005 45:0.020408163 50:5.732233e-005 65:0.041637741 67:0.016897334 
0 0 10 3:1 7:1 8:1 20:5.4496487e-009 30:0.0011490254 45:0.40908137 50:0.0011490254 65:0.83462805 67:0.80225676 
0 0 10 3:1 7:1 8:1 20:3.6238141e-009 30:0.00089486188 45:0.31859291 50:0.00089486188 65:1.1135589 67:1.0883482 
0 0 10 3:1 7:1 8:1 20:2.113751e-009 30:0.0006969191 45:0.2481204 50:0.0006969191 65:1.276322 67:1.3111563 
0 0 10 3:1 7:1 8:1 20:4.8484258e-011 30:2.1087706e-005 45:0.027915906 50:2.1087706e-005 65:0.038619552 67:0.039673585 
0 0 10 3:1 7:1 8:1 20:6.6167793e-010 30:0.00042270281 45:0.55957401 50:0.00042270281 65:0.77412832 67:1.2588063 
0 0 10 3:1 7:1 8:1 30:0.00037303392 45:0.49382231 50:0.00037303392 65:1.0922471 67:1.5744427 
0 0 10 3:1 7:1 8:1 30:0.00029051912 45:0.3845892 50:0.00029051912 65:0.85064298 67:1.6894364 
0 0 10 3:1 7:1 8:1 30:5.9810063e-005 45:0.079176567 65:0.88028014 67:0.34780952 
0 0 10 3:1 7:1 8:1 45:0.037400361 65:1.1209708 67:0.16429357 
0 0 10 3:1 7:1 8:1 45:0.037400361 65:1.8261266 67:0.1642573 
0 0 10 3:1 7:1 8:1 45:0.010715382 65:1.457258 67:0.047060505 
0 0 10 3:1 7:1 8:1 45:0.0094562918 65:1.9911684 67:0.041530747 
0 0 10 3:1 7:1 8:1 45:0.0037703798 65:1.0750588 67:0.48010015 
0 0 10 3:1 7:1 8:1 45:0.0033273487 65:0.94873607 67:0.88722807 
0 0 10 3:1 7:1 8:1 45:0.0050615883 65:2.1483805 67:1.3494495 
0 0 10 3:1 7:1 8:1 45:0.0025913417 65:1.0997827 67:1.1544169 
0 0 10 3:1 7:1 8:1 30:0.63749999 45:0.0027754584 65:1.1779231 67:1.2363094 
0 0 10 3:1 7:1 8:1 30:0.40908137 45:0.0017810013 65:0.75577456 67:1.2568852 
0 0 10 3:1 7:1 8:1 30:0.36101303 34:2.3678713e-038 50:0.86113572 54:0.47439358 67:0.46354991 
0 0 10 3:1 7:1 8:1 30:0.34226176 34:2.2448822e-038 50:1.3143957 54:0.44975325 67:0.43947279 
0 0 10 3:1 7:1 8:1 30:1.0756469 34:2.8737893e-038 50:1.6826255 54:0.57575232 67:0.56259173 
0 0 10 3:1 7:1 8:1 30:0.60913342 34:1.6274125e-038 50:0.95286238 54:0.32604563 65:0.46354991 67:0.78214282 
0 0 9.990521458209281 3:1 7:1 8:1 30:0.7216512 34:1.9280246e-038 50:1.128873 54:0.38627207 65:1.2543316 67:0.92661858 
0 0 10 3:1 7:1 8:1 30:0.093413636 50:0.14612618 54:0.050000712 65:1.9387751 67:0.58349538 
0 0 10 3:1 7:1 8:1 30:0.072750613 50:0.11380319 54:0.038940594 65:1.9734695 67:0.9179765 
0 0 10 3:1 7:1 8:1 30:0.064202189 50:0.10043095 54:0.034364954 65:1.7415807 67:1.2736615 
0 0 10 3:1 7:1 8:1 30:0.056658231 50:0.088630006 54:0.030326966 65:1.5369395 67:1.5875522 
0 0 10 3:1 7:1 8:1 30:0.70626378 50:0.10756665 54:0.036806613 65:1.8653214 67:1.9267479 
0 0 10 3:1 7:1 8:1 30:0.48687643 50:0.57214105 54:0.025373342 65:1.2858949 67:1.3282405 
0 0 10 3:1 7:1 8:1 30:1.2607756 50:0.73242718 54:0.032481723 65:1.6461402 67:1.700349 
0 0 10 3:1 7:1 8:1 30:0.76701319 50:0.94357187 54:0.01976078 65:1.0014559 67:1.0344347 
0 0 10 3:1 7:1 8:1 30:0.15103383 50:0.6837883 54:0.0038911281 65:0.19719836 67:0.20369226 
0 0 10 3:1 7:1 8:1 30:0.8081274 50:0.77249587 54:0.0026053167 65:0.22278085 67:0.2301172 
0 0 10 3:1 7:1 8:1 30:1.3506699 50:0.67993468 54:0.002299184 65:0.19660343 67:0.20307773 
0 0 10 3:1 7:1 8:1 30:1.0550859 50:1.0291239 65:0.15357822 67:0.15863569 
0 0 10 3:1 7:1 8:1 30:0.67500216 50:0.65724367 65:0.098253258 67:0.56503874 
0 0 10 3:1 7:1 8:1 30:0.4639217 50:0.45070246 65:0.067528412 67:0.85189497 
0 0 10 3:1 7:1 8:1 30:1.2251192e-009 50:1.1928173e-009 65:1.7871889e-010 67:0.46354991 
0 0 10 3:1 7:1 8:1 30:1.081164e-009 50:1.0526575e-009 65:1.5771887e-010 67:0.87263131 
0 0 10 3:1 7:1 8:1 30:4.2006083e-011 45:0.020408163 50:4.0764649e-011 65:6.1277953e-012 67:0.033904031 
0 0 10 3:1 7:1 8:1 30:1.4467947e-009 45:0.70515573 50:1.4085261e-009 65:0.70515573 67:1.1714736 
0 0 10 3:1 7:1 8:1 30:9.5108288e-010 45:0.46354991 50:9.2592611e-010 65:0.46354991 67:1.2336444 
0 0 10 3:1 7:1 8:1 30:7.4070405e-010 45:0.36101303 50:7.2111195e-010 65:0.36101303 67:1.4243131 
0 0 10 3:1 7:1 8:1 30:6.5366906e-010 45:0.31859291 50:6.3637906e-010 65:0.31859291 67:1.7205019 
0 0 10 3:1 7:1 8:1 30:2.8778313e-011 45:0.034434475 50:2.8017106e-011 65:0.014026312 67:0.075746499 
0 0 10 3:1 7:1 8:1 30:8.7752527e-010 45:1.0499964 50:8.5431417e-010 65:1.1328543 67:2.3097069 
0 0 10 3:1 7:1 8:1 30:5.09078e-010 45:0.60913342 50:4.956125e-010 65:0.65720177 67:1.803478 
0 0 10 3:1 7:1 8:1 30:5.09078e-010 45:0.60913342 50:4.956125e-010 65:1.1207517 67:2.2670281 
0 0 10 3:1 7:1 8:1 30:4.4925977e-010 45:0.53755838 50:4.3737652e-010 65:0.98905987 67:2.4641953 
0 0 10 3:1 7:1 8:1 30:4.1451362e-010 45:0.49598315 50:4.0354942e-010 65:1.617721 67:2.273612 
0 0 10 3:1 7:1 8:1 30:3.65807e-010 45:0.43770358 50:3.5613115e-010 65:2.1327894 67:2.0064557 
0 0 10 3:1 7:1 8:1 30:1.9580237e-010 45:0.23428586 50:1.9062325e-010 65:1.8467556 67:1.0739783 
0 0 10 3:1 7:1 8:1 30:9.2490487e-011 45:0.11066879 50:9.0044049e-011 65:1.5775013 67:0.5073114 
0 0 10 3:1 7:1 8:1 30:8.162257e-011 45:0.09766487 50:7.9463588e-011 65:2.0972955 67:0.44770077 
0 0 10 3:1 7:1 8:1 30:2.9072099e-011 45:0.038940594 50:2.9838999e-011 65:2.0698707 67:0.64205557 
0 0 10 3:1 7:1 8:1 30:0.63749999 45:0.036806613 50:1.459706e-011 65:2.5190318 67:0.60687029 
0 0 10 3:1 7:1 8:1 30:0.40908137 45:0.023618665 50:0.40908137 65:1.6164531 67:0.85297626 
0 0 10 3:1 7:1 8:1 30:0.73009515 45:0.01976078 50:0.84024966 65:1.3524207 67:0.71365064 
0 0 10 3:1 7:1 8:1 30:0.098807633 45:0.0026743305 50:0.77460957 65:0.18303023 67:0.094772376 
0 0 10 3:1 7:1 8:1 30:0.08719743 45:0.0013987456 50:1.1815785 65:0.16152361 67:0.083636329 
0 0 10 3:1 7:1 8:1 30:0.059929859 45:0.00096134288 50:1.3100741 65:0.11035272 67:0.057482366 
0 0 10 3:1 7:1 8:1 30:0.697249 45:0.00095844246 50:1.3061216 65:0.1100198 67:0.056650206 
0 0 10 3:1 7:1 8:1 30:0.48066193 45:0.00066072063 50:1.3983878 65:0.075844236 67:0.038469821 
0 0 10 3:1 7:1 8:1 30:1.1805182 45:0.00074643572 50:1.5798002 65:0.085683502 67:0.042714059 
0 0 10 3:1 7:1 8:1 30:0.75753403 50:1.013752 65:0.054982781 67:0.49095938 
0 0 10 3:1 7:1 8:1 30:0.8974641 50:1.2010101 65:0.76965177 67:0.58164823 
0 0 10 3:1 7:1 8:1 30:0.52064496 50:0.69674087 65:0.44649741 67:0.80055833 
0 0 10 3:1 7:1 8:1 30:0.54433948 50:0.7284494 65:1.1715313 67:0.83699161 
0 0 10 3:1 7:1 8:1 30:0.12145855 50:0.16253902 65:0.96655965 67:0.18665946 
0 0 10 3:1 7:1 8:1 30:0.09459202 50:0.12658553 65:1.4579132 67:0.14528351 
0 0 10 3:1 7:1 8:1 30:0.05063146 50:0.067756347 65:1.4854437 67:0.07776466 
0 0 10 3:1 7:1 8:1 30:0.034798458 50:0.046568211 65:1.7260253 67:0.053446814 
0 0 10 3:1 7:1 8:1 30:0.018626271 50:0.024926167 65:1.6289709 67:0.028608019 
0 0 10 3:1 7:1 8:1 30:0.014506156 50:0.019412518 65:1.973701 67:0.022279948 
0 0 10 3:1 7:1 8:1 30:0.00089079415 50:0.00074568053 65:4.4093056 67:0.0013931146 
8.970431098296654 0 10 3:1 7:1 8:1 30:0.0007861231 50:0.00039001059 65:4.596354 67:0.0012294194 
0 0 10 3:1 7:1 8:1 30:6.7773683e-005 65:1.5488828 67:0.00018853755 
0 0 10 3:1 7:1 8:1 65:1.7696863 67:0.00012957983 
0 0 10 3:1 7:1 8:1 65:1.4410907 67:2.2002894e-005 
0 0 10 3:1 7:1 8:1 65:1.9769139 
0 0 10 3:1 7:1 8:1 65:1.7633063 
0 0 1.274026570024145 3:1 7:1 8:1 65:2.2612085 
0 0 10 3:1 7:1 8:1 65:2.0766015 
0 0 10 3:1 7:1 8:1 65:1.6298504 
0 0 10 3:1 7:1 8:1 65:1.9744315 
0 0 10 3:1 7:1 8:1 65:1.6377829 
0 0 10 3:1 7:1 8:1 65:1.8307617 
0 0 10 3:1 7:1 8:1 65:1.4683189 
0 0 10 3:1 7:1 8:1 65:1.4910814 
0 0 10 3:1 7:1 8:1 65:1.7299528 
0 0 10 3:1 7:1 8:1 65:1.8941282 
0 0 10 3:1 7:1 8:1 65:2.2375433 
0 0 10 3:1 7:1 8:1 65:2.2429914 
0 0 10 3:1 7:1 8:1 65:1.5310366 
0 0 10 3:1 7:1 8:1 65:1.7574203 
0 0 10 3:1 7:1 8:1 65:2.2560725 
0 0 10 3:1 7:1 8:1 65:2.2557275 
0 0 10 3:1 7:1 8:1 65:1.2604054 67:0.46354991 
0 0 10 3:1 7:1 8:1 65:2.6224866 67:0.70515573 
0 0 10 3:1 7:1 8:1 65:1.5213755 67:0.87263131 
0 0 10 3:1 7:1 8:1 65:3.0194683 67:1.3274535 
0 0 10 3:1 7:1 8:1 65:1.9549119 67:1.1431558 
0 0 10 3:1 7:1 8:1 65:3.3295243 67:1.5346423 
0 0 10 3:1 7:1 8:1 65:1.7045738 67:1.2492287 
-3.08111201347668 0 0 1:1 5:1 8:1 14:5.7605626e-010 16:1.2221968e-010 17:8.598513e-010 20:1.6489993e-008 30:1.2000917 50:0.30113366 67:0.63749999 
-10 0 0 1:1 5:1 8:1 14:1.6767868e-010 16:3.8732711e-011 17:2.72496e-010 20:5.2258531e-009 30:0.3803218 45:1.0499964 50:0.095432453 65:1.1328543 67:1.4083277 
-4.857847230149145 0 0 1:1 5:1 9:1 45:0.096572101 65:1.4426547 67:2.6684525 
-2.045083192163338 0 0 1:1 5:1 9:1 45:0.0079271207 65:2.479696 67:0.21903992 
-10 8.473041794772302 4.683496663013806 1:1 5:1 8:1 30:2.0683141 50:1.8423713 65:0.70515573 67:0.54917586 
-6.532847371198638 0 0 1:1 5:1 8:1 30:1.1998891 50:1.0688131 65:0.40908137 67:0.78214282 
-3.653754689053927 0 0 1:1 5:1 8:1 30:0.0072515085 50:0.0030434481 65:0.063325517 67:2.3256166 
-10 2.571842744215003 5.436944623298915 1:1 5:1 8:1 30:0.0063994336 50:0.001671822 65:0.055884574 67:2.5158992 
-2.264065364611839 0 0 1:1 5:1 8:1 30:0.00078971282 50:0.00061502896 65:0.020558784 67:2.0312681 
-0.8391146678163325 0 0 1:1 5:1 8:1 30:2.3895502e-005 45:0.020408163 65:0.00062207744 67:0.061463062 
-2.483901330733667 0 0 1:1 5:1 8:1 30:0.00082565245 45:0.70515573 65:0.72665018 67:2.122982 
-1.90783881475538 0 0 1:1 5:1 8:1 45:0.0019321343 65:1.1841501 67:0.0082522882 
-0 0.6944169514557553 2.858728019278356 1:1 5:1 9:1 20:0.0038021847 30:0.84024966 50:1.913921 54:0.39079177 58:0.0033554162 67:0.43947279 
-3.375155885079096 0 0 1:1 5:1 9:1 20:0.0047513018 30:1.0499964 50:2.3916819 54:0.48834282 58:0.0041930093 65:0.70515573 67:0.54917586 
-8.563306873790417 0 0 1:1 5:1 9:1 20:0.69610822 30:0.9093225 50:2.0712545 54:0.42291683 58:0.0036312486 65:0.61068207 67:0.47559971 
-0.3464445200547168 0 0 1:1 5:1 8:1 65:0.095893465 67:1.2507732 
-10 0 0 1:1 5:1 8:1 45:0.020408163 65:0.0012063286 67:0.015776763 
-10 0 0 1:1 5:1 8:1 45:0.70515573 65:0.7467109 67:0.54512858 
-10 0 0 1:1 5:1 8:1 45:0.46354991 65:0.49077284 67:0.82190239 
-10 0 0 1:1 5:1 8:1 45:0.40908137 65:0.43299863 67:1.1888763 
-10 0 0 1:1 5:1 8:1 45:0.036302056 65:0.01681844 67:0.046190973 
-10 0 0 1:1 5:1 8:1 45:0.64217025 65:0.29740527 67:1.2806518 
-10 0 0 1:1 5:1 8:1 45:0.56671333 65:0.26233813 67:1.593721 
-0.4922338834678584 0 0 1:1 5:1 8:1 45:0.025321113 65:0.040858384 67:0.013816282 
-5.828390343423685 0 0 1:1 5:1 8:1 45:0.50756139 65:0.81892252 67:0.74049705 
-0.2788748884484016 0 0 1:1 5:1 8:1 45:0.04166317 65:0.27641949 67:1.597066 
-8.885025494297434 0 0 1:1 5:1 8:1 45:0.063378341 65:1.1256474 67:2.4293427 
-0.7873802152042758 0 0 1:1 5:1 8:1 45:0.043559253 65:1.478801 67:2.2913871 
-3.739189580877241 0 0 1:1 5:1 8:1 45:0.02044756 65:0.029285673 67:0.036720809 
-1.563396040305123 0 0 1:1 5:1 8:1 45:0.026151696 65:0.070866354 67:1.3857871 
-9.194307605334545 0 0 1:1 5:1 8:1 45:0.039782163 65:0.81295818 67:2.1079073 
-6.819437076279541 0 0 1:1 5:1 8:1 45:0.02307879 65:0.47162074 67:1.6862872 
-0.3082825454496485 0 0 1:1 5:1 8:1 45:0.030982381 65:1.3381257 67:2.2637749 
-8.782517832580602 0 0 1:1 5:1 8:1 45:4.4552547e-005 65:1.2542456 67:0.46679562 
-10 0 0 1:1 5:1 8:1 20:0.00023786083 30:0.40908137 42:0.00026551296 50:1.055671 58:0.0011939728 67:0.46354991 71:4.6208017e-005 
-10 0 0 1:1 5:1 8:1 20:0.00028868206 30:1.1339855 42:0.00032224235 50:1.2812252 58:0.0014490765 67:0.56259173 71:4.5433466e-005 
-10 0 0 1:1 5:1 8:1 20:0.00017091911 30:0.6713953 42:0.00019078901 45:0.70515573 50:0.75857103 58:0.00084617286 65:0.70515573 67:0.76079059 
-0 0.2080722039094297 4.647350915751792 1:1 5:1 8:1 30:0.31714469 45:0.88226783 50:0.35832354 58:0.0003585176 65:2.2097213 67:3.3097045 
-10 4.769746494161768 7.853669565715923 1:1 5:1 8:1 30:2.8639872e-007 45:0.020408958 50:3.2358545e-007 58:1.6763682e-010 65:1.9954973e-006 67:4.7330295e-006 
-10 0 0 1:1 5:1 8:1 30:8.7330391e-006 45:0.62232208 50:9.8645623e-006 58:5.1116809e-009 65:0.70521659 67:0.00014432234 
-10 0 0 1:1 5:1 8:1 30:5.0662898e-006 45:0.36102712 50:5.7227194e-006 58:1.5752668e-009 65:0.40911669 67:0.46363363 
-10 0 0 1:1 5:1 8:1 30:3.2127055e-006 45:0.85123724 50:2.208058e-006 65:0.96459043 67:2.2060909 
-9.65048125856525 0 1.840028466270748 1:1 5:1 8:1 30:1.406598e-006 45:0.66294426 65:1.4563795 67:3.0455585 
-2.393920744546088 0 0.0897747381357643 1:1 5:1 8:1 45:0.51630151 65:1.8393852 67:3.077038 
-7.306514074624412 0 0 1:1 5:1 8:1 45:0.0017479063 65:3.9125764 67:0.025908915 
-10 2.797804514150518 5.693985995823386 1:1 5:1 8:1 45:0.0015425219 65:4.1579924 67:0.021663221 
-4.175082747109939 9.439469506725288 4.674168659703684 1:1 5:1 8:1 65:4.4692788 67:2.3691688 
-10 0 0 1:1 5:1 8:1 30:0.32587546 45:0.006268743 50:1.355893 65:0.72024101 67:0.30202883 
-10 0 0 1:1 5:1 8:1 30:1.0056511 45:0.007081985 50:1.5317926 65:0.80881011 67:0.34121096 
-10 0 0 1:1 5:1 8:1 30:1.5249841 50:1.3518023 65:0.71377242 67:0.93310213 
-0.1240629442247005 0 0 1:1 5:1 8:1 30:6.1279236e-005 50:5.9908223e-005 65:3.0557172 67:0.0034688977 
-0.4766424140480394 0 0 1:1 5:1 8:1 30:2.9777677e-006 65:2.8905578 67:0.00036561911 
-0.0666918872639357 0 0 1:1 5:1 8:1 30:1.0954595e-006 65:1.7685326 67:0.00013340831 
-0.03851833926717606 0 0 1:1 5:1 8:1 65:2.1364288 67:7.0743896e-005 
-0.3512528866369065 0 0 1:1 5:1 8:1 65:2.5954874 67:2.094947e-005 
-0.7046190341214308 0 0 1:1 5:1 8:1 65:1.3326647 
-0.1975035210088022 0 0 1:1 5:1 8:1 65:1.6210816 
-0.170708526064275 0 0 1:1 5:1 8:1 65:1.6883911 
-0.1353370690169813 0 0 1:1 5:1 8:1 65:1.8655654 
-0.03046322899722789 0 0 1:1 5:1 8:1 65:1.8366749 
-0.04885935088879453 0 0 1:1 5:1 8:1 65:2.3260117 
-0.09183932007775067 0 0 1:1 5:1 8:1 65:2.7578497 
-8.851358680714581 0 0 1:1 5:1 8:1 65:0.02083439 67:0.46354991 
-3.198573293633737 0 0 1:1 5:1 8:1 65:0.014318978 67:1.5522373 
-9.977718955225285 0 0 1:1 5:1 8:1 65:0.012636343 67:1.8333945 
-10 0 0 1:1 5:1 8:1 65:0.72211897 67:2.4612608 
-10 0 0 1:1 5:1 8:1 45:0.020408163 65:0.01436372 67:0.048957143 
-10 0 0 1:1 5:1 8:1 45:0.36101303 65:0.25408876 67:1.3295841 
-7.877185059674951 0 0 1:1 5:1 8:1 45:0.65720177 65:0.8966555 67:1.738372 
-0.6212825660547009 0 0 1:1 5:1 8:1 45:0.088942587 65:0.19243523 67:1.3784187 
-10 0 0 1:1 5:1 8:1 45:0.0161593 65:1.7739158 67:2.278131 
-6.690698123875211 0 0 1:1 5:1 8:1 45:0.00033537555 65:0.75855428 67:0.68168908 
-10 -0 0 2:1 6:1 8:1 16:0.012353186 30:0.40908137 34:0.078491554 40:0.077551097 50:1.4697706 67:0.46354991 
-10 -0 0 2:1 6:1 8:1 16:0.014992563 30:1.1339855 34:0.095262021 40:0.093906775 50:1.7838011 67:0.56259173 
-10 -0 0 2:1 6:1 8:1 16:0.012915378 30:0.97687447 34:0.08206369 40:0.080659658 50:1.5366596 65:0.70515573 67:0.48464599 
-10 -0 0 2:1 6:1 8:1 16:0.0074925865 30:0.56671333 34:0.047607534 40:0.046536632 50:0.89146084 65:0.40908137 67:0.74470711 
-10 -0 0 2:1 6:1 8:1 16:0.010058506 30:0.76079059 34:0.063911267 40:0.062083609 50:1.1967516 65:1.2543316 67:0.99974048 
-10 -0 0 2:1 6:1 8:1 16:0.0041930093 30:0.31714469 34:0.026642181 40:0.025643745 50:0.49888027 65:1.2280389 67:0.4167538 
-10 -0 0 2:1 6:1 8:1 16:0.0037003176 30:0.27987921 34:0.023511641 40:0.022393974 50:0.44026026 65:1.7888963 67:0.36778396 
-10 -0 0 2:1 6:1 8:1 16:0.0032655187 30:0.24699253 34:0.020748951 40:0.019418428 50:0.38852832 65:2.2838511 67:0.32456821 
-10 -0 0 2:1 6:1 8:1 16:0.0028818103 30:0.21797015 34:0.018310884 40:0.016792519 50:0.34287509 65:2.7206473 67:0.28643042 
-10 -0 0 2:1 6:1 8:1 16:0.0017479063 30:0.13220558 34:0.011106113 40:0.0098814368 50:0.20796424 65:2.3553119 67:0.17372882 
-10 -0 0 2:1 6:1 8:1 16:0.0012013173 30:0.090863474 34:0.0076331124 40:0.0063494658 50:0.14293158 65:2.3239362 67:0.11940196 
-10 -0 0 2:1 6:1 8:1 30:0.080186732 34:0.006736198 40:0.0056033842 50:0.12613668 65:2.7560225 67:0.10537186 
-10 -0 0 2:1 6:1 8:1 30:0.024899643 34:0.0020917291 40:0.0014107657 50:0.03916806 65:0.855802 67:0.49627006 
-10 -0 0 2:1 6:1 8:1 30:0.03787753 34:0.0031819544 40:0.0015786056 50:0.059582751 65:2.0070086 67:0.75492984 
-10 -0 0 2:1 6:1 8:1 30:0.021973858 34:0.0018459444 40:0.00054276112 50:0.034565687 65:1.1643239 67:0.90150672 
-10 -0 0 2:1 6:1 8:1 30:0.033426803 34:0.0028080652 40:0.00082565245 50:0.051938575 65:2.4763346 67:1.371379 
-10 -0 0 2:1 6:1 8:1 30:0.019391863 34:0.0016290403 50:0.030131079 65:1.4365937 67:1.2591268 
-10 -0 0 2:1 6:1 8:1 30:0.00085374259 34:7.1719827e-005 45:0.020408163 50:0.0013054578 65:0.063247211 67:0.055434078 
-10 -0 0 2:1 6:1 8:1 30:0.017113257 34:0.0014376231 45:0.40908137 50:0.025688896 65:1.2677895 67:1.5747255 
-10 -0 5.475053230236607 2:1 6:1 8:1 30:0.015102398 34:0.00078971282 45:0.36101303 50:0.022670371 65:1.1188204 67:1.8532403 
-10 -0 0 2:1 6:1 8:1 30:0.022973884 45:0.54917586 50:0.034486342 65:2.4071143 67:2.8191636 
-10 -0 2.773010164653615 2:1 6:1 8:1 30:0.013327818 45:0.31859291 50:0.019309612 65:1.3964368 67:2.0990288 
-10 -0 10 2:1 6:1 8:1 30:0.011761758 45:0.28115723 50:0.016145812 65:1.2323512 67:2.3159363 
-0 -0 10 2:1 6:1 8:1 30:0.017892078 45:0.42769858 50:0.023018613 65:2.579818 67:3.5230203 
-10 -0 0 2:1 6:1 8:1 30:0.00035589281 45:0.028915551 50:0.00038426183 65:0.051315378 67:0.070076689 
-10 -0 10 2:1 6:1 8:1 30:0.0071338671 45:0.57961184 50:0.0055558616 65:1.0286158 67:1.8682361 
-10 -0 0 2:1 6:1 8:1 30:0.010852095 45:0.88171005 50:0.0047513018 65:2.2698944 67:2.8419755 
-10 -0 0 2:1 6:1 8:1 30:0.007458528 45:0.60598987 65:2.2652299 67:1.9532595 
-10 -0 0 2:1 6:1 8:1 30:0.0024324867 45:0.35155237 65:1.3141259 67:1.5966924 
-10 -0 0 2:1 6:1 8:1 30:0.0037003176 45:0.5347842 65:2.7042141 67:2.4256353 
-10 -0 0 2:1 6:1 8:1 45:0.36755142 65:2.5637331 67:1.6671134 
-10 -0 0 2:1 6:1 8:1 45:0.24161816 65:1.6831806 67:1.5594642 
-10 -0 0 2:1 6:1 8:1 45:0.32436299 65:2.9647603 67:2.0902545 
-10 -0 0 2:1 6:1 8:1 45:0.28624934 65:3.3182817 67:1.8446432 
-10 -0 0 2:1 6:1 8:1 45:0.25261414 65:3.6266162 67:1.6278918 
-10 -0 0 2:1 6:1 8:1 45:0.034187607 65:1.1949047 67:0.22031121 
-10 -0 0 2:1 6:1 8:1 45:0.030170459 65:1.7585952 67:0.19442394 
-10 -0 0 2:1 6:1 8:1 45:0.026625335 65:2.2560508 67:0.17157854 
-10 -0 0 2:1 6:1 8:1 45:0.020735832 65:2.460808 67:0.13362548 
-10 -0 0 2:1 6:1 8:1 45:0.0052428395 65:1.3268449 67:0.033785816 
-10 -0 0 2:1 6:1 8:1 45:0.0046267896 65:1.8755914 67:0.029815875 
-10 -0 0 2:1 6:1 8:1 45:0.003179943 65:1.9942296 67:0.019763498 
-10 -0 0 2:1 6:1 8:1 45:0.0021855407 65:2.0752676 67:0.013583242 
-10 -0 0 2:1 6:1 8:1 45:0.0012678958 65:1.2039229 67:0.47110078 
-10 -0 0 2:1 6:1 8:1 45:0.00098743825 65:0.93735981 67:0.83044344 
-10 -0 0 2:1 6:1 8:1 45:0.00059891155 65:0.56853741 67:0.96706307 
-10 -0 10 2:1 6:1 8:1 45:0.00037303392 65:0.50173259 67:1.3169802 
-10 -0 10 2:1 6:1 8:1 45:0.00037303392 65:0.50173259 67:1.7803539 
-10 -0 10 2:1 6:1 8:1 45:0.00032920128 65:0.44277751 67:2.0345306 
-10 -0 10 2:1 6:1 8:1 45:0.00025638222 65:0.34469822 67:2.0480437 
-10 -0 10 2:1 6:1 8:1 45:0.00022625651 65:0.30419514 67:2.2708051 
-10 -0 10 2:1 6:1 8:1 45:0.00015550367 65:0.20907 67:2.024143 
-10 -0 10 2:1 6:1 8:1 45:0.0001372315 65:0.18440934 67:2.2498496 
-10 -0 0 2:1 6:1 8:1 65:0.75390369 67:0.59473938 
-10 -0 0 2:1 6:1 8:1 65:1.3704733 67:0.52481937 
-10 -0 0 2:1 6:1 8:1 65:1.7724533 67:0.40872976 
-10 -0 0 2:1 6:1 8:1 65:1.0282279 67:0.70066601 
-10 -0 0 2:1 6:1 8:1 65:1.780178 67:0.73252493 
-10 -0 0 2:1 6:1 8:1 65:1.0327168 67:0.88850886 
-10 -0 0 2:1 6:1 8:1 65:0.80426198 67:1.1555212 
-10 -0 0 2:1 6:1 8:1 65:1.6579796 67:1.368945 
-10 -0 0 2:1 6:1 8:1 65:0.84880978 67:1.1643977 
-10 -0 0 2:1 6:1 8:1 65:1.8446306 67:1.5631589 
-10 -0 10 2:1 6:1 8:1 65:0.70871669 67:0.003017606 
-10 -0 10 2:1 6:1 8:1 65:1.1350139 67:0.0018302705 
-10 -0 9.948600531052646 2:1 6:1 8:1 65:1.5891051 67:0.0014254162 
-10 -0 8.59003866649055 2:1 6:1 8:1 65:2.1075366 67:0.0012579254 
-10 -0 0 2:1 6:1 8:1 65:2.5650499 67:0.0011101151 
-10 -0 0 2:1 6:1 8:1 65:2.7028177 67:0.00086455874 
-10 -0 6.310637907231085 2:1 6:1 8:1 65:2.3444967 67:0.00052438135 
-10 -0 0 2:1 6:1 8:1 65:2.5310512 67:0.00040838853 
-10 -0 0 2:1 6:1 8:1 65:1.1435415 67:0.46373439 
-10 -0 0 2:1 6:1 8:1 65:0.78594381 67:0.78226948 
-10 -0 0 2:1 6:1 8:1 65:0.84794778 67:0.1421245 
-10 -0 0 2:1 6:1 8:1 65:0.33809078 67:0.5202173 
-10 -4.424868230477131 10 2:1 6:1 8:1 45:0.020408163 65:0.013135725 67:0.020211812 
-10 -0 0 2:1 6:1 8:1 45:0.54917586 65:1.058633 67:0.54389215 
-10 -0 0 2:1 6:1 8:1 45:0.36101303 65:0.69591618 67:0.82108963 
-10 -0 0 2:1 6:1 8:1 45:0.42769858 65:1.5296199 67:0.97275943 
-10 -0 0 2:1 6:1 8:1 45:0.37744269 65:2.0550408 67:0.85845709 
-10 -0 0 2:1 6:1 8:1 45:0.37744269 65:2.7601967 67:0.85845703 
-10 -0 0 2:1 6:1 8:1 45:0.29395264 65:2.854799 67:0.66856694 
-10 -0 0 2:1 6:1 8:1 45:0.1388534 65:2.0536675 67:0.31580865 
-10 -0 0 2:1 6:1 8:1 45:0.10813913 65:2.3045535 67:0.24595204 
-10 -0 0 2:1 6:1 8:1 45:0.084218845 65:2.4999433 67:0.19154763 
-10 -0 0 2:1 6:1 8:1 45:0.055363145 65:1.6433938 67:0.58946788 
-10 -0 0 2:1 6:1 8:1 45:0.038050495 65:1.1294869 67:0.86868495 
-10 -0 0 2:1 6:1 8:1 45:0.045079097 65:2.0432792 67:1.0291464 
-10 -0 0 2:1 6:1 8:1 45:0.030982381 65:2.1094794 67:0.70732117 
-10 -0 0 2:1 6:1 8:1 45:0.015861806 65:1.0799733 67:0.82567149 
-10 -0 0 2:1 6:1 8:1 45:0.013997994 65:0.95307332 67:1.1922024 
-10 -0 0 2:1 6:1 8:1 45:0.018791763 65:1.9846193 67:1.6004854 
-10 -0 0 2:1 6:1 8:1 45:0.010901649 65:1.1512908 67:1.3920381 
-10 -0 0 2:1 6:1 8:1 45:0.0096206712 65:1.0159458 67:1.6920193 
-10 -0 0 2:1 6:1 8:1 45:0.012915378 65:2.0689123 67:2.2714701 
-10 -0 0 2:1 6:1 8:1 45:0.0088766003 65:2.1270096 67:1.5611571 
-10 -0 0 2:1 6:1 8:1 45:0.0061007924 65:2.166959 67:1.0729666 
-10 -0 0 2:1 6:1 8:1 45:0.0035392472 65:1.2570655 67:1.0860089 
-10 -0 0 2:1 6:1 8:1 45:0.0031233747 65:1.1092825 67:1.4219495 
-10 -0 10 2:1 6:1 8:1 45:0.0024324867 65:0.86383694 67:1.5709653 
-10 -0 10 2:1 6:1 8:1 45:0.0018944226 65:0.67275691 67:1.6869357 
-10 -0 0 2:1 6:1 8:1 45:0.0022443561 65:1.5021831 67:1.9983991 
-10 -0 0 2:1 6:1 8:1 45:0.0013612708 65:1.6155471 67:1.2120905 
-10 -0 0 2:1 6:1 8:1 45:0.00078971282 65:0.93722588 67:1.1660219 
-10 -0 0 2:1 6:1 8:1 65:1.9633452 67:1.5653391 
-10 -0 0 2:1 6:1 8:1 65:1.1382039 67:1.3716487 
-10 -0 0 2:1 6:1 8:1 65:1.8951591 67:1.4332466 
-10 -0 0 2:1 6:1 8:1 65:2.3766923 67:1.2648357 
-10 -0 0 2:1 6:1 8:1 65:2.5552998 67:0.98505491 
-10 -0 0 2:1 6:1 8:1 65:2.9594712 67:0.86930794 
-10 -0 0 2:1 6:1 8:1 65:3.3160539 67:0.76716161 
-10 -0 0 2:1 6:1 8:1 65:1.9227256 67:0.90860265 
-10 -0 0 2:1 6:1 8:1 65:1.6956503 67:1.2653888 
-10 -0 0 2:1 6:1 8:1 65:1.1643883 67:1.333238 
-10 -0 0 2:1 6:1 8:1 65:1.0275689 67:1.6392336 
-10 -0 0 2:1 6:1 8:1 65:1.9225352 67:1.9404869 
-10 -0 0 2:1 6:1 8:1 65:2.2008853 67:1.5112526 
-10 -0 0 2:1 6:1 8:1 65:1.1256206 67:1.237254 
-10 -0 0 2:1 6:1 8:1 65:2.2162578 67:1.6589848 
-10 -0 0 2:1 6:1 8:1 65:1.4569069 67:1.5526454 
-10 -0 0 2:1 6:1 8:1 65:2.658752 67:2.0843661 
-10 -0 0 2:1 6:1 8:1 65:3.0514963 67:1.8372024 
-10 -0 0 2:1 6:1 8:1 65:2.5559816 67:1.1127771 
-10 -0 0 2:1 6:1 8:1 65:2.6943948 67:0.86663151 
-10 -0 0 2:1 6:1 8:1 65:1.7699189 67:1.0332496 
-10 -0 0 2:1 6:1 8:1 65:3.3946881 67:1.5717874 
-10 -0 0 2:1 6:1 8:1 65:1.9693575 67:1.3734952 
-10 -0 0 2:1 6:1 8:1 65:3.3489413 67:1.8409822 
-10 -0 0 2:1 6:1 8:1 65:3.0068479 67:1.2627439 
-10 -0 0 2:1 6:1 8:1 65:1.7443596 67:1.1942099 
-10 -0 0 2:1 6:1 8:1 45:0.020408163 65:0.052708052 67:0.036134966 
-10 -0 0 2:1 6:1 8:1 45:0.40908137 65:1.0540997 67:1.1878747 
-10 -0 0 2:1 6:1 8:1 45:0.54917586 65:2.1202438 67:1.5909758 
-10 -0 0 2:1 6:1 8:1 45:0.12253769 65:1.1773106 67:0.35499465 
-10 -0 0 2:1 6:1 8:1 45:0.071087681 65:0.6829921 67:0.66887766 
-10 -0 0 2:1 6:1 8:1 45:0.062734656 65:0.60194868 67:1.0538323 
-10 -0 0 2:1 6:1 8:1 45:0.084218845 65:1.5120473 67:1.414729 
-10 -0 0 2:1 6:1 8:1 45:0.035107635 65:1.3348279 67:0.58974677 
-10 -0 0 2:1 6:1 8:1 45:0.024129102 65:1.6220679 67:0.40532663 
-10 -0 0 2:1 6:1 8:1 45:0.010058506 65:1.3810976 67:0.16896528 
-10 -0 0 2:1 6:1 8:1 45:0.0058352323 65:0.80121487 67:0.56141597 
-10 -0 1.784865879682015 2:1 6:1 8:1 45:0.020634877 65:0.031129321 67:0.021805653 
-10 -0 0 2:1 6:1 8:1 45:0.36502352 65:0.55066639 67:0.84910792 
-10 -0 0 2:1 6:1 8:1 45:0.49002993 65:1.444404 67:1.1396264 
-10 -0 0 2:1 6:1 8:1 45:0.26229411 65:1.4781053 67:0.60999799 
-10 -0 0 2:1 6:1 8:1 45:0.15216444 65:0.85735464 67:0.8174274 
-10 -0 0 2:1 6:1 8:1 45:0.13428466 65:0.75661272 67:1.1847717 
-10 -0 10 2:1 6:1 8:1 45:0.11850579 65:0.66755301 67:1.5091072 
-10 -0 0 2:1 6:1 8:1 45:0.18027192 65:1.7206426 67:2.2954292 
-10 -0 10 2:1 6:1 8:1 45:0.104581 65:0.99803919 67:1.7951952 
-10 -0 0 2:1 6:1 8:1 45:0.12389897 65:1.8873419 67:2.1267996 
-10 -0 0 2:1 6:1 8:1 45:0.081447758 65:1.2404602 67:1.8616493 
-10 -0 10 2:1 6:1 8:1 45:0.07187739 65:1.0944459 67:2.1064498 
-10 -0 10 2:1 6:1 8:1 45:0.096492611 65:2.1744075 67:2.8274827 
-10 -0 0 2:1 6:1 8:1 45:0.066318333 65:2.1993661 67:1.9432987 
-10 -0 0 2:1 6:1 8:1 45:0.043595843 65:1.4458022 67:1.7408446 
-10 -0 10 2:1 6:1 8:1 45:0.038473196 65:1.2757398 67:1.9998398 
-10 -0 0 2:1 6:1 8:1 45:0.051648773 65:2.4174426 67:2.6847069 
-10 -0 0 2:1 6:1 8:1 45:0.04557988 65:2.8385413 67:2.3689017 
-10 -0 0 2:1 6:1 8:1 45:0.039782163 65:3.2101598 67:2.0905485 
-10 -0 0 2:1 6:1 8:1 45:0.035107635 65:3.5381119 67:1.8444606 
-10 -0 0 2:1 6:1 8:1 45:0.020366961 65:2.0522711 67:1.5335751 
-10 -0 0 2:1 6:1 8:1 45:0.021304835 65:0.09029559 67:0.067516901 
-10 -0 0 2:1 6:1 8:1 45:0.37687483 65:1.5972964 67:1.6567503 
-10 -0 0 2:1 6:1 8:1 45:0.39402637 65:2.3751447 67:1.7307875 
-10 -0 0 2:1 6:1 8:1 45:0.23898906 65:2.1448183 67:1.0497757 
-10 -0 0 2:1 6:1 8:1 45:0.21090712 65:2.5959706 67:0.92642379 
-10 -0 0 2:1 6:1 8:1 45:0.11289044 65:2.0931361 67:0.49587888 
-10 -0 0 2:1 6:1 8:1 45:0.074211054 65:1.3735374 67:0.78952694 
-10 -0 0 2:1 6:1 8:1 45:0.057795633 65:1.069712 67:1.0762874 
-10 -0 0 2:1 6:1 8:1 45:0.084218845 65:2.3324101 67:1.6372572 
-10 -0 0 2:1 6:1 8:1 45:0.043116856 65:1.1941056 67:1.2993308 
-10 -0 0 2:1 6:1 8:1 45:0.065589696 65:2.5174456 67:1.9765525 
-10 -0 0 2:1 6:1 8:1 45:0.038050495 65:1.4558989 67:1.6102055 
-10 -0 0 2:1 6:1 8:1 45:0.00025638222 65:0.012933145 67:0.47432539 
-10 -0 10 2:1 6:1 8:1 45:0.00025638222 65:0.012933145 67:0.93783075 
-10 -0 10 2:1 6:1 8:1 45:0.00022625651 65:0.011374143 67:1.2911828 
-10 -0 10 2:1 6:1 8:1 45:0.00030374058 65:0.72042507 67:1.733303 
-10 -0 10 2:1 6:1 8:1 45:0.00019967067 65:0.47353712 67:1.6029754 
-10 -0 10 2:1 6:1 8:1 45:0.00026805012 65:1.3408607 67:2.1518645 
-10 -0 0 2:1 6:1 8:1 45:1.3345429e-005 65:0.77191329 67:0.10713118 
-10 -0 0 2:1 6:1 8:1 45:1.17773e-005 65:1.386363 67:0.094542943 
-10 -0 0 2:1 6:1 8:1 45:7.1432937e-006 65:1.5460242 67:0.057343192 
-10 -0 0 2:1 6:1 8:1 45:6.3039347e-006 65:2.0695167 67:0.050602216 
-10 -0 0 2:1 6:1 8:1 45:3.8235294e-006 65:1.9603815 67:0.030689748 
-10 -0 0 2:1 6:1 8:1 45:2.6278708e-006 65:2.0525033 67:0.021092737 
-10 -0 0 2:1 6:1 8:1 45:6.6982047e-008 65:0.052316401 67:0.46408758 
-10 -0 10 2:1 6:1 8:1 45:5.911145e-008 65:0.046169017 67:0.8731057 
-10 -0 0 2:1 6:1 8:1 45:7.9354827e-008 65:0.7671358 67:1.1721107 
-10 -0 0 2:1 6:1 8:1 45:6.18016e-008 65:1.3026018 67:0.9128406 
-10 -0 0 2:1 6:1 8:1 65:1.7196229 67:0.71092099 
-10 -0 0 2:1 6:1 8:1 65:1.1304325 67:0.93088961 
-10 -0 0 2:1 6:1 8:1 65:2.2227178 67:1.2496831 
-10 -0 0 2:1 6:1 8:1 65:2.9278734 67:1.2496831 
-10 -0 0 2:1 6:1 8:1 65:1.6985443 67:1.1885275 
-10 -0 0 2:1 6:1 8:1 65:2.7174509 67:1.4080701 
-10 -0 0 2:1 6:1 8:1 65:2.1597025 67:0.7536853 
-10 -0 0 2:1 6:1 8:1 65:2.6110864 67:0.66512477 
-10 -0 0 2:1 6:1 8:1 65:1.7164564 67:0.90078467 
-10 -0 0 2:1 6:1 8:1 65:3.316242 67:1.3702804 
-10 -0 0 2:1 6:1 8:1 65:1.9238489 67:1.2584894 
-10 -0 0 2:1 6:1 8:1 65:3.2878478 67:1.6894732 
-10 -0 0 2:1 6:1 8:1 65:3.2657337 67:1.315763 
-10 -0 0 2:1 6:1 8:1 65:3.5871553 67:1.1611434 
-10 -0 0 2:1 6:1 8:1 65:0.0085046263 67:0.46630281 
-10 -0 10 2:1 6:1 8:1 65:0.0066234097 67:0.82670677 
-10 -0 0 2:1 6:1 8:1 65:0.7152313 67:1.2575929 
-10 -0 10 2:1 6:1 8:1 65:0.41492647 67:1.1931161 
-10 -0 0 2:1 6:1 8:1 45:0.020408163 65:0.016120989 67:0.046355717 
-10 -0 10 2:1 6:1 8:1 45:0.36101303 65:0.2851741 67:1.2835658 
-10 -0 0 2:1 6:1 8:1 45:0.48464599 65:1.0879899 67:1.7231373 
-10 -0 0 2:1 6:1 8:1 45:0.42769858 65:1.6653026 67:1.5206634 
-10 -0 0 2:1 6:1 8:1 45:0.37744269 65:2.1747799 67:1.3419807 
-10 -0 0 2:1 6:1 8:1 45:0.33309197 65:2.6243906 67:1.1842939 
-10 -0 0 2:1 6:1 8:1 45:0.25941229 65:2.7490311 67:0.92232883 
-10 -0 0 2:1 6:1 8:1 45:0.20203051 65:2.8461034 67:0.71827847 
-10 -0 0 2:1 6:1 8:1 45:0.11720377 65:1.6511075 67:0.88022304 
-10 -0 0 2:1 6:1 8:1 45:0.10343197 65:1.4570763 67:1.2403442 
-10 -0 0 2:1 6:1 8:1 45:0.1388534 65:2.6611872 67:1.6651139 
-10 -0 0 2:1 6:1 8:1 45:0.071087681 65:1.3624034 67:1.316025 
-10 -0 0 2:1 6:1 8:1 45:0.10813913 65:2.7776542 67:2.0019114 
-10 -0 0 2:1 6:1 8:1 45:0.062734656 65:1.6113743 67:1.6249171 
-10 -0 0 2:1 6:1 8:1 45:0.051081311 65:2.3946307 67:1.3230567 
-10 -0 0 2:1 6:1 8:1 45:0.045079097 65:2.8183844 67:1.1675934 
-10 -0 0 2:1 6:1 8:1 45:0.026151696 65:1.6350001 67:1.1409048 
-10 -0 0 2:1 6:1 8:1 45:0.039782163 65:3.1922839 67:1.7355533 
-10 -0 0 2:1 6:1 8:1 45:0.02307879 65:1.8519368 67:1.4703679 
-10 -0 0 2:1 6:1 8:1 45:0.027341854 65:4.0705786 67:1.7419349 
-10 -6.477412648173005 0 2:1 6:1 8:1 45:0.024129102 65:4.2973824 67:1.5372521 
-10 -0 0 2:1 6:1 8:1 45:0.012353186 65:2.2000699 67:1.2505647 
-10 -0 0 2:1 6:1 8:1 45:0.020888116 65:0.085478537 67:0.048296642 
-10 -0 0 2:1 6:1 8:1 45:0.72173941 65:3.658664 67:1.6558608 
-10 -0 0 2:1 6:1 8:1 45:0.41870204 65:2.1150048 67:1.4241627 
-10 -0 0 2:1 6:1 8:1 45:0.28776941 65:1.4536203 67:1.4365265 
-10 -0 0 2:1 6:1 8:1 45:0.21896547 65:1.1320806 67:1.5823179 
-10 -0 0 2:1 6:1 8:1 45:0.002146662 65:0.011098527 67:0.47899762 
-10 -0 0 2:1 6:1 8:1 45:0.0028818103 65:0.71995658 67:0.64303571 
-10 -0 0 2:1 6:1 8:1 45:0.0018944226 65:0.47320607 67:0.88626385 
-10 -0 0 2:1 6:1 8:1 45:0.020481765 65:0.018382072 67:0.034433685 
-10 -0 7.901498217675209 2:1 6:1 8:1 45:0.46522173 65:0.41744623 67:1.245675 
-10 -0 10 2:1 6:1 8:1 45:0.36231503 65:0.32502422 67:1.4336826 
-10 -0 10 2:1 6:1 8:1 45:0.4863939 65:1.1413445 67:1.9246633 
-10 -0 0 2:1 6:1 8:1 45:0.4863939 65:1.8465003 67:1.9245007 
-10 -0 0 2:1 6:1 8:1 45:0.31974193 65:1.2138383 67:1.7285424 
-10 -0 0 2:1 6:1 8:1 45:0.032830983 65:0.047155499 67:0.067158446 
-10 -0 0 2:1 6:1 8:1 45:1.0011017 65:2.1430492 67:2.0476263 
-10 -0 0 2:1 6:1 8:1 45:0.58076817 65:1.2431241 67:1.6514373 
-10 -0 0 2:1 6:1 8:1 45:0.35225374 65:0.7539928 67:1.465114 
-10 -0 0 2:1 6:1 8:1 45:0.47288695 65:1.71725 67:1.9668589 
-10 -0 0 2:1 6:1 8:1 45:0.41732126 65:2.2204394 67:1.7357469 
-10 -0 0 2:1 6:1 8:1 45:0.24210021 65:1.2880204 67:1.470507 
-10 -0 0 2:1 6:1 8:1 45:0.18854785 65:1.0031112 67:1.6086752 
-10 -0 10 2:1 6:1 8:1 45:0.11436004 65:0.60835284 67:1.4392607 
-10 -0 0 2:1 6:1 8:1 45:0.032764699 65:0.17429601 67:0.87588394 
-10 -0 0 2:1 6:1 8:1 45:0.049841918 65:0.9702642 67:1.3324016 
-10 -0 0 2:1 6:1 8:1 45:0.043985337 65:1.561379 67:1.1758404 
-10 -0 0 2:1 6:1 8:1 45:0.025517173 65:0.9057802 67:1.1456889 
-10 -0 0 2:1 6:1 8:1 45:0.034255818 65:1.9210987 67:1.5380431 
-10 -0 0 2:1 6:1 8:1 45:0.022518827 65:1.2628771 67:1.4745899 
-10 -0 0 2:1 6:1 8:1 45:0.030189544 65:2.4005191 67:1.9795799 
-10 -0 0 2:1 6:1 8:1 30:0.63749999 45:0.024086013 65:1.9151646 67:1.5793607 
-10 -0 0 2:1 6:1 8:1 30:0.40908137 45:0.015455903 65:1.228954 67:1.4769957 
-10 -0 0 2:1 6:1 8:1 30:0.40908137 50:1.2793561 65:3.6319328e-013 67:0.46354991 
-10 -0 0 2:1 6:1 8:1 30:0.38783339 50:1.7108934 67:0.43947279 
-10 -5.630474349218535 4.498225650460523 2:1 6:1 8:1 30:1.1339855 50:2.1902027 67:0.56259173 
-10 -0 0 2:1 6:1 8:1 30:0.64217025 50:1.2403007 67:0.78214282 
-10 -0 0 2:1 6:1 8:1 30:0.010379715 50:0.020047594 67:0.47619206 
-10 -0 0 2:1 6:1 8:1 30:0.013934365 50:0.026913118 65:0.70515573 67:0.63926941 
-10 -0 0 2:1 6:1 8:1 30:0.00808373 50:0.015613082 65:0.40908137 67:0.83440864 
-10 -0 0 2:1 6:1 8:1 30:0.012297034 50:0.023750743 65:1.3274535 67:1.2693089 
-10 -0 0 2:1 6:1 8:1 30:0.0062956158 50:0.012159481 65:0.67960596 67:1.1133881 
-10 -0 0 2:1 6:1 8:1 30:0.0084516192 50:0.01632363 65:1.6175003 67:1.4946803 
-10 -0 0 2:1 6:1 8:1 30:0.0043269093 50:0.0083570806 65:0.82809889 67:1.2287697 
-10 -0 0 2:1 6:1 8:1 30:0.0065821279 50:0.012712856 65:1.9648663 67:1.8692138 
-10 -0 0 2:1 6:1 8:1 30:0.0001483582 45:0.020408163 50:0.00028654208 65:0.044287201 67:0.042131238 
-10 -0 0 2:1 6:1 8:1 30:0.0033698003 45:0.46354991 50:0.0065085008 65:1.0059371 67:1.4205166 
-10 -0 0 2:1 6:1 8:1 30:0.0051261662 45:0.70515573 50:0.0099007813 65:2.2353952 67:2.1609008 
-10 -0 0 2:1 6:1 8:1 30:0.0026244032 45:0.36101303 50:0.0050688251 65:1.1444377 67:1.5698495 
-10 -0 0 2:1 6:1 8:1 30:0.0031091771 45:0.42769858 50:0.0060051274 65:2.0609915 67:1.8598287 
-10 -0 0 2:1 6:1 8:1 30:0.0027438393 45:0.37744269 50:0.0052995067 65:2.5239742 67:1.641293 
-10 -0 0 2:1 6:1 8:1 30:0.0018037241 45:0.2481204 50:0.0034837492 65:1.6591911 67:1.5424906 
-10 -0 0 2:1 6:1 8:1 30:7.0079448e-005 45:0.030048296 50:0.00013535289 65:0.064463958 67:0.05992984 
-10 -0 0 2:1 6:1 8:1 30:0.0010940139 45:0.46908551 50:0.002113001 65:1.0063502 67:1.3991177 
-10 -0 0 2:1 6:1 8:1 30:0.0014686713 45:0.62972909 50:0.0028366218 65:2.0561419 67:1.8782612 
-10 -0 0 2:1 6:1 8:1 30:0.0010094021 45:0.43280604 50:0.0019495797 65:2.1183202 67:1.2909088 
-10 -0 0 2:1 6:1 8:1 30:0.00089079415 45:0.38194999 50:0.0017204981 65:2.5745666 67:1.139223 
-10 -0 0 2:1 6:1 8:1 30:0.00047680776 45:0.2044431 50:0.00077743933 65:2.0832219 67:0.60978216 
-10 -0 0 2:1 6:1 8:1 30:0.00037133822 45:0.15922044 50:0.00047885242 65:2.3275707 67:0.47489879 
-10 -0 0 2:1 6:1 8:1 30:0.00028919851 45:0.12400101 50:0.00027432051 65:2.5178697 67:0.36985153 
-10 -0 0 2:1 6:1 8:1 30:0.00022522802 45:0.096572079 50:0.0001266179 65:2.6660748 67:0.28804064 
-10 -0 0 2:1 6:1 8:1 30:8.7023131e-005 45:0.066372953 50:8.7023131e-005 65:2.5375197 67:0.19796731 
-10 -0 0 2:1 6:1 8:1 30:7.6797638e-005 45:0.058573924 50:7.6797638e-005 65:2.9445093 67:0.17463772 
-10 -0 0 2:1 6:1 8:1 30:3.6276637e-005 45:0.027668364 65:2.0960436 67:0.082493022 
-10 -0 0 2:1 6:1 8:1 45:0.016781712 65:1.9764705 67:0.050034549 
-10 -0 0 2:1 6:1 8:1 45:0.014809808 65:2.4493842 67:0.0441304 
-10 -0 0 2:1 6:1 8:1 45:0.013069609 65:2.8667305 67:0.037583675 
-10 -0 0 2:1 6:1 8:1 45:0.01153389 65:3.233675 67:0.033167474 
-10 -0 0 2:1 6:1 8:1 45:0.010178622 65:3.5588641 67:0.027908923 
-10 -0 0 2:1 6:1 8:1 45:0.0089826025 65:3.8446407 67:0.024629535 
-10 -2.738802107220705 2.23819992344122 2:1 6:1 8:1 45:0.0079271197 65:4.0980396 67:0.02037422 
-10 -0 0 2:1 6:1 8:1 45:0.0061736465 65:3.8955104 67:0.015867459 
-10 -0 0 2:1 6:1 8:1 45:0.004243081 65:3.3824985 67:0.0098453751 
-10 -0 7.647074345332003 2:1 6:1 8:1 45:0.0037445058 65:3.6892645 67:0.0086885132 
-10 -0 10 2:1 6:1 8:1 45:0.0019806372 65:3.5783577 67:0.0067666206 
-10 -0 0 2:1 6:1 8:1 45:0.0012013173 65:2.8755391 67:0.003536701 
-10 -0 0 2:1 6:1 8:1 45:0.00093558681 65:2.944186 67:0.0027543854 
-10 -0 0 2:1 6:1 8:1 45:0.00072863576 65:2.99809 67:0.0017031776 
-10 -0 10 2:1 6:1 8:1 45:0.00034418315 65:2.1210854 67:0.00080452417 
-10 -0 0 2:1 6:1 8:1 45:0.00030374058 65:2.5767386 67:0.00070999004 
-10 -0 2.996426952769323 2:1 6:1 8:1 45:0.00026805012 65:2.9791198 67:0.00039001059 
-10 -0 0 2:1 6:1 8:1 65:2.5120833 67:0.00023655339 
-10 -0 0.5158059038847039 2:1 6:1 8:1 65:2.6615684 
-10 -0 5.968246784865612 2:1 6:1 8:1 65:2.5342801 
-10 -0 0 2:1 6:1 8:1 65:1.297348 67:0.46354991 
-10 -0 0 2:1 6:1 8:1 65:2.4466326 67:0.62229776 
-10 -0 0 2:1 6:1 8:1 65:1.4191866 67:0.82456291 
-10 -0 0 2:1 6:1 8:1 65:1.2522283 67:1.1912242 
-10 -0 0 2:1 6:1 8:1 65:2.6096647 67:1.8120995 
-10 -0 0 2:1 6:1 8:1 65:1.513652 67:1.5148016 
-10 -0 0 2:1 6:1 8:1 65:2.7366076 67:2.0335622 
-10 -0 0 2:1 6:1 8:1 65:1.2361223 67:1.3823234 
-10 -0 0 2:1 6:1 8:1 65:2.3637767 67:1.8557156 
-10 -0 0 2:1 6:1 8:1 65:1.3705058 67:1.5401044 
-10 -0 0 2:1 6:1 8:1 65:2.7886183 67:2.342819 
-10 -0 0 2:1 6:1 8:1 65:2.0216777 67:1.1066693 
-10 -0 0 2:1 6:1 8:1 65:2.4885507 67:0.9766323 
-10 -0 0 2:1 6:1 8:1 65:0.13423868 67:0.51624942 
-10 -0 10 2:1 6:1 8:1 65:0.11842067 67:0.91913843 
-10 -0 10 2:1 6:1 8:1 65:0.092186801 67:1.1793756 
-10 -0 10 2:1 6:1 8:1 65:0.071755819 67:1.3820485 
-10 -0 10 2:1 6:1 8:1 65:0.02637645 67:0.97197711 
-10 -0 0 2:1 6:1 8:1 65:0.73270768 67:1.0162116 
-10 -0 0 2:1 6:1 8:1 65:0.42504647 67:1.0530839 
-10 -0 0 2:1 6:1 8:1 65:1.1495141 67:1.1010095 
-10 -0 0 2:1 6:1 8:1 65:1.600366 67:0.85746711 
-10 -0 0 2:1 6:1 8:1 65:1.0520095 67:1.027225 
-10 -0 0 2:1 6:1 8:1 65:1.8049821 67:1.0739738 
-10 -0 0 2:1 6:1 8:1 65:1.1865007 67:1.1695508 
-10 -0 0 2:1 6:1 8:1 65:0.38518411 67:0.84324735 
-10 -0 10 2:1 6:1 8:1 65:0.3398999 67:1.2077131 
-10 -0 10 2:1 6:1 8:1 65:0.12503091 67:0.90784276 
-10 -0 0 2:1 6:1 8:1 65:0.87298286 67:1.2187437 
-10 -0 0 2:1 6:1 8:1 65:1.4755603 67:1.0755128 
-10 -0 0 2:1 6:1 8:1 65:0.75541663 67:1.0141716 
-10 -0 0 2:1 6:1 8:1 65:0.6666528 67:1.3585389 
-10 -0 0 2:1 6:1 8:1 65:1.6001115 67:1.8237637 
-10 -0 0 2:1 6:1 8:1 65:1.9513066 67:1.4203485 
-10 -0 0 2:1 6:1 8:1 65:1.2827349 67:1.397235 
-10 -0 0 2:1 6:1 8:1 65:0.78081524 67:0.082413979 
-10 -0 0 2:1 6:1 8:1 65:1.3942229 67:0.072728999 
-10 -0 0 2:1 6:1 8:1 65:1.9355519 67:0.064183101 
-10 -0 0 2:1 6:1 8:1 65:2.4132743 67:0.056640305 
-10 -0 0 2:1 6:1 8:1 65:1.5929494 67:0.020836804 
-10 -0 0 2:1 6:1 8:1 65:0.92411584 67:0.47563794 
-10 -0 10 2:1 6:1 8:1 45:0.020408163 65:0.031685445 67:0.016308362 
-10 -0 0 2:1 6:1 8:1 45:0.36101303 65:0.5605042 67:0.75203472 
-10 -0 0 2:1 6:1 8:1 45:0.48464599 65:1.457611 67:1.0095712 
-10 -0 0 2:1 6:1 8:1 45:0.48464599 65:2.1627667 67:1.0095631 
-10 -0 0 2:1 6:1 8:1 45:0.31859291 65:1.4217432 67:1.1272022 
-10 -0 0 2:1 6:1 8:1 45:0.031331867 65:0.048747793 67:0.038648121 
-10 -0 0 2:1 6:1 8:1 45:0.8431285 65:2.0169148 67:1.040006 
-10 -0 0 2:1 6:1 8:1 45:0.4891234 65:1.1700714 67:1.0668714 
-10 -0 0 2:1 6:1 8:1 45:0.74405825 65:2.4850407 67:1.622933 
-10 -0 0 2:1 6:1 8:1 45:0.4891234 65:1.6335667 67:1.5304214 
-10 -0 0 2:1 6:1 8:1 45:0.65662915 65:2.8981555 67:2.0544903 
-10 -0 0 2:1 6:1 8:1 45:0.38092968 65:1.6812696 67:1.6554193 
-10 -0 0 2:1 6:1 8:1 45:0.5113833 65:2.9621944 67:2.2222896 
-10 -0 0 2:1 6:1 8:1 45:0.33616924 65:1.947265 67:1.9243276 
-10 -0 0 2:1 6:1 8:1 45:0.39826569 65:3.0121155 67:2.2796583 
-10 -0 0 2:1 6:1 8:1 45:0.20389697 65:1.5420889 67:1.6304725 
-10 -0 0 2:1 6:1 8:1 45:0.15879512 65:1.2008247 67:1.7333632 
-10 -0 0 2:1 6:1 8:1 45:0.075009495 65:0.56714618 67:1.2823329 
-10 -0 0 2:1 6:1 8:1 45:0.021490581 65:0.1624901 67:0.83091378 
-10 -0 10 2:1 6:1 8:1 45:0.014770245 65:0.11167771 67:1.0346042 
-10 -0 2.216026551123015 2:1 6:1 8:1 45:0.0042317463 65:0.031988457 67:0.759969 
-10 -0 0 2:1 6:1 8:1 45:0.005680955 65:0.74808568 67:1.020229 
-10 -0 0 2:1 6:1 8:1 45:0.0050134249 65:1.365339 67:0.90033704 
-10 -0 0 2:1 6:1 8:1 45:0.0029084338 65:0.7918967 67:0.9858616 
-10 -0 0 2:1 6:1 8:1 45:0.0039044595 65:1.7679783 67:1.3234813 
-10 -0 0 2:1 6:1 8:1 45:0.002566684 65:1.1620203 67:1.3335696 
-10 -0 0 2:1 6:1 8:1 45:0.0034456733 65:2.2648191 67:1.7902658 
-10 -0 0 2:1 6:1 8:1 45:0.0015567725 65:1.0228837 67:1.2724009 
-10 -0 0 2:1 6:1 8:1 45:0.0011186464 65:1.4401667 67:0.91400242 
-10 -0 0 2:1 6:1 8:1 45:0.00047898502 65:0.94672573 67:1.0643898 
-10 -0 0 2:1 6:1 8:1 45:0.00064301881 65:1.9760987 67:1.4284599 
-10 -0 0 2:1 6:1 8:1 30:0.63749999 45:0.00051301729 65:1.5761839 67:1.1396631 
-10 -0 0 2:1 6:1 8:1 30:0.40908137 45:0.00032920128 65:1.0111748 67:1.1948675 
-10 -0 0 2:1 6:1 8:1 30:1.0756469 45:0.00035259128 65:1.0830197 67:1.2794893 
-10 -0 0 2:1 6:1 8:1 30:1.586755 65:0.95576149 67:1.1291453 
-10 -0 2.803464925993125 2:1 6:1 8:1 30:2.0378063 65:0.84310389 67:0.99646699 
-10 -0 0 2:1 6:1 8:1 30:1.5918479 50:0.49798793 65:0.65859699 67:0.77808571 
-10 -0 0 2:1 6:1 8:1 30:2.4358578 50:0.56259173 65:0.74368399 67:0.87902653 
-10 -0 0 2:1 6:1 8:1 30:1.6792052 50:0.88582134 65:0.51267278 67:0.60573065 
-10 -4.295786738954773 10 2:1 6:1 8:1 30:2.7871368 50:1.1339855 65:0.65594631 67:0.77542692 
