svm_type c_svc
kernel_type rbf
gamma 0.01
nr_class 4
total_sv 176
rho 0.104769 1.06886 0.422989 0.0120342 0.269754 0.188279
label 27 6 14 22
nr_sv 60 7 89 20
SV
5.968189588214736 10 10 2:1 6:1 8:1 30:1.0241632 45:0.095201798 50:0.93463242 65:0.93610734 67:1.1316681 
0 10 1.610309467039076 2:1 6:1 8:1 30:1.6616633 45:0.095201798 50:0.93463242 65:0.93610734 67:1.1290628 
0 10 0 2:1 6:1 8:1 30:1.6453497 45:0.057742808 50:0.56688321 65:0.56777775 67:0.68251199 
0 10 0 2:1 6:1 8:1 30:1.0535095 45:0.014599669 50:0.14333051 65:0.14355671 67:0.17190734 
0 10 0 2:1 6:1 8:1 30:1.5672189 45:0.012884163 50:0.12648875 65:0.12668836 67:0.14967868 
0 10 0 2:1 6:1 8:1 30:2.0205657 45:0.011370233 50:0.11162592 65:0.11180208 67:0.13006194 
0 10 0 2:1 6:1 8:1 30:2.4206433 45:0.010034196 50:0.098509535 65:0.098664992 67:0.11275023 
0 10 0 2:1 6:1 8:1 30:1.7809308 45:0.0047398186 50:0.046532609 65:0.045647599 67:0.05325944 
0 10 0 2:1 6:1 8:1 30:0.89002651 45:0.0023687412 50:0.023254836 65:0.022197518 67:0.49016649 
0 10 0 2:1 6:1 8:1 30:1.7176892 45:0.0028748452 50:0.028223453 65:0.02694023 67:0.59414876 
0 10 0 2:1 6:1 8:1 30:1.5569125 45:0.0010860576 50:0.015106926 65:0.014420069 67:0.31802493 
0 10 0 2:1 6:1 8:1 30:1.216194 45:0.00084838213 50:0.50978881 65:0.010910686 67:0.24842758 
0 10 0 2:1 6:1 8:1 30:0.9990651 45:0.0006969191 50:0.41877544 65:0.0085400809 67:0.66762531 
0 10 0 2:1 6:1 8:1 30:1.8500247 45:0.00084582251 50:0.50825077 65:0.0096183158 67:0.81026983 
0 10 6.41716605532625 2:1 6:1 8:1 30:2.487525 45:0.00084582251 50:0.50825077 65:0.0096183158 67:0.80942398 
0 10 0 2:1 6:1 8:1 30:1.7148228 50:0.8483603 65:0.0066305692 67:0.55799192 
7.038724723950429 10 0 2:1 6:1 8:1 30:2.3471491 50:0.84580088 65:0.0066105649 67:0.55564976 
0 10 0 2:1 6:1 8:1 30:0.63750046 50:1.7782402e-007 65:1.3898276e-009 67:1.1668319e-007 
0 10 0 2:1 6:1 8:1 30:1.2000922 50:1.5692916e-007 65:1.0880254e-009 67:1.0297255e-007 
0 10 0 2:1 6:1 8:1 30:0.82154 50:2.4065866e-008 65:1.668541e-010 67:1.5770112e-008 
0 10 0 2:1 6:1 8:1 30:1.3625065 50:2.123805e-008 65:1.2318174e-010 67:1.3917076e-008 
0 10 0 2:1 6:1 8:1 30:0.65263611 50:2.3593344e-010 65:1.0654733e-012 67:1.5460473e-010 
0 10 0 2:1 6:1 8:1 30:1.2134492 50:2.0821052e-010 65:4.9948392e-013 67:1.3643821e-010 
0 10 0 2:1 6:1 8:1 30:0.76539665 50:2.1945227e-011 67:1.4380483e-011 
0 10 0 2:1 6:1 8:1 30:1.3129601 50:1.9366595e-011 67:1.2631075e-011 
0 10 0 2:1 6:1 8:1 30:0.63759834 50:1.4496251e-015 67:9.4545913e-016 
0 10 0 2:1 6:1 8:1 30:1.2001784 50:1.2735562e-015 67:8.3436478e-016 
0 10 0 2:1 6:1 8:1 30:0.65948194 50:2.3325994e-017 67:1.5176911e-017 
0 10 0 2:1 6:1 8:1 30:1.2194908 50:2.0480105e-017 67:1.3393577e-017 
0 10 0 2:1 6:1 8:1 30:0.63933343 50:3.0790593e-020 67:2.0136428e-020 
0 10 0 2:1 6:1 8:1 30:1.2017097 50:2.7172602e-020 67:1.7770336e-020 
0 10 0 2:1 6:1 8:1 30:0.63785571 50:8.0443057e-024 67:5.260814e-024 
0 10 0 2:1 6:1 8:1 30:1.2004057 50:7.0990745e-024 67:4.6426523e-024 
0 10 10 2:1 6:1 8:1 30:0.63750213 50:1.249683e-029 67:8.1726762e-030 
0 10 0 2:1 6:1 8:1 30:1.2000935 50:1.1028414e-029 67:7.2123609e-030 
0 10 0 2:1 6:1 8:1 30:0.65689766 50:1.782577e-031 67:1.1657695e-031 
0 10 0 2:1 6:1 8:1 30:1.2172101 50:1.5731187e-031 67:1.028788e-031 
0 10 0 2:1 6:1 8:1 30:1.7116841 50:1.3882725e-031 67:6.4078383e-032 
0 10 0 2:1 6:1 8:1 30:2.148056 50:1.2251461e-031 67:5.6548972e-032 
0 10 0 2:1 6:1 8:1 30:0.70236564 50:3.6996209e-033 67:1.7076311e-033 
0 10 0 2:1 6:1 8:1 30:1.2573354 50:1.9349994e-033 67:1.5069791e-033 
9.480957404002135 10 2.691304624866557 2:1 6:1 8:1 30:0.63749999 50:6.5762937e-042 
0 10 0 2:1 6:1 8:1 30:1.2000917 50:5.8027769e-042 
0 10 0 2:1 6:1 8:1 30:0.63761532 50:1.4012985e-045 
0 10 0 2:1 6:1 8:1 30:1.2001935 
0 10 0 2:1 6:1 8:1 30:1.696667 
0 10 0 2:1 6:1 8:1 30:2.1348035 
0 10 0 2:1 6:1 8:1 30:0.64870244 
0 10 0 2:1 6:1 8:1 30:1.2099779 
0 10 0 2:1 6:1 8:1 30:0.64089853 
0 10 0 2:1 6:1 8:1 30:1.1366323 
0 10 0 2:1 6:1 8:1 30:1.1744074 
0 10 0 2:1 6:1 8:1 30:1.5521295 
0 10 0 2:1 6:1 8:1 30:2.0072494 
3.592820266450622 10 3.998380866859457 2:1 6:1 8:1 30:2.4088912 
0 10 0 2:1 6:1 8:1 30:1.6606151 50:0.49798793 
0.060300659020867 10 0 2:1 6:1 8:1 30:1.2932882 50:0.88582134 
0 10 0 2:1 6:1 8:1 30:1.1118387 50:0.32489228 
0 10 0 2:1 6:1 8:1 30:0.62962866 50:0.18398488 67:0.46354991 
0 10 0 2:1 6:1 8:1 30:1.503401 50:0.25302637 67:0.63749999 
-10 10 10 1:1 5:1 8:1 30:0.63749999 45:1.3403016e-007 65:0.61040813 67:0.62119162 
-0 1.900169506741183 0.08584238921555035 1:1 5:1 8:1 30:1.2000917 45:1.182812e-007 65:0.53868341 67:0.54819971 
-5.903441387637162 0.2385082496504017 0.03350391578239929 1:1 5:1 8:1 30:2.0171382 65:1.4820326e-024 67:1.5082053e-024 
-3.805781450541008 2.949596758145365 3.195464311062621 1:1 5:1 8:1 30:0.63749999 
-0 2.215539838224848 5.534107377518258 1:1 5:1 8:1 30:0.38783339 50:0.93746072 
-0 9.090556265588763 3.340297296481498 1:1 5:1 8:1 30:2.8903301 50:2.0724051 
-6.431769803460615 0.1417761987123234 6.058858371830305 1:1 5:1 8:1 30:2.6239929 50:1.9208274 67:0.56259173 
-4.801786026270191 -0 0 2:1 6:1 8:1 30:1.7280598 45:0.010040543 65:0.79835939 67:0.95649004 
-6.308235262200723 -0 0 2:1 6:1 8:1 30:2.3655596 45:0.010040543 65:0.79501408 67:0.95649004 
-3.839243683289214 -0 0 2:1 6:1 8:1 30:2.7598093 45:0.0042954413 65:0.54640466 67:0.65508616 
-0 -0 9.475528669500175 2:1 6:1 8:1 30:3.0730228 45:0.0037907136 65:0.48220035 67:0.57581228 
-9.154166005491485 -0 0 2:1 6:1 8:1 30:0.38829949 45:0.00047898502 65:0.060929623 67:0.53593504 
-10 -0 0 2:1 6:1 8:1 30:0.86010897 45:0.00027459837 65:0.034688152 67:0.30724734 
-6.586925309868733 -0 0 2:1 6:1 8:1 30:1.0437866 50:0.73928058 65:0.016124068 67:0.44615257 
-10 -0 0 2:1 6:1 8:1 30:0.97636795 50:0.24000926 65:0.0052347197 67:0.14479046 
-10 -0 0 2:1 6:1 8:1 30:1.3978961 50:0.18691941 65:0.0040768036 67:0.1126935 
-10 -0 0 2:1 6:1 8:1 30:0.63827312 50:0.0001033822 65:2.2113029e-006 67:6.2329011e-005 
-10 -0 0 2:1 6:1 8:1 30:1.2007742 50:9.1234469e-005 65:1.9079548e-006 67:5.5005166e-005 
-10 -0 0 2:1 6:1 8:1 30:1.5441192 50:2.6139114e-005 65:5.4663815e-007 67:1.5726977e-005 
-10 -0 0 2:1 6:1 8:1 30:0.65085918 50:2.2614765e-007 65:4.7293471e-009 67:1.3580629e-007 
-10 -0 0 2:1 6:1 8:1 30:0.63776386 50:4.0607115e-011 65:6.8704385e-013 67:2.4223243e-011 
-10 -0 0 2:1 6:1 8:1 30:1.2003244 50:3.5835654e-011 65:4.4415537e-013 67:2.1376937e-011 
-9.972235718252422 -0 0 2:1 6:1 8:1 30:0.64106095 50:5.6785652e-015 65:3.7387283e-017 67:3.3253063e-015 
-10 -0 0 2:1 6:1 8:1 30:1.2032343 50:5.0113163e-015 67:2.9345725e-015 
-10 -0 0 2:1 6:1 8:1 30:1.1342461 50:4.2505102e-019 67:2.4531191e-019 
-10 -0 0 2:1 6:1 8:1 30:0.65367913 50:6.0630271e-021 67:3.4991864e-021 
-10 -0 0 2:1 6:1 8:1 30:1.2143697 50:5.3506024e-021 67:3.0880211e-021 
-10 -0 0 2:1 6:1 8:1 30:1.2002239 50:5.8272756e-025 67:3.363126e-025 
-9.480345838594134 -0 0 2:1 6:1 8:1 30:0.63781351 50:1.5224256e-028 67:8.7864547e-029 
-10 -0 0 2:1 6:1 8:1 30:1.2003684 50:1.343536e-028 67:5.4726702e-029 
-0.1825050462864407 -0 0 2:1 6:1 8:1 30:1.2001024 50:7.118465e-034 67:4.8924447e-034 
-0.1442975845784013 -0 0 2:1 6:1 8:1 30:1.5721408 50:5.5438665e-034 
-10 -0 0 2:1 6:1 8:1 30:2.024909 
-0 -2.581804790553306 10 2:1 6:1 8:1 30:0.70602655 50:1.7191954 
-1.56490953960484 -0 0 2:1 6:1 8:1 30:0.47224393 50:1.1499279 65:1.2543316 67:1.0499964 
-1.173141868077108 -0 0 2:1 6:1 8:1 30:0.36778396 50:0.89556468 65:1.6820302 67:0.81773794 
-0 -1.840051558090404 3.747550062453884 2:1 6:1 8:1 30:0.32456821 50:0.79033303 65:2.1895421 67:0.7216512 
-0.03816537950007024 -2.461067619283384 0 2:1 6:1 8:1 30:0.0015030489 50:0.0036599683 65:0.71529531 67:0.0033419081 
-0 -5.922445613202032 9.855435725821618 2:1 6:1 8:1 30:0.00067908503 50:0.0016535919 65:0.323174 67:0.46505982 
-2.565705859698495 -0 0 2:1 6:1 8:1 30:0.93790323 50:0.4990654 65:0.55283904 67:0.74250162 
-10 -0 0 2:1 6:1 8:1 30:1.697077 50:0.56380892 65:0.62455869 67:0.83882618 
-5.497091672455587 -0 0 2:1 6:1 8:1 30:1.3256847 50:0.93841159 65:0.48787874 67:0.65525532 
-10 -0 0 2:1 6:1 8:1 30:1.803883 50:0.82564682 65:0.42925245 67:0.57651621 
-10 -0 0 2:1 6:1 8:1 30:1.3653924 50:2.6620397e-008 65:1.3839902e-008 67:1.8587958e-008 
-0.2204507479971076 -0 0 2:1 6:1 8:1 30:1.8424546 50:2.3492419e-008 65:1.2213672e-008 67:1.6403817e-008 
-10 -0 0 2:1 6:1 8:1 30:0.64716828 50:1.2327689e-010 65:6.4091461e-011 67:8.6079317e-011 
-10 -0 0 2:1 6:1 8:1 30:1.208624 50:1.0879147e-010 65:5.6560517e-011 67:7.5964735e-011 
-10 -0 0 2:1 6:1 8:1 30:1.6965772 50:6.2970553e-022 65:3.2744902e-022 67:4.3978695e-022 
-10 -0 0 2:1 6:1 8:1 30:0.64550507 50:2.0036953e-024 65:1.0421984e-024 67:1.3997453e-024 
-10 -0 0 2:1 6:1 8:1 30:1.2071563 50:1.7677969e-024 65:9.1973678e-025 67:1.235271e-024 
-0.1449872735835278 -0 0 2:1 6:1 8:1 30:1.8233621 50:2.7102081e-025 65:1.4091493e-025 67:1.8933271e-025 
-0.2453701248963457 -0 0 2:1 6:1 8:1 30:2.0575361 50:2.1107122e-025 65:1.0974465e-025 67:1.4733659e-025 
-0 -0 0.4355178886202222 2:1 6:1 8:1 30:2.8025024 50:1.6438242e-025 65:8.5235694e-026 67:1.1474586e-025 
-10 -0 0 2:1 6:1 8:1 30:0.63870716 50:7.0806501e-029 65:3.6650561e-029 67:4.9425923e-029 
-10 -0 0 2:1 6:1 8:1 30:1.201157 50:6.248652e-029 65:2.0132829e-029 67:4.3618227e-029 
-1.489978596554559 -0 0 2:1 6:1 8:1 30:1.4630421 50:4.2946312e-029 65:1.3837077e-029 67:1.776716e-029 
-10 -0 0 2:1 6:1 8:1 30:2.3698652 50:2.2987504e-029 
-10 -0 0 2:1 6:1 8:1 30:0.8320303 50:1.8869291e-030 
-2.858740289709103 -0 0 2:1 6:1 8:1 30:1.4695171 50:0.63749999 
-10 -0 0 2:1 6:1 8:1 30:1.1138761 50:0.46708587 67:0.46354991 
-10 -0 0 2:1 6:1 8:1 30:1.9893663 50:0.56688321 67:0.56259173 
-10 -0 0.6921726655741262 2:1 6:1 8:1 30:1.3977586 50:0.33009949 65:0.014443617 67:1.4563514 
-5.309879714714374 -0 0 2:1 6:1 8:1 30:1.4852834 50:1.1348479 65:0.0072559463 67:0.88257545 
-10 -0 0 2:1 6:1 8:1 30:1.4325149 50:0.60744029 65:0.0038838279 67:0.47195584 
-10 -0 0 2:1 6:1 8:1 30:1.90169 50:0.53606421 65:0.0029747302 67:0.41649958 
-10 -0 0 2:1 6:1 8:1 30:1.1183226 50:0.13553825 65:0.00075212959 67:0.10514102 
-10 -0 0 2:1 6:1 8:1 30:1.624416 50:0.11961209 65:0.00035259128 67:0.092786625 
-2.799478938993897 -0 0 2:1 6:1 8:1 30:0.74134552 50:0.0076465448 65:2.2540407e-005 67:0.0059117586 
-1.826315208467321 -0 0 2:1 6:1 8:1 30:1.2917352 50:0.0067480518 67:0.0052171089 
-10 -0 0 2:1 6:1 8:1 30:1.7774322 50:0.005955135 67:0.0046040821 
-10 -0 0 2:1 6:1 8:1 30:2.2060785 50:0.0052553881 67:0.0040431968 
-10 -0 0 2:1 6:1 8:1 30:1.7578619 50:0.0013287702 67:0.0010222803 
-1.135414623926744 -0 0 2:1 6:1 8:1 30:1.449825 50:1.0000681e-005 67:7.8052053e-006 
-0.05479143808938243 -0 0 2:1 6:1 8:1 30:0.92298758 50:1.9692509e-006 67:1.5369361e-006 
-10 -0 0 2:1 6:1 8:1 30:1.2342403 50:3.7718412e-008 67:3.1898093e-008 
-10 -0 0 2:1 6:1 8:1 30:1.2633073 50:9.5910849e-011 67:7.4998112e-011 
-0.3670927834117366 -0 0 2:1 6:1 8:1 30:1.9576943 50:2.2556072e-012 
-0.2533287462877827 -0 0 2:1 6:1 8:1 30:1.7669749 
-10 -0 0 2:1 6:1 8:1 30:0.63752949 
-10 -0 0 2:1 6:1 8:1 30:0.63801694 
-10 -0 0 2:1 6:1 8:1 30:1.2005479 
-0.08521461911546319 -0 0 2:1 6:1 8:1 30:1.0677532 
-0.1291459050784807 -0 0 2:1 6:1 8:1 30:1.5797887 
-10 -0 0 2:1 6:1 8:1 30:0.70652699 
-10 -0 0 2:1 6:1 8:1 30:1.187744 
-10 -0 0 2:1 6:1 8:1 30:0.75520766 
-10 -0 0 2:1 6:1 8:1 30:1.3039682 
-0.1725669560892607 -0 0 2:1 6:1 8:1 30:1.1339988 
-0.2316991307794045 -0 0 2:1 6:1 8:1 30:1.6382504 
-10 -0 0 2:1 6:1 8:1 30:2.0249019 
-5.881869366869855 -0 0 2:1 6:1 8:1 30:2.3621507 
-10 -0 0 2:1 6:1 8:1 30:2.0702167 
-10 -0 0 2:1 6:1 8:1 30:1.6989225 50:0.49798793 
-0.05363726081345806 -7.256723642202452 0 2:1 6:1 8:1 30:2.8023672 50:0.72789246 
-10 -0 0 2:1 6:1 8:1 30:1.4004929 50:0.7247799 67:0.46354991 
-5.431283480454349 -6.474053593731312 1.306025482615187 2:1 6:1 8:1 30:2.3372216 50:1.4422277 67:0.56259173 
-0.1255189852056498 -0 -2.143590344628 2:1 7:1 9:1 30:0.63749999 50:0.4964855 65:0.87040311 67:0.79904729 
-10 -1.895117551146687 -10 2:1 7:1 9:1 30:1.2000917 50:0.43814692 65:0.76812816 67:0.70515674 
-2.018458953497883 -0 -0 2:1 7:1 9:1 30:0.82730615 50:0.80003285 65:0.52952379 67:0.48611328 
-4.192884510781477 -2.334258372081669 -0 2:1 7:1 9:1 30:1.1119335e-008 50:0.49798793 65:7.1170163e-009 67:6.5335617e-009 
-0.6894509740656126 -2.83493443531045 -5.307975153825059 2:1 7:1 9:1 30:7.1083528e-010 50:2.3673124 65:4.549757e-010 67:4.1767664e-010 
-0.09007357082508008 -0.4208885351564156 -0 3:1 7:1 8:1 30:3.5726996e-017 50:2.8343806e-007 54:1.4673432 65:1.6441197e-017 67:2.0992669e-017 
-0.2298684611047888 -0.01535104424808635 -0 3:1 7:1 8:1 30:1.4893226e-017 50:1.8231936 54:1.9215119 65:2.9104493e-018 67:3.7370912e-018 
-0 -0 -0.3681485679905028 3:1 7:1 8:1 30:9.5539179e-018 50:2.1655438 54:1.2326386 
-0 -0 -0.3424220815290839 3:1 7:1 8:1 30:7.4405988e-018 50:2.1845152 54:0.95997995 
-0 -6.062226257467365 -0 3:1 7:1 8:1 30:1.7280598 50:1.7014401 65:0.13534284 67:0.79679996 
-3.024409093785314 -0 -0 3:1 7:1 8:1 30:1.5624638 50:0.91071522 65:0.071821474 67:1.5601707 
-3.399067713497715 -6.872996609237096 -10 3:1 7:1 8:1 30:2.8382587 50:0.33503342 65:0.025939342 67:0.57305557 
-3.047590366680202 -0 -0.05499730013429959 3:1 7:1 8:1 30:2.7407143 50:0.1232519 65:0.0066997046 67:0.99019152 
-1.612443054314882 -0 -0 3:1 7:1 8:1 30:2.1347241 
-2.510809527803228 -0 -0 3:1 7:1 8:1 30:2.3363938 65:0.00027459837 67:0.14941962 
-0.8178612503015764 -3.138711518621963 -0 3:1 7:1 8:1 30:6.6002315e-007 65:0.70515579 67:1.2783224e-008 
-1.969780220363433 -2.463614247704904 -7.108845760681692 3:1 7:1 8:1 30:1.2088747e-008 65:0.7180711 67:2.3413285e-010 
-0.4098351185592019 -0.4452993656067911 -0.1862512857965805 3:1 7:1 8:1 20:1.3026755 30:1.7943165e-023 65:1.0658234e-015 67:3.4751963e-025 
-0.5791092133052964 -0 -0 3:1 7:1 8:1 20:4.9683052e-008 30:0.63751394 65:4.064969e-023 67:1.3242061e-032 
-0 -1.764675725309207 -0 3:1 7:1 8:1 20:9.842257e-021 30:1.7409642 50:1.1294749 65:3.029523e-013 67:1.4012985e-045 
