svm_type c_svc
kernel_type rbf
gamma 0.01
nr_class 11
total_sv 5065
rho -1.86876 -0.96837 1.99376 1.45463 0.0674258 -1.74705 5.15878 -0.998731 -1.0187 4.20948 -0.358155 0.0264187 1.19431 -0.0518858 1.70007 5.84796 -0.891155 -0.977249 6.3439 0.353734 1.24066 -0.055358 -1.26911 4.972 -0.905841 -1.00707 2.40446 -2.09783 -1.38526 -4.84097 2.17066 -1.05858 -1.1274 1.53709 -0.242446 -1.4414 5.47053 -1.21834 -1.18635 9.07778 -0.143899 0.713306 -0.00969128 -0.0974023 1.04402 4.08888 -0.548297 -0.590923 3.11971 -1.08054 -1.10012 1.75093 -0.958844 1.02761 1.04948
label 28 29 30 31 32 33 34 35 20 19 1
nr_sv 1020 254 565 747 274 42 158 578 4 3 1420
SV
10 0 0 0 0 0 2.446823514046175 0 0 10 2:1 6:1 8:1 14:1.0953076e-005 20:8.6758067e-005 30:0.47439358 50:0.77762562 67:0.46354991 
0 0 0 0 0 0 0 0 0 10 2:1 6:1 8:1 14:6.6433768e-006 20:5.2621428e-005 30:0.28773427 50:0.47165382 67:0.74470711 
0 0 0 0 0 0 0 0 0 10 2:1 6:1 8:1 14:5.8627593e-006 20:4.6438246e-005 30:0.25392461 50:0.41623303 67:1.1207517 
0 0 0 0 0 0 0 0 0 10 2:1 6:1 8:1 14:2.3959757e-008 20:1.897825e-007 30:0.0010377318 50:0.0017010493 67:0.47722527 
0 0 0 0 0 0 0 0 0 10 2:1 6:1 8:1 14:1.8659877e-008 20:1.4780277e-007 30:0.00080818631 50:0.0013247784 67:0.83521324 
0 0 0 0 0 0 0 0 0 10 2:1 6:1 8:1 14:6.8645853e-009 20:5.4373601e-008 30:0.00029731513 50:0.00048735875 67:0.77080768 
0 0 0 0 0 0 0 0 0 10 2:1 6:1 8:1 20:1.6255132e-010 30:1.5601667e-006 50:2.5574241e-006 65:0.01410477 67:0.54943359 
0 10 0 0 0 0 0 0 0 0 2:1 6:1 8:1 30:8.6006651e-008 50:7.5900601e-008 65:0.0013119481 67:2.1387739 
0 0.7676929586640819 0 0 0 0 0 0 0 0 2:1 6:1 8:1 30:5.911145e-008 65:0.00090168783 67:1.9335066 
0 10 0 0 0 0 0 0 0 0 2:1 6:1 8:1 65:0.00079573673 67:2.1698637 
0 10 0 0 0 0 0 0 0 0 2:1 6:1 8:1 65:0.00054690137 67:1.9548737 
0 0 0 0 0 0 0 0 0 10 2:1 6:1 8:1 65:9.5037198e-005 67:0.80325603 
10 5.554067637435707 0 0 0 0 0 0 0 10 2:1 6:1 8:1 30:1.1339855 65:0.50029033 67:0.78918713 
10 10 0 0 0 10 10 0 0 10 2:1 6:1 8:1 30:1.6382387 65:0.44150472 67:0.69645089 
10 10 0 0 0 10 10 0 0 10 2:1 6:1 8:1 30:1.7634438 65:0.30344144 67:0.47865811 
10 0 0 0 0 0 10 0 0 10 2:1 6:1 8:1 30:1.1315954 65:0.19471401 67:0.77070302 
10 0 0 0 0 0 0 0 0 10 2:1 6:1 8:1 30:0.99862939 65:0.17183128 67:1.1436932 
0 7.911745041322431 0 0 0 0 0 0 0 0 2:1 6:1 8:1 30:1.0440768 65:1.4339828 67:1.1957332 
0 10 0 0 0 0 0 0 0 0 2:1 6:1 8:1 30:0.92139447 65:1.9706411 67:1.0552256 
0 10 0 0 0 0 0 0 0 0 2:1 6:1 8:1 30:0.81312788 65:2.4442406 67:0.93122727 
0 10 0 0 0 0 0 0 0 9.451365203635486 2:1 6:1 8:1 30:0.81312788 65:3.1493964 67:0.93122011 
0 10 0 0 0 0 0 0 0 0 2:1 6:1 8:1 30:0.63326466 65:3.1579082 67:0.72510821 
0 10 0 0 0 0 0 0 0 0 2:1 6:1 8:1 30:0.41629067 65:2.0759213 67:0.94012165 
0 0 0 0 0 0 0 0 0 10 2:1 6:1 8:1 30:0.49318695 65:3.1645367 67:2.4402442 
0 0 0 0 0 0 0 0 0 10 2:1 6:1 8:1 30:0.43523598 65:3.4978495 67:2.8572924 
0 0 0 0 0 0 0 0 0 10 2:1 6:1 8:1 30:0.013142987 65:0.90377206 67:0.18903257 
0 10 0 0 0 0 0 0 0 10 2:1 6:1 8:1 30:0.010235769 65:1.4090141 67:0.14691497 
0 10 0 0 0 0 0 0 0 10 2:1 6:1 8:1 30:0.0048350347 65:1.3707271 67:0.069213495 
0 10 0 0 0 0 0 0 0 0 2:1 6:1 8:1 30:0.0042669033 65:1.914818 67:0.060871936 
0 10 0 0 0 0 0 0 0 10 2:1 6:1 8:1 30:0.0020155425 65:1.6094891 67:0.028753866 
0 0 10 0 0 0 10 0 0 10 3:1 7:1 9:1 20:8.4077908e-045 30:1.2844868e-007 50:6.3775175e-008 54:2.5201313e-026 67:0.46354991 
0 0 0 0 0 0 0 0 0 10 3:1 7:1 9:1 20:1.5414283e-044 30:1.521754e-007 50:7.555559e-008 54:2.9856441e-026 65:0.70515573 67:0.54917586 
0 0 0 0 0 0 0 0 0 10 3:1 7:1 9:1 20:7.0064923e-045 30:8.8281382e-008 50:4.3831996e-008 54:1.7320591e-026 65:0.40908137 67:0.78214282 
0 0.6302836176717702 0 0 0 0 0 0 0 0 3:1 7:1 9:1 20:2.8025969e-045 30:4.3598984e-008 50:2.1647038e-008 54:8.5540148e-027 65:2.3080826 67:0.38627207 
0 10 0 0 0 0 0 0 0 0 3:1 7:1 9:1 20:2.8025969e-045 30:3.8475971e-008 50:1.9103444e-008 54:7.5488912e-027 65:2.7420316 67:0.34088391 
0 10 0 0 0 0 0 0 0 0 3:1 7:1 9:1 20:1.4012985e-045 30:2.9965115e-008 50:1.4877777e-008 54:5.8790818e-027 65:2.8406518 67:0.26548064 
0 10 0 0 0 0 0 0 0 0 3:1 7:1 9:1 30:1.5341005e-008 50:7.6168591e-009 54:3.0098674e-027 65:1.4543061 67:0.9604789 
10 0 10 10 0 0 10 9.661947880224579 7.353706864709132 10 3:1 7:1 9:1 30:6.7540018e-010 45:0.020408163 50:3.3533842e-010 54:1.3251185e-028 65:0.064027019 67:0.042285871 
0 10 0 0 0 0 0 0 0 0 3:1 7:1 9:1 30:1.5341005e-008 45:0.46354991 50:7.6168591e-009 54:3.0098664e-027 65:1.4543061 67:1.424029 
0 10 0 0 0 0 0 0 0 0 3:1 7:1 9:1 30:1.3538388e-008 45:0.40908137 50:6.7218542e-009 54:1.493252e-027 65:1.2834208 67:1.7202511 
0 2.195368007750865 0 0 0 0 0 0 0 0 3:1 7:1 9:1 30:6.3950827e-009 45:0.19323635 50:3.1751792e-009 65:0.60624504 67:2.0462332 
0 10 0 0 0 0 0 0 0 0 3:1 7:1 9:1 30:5.6436411e-009 45:0.17053048 50:2.8020857e-009 65:0.53500944 67:2.2693443 
0 10 0 0 0 0 0 0 0 0 3:1 7:1 9:1 30:8.5851486e-009 45:0.25941229 50:4.2625548e-009 65:1.5190161 67:3.4521446 
0 10 0 0 0 0 0 0 0 0 3:1 7:1 9:1 30:6.686121e-009 45:0.20203051 50:3.319681e-009 65:1.8881667 67:2.6885328 
0 10 0 0 0 0 0 0 0 0 3:1 7:1 9:1 30:4.3952713e-009 45:0.13280928 50:2.1822666e-009 65:1.2412286 67:2.2309172 
0 10 0 0 0 0 0 0 0 0 3:1 7:1 8:1 30:2.1313808e-009 45:0.095432453 50:1.5681062e-009 65:2.0817084 67:2.0307636 
10 10 0 0 0 0 10 0 0 10 3:1 7:1 8:1 45:0.021199472 65:0.084760033 67:0.034616888 
10 10 0 0 0 0 10 0 0 10 3:1 7:1 8:1 45:0.041607637 65:0.084583469 67:0.034616888 
0 10 0 0 0 0 0 0 0 0 3:1 7:1 8:1 45:0.83402455 65:1.6896393 67:1.1574447 
10 10 10 0 0 0 10 0 0 10 3:1 7:1 8:1 45:0.025377486 65:0.027886048 67:0.056774817 
0 10 0 0 0 0 0 0 0 0 3:1 7:1 8:1 45:0.52986121 65:1.2895701 67:1.8101604 
0 10 0 0 0 0 0 0 0 0 3:1 7:1 8:1 45:0.46760088 65:1.8431973 67:1.5954802 
10 10 0.1617544321792202 0 0 0 10 0 0 10 3:1 7:1 8:1 45:0.030947674 65:0.041544836 67:0.053814534 
0 10 0 0 0 0 0 0 0 0 3:1 7:1 8:1 45:0.9436748 65:1.9719657 67:2.3399532 
0 0.3001249571809828 0 0 0 0 0 0 0 0 3:1 7:1 8:1 45:0.4457604 65:1.6351039 67:1.1053157 
10 10 10 1.845359209794795 0 0 10 0 0 10 3:1 7:1 8:1 45:0.021767907 65:0.031450499 67:0.037261881 
0 3.990917691461325 0 0 0 0 0 0 0 0 3:1 7:1 8:1 45:0.077588379 65:1.9375629 67:2.4195554 
0 2.496142586871287 0 0 0 0 0 0 0 0 3:1 7:1 8:1 45:0.021293858 65:1.9683796 67:2.2585728 
0 10 0 0 0 0 0 0 0 0 3:1 7:1 8:1 45:0.014635039 65:2.0542147 67:2.1745906 
0 0 0 0 0 0 0 0 0 10 3:1 7:1 8:1 45:0.00032920128 65:0.34140757 67:0.51191825 
10 10 0 0 0 0 4.513956908840741 0 0 10 3:1 7:1 8:1 45:0.020408163 65:0.068224601 67:0.054224316 
0 10 0 0 0 0 0 0 0 0 3:1 7:1 8:1 45:0.46354991 65:1.5496501 67:1.6941841 
10 10 10 0 0 0 10 0 0 10 3:1 7:1 8:1 45:0.030048296 65:0.032203116 67:0.035232797 
0 9.942832499218328 0 0 0 0 0 0 0 0 3:1 7:1 8:1 45:1.0382477 65:1.8169227 67:1.2173859 
0 5.372766029373082 0 0 0 0 0 0 0 0 3:1 7:1 8:1 45:0.32239744 65:0.97290051 67:0.84103072 
0 10 0 0 0 0 0 0 0 0 3:1 7:1 8:1 45:0.38194999 65:1.8577683 67:1.6170176 
10 10 10 0 0 0 10 0 0 10 3:1 7:1 8:1 45:0.021208923 65:0.050338421 67:0.023732552 
0 9.950024597036707 0 0 0 0 0 0 0 0 3:1 7:1 8:1 45:0.57072401 65:2.0585425 67:1.2597303 
10 10 10 0 0 0 10 0 0 10 3:1 7:1 8:1 45:0.025770618 65:0.062225904 67:0.032217152 
0 10 0 0 0 0 0 0 0 0 3:1 7:1 8:1 45:0.45587295 65:1.5088136 67:1.4419985 
0 9.877494738775809 0 0 0 0 0 0 0 0 3:1 7:1 8:1 45:0.69347751 65:3.0003743 67:2.1926434 
10 10 0 0 0 0 0 0 0 10 3:1 7:1 8:1 30:0.63749999 45:0.05816773 65:0.50623405 67:0.32636398 
0 0 0 0 0 0 0 0 0 10 3:1 7:1 8:1 30:0.46354991 45:0.042069655 65:0.36810157 67:0.70086133 
0 10 0 0 0 0 0 0 0 10 3:1 7:1 8:1 30:0.43947279 45:0.03988453 50:0.49798793 65:0.34876758 67:0.6644581 
0 0 0 0 0 0 0 0 0 10 3:1 7:1 8:1 30:0.40908137 45:0.03712634 50:0.46354991 65:0.32427576 67:1.0820578 
0 0 0 10 0 0 10 0 0 10 1:1 5:1 8:1 17:0.00047898502 20:0.14588319 30:0.36101303 42:0.064202189 50:1.7847843 58:0.22066692 67:0.46354991 
0 0 0 0 0 0 10 0 0 10 1:1 5:1 8:1 20:0.20062679 30:1.1339855 42:0.088294476 50:2.4545364 58:0.30347359 67:0.63749999 
10 0 10 10 0 0 10 0 0 10 1:1 5:1 8:1 20:0.0048018708 30:0.02827207 42:0.0022013225 45:0.020408163 50:0.061195508 58:0.0075660818 67:0.015893893 
0 0 0 0 0 0 10 0 0 10 1:1 5:1 8:1 20:0.15704069 30:0.97687447 42:0.07606148 45:0.70515573 50:2.114466 58:0.26142803 65:0.70515573 67:0.54917586 
10 0 10 10 0 0 10 0 0 10 1:1 5:1 8:1 20:0.0033129123 30:0.02201831 42:0.0017143914 45:0.036302056 50:0.04765911 58:0.00589247 65:0.015893893 67:0.012378177 
0 0 0 0 0 0 8.41910156357279 0 0 0 1:1 5:1 8:1 20:0.082236096 30:0.59250426 42:0.046133615 45:0.97687447 50:1.2824882 58:0.15856412 65:1.1328543 67:0.33309197 
0 0 0 0 0 0 10 0 0 10 1:1 5:1 8:1 20:0.033144191 30:0.26769638 42:0.0208434 45:0.44135675 50:0.57943475 58:0.071640059 65:0.51182926 67:0.61404252 
0 0.4103780599867974 0 10 0 0 10 0 0 10 1:1 5:1 8:1 20:4.5594752e-005 30:0.0007519041 42:5.8544818e-005 45:0.0012396802 50:0.0016275126 58:0.0002012222 65:0.0014376231 67:0.46909311 
10 6.491323775124427 10 10 10 0 10 0 0 10 1:1 5:1 8:1 20:1.0498951e-006 30:2.9213465e-005 42:2.2746212e-006 45:0.020456327 50:6.3233172e-005 58:7.8180137e-006 65:5.585546e-005 67:0.018225508 
0 0 10 10 10 0 10 0 0 10 1:1 5:1 8:1 30:1.2177983e-005 45:0.028935628 50:2.5541849e-005 58:2.0997902e-006 65:0.0085306717 67:0.047914181 
0 2.125541107196684 0 0 0 0 0 0 0 0 1:1 5:1 8:1 30:0.00032770488 45:0.77864671 50:0.00066238886 58:2.8252274e-005 65:0.93471283 67:1.9116499 
0 0.3235360038688091 0 0 0 0 0 0 0 0 1:1 5:1 8:1 30:0.00016777246 45:0.39863762 50:0.00033911801 65:0.47853759 67:1.4422423 
0 4.974082090137794 0 0 0 0 0 0 0 0 1:1 5:1 8:1 30:1.9417485e-005 45:0.082068756 50:1.713587e-005 65:1.4307183 67:1.4935454 
0 10 0 0 0 0 10 0 0 0 1:1 5:1 8:1 30:0.63749999 45:0.012889192 65:1.1751052 67:0.67278183 
10 10 0 0 0 0 10 0 0 10 1:1 5:1 8:1 30:1.1339855 45:0.010034196 65:0.91517282 67:0.52396309 
0 10 0 0 0 0 10 0 0 0 1:1 5:1 8:1 30:0.82456291 45:0.0072962362 65:0.66545254 67:0.84454286 
0 0 0 0 0 0 0 0 0 10 1:1 6:1 10:1 30:0.75212312 50:0.76206654 65:1.5874236 67:0.63685501 
0 0 0 0 0 0 10 0 0 10 1:1 6:1 10:1 30:0.45618576 50:0.46221673 65:1.6679769 67:0.38627207 
0 0 0 0 0 0 7.035042311626974 0 0 4.04263285669222 1:1 6:1 10:1 30:0.16782136 50:0.17004004 65:1.8721349 67:0.14210156 
0 0 0 0 1.61455063240353 0 0 2.649098914853573 0 0 1:1 6:1 10:1 30:0.052112009 50:0.052800957 65:1.1480501 67:0.50767541 
0 0 0 0 0 0 10 0 0 10 1:1 6:1 10:1 30:0.68096846 50:0.044043139 65:1.5202204 67:0.4234699 
0 0 0 0 0 0 10 0 0 10 1:1 6:1 10:1 30:0.43697494 50:0.028262315 65:0.97551996 67:0.73528892 
0 0 0 0 0 0 0 0 0 10 1:1 6:1 10:1 30:0.46943861 50:0.52834988 65:1.0479932 67:0.78991497 
0 0 0 0 0 0 10 0 0 10 1:1 6:1 10:1 30:0.36559916 50:0.90946734 65:0.8161779 67:0.61518639 
0 0 0 0 0 0 10 0 0 10 1:1 6:1 10:1 30:1.1055222 50:1.1642559 65:1.0448315 67:0.78753179 
0 0 0 0 0 0 10 0 0 10 1:1 6:1 10:1 30:1.61312 50:1.027452 65:0.92206049 67:0.69499439 
0 0 0 0 0 0 10 0 0 10 1:1 6:1 10:1 30:1.2601008 50:1.3005899 65:0.72027451 67:0.54290015 
0 0 0 0 0 7.872720424658988 10 0.1242859318122867 0 10 1:1 6:1 10:1 30:1.1120352 50:1.6457546 65:0.63563991 67:0.47910768 
10 0 0 0 0 0 0 0 0 10 2:1 6:1 8:1 30:1.8937991 50:1.8566525 65:0.71810126 67:0.54126215 
10 0 0 0 0 0 0 0 0 10 2:1 6:1 8:1 30:0.94476104 50:0.92786872 65:0.35887375 67:0.73404765 
10 0 0 0 0 0 0 0 0 10 2:1 6:1 8:1 30:1.9338363 50:1.2760574 65:0.49354336 67:1.0095036 
10 0 0 0 0 10 10 0 0 10 2:1 6:1 8:1 30:2.143573 50:0.99118924 65:0.384372 67:0.78620231 
10 0 0 0 0 0 0 0 0 10 2:1 6:1 8:1 30:1.844342 50:0.85386211 65:1.036274 67:0.67727578 
10 0 10 0 0 10 10 0 0 10 2:1 6:1 8:1 30:0.053377748 45:0.020408163 50:0.024628526 65:0.02999117 67:0.01960128 
10 0 0 0 0 0 0 0 0 0 2:1 6:1 8:1 30:0.83328289 45:0.31859291 50:0.3844772 65:0.46819371 67:0.76807106 
0 10 0 0 0 0 0 0 0 0 2:1 6:1 8:1 30:0.080872148 45:0.030982381 50:0.037245989 65:1.8492913 67:0.40152824 
0 10 0 0 0 0 0 0 0 0 2:1 6:1 8:1 30:0.062983289 45:0.024129102 50:0.029007208 65:2.1440241 67:0.31271055 
0 10 0 0 0 0 0 0 0 0 2:1 6:1 8:1 30:0.043287739 45:0.016583674 50:0.019936344 65:2.1776605 67:0.21492259 
10 0 10 0 0 10 10 0 0 10 2:1 6:1 8:1 30:0.00022808227 45:0.020502672 50:6.5450178e-005 65:0.020893456 67:0.058013566 
0 0 0 0 0 0 0 0 0 10 2:1 6:1 8:1 30:0.64430672 45:0.18319952 50:1.5301281 65:0.4219403 67:1.3053472 
0 0 0 0 0 0 0 0 0 10 2:1 6:1 8:1 30:0.56859869 45:0.16167301 50:1.8483212 65:0.37236109 67:1.1508756 
0 0 0 0 0 0 0 0 0 10 2:1 6:1 8:1 30:1.3653924 45:0.20696594 50:2.3661311 65:0.47667855 67:1.4715044 
0 0 0 0 0 0 0 0 0 10 2:1 6:1 8:1 30:0.94125938 45:0.14267594 50:2.1291256 65:0.32737306 67:1.0144097 
0 0 0 0 0 0 0 0 0 10 2:1 6:1 8:1 30:1.7008686 45:0.16118523 50:2.4053366 65:0.3698431 67:1.1444285 
0 0 0 0 0 0 0 0 0 10 2:1 6:1 8:1 30:1.1725264 45:0.11111613 50:2.1561527 65:0.25372404 67:0.78893363 
0 0 0 0 0 0 0 0 0 10 2:1 6:1 8:1 30:0.91316444 45:0.086537324 50:2.1772013 65:0.19760045 67:0.61318785 
10 0 0 0 0 10 10 0 0 10 2:1 6:1 8:1 30:1.4409335 45:0.076138519 50:1.9155767 65:0.17385569 67:0.53827304 
10 0 0 0 0 10 10 0 0 10 2:1 6:1 8:1 30:0.99333501 45:0.052487541 50:1.8185272 65:0.11604855 67:0.37106881 
0 0 0 0 0 0 0 0 0 10 2:1 6:1 8:1 30:0.92464155 45:0.048857801 50:1.6927683 65:0.10448404 67:0.80895764 
10 0 0 0 0 0 0 0 0 10 2:1 6:1 8:1 30:1.7597002 45:0.059296735 50:2.0544443 65:0.12055824 67:0.98179924 
10 0 0 0 0 0 0 0 0 10 2:1 6:1 8:1 30:1.3746032 45:0.046320092 50:2.1028323 65:0.087906227 67:0.76693982 
10 0 10 10 0 10 10 10 0 10 2:1 6:1 8:1 30:0.038717028 45:0.021712814 50:0.059228316 65:0.0022190632 67:0.021601601 
0 0 0 0 0 0 0 0 0 10 2:1 6:1 8:1 30:0.77608216 45:0.43523306 50:1.1872307 65:0.45356247 67:0.88244903 
10 0 10 0 0 10 10 0 0 10 2:1 6:1 8:1 30:0.0030015216 45:0.022083366 50:0.0044851163 65:0.047704972 67:0.026654296 
0 7.366357951181214 0 0 0 0 0 0 0 0 2:1 6:1 8:1 30:0.69764483 45:0.47411221 50:0.09142448 65:1.520673 67:0.57224643 
0 0 0 0 0 0 0 0 0 10 2:1 6:1 8:1 30:0.85958779 45:0.28843379 50:0.98008758 65:0.92512596 67:0.78760815 
0 0 0 0 0 0 0 0 0 10 2:1 6:1 8:1 30:0.75370145 45:0.2545419 50:1.3629123 65:0.81642067 67:0.6950618 
0 0 0 0 0 0 0 0 0 10 2:1 6:1 8:1 30:0.6651392 45:0.22463246 50:1.6958717 65:0.72048885 67:0.61338979 
0 0 0 0 0 0 0 0 0 10 2:1 6:1 8:1 30:0.58698332 45:0.19823746 50:1.9890573 65:0.63582909 67:0.5413146 
0 0 0 0 0 0 0 0 0 10 2:1 6:1 8:1 30:0.51090753 45:0.17494394 50:2.2533247 65:0.56111723 67:0.47770849 
0 0 0 0 0 0 0 0 0 10 2:1 6:1 8:1 30:0.35114127 45:0.1202371 50:2.0411417 65:0.38564983 67:0.32832393 
0 0 0 0 0 0 0 0 0 10 2:1 6:1 8:1 30:1.087014 45:0.15392169 50:2.6129706 65:0.49369028 67:0.4132224 
0 0 0 0 0 0 10 0 0 10 2:1 6:1 8:1 30:0.74382174 45:0.10610887 50:2.2992892 65:0.3403348 67:0.28486273 
0 0 0 0 0 0 0 0 0 10 2:1 6:1 8:1 30:1.5897045 45:0.13583542 50:2.9363563 65:0.43568009 67:0.36466748 
10 0 0 0 0 10 10 0 0 10 2:1 6:1 8:1 30:1.0958931 45:0.086537324 50:2.5222216 65:0.30034441 67:0.25139049 
5.323459322622681 0 0 0 0 10 10 0 0 10 2:1 6:1 8:1 30:0.85348248 45:0.067395337 50:2.462296 65:0.22837631 67:0.19578311 
0 0 0 0 0 0 0 0 0 10 2:1 6:1 8:1 30:0.70110887 45:0.055363145 50:2.0226984 65:0.18760392 67:0.61922991 
0 0 0 0 0 0 0 0 0 10 2:1 6:1 8:1 30:1.6017045 45:0.076138519 50:2.781729 65:0.24891005 67:0.85159999 
10 0 0 0 0 10 0 0 0 10 2:1 6:1 8:1 30:2.0509992 45:0.067192003 50:2.4548674 65:0.21163742 67:0.75153434 
10 0 10 10 0 10 10 0 0 10 2:1 6:1 8:1 30:0.057943191 45:0.022306418 50:0.069352947 65:0.0056879041 67:0.021231748 
0 0 0 0 0 0 0 0 0 10 2:1 6:1 8:1 30:1.7668381 45:0.68018049 50:2.1147511 65:0.86719686 67:0.64741099 
0 0 0 0 0 0 0 0 0 10 2:1 6:1 8:1 30:0.90455419 45:0.34822667 50:1.0826724 65:0.44397196 67:0.78838766 
0 0 0 0 0 0 0 0 0 10 2:1 6:1 8:1 30:0.64998335 45:0.25022441 50:0.77797341 65:1.0241796 67:0.56112593 
0 0 0 0 0 0 0 0 0 10 2:1 6:1 8:1 30:0.57360834 45:0.22082227 50:0.68655914 65:1.6036072 67:0.4951919 
0 0 0 0 0 0 0 0 0 10 2:1 6:1 8:1 30:0.34791103 45:0.13393548 50:0.41641912 65:1.6740925 67:0.30034909 
10 0 10 0 0 7.335012194786267 10 0 0 10 2:1 6:1 8:1 30:0.0025914942 45:0.021424225 50:0.0032970617 65:0.056085903 67:0.064567015 
10 0 10 0 0 10 10 0 0 10 2:1 6:1 8:1 45:0.021559512 65:0.053621538 67:0.056203384 
10 0 0 0 0 0 10 0 0 10 2:1 6:1 8:1 45:0.031948142 65:0.073151104 67:0.062341589 
10 0 0 0 0 10 10 0 0 10 2:1 6:1 8:1 20:4.0800736e-032 30:0.72767425 42:3.7495546e-035 50:1.3832121 58:0.14217536 67:0.46354991 
0 0 0 0 0 0 0 0 0 10 2:1 6:1 8:1 20:2.4724155e-032 30:0.44135675 42:2.27422e-035 50:0.83896053 58:0.086233713 67:0.74470711 
0 0 0 0 0 0 0 0 0 10 2:1 6:1 8:1 20:1.6992652e-032 30:0.30333978 50:0.57660866 58:0.059267506 67:0.97537917 
0 0 0 0 0 0 0 0 0 10 2:1 6:1 8:1 20:1.4980327e-032 30:0.26769638 50:0.50885534 58:0.052303392 67:1.324319 
0 0 0 0 0 0 0 0 0 6.477303157631694 2:1 6:1 8:1 20:1.7751179e-033 30:0.031971775 50:0.060774092 58:0.0062467493 67:0.98564053 
0 10 0 0 0 0 0 0 0 0 2:1 6:1 8:1 20:7.0017182e-034 30:0.020274382 50:0.03853891 58:0.0039612744 65:2.57289 67:1.0024706 
0 10 0 0 0 0 0 0 0 0 2:1 6:1 8:1 20:2.556289e-034 30:0.013934365 50:0.026487375 58:0.0027225416 65:2.4734755 67:0.68898731 
0 10 0 0 0 0 0 0 0 0 2:1 6:1 8:1 30:0.012297034 50:0.023375029 58:0.0024026346 65:2.8879902 67:0.60802919 
0 10 0 0 0 0 0 0 0 0 2:1 6:1 8:1 30:0.00957694 50:0.01820449 58:0.00093558681 65:2.9543247 67:0.47353357 
0 10 0 0 0 0 0 0 0 0 2:1 6:1 8:1 30:0.0058087073 50:0.011041582 65:2.4970441 67:0.28721264 
10 0 10 0 0 10 10 0 0 10 2:1 6:1 8:1 30:2.00781e-005 45:0.020408163 50:9.961127e-006 65:0.026676079 67:0.045302704 
0 10 0 0 0 0 0 0 0 0 2:1 6:1 8:1 45:0.22893055 65:2.6083162 67:0.99541605 
0 10 0 0 0 0 0 0 0 0 2:1 6:1 8:1 45:0.10813913 65:1.9372373 67:0.46999252 
10 0 10 0 0 10 10 0 0 10 2:1 6:1 8:1 45:0.023170108 65:0.0494783 67:0.050396625 
0 0 0 0 0 0 0 0 0 10 2:1 6:1 8:1 45:9.8800432e-005 65:0.71369284 67:0.0071008247 
0 10 0 0 0 0 0 0 0 10 2:1 6:1 8:1 45:5.9925493e-005 65:1.1380277 67:0.0043068682 
0 10 0 0 0 0 0 0 0 10 2:1 6:1 8:1 45:4.6670015e-005 65:1.5914524 67:0.0033492821 
0 10 0 0 0 0 0 0 0 0 2:1 6:1 8:1 45:4.1186147e-005 65:2.1096075 67:0.0029508215 
0 10 0 0 0 0 0 0 0 0 2:1 6:1 8:1 45:2.8252274e-005 65:2.3481197 67:0.002298102 
0 10 0 0 0 0 0 0 0 0 2:1 6:1 8:1 45:2.4932544e-005 65:2.7773643 67:0.0020246941 
0 10 0 0 0 0 0 0 0 0 2:1 6:1 8:1 45:2.2002894e-005 65:3.1561706 67:0.0017834118 
0 10 0 0 0 0 0 0 0 0 2:1 6:1 8:1 45:1.2413183e-006 65:1.5710994 67:0.41976684 
0 10 0 0 0 0 0 0 0 0 2:1 6:1 8:1 45:7.5289762e-007 65:1.6580758 67:0.25460067 
0 10 0 0 0 0 0 0 0 0 2:1 6:1 8:1 65:2.1684015 67:0.84698212 
0 10 0 0 0 0 0 0 0 0 2:1 6:1 8:1 65:2.6187632 67:0.74745798 
0 10 0 0 0 0 0 0 0 0 2:1 6:1 8:1 65:3.0162063 67:0.65962827 
0 10 0 0 0 0 0 0 0 0 2:1 6:1 8:1 30:0.63749999 65:2.4064083 67:0.52626705 
0 0 0 0 0 0 0 0 0 10 2:1 6:1 8:1 30:0.43947279 50:0.49798793 65:1.6589028 67:0.36279228 
0 0 0 0 0 0 0 0 0 10 2:1 6:1 8:1 30:0.40908137 50:0.46354991 65:1.5441827 67:0.80125237 
10 0 0 0 0 0 0 0 0 10 2:1 6:1 8:1 30:0.36101303 50:0.78981107 58:0.00099333806 67:0.46354991 
0 0 0 0 0 0 10 0 0 10 2:1 6:1 8:1 30:0.34226176 50:1.2467756 58:0.00093602698 67:0.43947279 
10 0 0 0 0 10 10 0 0 10 2:1 6:1 8:1 30:1.0756469 50:1.5960617 58:0.001180702 67:0.56259173 
0 0 0 0 0 0 0 0 0 10 2:1 6:1 8:1 30:0.60913342 50:0.90384156 58:0.00065586105 67:0.78214282 
0 0 0 0 0 0 0 0 0 10 2:1 6:1 8:1 30:0.81773794 50:1.2133725 58:0.00086105044 65:0.70515573 67:1.0499964 
0 0 0 0 0 0 0 0 0 10 2:1 6:1 8:1 30:0.63685501 50:0.94497538 58:0.00064858393 65:1.2543316 67:0.81773794 
0 0 0 0 0 0 0 0 0 10 2:1 6:1 8:1 30:0.56202251 50:0.83393788 58:0.00055037037 65:1.8120995 67:0.7216512 
0 0 0 0 0 0 0 0 0 10 2:1 6:1 8:1 30:0.49598315 50:0.73594755 58:0.00045368611 65:2.304328 67:0.63685501 
0 0 0 0 0 0 0 0 0 10 2:1 6:1 8:1 30:0.43770358 50:0.6494714 58:0.00036409998 65:2.738718 67:0.56202251 
0 10 0 0 0 0 0 0 0 10 2:1 6:1 8:1 30:0.38627207 50:0.57315648 58:0.00028504047 65:3.122066 67:0.49598315 
0 10 0 0 0 0 0 0 0 0 2:1 6:1 8:1 30:0.20675653 50:0.30678856 58:0.00013056827 65:2.3762772 67:0.26548064 
0 10 0 0 0 0 0 0 0 0 2:1 6:1 8:1 30:0.12540418 50:0.18607667 58:6.4071311e-005 65:2.1464407 67:0.16102216 
0 10 0 0 0 0 0 0 0 10 2:1 6:1 8:1 30:0.059236735 50:0.087896399 58:2.2170731e-005 65:1.7190624 67:0.07606148 
0 10 0 0 0 0 0 0 0 0 2:1 6:1 8:1 30:0.052276239 50:0.077560209 58:1.9565601e-005 65:2.222223 67:0.067124017 
0 10 0 0 0 0 0 0 0 0.9488119669087389 2:1 6:1 8:1 30:0.024693545 50:0.03663303 58:9.242136e-006 65:1.7548596 67:0.031707142 
0 10 0 0 0 0 0 0 0 0 2:1 6:1 8:1 30:0.02179198 50:0.032328531 58:4.3326268e-006 65:2.2538137 67:0.027981455 
0 10 0 0 0 0 0 0 0 0 2:1 6:1 8:1 30:0.01697161 50:0.025174512 58:3.3742529e-006 65:2.460428 67:0.02179198 
0 10 0 0 0 0 0 0 0 0 2:1 6:1 8:1 30:0.011664405 50:0.017302172 65:2.3961811 67:0.014977393 
0 10 0 0 0 0 0 0 0 0 2:1 6:1 8:1 30:0.010293802 50:0.015266791 65:2.8197782 67:0.013217503 
0 10 0 0 0 0 0 0 0 10 2:1 6:1 8:1 30:0.0033419081 50:0.0049554342 65:1.6206039 67:0.0042910948 
0 10 0 0 0 0 0 0 0 0 2:1 6:1 8:1 30:0.0029492236 50:0.0043723024 65:2.1353333 67:0.003786878 
0 10 0 0 0 0 0 0 0 0 2:1 6:1 8:1 30:0.0015786056 50:0.0023398076 65:1.8481175 67:0.0020269698 
0 10 0 0 0 0 0 0 0 0 2:1 6:1 8:1 30:0.0013931146 50:0.0020643552 65:2.3361132 67:0.0017887945 
0 10 0 0 0 0 0 0 0 0 2:1 6:1 8:1 30:0.00095747272 50:0.0014178426 65:2.3107421 67:0.0012294194 
0 10 0 0 0 0 0 0 0 0 2:1 6:1 8:1 30:0.00058073655 50:0.00085899828 65:2.1066914 67:0.00074568053 
0 10 0 0 0 0 0 0 0 0 2:1 6:1 8:1 30:0.0005124982 50:0.00063144544 65:2.5643044 67:0.00065806072 
0 10 0 0 0 0 0 0 0 0 2:1 6:1 8:1 30:0.00039913401 50:0.00038003028 65:2.7022381 67:0.0005124982 
0 10 0 0 0 0 0 0 0 0 2:1 6:1 8:1 30:6.7773683e-005 65:1.9070586 67:0.55345196 
0 10 0 0 0 0 0 0 0 0 2:1 6:1 8:1 65:1.7539556 67:0.47904348 
10 0 10 0 0 10 10 0 0 10 2:1 6:1 8:1 45:0.020408163 65:0.044382282 67:0.044967271 
0 10 0 0 0 0 0 0 0 0 2:1 6:1 8:1 45:0.15734151 65:2.1253762 67:0.68231851 
0 10 0 0 0 0 0 0 0 0 2:1 6:1 8:1 45:0.1388534 65:2.5805569 67:0.602144 
0 10 0 0 0 0 0 0 0 0 2:1 6:1 8:1 45:0.12253769 65:2.9821448 67:0.53139019 
10 0 10 0 0 10 10 0 0 10 2:1 6:1 8:1 45:0.023170108 65:0.067196131 67:0.029987436 
0 10 0 0 0 0 0 0 0 0 2:1 6:1 8:1 45:0.2024204 65:3.1278641 67:1.0162129 
0 10 0 0 0 0 0 0 0 0 2:1 6:1 8:1 45:0.2024204 65:3.83302 67:1.0133312 
10 0 10 0 0 10 10 0 0 10 2:1 6:1 8:1 45:0.023175437 65:0.05229304 67:0.047706619 
10 0 10 0 0 10 10 0 0 10 2:1 6:1 8:1 45:0.026184427 65:0.034614392 67:0.03859916 
0 0 0 0 0 0 0 0 0 10 2:1 6:1 8:1 45:0.012601695 65:0.76612926 67:0.26983458 
0 10 0 0 0 0 0 0 0 0 2:1 6:1 8:1 45:0.011120956 65:1.3812623 67:0.23768622 
0 0 0 0 0 0 0 0 0 10 2:1 6:1 8:1 45:0.00010902603 65:0.71869153 67:0.0023301935 
0 10 0 0 0 0 0 0 0 10 2:1 6:1 8:1 45:9.6215124e-005 65:1.3393934 67:0.0020563889 
10 0 0 0 0 0 0 0 0 10 2:1 6:1 8:1 45:2.2471939e-013 65:0.70515573 67:4.8028873e-012 
0 10 0 0 0 0 0 0 0 10 2:1 6:1 8:1 45:1.9831416e-013 65:1.3274535 67:4.2385331e-012 
0 0 0 0 0 0 0 0 0 10 2:1 6:1 8:1 45:3.041246e-014 65:0.90872735 67:6.5000007e-013 
0 10 0 0 0 0 0 0 0 10 2:1 6:1 8:1 45:2.0902159e-014 65:1.3297142 67:4.4673811e-013 
0 10 0 0 0 0 0 0 0 0 2:1 6:1 8:1 45:1.8446091e-014 65:1.8786244 67:3.9134581e-013 
0 10 0 0 0 0 0 0 0 0 2:1 6:1 8:1 45:1.6278618e-014 65:2.3630362 67:3.4246222e-013 
0 10 0 0 0 0 0 0 0 0 2:1 6:1 8:1 45:7.8808818e-015 65:2.1384096 67:2.0771384e-013 
0 10 0 0 0 0 0 0 0 0 2:1 6:1 8:1 45:6.1376372e-015 65:2.3705509 67:1.6021585e-013 
0 10 0 0 0 0 0 0 0 0 2:1 6:1 8:1 45:4.7799967e-015 65:2.5513422 67:1.2301778e-013 
0 10 0 0 0 0 0 0 0 0 2:1 6:1 8:1 45:4.2183321e-015 65:2.9567072 67:1.085628e-013 
0 10 0 0 0 0 0 0 0 0 2:1 6:1 8:1 45:4.2183321e-015 65:3.6618631 67:1.085628e-013 
0 10 0 0 0 0 0 0 0 0 2:1 6:1 8:1 45:2.8992144e-015 65:3.2219148 67:7.2621454e-014 
0 10 0 0 0 0 0 0 0 0 2:1 6:1 8:1 65:3.5484855 67:6.4088214e-014 
0 10 0 0 0 0 0 0 0 0 2:1 6:1 8:1 65:3.1439922 67:4.2054542e-014 
0 10 0 0 0 0 0 0 0 0 2:1 6:1 8:1 65:3.4797189 67:3.7113003e-014 
0 10 0 0 0 0 0 0 0 0 2:1 6:1 8:1 65:2.3488586 67:1.6589703e-014 
0 0 0 0 0 0 0 0 0 10 2:1 6:1 8:1 65:0.052835338 67:0.58441037 
0 0 0 0 0 0 0 0 0 10 2:1 6:1 8:1 65:0.036313158 67:0.86520892 
0 0 0 0 0 0 0 0 0 10 2:1 6:1 8:1 65:0.83137822 67:0.25935316 
0 10 0 0 0 0 0 0 0 0 2:1 6:1 8:1 65:1.4388415 67:0.22887836 
10 10 0 0 0 0 10 0 0 10 3:1 7:1 8:1 30:2.0680542 50:1.4967599 54:0.28624082 67:0.46354991 
10 10 0 0 0 0 10 0 0 10 3:1 7:1 8:1 30:2.2216938 50:2.1059451 54:0.3075062 67:0.49798793 
10 10 0 0 0 0 10 0 0 10 3:1 7:1 8:1 30:3.1474133 50:2.3791487 54:0.34739888 67:0.56259173 
10 10 0 0 0 0 10 0 0 10 3:1 7:1 8:1 30:1.7823644 50:1.3473001 54:0.1967285 67:0.78214282 
0 10 0 0 0 0 0 0 0 10 3:1 7:1 8:1 30:0.24121676 50:0.18233719 54:0.026624041 67:0.56940144 
0 10 0 0 0 0 0 0 0 10 3:1 7:1 8:1 30:0.32382414 50:0.24478061 54:0.035695162 65:0.70515573 67:0.76439935 
0 10 0 0 0 0 0 0 0 10 3:1 7:1 8:1 30:0.14630537 50:0.1105931 54:0.016103406 65:0.31859291 67:0.8089093 
0 10 0 0 0 0 0 0 0 0 3:1 7:1 8:1 30:0.19640929 50:0.14846693 54:0.02149158 65:1.1328543 67:1.0859294 
0 10 0 0 0 0 0 0 0 0 3:1 7:1 8:1 30:0.19640929 50:0.14846693 54:0.021348102 65:1.8380101 67:1.0859294 
0 10 0 0 0 0 0 0 0 0 3:1 7:1 8:1 30:0.1529637 50:0.11562617 54:0.015800266 65:2.1365995 67:0.84572268 
0 10 0 0 0 0 0 0 0 0 3:1 7:1 8:1 30:0.13498999 50:0.10203974 54:0.012883527 65:2.5906982 67:0.74634761 
0 10 0 0 0 0 0 0 0 0 3:1 7:1 8:1 30:0.11912825 50:0.090049751 54:0.0091253165 65:2.9914389 67:0.6586495 
0 10 0 0 0 0 0 0 0 0 3:1 7:1 8:1 30:0.056272198 50:0.04253649 54:0.0031091771 65:2.1182113 67:0.31112394 
0 0.7017260619953515 0 0 0 0 0 0 0 0 3:1 7:1 8:1 30:0.049660042 50:0.037538324 54:0.0015425219 65:2.5744705 67:0.27456594 
0 10 0 0 0 0 0 0 0 0 3:1 7:1 8:1 65:2.2169335 67:2.2391853 
0 0 0 0 0 0 0 0 0 10 3:1 7:1 8:1 65:0.75379753 67:0.025437262 
0 0 0 0 0 0 0 0 0 10 3:1 7:1 8:1 65:1.1499652 67:0.0072878981 
0 8.699943180636685 0 0 0 0 0 0 0 0 3:1 7:1 8:1 65:2.0446496 67:0.0049561122 
0 9.885708913876103 0 0 0 0 0 0 0 10 3:1 7:1 8:1 65:0.96965516 67:0.00045542701 
0 0 0 0 0 0 0 0 0 10 3:1 7:1 8:1 65:0.84098601 67:3.2991025e-005 
0 0 0 0 0 0 0 0 0 10 3:1 7:1 8:1 65:1.3601156 67:2.5693435e-005 
0 0 0 0 0 0 0 0 0 10 3:1 7:1 8:1 65:1.3476284 67:1.2136719e-005 
0 10 0 0 0 0 0 0 0 0 3:1 7:1 8:1 65:1.7546895 67:9.4520865e-006 
0 0 0 0 0 0 0 0 0 10 3:1 7:1 8:1 65:0.76519787 67:3.234326e-007 
0 7.992561006414067 0 0 0 0 0 0 0 0 3:1 7:1 8:1 65:1.653918 67:1.8669422e-007 
0 10 0 0 0 0 0 0 0 0 3:1 7:1 8:1 65:2.1647325 67:1.5527948e-007 
0 10 0 0 0 0 0 0 0 0 3:1 7:1 8:1 65:2.6155257 67:1.2629415e-007 
0 10 0 0 0 0 0 0 0 0 3:1 7:1 8:1 65:2.8858624 67:0.0013716546 
0 3.500159611994951 0 0 0 0 0 0 0 0 3:1 7:1 8:1 65:3.2517574 67:0.0012104809 
0 0.02640804020414843 0 0 0 0 0 0 0 0 3:1 7:1 8:1 65:3.4889596 67:0.00083195057 
0 9.119403156560075 0 0 0 0 0 0 0 0 3:1 7:1 8:1 65:3.7839887 67:0.00073419372 
0 8.121465652607171 0 0 0 0 0 0 0 0 3:1 7:1 8:1 65:4.0443306 67:0.00064792373 
0 9.21101998580515 0 0 0 0 0 0 0 0 3:1 7:1 8:1 65:3.854883 67:0.00026805012 
0 10 0 0 0 0 0 0 0 0 3:1 7:1 8:1 65:4.1070781 
0 9.629792209188658 0 0 0 0 0 0 0 0 3:1 7:1 8:1 65:2.9033537 
0 9.604405336328057 0 0 0 0 0 0 0 0 3:1 7:1 8:1 65:2.9661632 
0 8.478703493536003 0 0 0 0 0 0 0 0 3:1 7:1 8:1 65:2.4261463 
0 8.681759375133478 0 0 0 0 0 0 0 0 3:1 7:1 8:1 65:2.9346092 
0 8.775906179076644 0 0 0 0 0 0 0 0 3:1 7:1 8:1 65:3.2947958 
0 9.082473772495089 0 0 0 0 0 0 0 0 3:1 7:1 8:1 65:3.6124988 
0 10 0 0 0 0 0 0 0 0 3:1 7:1 8:1 65:3.0725377 
0 10 0 0 0 0 0 0 0 0 3:1 7:1 8:1 65:3.6748524 
0 6.556762968964621 0 0 0 0 0 0 0 0 3:1 7:1 8:1 65:3.2305384 
0 0.05909983706564426 0 0 0 0 0 0 0 0 3:1 7:1 8:1 65:3.5555956 
0 10 0 0 0 0 0 0 0 0 3:1 7:1 8:1 65:2.8613892 
0 10 0 0 0 0 0 0 0 0 3:1 7:1 8:1 65:2.6714137 
0 9.010491413769332 0 0 0 0 0 0 0 0 3:1 7:1 8:1 65:2.7567863 
0 10 0 0 0 0 0 0 0 0 3:1 7:1 8:1 65:2.557807 
0 10 0 0 0 0 0 0 0 0 3:1 7:1 8:1 65:2.2682085 
0 9.741695871643101 0 0 0 0 0 0 0 0 3:1 7:1 8:1 65:2.7067301 
0 10 0 0 0 0 0 0 0 0 3:1 7:1 8:1 65:3.0937099 
0 8.592824406751332 0 0 0 0 0 0 0 0 3:1 7:1 8:1 65:2.2132978 
0 10 0 0 0 0 0 0 0 0 3:1 7:1 8:1 65:2.6583073 
0 10 0 0 0 0 0 0 0 0 3:1 7:1 8:1 65:2.532105 
0 10 0 0 0 0 0 0 0 0 3:1 7:1 8:1 65:2.6770344 
0 10 0 0 0 0 0 0 0 0 3:1 7:1 8:1 65:2.1379926 
0 10 0 0 0 0 0 0 0 0 3:1 7:1 8:1 65:1.9762477 
0 10 0 0 0 0 0 0 0 0 3:1 7:1 8:1 65:2.4491472 
0 9.216808610609483 0 0 0 0 0 0 0 0 3:1 7:1 8:1 65:2.6125178 
0 10 0 0 0 0 0 0 0 0 3:1 7:1 8:1 65:3.0106528 
0 5.345833911428269 0 0 0 0 0 0 0 0 3:1 7:1 8:1 65:3.323432 
0 10 0 0 0 0 0 0 0 0 3:1 7:1 8:1 65:2.7208827 
0 9.544934091525574 0 0 0 0 0 0 0 0 3:1 7:1 8:1 65:2.8241448 
0 10 0 0 0 0 0 0 0 0 3:1 7:1 8:1 65:3.1974182 
0 9.842972605900297 0 0 0 0 0 0 0 0 3:1 7:1 8:1 65:3.1952672 
0 7.683900527733569 0 0 0 0 0 0 0 0 3:1 7:1 8:1 65:3.127754 
0 10 0 0 0 0 0 0 0 10 3:1 7:1 8:1 30:0.63749999 65:1.4405612 67:0.38666329 
0 10 0 0 0 0 0 0 0 10 3:1 7:1 8:1 30:0.43947279 50:0.49798793 65:0.99305296 67:0.26655373 
0 10 0 0 0 0 0 0 0 10 3:1 7:1 8:1 30:0.40908137 50:0.46354991 65:0.92432165 67:0.71167028 
0 9.932467736055131 0 0 0 0 0 0 0 10 3:1 7:1 8:1 30:1.1339855 50:0.56259173 65:1.1217333 67:0.86372542 
0 10 0 0 0 0 0 0 0 10 3:1 7:1 8:1 30:0.88582134 50:0.93746072 65:0.87618065 67:0.67470562 
0 0 0 0 0 0 0 0 0 10 3:1 7:1 8:1 30:0.78173459 50:1.3252941 65:0.77315724 67:0.59542561 
0 0 0 0 0 0 0 0 0 10 3:1 7:1 8:1 30:0.78173459 50:1.823282 65:0.77284515 67:0.59542561 
0 10 0 0 0 0 10 0 0 10 3:1 7:1 8:1 30:1.0754242 50:2.5082705 54:0.77629381 65:1.0627085 67:0.81912094 
10 4.599195377230405 0 0 0 0 10 0 0 10 3:1 7:1 8:1 14:9.0266131e-035 16:0.020243349 30:0.87654769 34:0.044125475 40:0.042264231 50:0.12606899 67:0.46354991 
10 0 0 0 0 0 10 0 0 10 3:1 7:1 8:1 14:1.0755291e-034 16:0.024568534 30:1.7013304 34:0.053553306 40:0.05129439 50:0.15300484 67:0.56259173 
10 0 0 0 0 0 0 0 0 10 3:1 7:1 8:1 14:9.8175853e-035 16:0.023982655 30:1.6607594 34:0.052276239 40:0.050071191 50:0.14935619 65:0.70515573 67:0.54917586 
10 0 0 0 0 0 0 0 0 10 3:1 7:1 8:1 14:4.6310322e-035 16:0.012278211 30:0.85024595 34:0.026763454 40:0.025634553 50:0.076464705 65:0.36101303 67:0.74470711 
0 0 0 0 0 0 0 0 0 10 3:1 7:1 8:1 14:3.9082291e-035 16:0.011328604 30:0.78448719 34:0.024693545 40:0.023651958 50:0.070550859 65:1.0382477 67:0.6871109 
0 10 0 0 0 0 0 0 0 10 3:1 7:1 8:1 14:1.8413146e-035 16:0.0060637644 30:0.41990572 34:0.013217503 40:0.01265998 50:0.037763152 65:1.2608898 67:0.36778396 
0 10 0 0 0 0 0 0 0 0 3:1 7:1 8:1 14:9.4372645e-036 16:0.0041675605 30:0.28859669 34:0.009084248 40:0.0087010693 50:0.025954213 65:1.5717517 67:0.25277397 
0 10 0 0 0 0 0 0 0 0 3:1 7:1 8:1 14:3.6463503e-036 16:0.0028643196 30:0.19834943 34:0.0062435064 40:0.0059801508 50:0.017838053 65:1.7854038 67:0.17372882 
0 10 0 0 0 0 0 0 0 0 3:1 7:1 8:1 16:0.0022307346 30:0.15447466 34:0.0048624473 40:0.0046573463 50:0.013892288 65:2.0956297 67:0.13530016 
0 10 0 0 0 0 0 0 0 0 3:1 7:1 8:1 16:0.0019686162 30:0.13632342 34:0.0042910948 40:0.0038063533 50:0.012259902 65:2.5545423 67:0.11940196 
0 10 0 0 0 0 0 0 0 0 3:1 7:1 8:1 16:0.00095747272 30:0.082684338 34:0.0026026806 40:0.0023086697 50:0.0074360059 65:2.254564 67:0.072420955 
0 10 0 0 0 0 0 0 0 0 3:1 7:1 8:1 16:0.00058073655 30:0.050150592 34:0.0015786056 40:0.0012568022 50:0.0045101661 65:2.072618 67:0.043925527 
0 10 0 0 0 0 0 0 0 0 3:1 7:1 8:1 16:0.00035223452 30:0.030417867 34:0.00095747272 40:0.00065054919 50:0.002735554 65:1.962262 67:0.026642181 
0 10 0 0 0 0 0 0 0 0 3:1 7:1 8:1 16:0.0001625806 30:0.02368946 34:0.00074568053 40:0.00050664821 50:0.0021304516 65:2.2333667 67:0.020748951 
0 0.3999647401003116 0 0 0 0 0 0 0 0 3:1 7:1 8:1 16:0.00014347689 30:0.020905873 34:0.00065806072 40:0.00033537555 50:0.0018801169 65:2.6760952 67:0.018310884 
0 8.690043445273311 0 0 0 0 0 0 0 0 3:1 7:1 8:1 16:6.7773683e-005 30:0.009875237 34:0.00031084588 40:9.8610129e-005 50:0.00088810432 65:1.9692537 67:0.0086494498 
0 10 0 0 0 0 0 0 0 0 3:1 7:1 8:1 30:0.0076908413 34:0.00024208703 40:7.6797638e-005 50:0.00069165631 65:2.238812 67:0.006736198 
0 10 0 0 0 0 0 0 0 0 3:1 7:1 8:1 30:0.0076908413 34:0.00024208703 50:0.00069165631 65:2.9439676 67:0.006736198 
0 3.020944779603669 0 0 0 0 0 0 0 0 3:1 7:1 8:1 30:0.005285833 34:9.8610129e-005 50:0.00042258578 65:3.3508108 67:0.0046297167 
0 0.0096631977685274 0 0 0 0 0 0 0 0 3:1 7:1 8:1 30:0.0041166111 50:0.00024208703 65:3.9370675 67:0.003605627 
0 9.846259186299761 0 0 0 0 0 0 0 0 3:1 7:1 8:1 30:0.0027422793 65:4.5825338 67:0.0024781087 
0 0.7053726456868845 0 0 0 0 0 0 0 0 3:1 7:1 8:1 65:2.2768333 67:1.9548422 
0 0.5640289116415813 0 0 0 0 0 0 0 0 3:1 7:1 8:1 65:2.037313 67:1.8732604 
0 0 0 0 0 0 0 0 0 10 3:1 7:1 8:1 65:0.0030401777 67:0.70846552 
0 0 0 0 0 0 0 0 0 10 3:1 7:1 8:1 65:1.0017933 67:0.076631367 
0 5.133445520132652 0 0 0 0 0 0 0 0 3:1 7:1 8:1 65:1.3576838 67:1.4867883 
0 3.394475294425262 0 0 0 0 0 0 0 0 3:1 7:1 8:1 65:2.7704747 67:2.2617004 
0 0 0 0 0 0 0 0 0 10 3:1 7:1 8:1 65:0.02023208 67:0.49516812 
0 0 0 0 0 0 0 0 0 10 3:1 7:1 8:1 65:0.00053916662 67:0.4907437 
0 0 0 0 0 0 0 0 0 10 3:1 7:1 8:1 65:1.9445383e-006 67:0.46746644 
0 0 0 0 0 0 0 0 0 10 3:1 7:1 8:1 65:1.738374e-011 67:0.46355882 
10 10 10 10 0 0 10 0 0 10 3:1 7:1 8:1 45:0.020408163 65:4.096534e-013 67:0.053222295 
10 10 0 0 0 0 10 0 0 10 3:1 7:1 8:1 45:0.031331867 65:0.010923703 67:0.077829845 
0 0 0 0 0 0 0 0 0 10 3:1 7:1 8:1 45:0.0047951965 65:0.0052110692 67:0.48129663 
0 10 0 0 0 0 0 0 0 0 3:1 7:1 8:1 45:0.0016276208 65:2.0566895 67:2.02195 
0 0 0 0 0 0 0 0 0 0.2649479892041681 3:1 7:1 8:1 45:0.00098720193 65:3.6087205 67:2.3978484 
10 10 0 0 0 10 10 0 0 10 2:1 6:1 8:1 30:0.993945 34:0.0019387382 40:0.0014377459 50:0.76115745 54:0.23050354 67:0.46354991 
10 10 0 0 0 0 10 0 0 10 2:1 6:1 8:1 30:0.60285813 34:0.0011759042 40:0.00079858222 50:0.46166536 54:0.13980745 67:0.74470711 
0 10 0 0 0 0 0 0 0 10 2:1 6:1 8:1 30:0.092451289 34:0.00018033074 40:9.5444062e-005 50:0.07079868 54:0.021440165 67:0.57775444 
0 10 0 0 0 0 0 0 0 10 2:1 6:1 8:1 30:0.063540779 34:0.00012393938 40:4.4552547e-005 50:0.048659164 54:0.014735596 67:0.86063439 
0 10 0 0 0 0 0 0 0 0 2:1 6:1 8:1 30:0.096658729 34:0.00018853755 40:6.7773683e-005 50:0.073967919 54:0.022415902 65:0.70515573 67:1.3092036 
0 10 0 0 0 0 0 0 0 0 2:1 6:1 8:1 30:0.075277895 34:0.00014683319 50:0.057606272 54:0.017457524 65:1.2543316 67:1.019609 
0 0 0 0 0 0 0 0 0 10 2:1 6:1 8:1 30:0.010187754 34:1.17773e-005 50:0.0077961613 54:0.0023626189 65:0.87491107 67:0.13798904 
0 0 0 0 0 0 0 0 0 10 2:1 6:1 8:1 30:0.0035847255 50:0.0027432048 54:0.00083132548 65:0.30785152 67:0.51210362 
0 0 0 0 0 0 0 0 0 10 2:1 6:1 8:1 30:0.0010737814 50:0.00081214664 54:0.00024901822 65:0.95471221 67:0.31073886 
0 10 0 0 0 0 0 0 0 0 2:1 6:1 8:1 30:0.0003950221 50:0.00027520157 54:7.3120835e-005 65:1.9184633 67:0.74135911 
0 10 0 0 0 0 0 0 0 0 2:1 6:1 8:1 30:0.00023959304 50:0.00016061423 54:4.4350028e-005 65:1.8687626 67:0.44965702 
0 10 0 0 0 0 0 0 0 0 2:1 6:1 8:1 30:0.00018659524 50:0.00011174107 54:3.4539837e-005 65:2.1605496 67:0.3501932 
0 10 0 0 0 0 0 0 0 0 2:1 6:1 8:1 30:0.00012824489 50:7.6798438e-005 54:1.3345429e-005 65:2.190078 67:0.24068406 
0 10 0 0 0 0 0 0 0 0 2:1 6:1 8:1 30:0.00011317573 50:5.7380952e-005 54:1.17773e-005 65:2.6378927 67:0.21240294 
0 0 0 0 0 0 0 0 0 10 2:1 6:1 8:1 30:1.1928634e-005 50:6.0479083e-006 65:0.98318768 67:0.022387102 
0 1.945464585207831 0 0 0 0 0 0 0 10 2:1 6:1 8:1 30:4.3882992e-006 50:1.7682456e-006 65:1.0668504 67:0.0082357554 
0 10 0 0 0 0 0 0 0 10 2:1 6:1 8:1 30:3.8726607e-006 50:1.1038157e-006 65:1.646648 67:0.0072680283 
0 10 0 0 0 0 0 0 0 0 2:1 6:1 8:1 30:2.613034e-006 50:8.5965257e-007 65:1.9875665 67:0.0056603462 
0 10 0 0 0 0 0 0 0 10 2:1 6:1 8:1 30:9.6128156e-007 50:1.6799416e-007 65:1.4363405 67:0.0020823248 
0 10 0 0 0 0 0 0 0 0 2:1 6:1 8:1 30:7.4864676e-007 65:1.823779 67:0.0016217162 
0 10 0 0 0 0 0 0 0 0 2:1 6:1 8:1 30:4.9268431e-007 65:2.3146346 67:0.0014311598 
0 10 0 0 0 0 0 0 0 0 2:1 6:1 8:1 30:2.4443005e-007 65:2.7478137 67:0.001262994 
0 0 0 0 0 0 0 0 0 10 2:1 6:1 8:1 65:0.93071008 67:0.00010367285 
0 10 0 0 0 0 0 0 0 10 2:1 6:1 8:1 65:1.3448226 67:7.1235532e-005 
0 10 0 0 0 0 0 0 0 10 2:1 6:1 8:1 65:1.6294383 67:4.8939357e-005 
0 10 0 0 0 0 0 0 0 0 2:1 6:1 8:1 65:2.1431296 67:4.3073374e-005 
0 10 0 0 0 0 0 0 0 0 2:1 6:1 8:1 65:2.5964611 67:3.7863865e-005 
0 10 0 0 0 0 0 0 0 0 2:1 6:1 8:1 65:2.9965246 67:3.3414741e-005 
0 10 0 0 0 0 0 0 0 0 2:1 6:1 8:1 65:3.7016802 67:3.3414741e-005 
0 10 0 0 0 0 0 0 0 0 2:1 6:1 8:1 65:3.9718757 67:2.9488405e-005 
0 10 0 0 0 0 0 0 0 10 2:1 6:1 8:1 65:1.7094033 67:6.9383777e-006 
0 10 0 0 0 0 0 0 0 0 2:1 6:1 8:1 65:2.2136981 67:6.1230971e-006 
0 10 0 0 0 0 0 0 0 0 2:1 6:1 8:1 65:2.6587367 67:4.9469586e-006 
0 10 0 0 0 0 0 0 0 0 2:1 6:1 8:1 65:3.0514817 67:4.3656755e-006 
0 0 0 0 0 0 0 0 0 10 2:1 6:1 8:1 65:0.83922845 67:1.0189361e-007 
0 10 0 0 0 0 0 0 0 10 2:1 6:1 8:1 65:1.4457726 
0 10 0 0 0 0 0 0 0 0 2:1 6:1 8:1 65:1.9810455 
0 10 0 0 0 0 0 0 0 0 2:1 6:1 8:1 65:2.2479951 
0 10 0 0 0 0 0 0 0 0 2:1 6:1 8:1 65:2.4558959 
0 10 0 0 0 0 0 0 0 0 2:1 6:1 8:1 65:2.6178091 
0 10 0 0 0 0 0 0 0 0 2:1 6:1 8:1 65:3.0153639 
0 10 0 0 0 0 0 0 0 0 2:1 6:1 8:1 65:3.3662052 
0 10 0 0 0 0 0 0 0 0 2:1 6:1 8:1 65:1.9435132 
0 10 0 0 0 0 0 0 0 0 2:1 6:1 8:1 65:2.2187655 
0 10 0 0 0 0 0 0 0 0 2:1 6:1 8:1 65:1.7532248 
0 10 0 0 0 0 0 0 0 0 2:1 6:1 8:1 65:1.910128 
0 10 0 0 0 0 0 0 0 0 2:1 6:1 8:1 65:2.1927648 
0 10 0 0 0 0 0 0 0 0 2:1 6:1 8:1 65:2.6402619 
0 10 0 0 0 0 0 0 0 0 2:1 6:1 8:1 65:2.740665 67:1.0338218 
0 10 0 0 0 0 0 0 0 0 2:1 6:1 8:1 65:2.36744 67:0.62704462 
0 10 0 0 0 0 0 0 0 0 2:1 6:1 8:1 65:2.7943969 67:0.55336493 
0 10 0 0 0 0 0 0 0 0 2:1 6:1 8:1 65:2.8814187 67:0.43096107 
0 10 0 0 0 0 0 0 0 0 2:1 6:1 8:1 65:3.2479844 67:0.3803218 
0 10 0 0 0 0 0 0 0 0 2:1 6:1 8:1 65:3.5714762 67:0.3356328 
0 10 0 0 0 0 0 0 0 0 2:1 6:1 8:1 65:2.071909 67:0.65826029 
10 0 10 0 0 10 10 0 0 10 2:1 6:1 8:1 45:0.020408163 65:0.08049874 67:0.025575152 
0 10 0 0 0 0 0 0 0 0 2:1 6:1 8:1 45:0.33309197 65:2.44663 67:0.84512359 
0 10 0 0 0 0 0 0 0 0 2:1 6:1 8:1 45:0.25941229 65:2.6105652 67:0.65818292 
0 10 0 0 0 0 0 0 0 0 2:1 6:1 8:1 45:0.22893055 65:3.008404 67:0.5808444 
0 10 0 0 0 0 0 0 0 0 2:1 6:1 8:1 45:0.1388534 65:3.1500149 67:1.2646446 
0 10 0 0 0 0 0 0 0 0 2:1 6:1 8:1 45:0.12253769 65:3.4842083 67:1.116045 
0 10 0 0 0 0 0 0 0 0 2:1 6:1 8:1 45:0.095432453 65:3.4179311 67:0.86917657 
0 10 0 0 0 0 0 0 0 0 2:1 6:1 8:1 45:0.065589696 65:3.0536954 67:0.59737581 
0 10 0 0 0 0 0 0 0 0 2:1 6:1 8:1 45:0.057882708 65:3.3986712 67:0.52718228 
0 10 0 0 0 0 0 0 0 0 2:1 6:1 8:1 45:0.051081311 65:3.7029302 67:0.46523666 
0 10 0 0 0 0 0 0 0 0 2:1 6:1 8:1 45:0.033579443 65:2.4320571 67:0.76938367 
0 10 0 0 0 0 0 0 0 0 2:1 6:1 8:1 45:0.045079097 65:3.9659054 67:1.0328677 
10 0 10 0 0 10 10 0 0 10 2:1 6:1 8:1 45:0.021424225 65:0.089268371 67:0.023280375 
0 10 0 0 0 0 0 0 0 0 2:1 6:1 8:1 45:0.44899243 65:3.195389 67:1.0291747 
0 10 0 0 0 0 0 0 0 0 2:1 6:1 8:1 45:0.34967566 65:3.1900272 67:0.80152208 
0 10 0 0 0 0 0 0 0 0 2:1 6:1 8:1 45:0.1871679 65:2.4104102 67:0.4290238 
0 0.4723632909179465 0 0 0 0 0 0 0 0 2:1 6:1 8:1 45:0.11352307 65:2.1623561 67:0.88251394 
10 0 10 0 0 10 10 0 0 10 2:1 6:1 8:1 45:0.020408163 65:0.020594349 67:0.061846301 
10 0 10 0 0 10 10 0 0 10 2:1 6:1 8:1 45:0.0262552 65:0.053526182 67:0.041068897 
0 5.281699511963326 0 0 0 0 0 0 0 0 2:1 6:1 8:1 45:0.13912152 65:1.7492845 67:0.58620369 
0 10 0 0 0 0 0 0 0 0 2:1 6:1 8:1 45:0.10834794 65:2.0671961 67:0.45653588 
0 10 0 0 0 0 0 0 0 0 2:1 6:1 8:1 45:0.095616721 65:2.5291464 67:1.0248857 
10 0 10 0 0 10 10 0 0 10 2:1 6:1 8:1 45:0.020529749 65:0.035226833 67:0.066922739 
10 0 10 0 0 10 10 0 0 10 2:1 6:1 8:1 45:0.028954947 65:0.053519022 67:0.048291214 
0 0 0 0 0 0 0 0 0 7.951639493081575 2:1 6:1 8:1 30:0.43947279 45:0.10820423 50:0.49798793 65:1.0653573 67:0.79225248 
10 0 9.627352949018759 10 0 0 10 0 0.2691013548295144 10 2:1 6:1 9:1 30:0.36101303 50:0.36101303 54:0.52927762 67:0.46354991 
10 8.584446662628295 0 10 0 0 10 0 0 10 2:1 6:1 9:1 30:0.38783339 50:0.88582134 54:0.56859869 67:0.49798793 
10 10 0 3.954952338293234 0 10 10 0 0 10 2:1 6:1 9:1 30:1.0756469 50:1.0007386 54:0.64236283 67:0.56259173 
10 10 0 0 0 0 10 0 0 10 2:1 6:1 9:1 30:1.0499964 50:0.97687447 54:0.62704462 65:0.70515573 67:0.54917586 
0.8228680795512335 10 0 0 0 0 10 0 0 10 2:1 6:1 9:1 30:0.92661858 50:0.86208868 54:0.55336493 65:1.3274535 67:0.48464599 
0 10 0 0 0 0 10 0 0 10 2:1 6:1 9:1 30:0.81773794 50:0.76079059 54:0.48834282 65:1.8766294 67:0.42769858 
0 0 0 0 0 0 10 0 0 10 2:1 6:1 9:1 30:0.47439358 50:0.44135675 54:0.28330189 65:1.0886873 67:0.71167028 
0 1.165055194323274 0 0 0 0 10 0 0 10 2:1 6:1 9:1 30:0.7216512 50:0.6713953 54:0.43096107 65:2.3612754 67:1.0825984 
0 0 0 0 0 0 0 0 0 10 2:1 6:1 9:1 30:0.47439358 50:0.44135675 54:0.28330189 65:1.5522373 67:1.1752203 
0 0 10 0 0 0 10 3.167677991000169 1.569696397653478 10 2:1 6:1 9:1 30:0.00049018976 50:0.00045605289 54:0.00029273517 65:0.001603923 67:0.46714577 
0 0 0 0 0 0 0 0 0 10 2:1 6:1 9:1 30:0.00038176018 50:0.00035517436 54:0.00022798238 65:0.0012491366 67:0.82736325 
0 0 0 0 0 0 0 0 0 10 2:1 6:1 9:1 30:0.00026237968 50:0.0002441075 54:0.00015668984 65:0.00085851812 67:1.0321879 
0 10 0 0 0 0 0 0 0 0 2:1 6:1 8:1 30:0.00010091688 50:9.3889015e-005 54:6.0266295e-005 65:2.5949254 67:0.65641403 
0 10 0 0 0 0 0 0 0 0 2:1 6:1 8:1 30:0.00010091688 50:9.3889015e-005 54:6.0266295e-005 65:3.300081 67:0.65641403 
0 10 0 0 0 0 0 0 0 0 2:1 6:1 8:1 30:8.9058834e-005 50:8.2856757e-005 54:5.318482e-005 65:3.6174672 67:0.5792833 
0 0 0 0 0 0 0 0 0 10 2:1 6:1 8:1 30:2.0944631e-006 50:1.9486042e-006 54:1.2507871e-006 65:0.79023045 67:0.013623438 
0 10 0 0 0 0 0 0 0 10 2:1 6:1 8:1 30:1.4395021e-006 50:1.3392548e-006 54:4.566555e-007 65:1.2482727 67:0.0093632424 
0 10 0 0 0 0 0 0 0 10 2:1 6:1 8:1 30:1.1210853e-006 50:1.0430127e-006 65:1.6773115 67:0.0072921002 
0 10 0 0 0 0 0 0 0 0 2:1 6:1 8:1 30:9.8935425e-007 50:5.1745849e-007 65:2.1853781 67:0.0064352565 
0 10 0 0 0 0 0 0 0 0 2:1 6:1 8:1 30:5.1745849e-007 50:4.566555e-007 65:2.6337452 67:0.0056790942 
0 10 0 0 0 0 0 0 0 0 2:1 6:1 8:1 30:3.5564364e-007 50:3.138544e-007 65:2.5153005 67:0.0039028663 
0 10 0 0 0 0 0 0 0 0 2:1 6:1 8:1 30:2.4443005e-007 65:2.4338946 67:0.0026823985 
0 10 0 0 0 0 0 0 0 0 2:1 6:1 8:1 65:2.3779457 67:0.0018435838 
0 10 0 0 0 0 0 0 0 0 2:1 6:1 8:1 65:3.0831008 67:0.0018435838 
0 10 0 0 0 0 0 0 0 0 2:1 6:1 8:1 65:2.8241382 67:0.0012670752 
0 10 0 0 0 0 0 0 0 0 2:1 6:1 8:1 65:2.9045968 67:0.00098679913 
0 10 0 0 0 0 0 0 0 0 2:1 6:1 8:1 65:2.9672575 67:0.00076840451 
0 10 0 0 0 0 0 0 0 0 2:1 6:1 8:1 65:2.7445199 67:0.00052811619 
0 10 0 0 0 0 0 0 0 0 2:1 6:1 8:1 65:1.8041717 67:0.46389705 
0 10 0 0 0 0 0 0 0 0 2:1 6:1 8:1 65:2.8425901 67:0.54958701 
0 0 0 0 0 0 0 0 0 10 2:1 6:1 8:1 65:1.8193458e-009 67:0.46354991 
0 0 0 0 0 0 0 0 0 10 2:1 6:1 8:1 65:1.6055668e-009 67:0.87263131 
0 10 0 0 0 0 0 0 0 0 2:1 6:1 8:1 65:2.5871639 67:0.82341355 
0 10 0 0 0 0 0 0 0 0 2:1 6:1 8:1 65:2.4832859 67:1.0505693 
0 0 0 0 0 0 0 0 0 10 3:1 7:1 8:1 17:2.8582048e-007 20:2.9116243e-006 67:0.46354991 
0 0 0 0 0 0 0 0 0 10 3:1 7:1 8:1 17:3.0705465e-007 20:3.1279305e-006 50:0.49798793 67:0.49798793 
10 10 0 0 0 0 0 0 0 10 3:1 7:1 8:1 17:3.9307648e-007 20:4.004221e-006 30:0.63749999 50:0.63749999 67:0.63749999 
0 0 0 0 0 0 0 0 0 10 3:1 7:1 8:1 17:2.2259724e-007 20:2.2675645e-006 30:0.36101303 50:0.36101303 67:0.82456291 
0 9.066475373997522 0 0 0 0 0 0 0 10 3:1 7:1 8:1 17:3.3861664e-007 20:3.4494267e-006 30:0.54917586 50:0.54917586 65:0.70515573 67:1.2543316 
0 10 0 0 0 0 0 0 0 0 3:1 7:1 8:1 17:2.9882813e-007 20:3.0440988e-006 30:0.48464599 50:0.48464599 65:1.3274535 67:1.1069437 
0 10 0 0 0 0 0 0 0 0 3:1 7:1 8:1 17:2.3272759e-007 20:2.3707339e-006 30:0.37744269 50:0.37744269 65:1.7389776 67:0.86208868 
0 10 0 0 0 0 0 0 0 0 3:1 7:1 8:1 17:1.2457011e-007 20:1.2688058e-006 30:0.20203051 50:0.20203051 65:1.6359634 67:1.0837406 
0 0 0 0 0 0 0 0 0 10 3:1 7:1 8:1 17:5.2349858e-009 20:5.3231261e-008 30:0.0084902132 50:0.0084902132 65:0.068750396 67:0.53872722 
10 10 10 10 0 0 10 0 0.3335144238134483 10 3:1 7:1 8:1 17:1.9869797e-011 20:2.7187091e-010 30:5.732233e-005 45:0.020408163 50:5.732233e-005 65:0.041637741 67:0.016897334 
0 8.820215651416095 0 0 0 0 0 0 0 0 3:1 7:1 8:1 20:5.9844356e-009 30:0.0013612708 45:0.48464599 50:0.0013612708 65:1.6939546 67:0.95044792 
0 8.399050032625182 0 0 0 0 0 0 0 0 3:1 7:1 8:1 20:3.6238141e-009 30:0.00089486188 45:0.31859291 50:0.00089486188 65:1.1135589 67:1.0883482 
0 3.438398512265511 0 0 0 0 0 0 0 0 3:1 7:1 8:1 20:4.3301407e-009 30:0.0012013173 45:0.42769858 50:0.0012013173 65:2.2000654 67:1.4610651 
10 10 10 0 0 0 10 0 0 10 3:1 7:1 8:1 20:4.8484258e-011 30:2.1087706e-005 45:0.027915906 50:2.1087706e-005 65:0.038619552 67:0.039673585 
0 10 0 0 0 0 0 0 0 0 3:1 7:1 8:1 20:5.3468863e-010 30:0.00064301881 45:0.8512283 50:0.00064301881 65:1.8827658 67:1.914906 
0 10 0 0 0 0 0 0 0 0 3:1 7:1 8:1 30:0.00037303392 45:0.49382231 50:0.00037303392 65:1.0922471 67:1.5744427 
10 10 0 0 0 0 10 0 0 10 3:1 7:1 8:1 30:0.36101303 34:2.3678713e-038 50:0.86113572 54:0.47439358 67:0.46354991 
10 10 0 0 0 0 10 0 0 10 3:1 7:1 8:1 30:0.34226176 34:2.2448822e-038 50:1.3143957 54:0.44975325 67:0.43947279 
10 10 0 0 0 0 10 0 0 10 3:1 7:1 8:1 30:1.0756469 34:2.8737893e-038 50:1.6826255 54:0.57575232 67:0.56259173 
10 10 0 0 0 0 10 0 0 10 3:1 7:1 8:1 30:0.92661858 34:2.4756325e-038 50:1.4495019 54:0.49598315 65:0.70515573 67:0.48464599 
0 10 0 0 0 0 0 0 0 10 3:1 7:1 8:1 30:0.60913342 34:1.6274125e-038 50:0.95286238 54:0.32604563 65:0.46354991 67:0.78214282 
0 10 0 0 0 0 0 0 0 10 3:1 7:1 8:1 30:0.7216512 34:1.9280246e-038 50:1.128873 54:0.38627207 65:1.2543316 67:0.92661858 
0 10 0 0 0 0 0 0 0 10 3:1 7:1 8:1 30:0.63685501 34:1.7014758e-038 50:0.99622703 54:0.34088391 65:1.8120995 67:0.81773794 
0 10 0 0 0 0 0 0 0 10 3:1 7:1 8:1 30:0.56202251 34:1.5015471e-038 50:0.8791672 54:0.30082899 65:2.304328 67:0.7216512 
0 10 0 0 0 0 0 0 0 10 3:1 7:1 8:1 30:0.30082899 34:8.037202e-039 50:0.47058433 54:0.16102216 65:1.9385737 67:0.38627207 
0 10 0 0 0 0 0 0 0 10 3:1 7:1 8:1 30:0.26548064 34:7.0928067e-039 50:0.41528919 54:0.14210156 65:2.4159408 67:0.34088391 
0 10 0 0 0 0 0 0 0 10 3:1 7:1 8:1 30:0.20675653 34:5.5238835e-039 50:0.32342753 54:0.11066879 65:2.5866923 67:0.26548064 
0 10 0 0 0 0 0 0 0 10 3:1 7:1 8:1 30:0.18246201 34:2.5895449e-039 50:0.28542382 54:0.09766487 65:2.9879036 67:0.23428586 
0 10 0 0 0 0 0 0 0 2.703518959068854 3:1 7:1 8:1 30:0.16102216 50:0.25188562 54:0.086188942 65:3.3419714 67:0.20675653 
0 10 0 0 0 0 0 0 0 0 3:1 7:1 8:1 30:0.093413636 50:0.14612618 54:0.050000712 65:1.9387751 67:0.58349538 
0 10 0 0 0 0 0 0 0 0 3:1 7:1 8:1 30:0.11066879 50:0.17311828 54:0.059236735 65:3.0020566 67:0.69127744 
0 10 0 0 0 0 0 0 0 0 3:1 7:1 8:1 30:0.072750613 50:0.11380319 54:0.038940594 65:1.9734695 67:0.9179765 
0 10 0 0 0 0 0 0 0 0 3:1 7:1 8:1 30:0.064202189 50:0.10043095 54:0.034364954 65:1.7415807 67:1.2736615 
0 10 0 0 0 0 0 0 0 0 3:1 7:1 8:1 30:0.056658231 50:0.088630006 54:0.030326966 65:1.5369395 67:1.5875522 
0 10 0 0 0 0 0 0 0 0 3:1 7:1 8:1 30:0.70626378 50:0.10756665 54:0.036806613 65:1.8653214 67:1.9267479 
0 10 0 0 0 0 0 0 0 0 3:1 7:1 8:1 30:0.48687643 50:0.57214105 54:0.025373342 65:1.2858949 67:1.3282405 
0 10 0 0 0 0 0 0 0 10 3:1 7:1 8:1 30:1.2607756 50:0.73242718 54:0.032481723 65:1.6461402 67:1.700349 
0 10 0 0 0 0 0 0 0 10 3:1 7:1 8:1 30:0.76701319 50:0.94357187 54:0.01976078 65:1.0014559 67:1.0344347 
0 10 0 0 0 0 0 0 0 10 3:1 7:1 8:1 30:0.15103383 50:0.6837883 54:0.0038911281 65:0.19719836 67:0.20369226 
10 10 0 0 0 0 10 0 0 10 3:1 7:1 8:1 30:0.8081274 50:0.77249587 54:0.0026053167 65:0.22278085 67:0.2301172 
10 10 0 0 0 0 10 0 0 10 3:1 7:1 8:1 30:1.3506699 50:0.67993468 54:0.002299184 65:0.19660343 67:0.20307773 
10 10 0 0 0 0 10 0 0 10 3:1 7:1 8:1 30:1.0550859 50:1.0291239 65:0.15357822 67:0.15863569 
10 10 0 0 0 0 0 0 0 10 3:1 7:1 8:1 30:0.67500216 50:0.65724367 65:0.098253258 67:0.56503874 
0 0 0 0 0 0 0 0 0 10 3:1 7:1 8:1 30:0.4639217 50:0.45070246 65:0.067528412 67:0.85189497 
0 0 0 0 0 0 0 0 0 10 3:1 7:1 8:1 30:1.2251192e-009 50:1.1928173e-009 65:1.7871889e-010 67:0.46354991 
10 10 10 10 1.711396502790193 0 10 0 0 10 3:1 7:1 8:1 30:4.2006083e-011 45:0.020408163 50:4.0764649e-011 65:6.1277953e-012 67:0.033904031 
0 10 0 0 0 0 0 0 0 0 3:1 7:1 8:1 30:1.4467947e-009 45:0.70515573 50:1.4085261e-009 65:0.70515573 67:1.1714736 
10 10 0 0 0 0 10 0 0 10 3:1 7:1 8:1 30:2.8778313e-011 45:0.034434475 50:2.8017106e-011 65:0.014026312 67:0.075746499 
0 7.099995757115001 0 0 0 0 0 0 0 0 3:1 7:1 8:1 30:8.7752527e-010 45:1.0499964 50:8.5431417e-010 65:1.1328543 67:2.3097069 
0 10 0 0 0 0 0 0 0 0 3:1 7:1 8:1 30:7.7441331e-010 45:0.92661858 50:7.5392953e-010 65:1.7048962 67:2.7434649 
0 10 0 0 0 0 0 0 0 0 3:1 7:1 8:1 30:4.1451362e-010 45:0.49598315 50:4.0354942e-010 65:1.617721 67:2.273612 
0 10 0 0 0 0 0 0 0 0 3:1 7:1 8:1 30:3.65807e-010 45:0.43770358 50:3.5613115e-010 65:2.1327894 67:2.0064557 
0 10 0 0 0 0 0 0 0 10 3:1 7:1 8:1 30:0.49798793 45:0.028751764 50:0.49798793 65:1.9677606 67:0.47406134 
0 10 0 0 0 0 0 0 0 0 3:1 7:1 8:1 30:0.40908137 45:0.023618665 50:0.40908137 65:1.6164531 67:0.85297626 
0 7.055942487640636 0 0 0 0 0 0 0 10 3:1 7:1 8:1 30:1.2000917 45:0.032481723 50:0.56259173 65:2.2230375 67:1.173061 
0 10 0 0 0 0 0 0 0 10 3:1 7:1 8:1 30:0.73009515 45:0.01976078 50:0.84024966 65:1.3524207 67:0.71365064 
0 10 0 0 0 0 0 0 0 10 3:1 7:1 8:1 30:0.64430672 45:0.017438825 50:1.2395056 65:1.1935072 67:0.62979448 
0 0 0 0 0 0 0 0 0 10 3:1 7:1 8:1 30:0.56859869 45:0.015389711 50:1.5918479 65:1.0532663 67:0.55090958 
10 0 0 0 0 0 0 0 0 10 3:1 7:1 8:1 30:0.098807633 45:0.0026743305 50:0.77460957 65:0.18303023 67:0.094772376 
0 0 0 0 0 0 10 0 0 10 3:1 7:1 8:1 30:0.08719743 45:0.0013987456 50:1.1815785 65:0.16152361 67:0.083636329 
0 0 3.468650266139971 0 0 0 10 0 0 10 3:1 7:1 8:1 30:0.059929859 45:0.00096134288 50:1.3100741 65:0.11035272 67:0.057482366 
10 0 0 0 0 0 10 0 0 10 3:1 7:1 8:1 30:0.697249 45:0.00095844246 50:1.3061216 65:0.1100198 67:0.056650206 
10 0 0 0 0 0 10 0 0 10 3:1 7:1 8:1 30:0.48066193 45:0.00066072063 50:1.3983878 65:0.075844236 67:0.038469821 
10 0 0 0 0 0 10 0 0 10 3:1 7:1 8:1 30:1.1805182 45:0.00074643572 50:1.5798002 65:0.085683502 67:0.042714059 
10 3.559137457661581 0 0 0 0 0 0 0 10 3:1 7:1 8:1 30:0.75753403 50:1.013752 65:0.054982781 67:0.49095938 
0 10 0 0 0 0 0 0 0 10 3:1 7:1 8:1 30:0.8974641 50:1.2010101 65:0.76965177 67:0.58164823 
0 10 0 0 0 0 0 0 0 10 3:1 7:1 8:1 30:0.52064496 50:0.69674087 65:0.44649741 67:0.80055833 
0 10 0 0 0 0 0 0 0 10 3:1 7:1 8:1 30:0.54433948 50:0.7284494 65:1.1715313 67:0.83699161 
0 10 0 0 0 0 0 0 0 10 3:1 7:1 8:1 30:0.12145855 50:0.16253902 65:0.96655965 67:0.18665946 
0 10 0 0 0 0 0 0 0 10 3:1 7:1 8:1 30:0.09459202 50:0.12658553 65:1.4579132 67:0.14528351 
0 0.341038176598096 0 0 0 0 0 0 0 0 3:1 7:1 8:1 30:0.05063146 50:0.067756347 65:1.4854437 67:0.07776466 
0 10 0 0 0 0 0 0 0 0 3:1 7:1 8:1 30:0.018626271 50:0.024926167 65:1.6289709 67:0.028608019 
0 10 0 0 0 0 0 0 0 0 3:1 7:1 8:1 30:0.012801638 50:0.017131489 65:2.4468422 67:0.019661983 
0 9.272572958594402 0 0 0 0 0 0 0 0 3:1 7:1 8:1 30:0.0012960979 50:0.0017033296 65:3.6850221 67:0.0020269698 
0 9.92573035647289 0 0 0 0 0 0 0 0 3:1 7:1 8:1 30:0.0011438024 50:0.0014620762 65:3.9571762 67:0.0017887945 
0 2.971739604426054 0 0 0 0 0 0 0 0 3:1 7:1 8:1 30:0.0010094021 50:0.0010815201 65:4.197351 67:0.0015786056 
0 6.783450234537635 0 0 0 0 0 0 0 0 3:1 7:1 8:1 30:0.00089079415 50:0.00074568053 65:4.4093056 67:0.0013931146 
0 9.019580925906444 0 0 0 0 0 0 0 0 3:1 7:1 8:1 30:0.0007861231 50:0.00039001059 65:4.596354 67:0.0012294194 
0 0.1342293759015184 0 0 0 0 0 0 0 0 3:1 7:1 8:1 30:0.00034418315 50:0.00030374058 65:4.2848001 67:0.00095747272 
0 10 0 0 0 0 0 0 0 0 3:1 7:1 8:1 65:2.2668986 67:6.7773683e-005 
0 9.691398774936227 0 0 0 0 0 0 0 0 3:1 7:1 8:1 65:2.0766015 
0 10 0 0 0 0 0 0 0 0 3:1 7:1 8:1 65:2.3223469 
0 10 0 0 0 0 0 0 0 0 3:1 7:1 8:1 65:2.5137246 
0 10 0 0 0 0 0 0 0 0 3:1 7:1 8:1 65:1.9744315 
0 6.079824370917583 0 0 0 0 0 0 0 0 3:1 7:1 8:1 65:1.4683189 
0 7.337508989808346 0 0 0 0 0 0 0 0 3:1 7:1 8:1 65:1.7299528 
0 9.340992118776686 0 0 0 0 0 0 0 0 3:1 7:1 8:1 65:2.3386395 
0 10 0 0 0 0 0 0 0 0 3:1 7:1 8:1 65:2.5264847 
0 10 0 0 0 0 0 0 0 0 3:1 7:1 8:1 65:2.2375433 
0 10 0 0 0 0 0 0 0 0 3:1 7:1 8:1 65:2.6845858 
0 10 0 0 0 0 0 0 0 0 3:1 7:1 8:1 65:2.7959096 
0 10 0 0 0 0 0 0 0 0 3:1 7:1 8:1 65:2.8826094 
0 10 0 0 0 0 0 0 0 0 3:1 7:1 8:1 65:2.461915 
0 2.674808461057741 0 0 0 0 0 0 0 0 3:1 7:1 8:1 65:1.9549119 67:1.1431558 
10 0 0 10 0 0 10 0 0 10 1:1 5:1 8:1 14:4.1923506e-010 16:8.8870473e-011 17:6.2522987e-010 20:1.1990484e-008 30:0.40908137 50:0.21896547 67:0.46354991 
10 0 0 0 0 0 10 0 0 10 1:1 5:1 8:1 14:5.7605626e-010 16:1.2221968e-010 17:8.598513e-010 20:1.6489993e-008 30:1.2000917 50:0.30113366 67:0.63749999 
0 0 0 0 0 0 10 0 0 10 1:1 5:1 8:1 14:2.8756567e-010 16:6.1079718e-011 17:4.2971376e-010 20:8.2409315e-009 30:0.59975016 50:0.15049262 67:0.78214282 
10 0 10 10 10 0 10 0 0 10 1:1 5:1 8:1 14:8.6888439e-012 16:1.8481789e-012 17:1.3002481e-011 20:2.4935798e-010 30:0.018147521 45:0.020408163 50:0.0045536766 67:0.023666445 
0 0 0 0 0 0 9.072475744652151 0 0 0 1:1 5:1 8:1 14:2.9973485e-010 16:6.3859446e-011 17:4.4926995e-010 20:8.6159764e-009 30:0.62704462 45:0.70515573 50:0.15734151 65:0.70515573 67:0.81773794 
0.04751569725617683 0 10 10 0 0 10 0 0 10 1:1 5:1 8:1 14:5.7824249e-012 16:1.2702336e-012 17:8.9364662e-012 20:1.7138109e-010 30:0.012472597 45:0.034434475 50:0.0031296932 65:0.014026312 67:0.0461859 
0 0 0 0 0 0 10 0 0 10 1:1 5:1 8:1 14:1.2233992e-011 16:3.4458818e-012 17:2.4242792e-011 20:4.6492168e-010 30:0.033835586 45:0.093413636 50:0.0084902132 65:0.10078515 67:0.58884275 
0 0 0 0 0 0 10 0 0 0 1:1 5:1 8:1 14:1.0796459e-011 17:2.1394189e-011 20:4.1029186e-010 30:0.0298598 45:0.082437247 50:0.0074925865 65:0.088942587 67:0.98320186 
0 0 0 10 0 0 10 0 0 10 1:1 5:1 9:1 14:1.4551447e-017 17:7.9728723e-017 20:1.5144638e-015 30:1.1127712e-007 45:3.07215e-007 50:2.7922272e-008 65:3.3145815e-007 67:0.46355864 
0 0 10 10 1.97874861082587 0 10 0 0.2384232361668915 10 1:1 5:1 9:1 17:3.5101219e-018 20:6.6675522e-017 30:4.899066e-009 45:0.020408176 50:1.2293008e-009 65:1.4592716e-008 67:0.020408545 
0 0 0 0 0 0 10 0 0 0 1:1 5:1 9:1 17:7.0360347e-017 20:1.2966534e-015 30:9.820171e-008 45:0.40908164 50:2.4641317e-008 65:0.40908167 67:0.87263906 
0 0 0 0 0 0 10 0 0 0 1:1 5:1 9:1 17:4.267571e-017 20:7.7361833e-016 30:5.9562353e-008 45:0.24812056 50:1.4945716e-008 65:0.24812056 67:0.9928323 
0 0 10 10 0 0 10 0 0 10 1:1 5:1 9:1 17:9.3212481e-019 20:2.8399056e-017 30:2.3141549e-009 45:0.030048301 50:5.8068056e-010 65:0.0096401405 67:0.079390474 
0 0 0 0 0 0 8.90550118872023 0 0 0 1:1 5:1 9:1 20:9.4887357e-017 30:1.0350384e-008 45:0.13439527 50:2.5971758e-009 65:0.16032065 67:1.3409402 
0 0 0 0 0 0 10 0 0 0 1:1 5:1 9:1 45:0.011533893 65:0.87745631 67:0.31870115 
0 0 0 0 0 0 5.628229084230967 0 0 0 1:1 5:1 9:1 45:0.010178623 65:1.479508 67:0.2812528 
0 0 0 0 0 0 10 0 0 0 1:1 5:1 9:1 45:0.0017687797 65:1.2584507 67:0.048874415 
0 0 0 0 0 0 10 0 0 0 1:1 5:1 9:1 45:0.00083551224 65:1.2996056 67:0.023086637 
0 0 0 10 0 0 10 0 0 10 1:1 5:1 9:1 45:7.228597e-006 65:0.71639955 67:0.00019973857 
0 0 0 0 0 0 10 0 0 0 1:1 5:1 9:1 45:6.3792149e-006 65:1.3373762 67:0.00017626864 
0 0 0 0 0 0 10 0 0 0 1:1 5:1 9:1 45:4.9681371e-006 65:1.7467053 67:0.00013727817 
0 0 0 0 0 0 10 0 0 0 1:1 5:1 9:1 45:3.4145473e-006 65:1.9056475 67:9.4349802e-005 
0 0 0 10 0 0 10 0 0 10 1:1 5:1 9:1 45:5.9335935e-007 65:1.0363076 67:1.6395534e-005 
0 0 0 0 0 0 10 0 0 0 1:1 5:1 8:1 45:3.9005806e-007 65:0.68123996 67:0.46356058 
10 0 0 0 0 0 10 0 0 10 1:1 5:1 8:1 30:2.0683141 50:1.8423713 65:0.70515573 67:0.54917586 
0 0 0 0 0 0 10 0 0 10 1:1 5:1 8:1 30:1.1998891 50:1.0688131 65:0.40908137 67:0.78214282 
0 0 0 0 0 0 10 0 0 10 1:1 5:1 8:1 30:1.2544959 50:1.1174546 65:1.1328543 67:0.81773794 
0 0 0 0 0 0 0 0 0 10 1:1 5:1 8:1 30:0.97700226 50:0.87027466 65:1.5874236 67:0.63685501 
0 0 0 0 0 0 0 0 0 4.820729884566375 1:1 5:1 8:1 30:0.86220151 50:0.76801461 65:2.1060522 67:0.56202251 
0 6.775422938299843 10 10 0 0 10 0 0 10 1:1 5:1 8:1 30:2.3895502e-005 45:0.020408163 65:0.00062207744 67:0.061463062 
0 0 10 10 0 0 10 0 0 10 1:1 5:1 8:1 45:0.022559168 65:0.03497424 67:0.023628706 
0 0.8801502226811021 0 0 0 0 0 0 0 0 1:1 5:1 8:1 45:0.45219824 65:0.70068222 67:1.3462684 
0 3.164397126520975 0 0 0 0 0 0 0 0 1:1 5:1 8:1 45:0.68788743 65:1.771039 67:2.0474532 
0 0.2017927540630022 0 0 0 0 0 0 0 0 1:1 5:1 8:1 45:0.35217234 65:0.90641439 67:1.5117685 
0 0 0 0 0 0 10 0 0 10 1:1 5:1 8:1 45:0.0076417387 65:1.0954133 67:0.032737792 
0 0 0 0 0 0 10 0 0 10 1:1 5:1 8:1 45:0.0019321343 65:1.1841501 67:0.0082522882 
0 0 0 0 0 0 10 0 0 0 1:1 5:1 8:1 45:0.0011208873 65:0.68695986 67:0.46832287 
0 9.24984815564836 0 0 0 0 0 0 0 0 1:1 5:1 8:1 45:0.00087294792 65:0.94408619 67:0.82825279 
0 0 10 10 0 0 10 0 0 10 1:1 5:1 8:1 45:0.020446595 65:0.041564174 67:0.036463786 
0 1.067839922361135 0 0 0 0 0 0 0 0 1:1 5:1 8:1 45:0.36169288 65:1.0962683 67:1.4695363 
0 0 0 10 0 0 10 0 0 10 1:1 5:1 8:1 45:0.030064719 65:0.057543993 67:0.057249062 
0 10 0 0 0 0 0 0 0 0 1:1 5:1 8:1 45:0.36552384 65:1.3415705 67:1.4781406 
0 10 0 0 0 0 0 0 0 0 1:1 5:1 8:1 45:0.28467023 65:1.0447326 67:1.614727 
0 9.936597720900403 0 0 0 0 0 0 0 0 1:1 5:1 8:1 45:0.33725393 65:1.9428694 67:1.9128692 
0 0 0 0 0 0 10 0 0 10 1:1 5:1 8:1 45:0.02061018 65:0.11879706 67:0.58051258 
0 0 0 0 0 0 3.574342357475638 0 0 0 1:1 5:1 8:1 45:0.018188419 65:0.10483804 67:0.97584063 
0 0 0 0 0 0 10 0 0 10 1:1 5:1 8:1 45:0.0055982098 50:0.49798793 65:0.60975927 67:0.30034584 
0 0 0 0 0 0 10 0 0 10 1:1 5:1 8:1 45:0.0049404027 50:0.93746072 65:0.53808498 67:0.26505426 
0 0 0 0 0 0 0 0 0 10 1:1 5:1 8:1 45:0.0048080403 50:0.91234457 65:1.2287965 67:0.25795299 
0 0 0 0 0 0 0 0 0 10 1:1 5:1 8:1 45:0.0029162241 50:0.55336493 65:1.4504334 67:0.1564564 
0 0.4565033911831962 0 10 0 0 10 0 0 10 1:1 5:1 9:1 20:0.0040104925 30:0.36101303 50:1.4935067 54:0.41220182 58:0.0035392472 67:0.46354991 
10 10 0 0.382595817425286 0 0 10 0 0 10 1:1 5:1 9:1 20:0.0048673726 30:1.0756469 50:1.8126086 54:0.50027263 58:0.0042954413 67:0.56259173 
10 4.279880903169168 0 10 0 0 10 0 0 10 1:1 5:1 9:1 20:0.0038021847 30:0.84024966 50:1.913921 54:0.39079177 58:0.0033554162 67:0.43947279 
0 10 0 0 0 0 10 0 0 10 1:1 5:1 9:1 20:0.0047513018 30:1.0499964 50:2.3916819 54:0.48834282 58:0.0041930093 65:0.70515573 67:0.54917586 
0 0 10 10 1.937392051834107 0 10 0 0 10 1:1 5:1 9:1 20:0.69610822 30:0.9093225 50:2.0712545 54:0.42291683 58:0.0036312486 65:0.61068207 67:0.47559971 
0 0 7.727252292457092 10 0 0 10 0 0 10 1:1 5:1 9:1 20:0.46630627 30:0.60913342 50:1.3874842 54:0.28330189 58:0.0024324867 65:0.40908137 67:0.78214282 
0 0 0 2.670672603364872 0 0 10 0 0 10 1:1 5:1 9:1 20:0.55244136 30:0.7216512 50:1.6437773 54:0.3356328 58:0.0028818103 65:1.1898017 67:0.92661858 
0 0 0 0 0 0 10 0 0 10 1:1 5:1 9:1 20:0.37968704 30:0.49598315 50:1.1297505 54:0.23067683 58:0.0019806372 65:1.5228937 67:0.63685501 
0 4.318788208386114 0 0 0 0 0 0 0 10 1:1 5:1 8:1 20:0.29570055 30:0.38627207 50:0.87985063 54:0.17965129 58:0.0015425219 65:1.8911866 67:0.49598315 
0 4.84722139362002 0 0 0 0 0 0 0 10 1:1 5:1 8:1 20:0.29570055 30:0.38627207 50:0.87985063 54:0.17965129 58:0.0015425219 65:2.5963423 67:0.49598315 
0 0 0 0 0 0 0 0 0 10 1:1 5:1 8:1 20:0.23029181 30:0.30082899 50:0.68402702 54:0.13991256 58:0.0012013173 65:2.7271891 67:0.38627207 
0 2.923327602646956 0 0 0 0 0 0 0 1.540325404473873 1:1 5:1 8:1 20:0.10878216 30:0.14210156 50:0.32311147 54:0.066090018 65:1.9933887 67:0.18246201 
0 10 0 0 0 0 0 0 0 0 1:1 5:1 8:1 20:0.048857801 30:0.064202189 50:0.14489713 54:0.0298598 65:1.6707174 67:0.95506859 
0 10 0 0 0 0 0 0 0 0 1:1 5:1 8:1 20:0.015861806 30:0.0208434 50:0.046665326 54:0.0096940575 65:0.71293294 67:0.77361524 
0 10 0 0 0 0 0 0 0 0 1:1 5:1 8:1 20:0.013997994 30:0.018394236 50:0.040955748 54:0.0085549755 65:0.62916124 67:1.1462631 
0 10 0 0 0 0 0 0 0 0 1:1 5:1 8:1 20:0.0096206712 30:0.012642161 50:0.026999421 54:0.005879743 65:0.43241575 67:1.2513642 
0 10 0 0 0 0 0 0 0 0 1:1 5:1 8:1 20:0.012915378 30:0.01697161 50:0.034265041 54:0.0078933267 65:1.2856572 67:1.6799079 
0 10 0 0 0 0 0 0 0 0 1:1 5:1 8:1 20:0.0084902132 30:0.011156667 50:0.020853069 54:0.0051888553 65:0.84515542 67:1.567875 
0 10 0 0 0 0 0 0 0 0 1:1 5:1 8:1 20:0.0078335721 30:0.010293802 50:0.017259639 54:0.0047875447 65:1.4849463 67:1.4466141 
0 10 0 0 0 0 0 0 0 0 1:1 5:1 8:1 65:3.9031413 67:0.0297492 
0 8.434216710339804 0 0 0 0 0 0 0 0 1:1 5:1 8:1 65:0.73463643 67:1.2191148 
0 10 0 0 0 0 0 0 0 0 1:1 5:1 8:1 65:1.6909347 67:1.6366144 
0 0.1223732675229501 0 0 0 0 0 0 0 0 1:1 5:1 8:1 65:2.0220571 67:1.8948989 
0 10 0 0 0 0 0 0 0 0 1:1 5:1 8:1 65:1.1730539 67:1.5619408 
0 0 0 0 0 0 10 0 0 0 1:1 5:1 8:1 65:0.1088612 67:0.89204067 
10 10 10 10 10 0 10 0 0 10 1:1 5:1 8:1 45:0.020408163 65:0.0012063286 67:0.015776763 
0 0.2206494244036235 0 0 0 0 0 0 0 0 1:1 5:1 8:1 45:0.46354991 65:0.49077284 67:0.82190239 
0 0.2161219370620949 0 0 0 0 0 0 0 0 1:1 5:1 8:1 45:0.40908137 65:0.43299863 67:1.1888763 
0 0.7101787675921674 10 10 0 0 10 0 0 10 1:1 5:1 8:1 45:0.036302056 65:0.01681844 67:0.046190973 
0 6.111704452267782 0 0 0 0 0 0 0 0 1:1 5:1 8:1 45:0.64217025 65:0.29740527 67:1.2806518 
0 1.014624250112115 0 0 0 0 0 0 0 0 1:1 5:1 8:1 45:0.76079059 65:1.05715 67:2.1395087 
10 0 10 10 5.412100715892797 0 10 0 0 10 1:1 5:1 8:1 45:0.025321113 65:0.040858384 67:0.013816282 
0 0.1299687371047812 0 0 0 0 0 0 0 0 1:1 5:1 8:1 45:0.21158305 65:0.94088775 67:1.3521192 
0 2.823572264705626 0 0 0 0 0 0 0 0 1:1 5:1 8:1 45:0.16478106 65:1.0937772 67:1.5163316 
0 0.7643345237860093 0 0 0 0 0 0 0 0 1:1 5:1 8:1 45:0.043559253 65:1.478801 67:2.2913871 
0 6.11811281752391 0 0 0 0 0 0 0 0 1:1 5:1 8:1 45:0.0096392389 65:0.79898077 67:1.017202 
0 0.3630380827000392 0 0 0 0 0 0 0 0 1:1 5:1 8:1 45:0.008506598 65:1.1678581 67:1.3604378 
0 0.8865145046288668 0 0 0 0 0 0 0 0 1:1 5:1 8:1 45:0.0053839306 65:1.544341 67:1.5260994 
0 2.182804143169299 0 0 0 0 0 0 0 0 1:1 5:1 8:1 45:0.0035392472 65:1.0152069 67:1.4661503 
0 8.600602510446816 0 0 0 0 0 0 0 0 1:1 5:1 8:1 45:0.00089486188 65:0.66556627 67:0.83407456 
0 0 10 10 0 0 10 0 0 10 1:1 5:1 8:1 45:0.02044756 65:0.029285673 67:0.036720809 
0 0.8528388032349862 0 0 0 0 0 0 0 0 1:1 5:1 8:1 45:0.55023605 65:1.4918957 67:1.6932988 
0 0.5365687260556065 0 0 0 0 0 0 0 0 1:1 5:1 8:1 45:0.36101303 65:0.98073089 67:1.5766779 
0 0.3881938994978693 0 0 0 0 0 0 0 0 1:1 5:1 8:1 45:0.31859291 65:0.86549193 67:1.8542664 
0 0 0 0 0 0 10 0 0 10 1:1 5:1 8:1 45:0.033579443 65:0.091222189 67:0.65890485 
0 0 0 3.498193958738362 0 0 10 0 0 10 1:1 5:1 8:1 45:0.00056746212 65:0.79211378 67:0.041444574 
0 0 0 0 0 0 10 0 0 10 1:1 5:1 8:1 20:0.00023786083 30:0.40908137 42:0.00026551296 50:1.055671 58:0.0011939728 67:0.46354991 71:4.6208017e-005 
10 0 0 0 0 0 10 0 0 10 1:1 5:1 8:1 20:0.00028868206 30:1.1339855 42:0.00032224235 50:1.2812252 58:0.0014490765 67:0.56259173 71:4.5433466e-005 
0 0 0 0 0 0 10 0 0 10 1:1 5:1 8:1 20:0.0001852462 30:0.72767425 42:0.00020678168 50:0.82215726 58:0.00091710238 67:0.82456291 71:2.9154486e-005 
10 0 10 10 0 0 10 0 0 10 1:1 5:1 8:1 20:4.9466303e-006 30:0.019431092 42:5.5216933e-006 45:0.020408163 50:0.021954073 58:2.4489391e-005 67:0.02201831 71:4.3766138e-007 
0 0 0 10 0 0 10 0 0 10 1:1 5:1 8:1 20:1.8675541e-006 30:0.011785552 42:2.2746212e-006 45:0.03278634 50:0.013315818 58:1.4512716e-005 65:0.012378177 67:0.073663302 
10 10 10 10 10 0 10 0 0 10 1:1 5:1 8:1 30:2.8639872e-007 45:0.020408958 50:3.2358545e-007 58:1.6763682e-010 65:1.9954973e-006 67:4.7330295e-006 
0 0 0 0 0 0 10 0 0 0 1:1 5:1 8:1 30:8.7330391e-006 45:0.62232208 50:9.8645623e-006 58:5.1116809e-009 65:0.70521659 67:0.00014432234 
0 0 0 0 0 0 10 0 0 0 1:1 5:1 8:1 30:5.0662898e-006 45:0.36102712 50:5.7227194e-006 58:1.5752668e-009 65:0.40911669 67:0.46363363 
0 0.1255489059982415 0 0 0 0 0 0 0 0 1:1 5:1 8:1 30:3.9456304e-006 45:0.28116819 50:4.4568583e-006 65:0.31862038 67:0.82462811 
0 0 10 10 0 0 10 0 0 10 1:1 5:1 8:1 30:1.053602e-007 45:0.027916199 50:9.7104099e-008 65:0.0085081225 67:0.072348423 
0 4.083204009031044 0 0 0 0 0 0 0 0 1:1 5:1 8:1 30:3.2127055e-006 45:0.85123724 50:2.208058e-006 65:0.96459043 67:2.2060909 
0 3.187580864031625 0 0 0 0 0 0 0 0 1:1 5:1 8:1 30:1.8637838e-006 45:0.49382749 50:7.2012489e-007 65:0.559587 67:1.7433676 
0 6.874065567396656 0 0 0 0 0 0 0 0 1:1 5:1 8:1 45:0.0019806372 65:3.6344833 67:0.030719921 
0 10 0 0 0 0 0 0 0 0 1:1 5:1 8:1 45:0.0017479063 65:3.9125764 67:0.025908915 
0 10 0 0 0 0 0 0 0 0 1:1 5:1 8:1 45:0.0015425219 65:4.1579924 67:0.021663221 
0 0 0 10 0 0 10 0 0 10 1:1 5:1 8:1 45:0.020408163 65:0.087217517 67:0.036643922 
0 10 0 0 0 0 0 0 0 0 1:1 5:1 8:1 45:0.36101303 65:1.5352968 67:1.9832499 
0 10 0 0 0 0 0 0 0 0 1:1 5:1 8:1 45:0.28115723 65:1.192151 67:2.0081065 
0 0.3469341875473949 0 0 0 0 0 0 0 0 1:1 5:1 8:1 45:0.17829129 65:1.9966578 67:2.0785494 
0 10 0 0 0 0 0 0 0 0 1:1 5:1 8:1 45:0.062734656 65:1.3795221 67:1.6040025 
0 0 0 10 0 0 10 0 0 10 1:1 5:1 8:1 45:0.020608237 65:0.07051938 67:0.046176016 
0 10 0 0 0 0 0 0 0 0 1:1 5:1 8:1 45:0.28115723 65:1.5660651 67:1.6979779 
0 4.069505321392618 0 0 0 0 0 0 0 0 1:1 5:1 8:1 30:0.63749999 45:0.028009795 65:3.2743812 67:0.65911478 
0 0 0 0 0 0 0 0 0 10 1:1 5:1 8:1 30:0.68987834 45:0.013270929 50:0.88582134 65:1.5338709 67:0.64744437 
0 0 0 0 0 0 10 0 0 10 1:1 5:1 8:1 30:0.36926526 45:0.0071034166 50:0.97213387 65:0.82102197 67:0.34224352 
0 0 0 0 0 0 10 0 0 10 1:1 5:1 8:1 30:0.32587546 45:0.006268743 50:1.355893 65:0.72024101 67:0.30202883 
0 0 0 0 0 0 10 0 0 10 1:1 5:1 8:1 30:1.0056511 45:0.007081985 50:1.5317926 65:0.80881011 67:0.34121096 
0 0 0 0 0 0 10 0 0 10 1:1 5:1 8:1 30:0.64532256 45:0.004544483 50:0.98294574 65:0.51901048 67:0.67849326 
0 0 0 0 0 0 10 0 0 10 1:1 5:1 8:1 30:1.5249841 50:1.3518023 65:0.71377242 67:0.93310213 
0 0 0 0 0 0 10 0 0 10 1:1 5:1 8:1 30:0.97857654 50:0.86744654 65:0.45802513 67:1.0583076 
0 0 0 2.02714894974465 0 0 10 0 0 10 1:1 5:1 8:1 30:0.091021806 50:0.080685094 65:0.042229939 67:0.56198782 
0 0 0 0 0 0 10 0 0 10 1:1 5:1 8:1 30:0.0011979402 50:0.0010618985 65:0.81809878 67:0.061701324 
0 0 0 0 0 0 10 0 0 0 1:1 5:1 8:1 30:0.00082333147 50:0.00072983152 65:1.2674016 67:0.04240666 
0 0 0 0 0 0 9.262232277807238 0 0 0 1:1 5:1 8:1 65:1.3326647 
0 1.51605056863017 0 10 0 0 10 0 0 10 1:1 5:1 8:1 65:0.02083439 67:0.46354991 
0 1.425187554833986 0 0 0 0 10 0 0 10 1:1 5:1 8:1 65:0.018386181 67:0.87263131 
0 0 10 10 0 0 10 0 0 10 1:1 5:1 8:1 45:0.020408163 65:0.01436372 67:0.048957143 
0 10 0 0 0 0 0 0 0 0 1:1 5:1 8:1 45:0.48464599 65:1.0462595 67:1.7849152 
0 6.494893879069775 0 0 0 0 0 0 0 0 1:1 5:1 8:1 45:0.48464599 65:1.7514141 67:2.4900706 
0 0 0 10 0 0 10 0 0 10 1:1 5:1 8:1 45:0.03278634 65:0.044732213 67:0.063598044 
0 6.667295248325283 0 0 0 0 0 0 0 0 1:1 5:1 8:1 45:0.65720177 65:0.8966555 67:1.738372 
0 2.416243318207603 0 0 0 0 0 0 0 0 1:1 5:1 8:1 45:0.88226783 65:1.9088788 67:2.3336966 
0 0 0 0 0 0 10 0 0 0 1:1 5:1 8:1 45:0.022488207 65:0.048654042 67:0.9448781 
0 7.585016728248434 0 0 0 0 0 0 0 0 1:1 5:1 8:1 45:0.020748951 65:1.3723352 67:2.126132 
0 5.111898743766376 0 0 0 0 0 0 0 0 1:1 5:1 8:1 45:0.0161593 65:1.7739158 67:2.278131 
0 0 0 0 0 0 10 0 0 10 1:1 5:1 8:1 45:0.00032077706 65:0.051074155 67:0.65206039 
0 0 0 0 0 0 10 0 0 10 1:1 5:1 8:1 45:3.8311355e-005 65:0.19008482 67:0.63267982 
0 10 0 0 0 0 10 0 0 0 1:1 5:1 8:1 30:0.63749999 45:2.2540407e-005 65:1.1803974 67:0.59800017 
0 10 0 0 0 0 5.773066697225899 0 0 0 1:1 5:1 8:1 30:0.40908137 45:1.4464095e-005 65:0.75745642 67:0.84727293 
0 0 0 0 0 0 10 0 0 10 2:1 6:1 8:1 16:0.012353186 30:0.40908137 34:0.078491554 40:0.077551097 50:1.4697706 67:0.46354991 
10 0 0 0 0 10 10 0 0 10 2:1 6:1 8:1 16:0.014992563 30:1.1339855 34:0.095262021 40:0.093906775 50:1.7838011 67:0.56259173 
0 0 0 0 0 0 0 0 0 10 2:1 6:1 8:1 16:0.012915378 30:0.97687447 34:0.08206369 40:0.080659658 50:1.5366596 65:0.70515573 67:0.48464599 
0 0 0 0 0 0 0 0 0 10 2:1 6:1 8:1 16:0.0074925865 30:0.56671333 34:0.047607534 40:0.046536632 50:0.89146084 65:0.40908137 67:0.74470711 
0 0 0 0 0 0 0 0 0 10 2:1 6:1 8:1 16:0.010058506 30:0.76079059 34:0.063911267 40:0.062083609 50:1.1967516 65:1.2543316 67:0.99974048 
0 0 0 0 0 0 0 0 0 10 2:1 6:1 8:1 16:0.0041930093 30:0.31714469 34:0.026642181 40:0.025643745 50:0.49888027 65:1.2280389 67:0.4167538 
0 0 0 0 0 0 0 0 0 10 2:1 6:1 8:1 16:0.0037003176 30:0.27987921 34:0.023511641 40:0.022393974 50:0.44026026 65:1.7888963 67:0.36778396 
0 0 0 0 0 0 0 0 0 10 2:1 6:1 8:1 16:0.0032655187 30:0.24699253 34:0.020748951 40:0.019418428 50:0.38852832 65:2.2838511 67:0.32456821 
0 10 0 0 0 0 0 0 0 10 2:1 6:1 8:1 16:0.0028818103 30:0.21797015 34:0.018310884 40:0.016792519 50:0.34287509 65:2.7206473 67:0.28643042 
0 10 0 0 0 0 0 0 0 0 2:1 6:1 8:1 16:0.0017479063 30:0.13220558 34:0.011106113 40:0.0098814368 50:0.20796424 65:2.3553119 67:0.17372882 
0 10 0 0 0 0 0 0 0 0 2:1 6:1 8:1 16:0.0012013173 30:0.090863474 34:0.0076331124 40:0.0063494658 50:0.14293158 65:2.3239362 67:0.11940196 
0 10 0 0 0 0 0 0 0 0 2:1 6:1 8:1 30:0.080186732 34:0.006736198 40:0.0056033842 50:0.12613668 65:2.7560225 67:0.10537186 
10 0 10 0 0 10 10 0 0 10 2:1 6:1 8:1 30:0.00085374259 34:7.1719827e-005 45:0.020408163 50:0.0013054578 65:0.063247211 67:0.055434078 
10 0 0 0 0 0 10 0 0 10 2:1 6:1 8:1 30:0.00035589281 45:0.028915551 50:0.00038426183 65:0.051315378 67:0.070076689 
0 10 0 0 0 0 0 0 0 0 2:1 6:1 8:1 45:0.030170459 65:1.7585952 67:0.19442394 
0 10 0 0 0 0 0 0 0 0 2:1 6:1 8:1 45:0.026625335 65:2.2560508 67:0.17157854 
0 10 0 0 0 0 0 0 0 0 2:1 6:1 8:1 45:0.020735832 65:2.460808 67:0.13362548 
0 10 0 0 0 0 0 0 0 10 2:1 6:1 8:1 45:0.0052428395 65:1.3268449 67:0.033785816 
0 10 0 0 0 0 0 0 0 0 2:1 6:1 8:1 45:0.0046267896 65:1.8755914 67:0.029815875 
0 10 0 0 0 0 0 0 0 0 2:1 6:1 8:1 45:0.003179943 65:1.9942296 67:0.019763498 
0 10 0 0 0 0 0 0 0 0 2:1 6:1 8:1 45:0.0021855407 65:2.0752676 67:0.013583242 
0 10 0 0 0 0 0 0 0 0 2:1 6:1 8:1 65:1.7724533 67:0.40872976 
3.044772129560888 0 0 0 0 0 0 0 0 10 2:1 6:1 8:1 65:0.70871669 67:0.003017606 
0 10 0 0 0 0 0 0 0 10 2:1 6:1 8:1 65:1.1350139 67:0.0018302705 
0 10 0 0 0 0 0 0 0 10 2:1 6:1 8:1 65:1.5891051 67:0.0014254162 
0 10 0 0 0 0 0 0 0 0 2:1 6:1 8:1 65:2.1075366 67:0.0012579254 
0 10 0 0 0 0 0 0 0 0 2:1 6:1 8:1 65:2.5650499 67:0.0011101151 
0 10 0 0 0 0 0 0 0 0 2:1 6:1 8:1 65:2.7028177 67:0.00086455874 
0 10 0 0 0 0 0 0 0 0 2:1 6:1 8:1 65:2.3444967 67:0.00052438135 
0 10 0 0 0 0 0 0 0 0 2:1 6:1 8:1 65:2.5310512 67:0.00040838853 
0 0 0 0 0 0 0 0 0 10 2:1 6:1 8:1 65:0.84794778 67:0.1421245 
0 0 0 0 0 0 0 0 0 10 2:1 6:1 8:1 65:0.33809078 67:0.5202173 
10 0 10 10 0.9324207647921079 10 10 10 10 10 2:1 6:1 8:1 45:0.020408163 65:0.013135725 67:0.020211812 
0 10 0 0 0 0 0 0 0 0 2:1 6:1 8:1 45:0.37744269 65:2.7601967 67:0.85845703 
0 10 0 0 0 0 0 0 0 0 2:1 6:1 8:1 45:0.29395264 65:2.854799 67:0.66856694 
0 10 0 0 0 0 0 0 0 0 2:1 6:1 8:1 45:0.1388534 65:2.0536675 67:0.31580865 
0 10 0 0 0 0 0 0 0 0 2:1 6:1 8:1 45:0.10813913 65:2.3045535 67:0.24595204 
0 10 0 0 0 0 0 0 0 0 2:1 6:1 8:1 45:0.084218845 65:2.4999433 67:0.19154763 
0 10 0 0 0 0 0 0 0 0 2:1 6:1 8:1 45:0.030982381 65:2.1094794 67:0.70732117 
0 10 0 0 0 0 0 0 0 0 2:1 6:1 8:1 65:2.5552998 67:0.98505491 
0 10 0 0 0 0 0 0 0 0 2:1 6:1 8:1 65:2.9594712 67:0.86930794 
0 10 0 0 0 0 0 0 0 0 2:1 6:1 8:1 65:3.3160539 67:0.76716161 
0 2.415195442292074 0 0 0 0 0 0 0 0 2:1 6:1 8:1 65:2.5559816 67:1.1127771 
0 10 0 0 0 0 0 0 0 0 2:1 6:1 8:1 65:2.6943948 67:0.86663151 
0 9.60354349397149 0 0 0 0 0 0 0 0 2:1 6:1 8:1 65:3.0068479 67:1.2627439 
10 0 10 0 0 10 10 0 0 10 2:1 6:1 8:1 45:0.020408163 65:0.052708052 67:0.036134966 
0 10 0 0 0 0 0 0 0 0 2:1 6:1 8:1 45:0.024129102 65:1.6220679 67:0.40532663 
0 10 0 0 0 0 0 0 0 0 2:1 6:1 8:1 45:0.010058506 65:1.3810976 67:0.16896528 
10 0 10 10 0 10 10 0 0 10 2:1 6:1 8:1 45:0.020634877 65:0.031129321 67:0.021805653 
10 0 0 0 0 0 6.300891080761379 0 0 10 2:1 6:1 8:1 45:0.021304835 65:0.09029559 67:0.067516901 
0 10 0 0 0 0 0 0 0 0 2:1 6:1 8:1 45:0.21090712 65:2.5959706 67:0.92642379 
0 10 0 0 0 0 0 0 0 0 2:1 6:1 8:1 45:0.11289044 65:2.0931361 67:0.49587888 
0 0 0 0 0 0 0 0 0 10 2:1 6:1 8:1 45:0.00025638222 65:0.012933145 67:0.47432539 
0 0 0 0 0 0 0 0 0 10 2:1 6:1 8:1 45:1.3345429e-005 65:0.77191329 67:0.10713118 
0 10 0 0 0 0 0 0 0 10 2:1 6:1 8:1 45:1.17773e-005 65:1.386363 67:0.094542943 
0 10 0 0 0 0 0 0 0 10 2:1 6:1 8:1 45:7.1432937e-006 65:1.5460242 67:0.057343192 
0 10 0 0 0 0 0 0 0 0 2:1 6:1 8:1 45:6.3039347e-006 65:2.0695167 67:0.050602216 
0 10 0 0 0 0 0 0 0 0 2:1 6:1 8:1 45:3.8235294e-006 65:1.9603815 67:0.030689748 
0 10 0 0 0 0 0 0 0 0 2:1 6:1 8:1 45:2.6278708e-006 65:2.0525033 67:0.021092737 
0 0 0 0 0 0 0 0 0 10 2:1 6:1 8:1 45:6.6982047e-008 65:0.052316401 67:0.46408758 
0 0 0 0 0 0 0 0 0 10 2:1 6:1 8:1 45:5.911145e-008 65:0.046169017 67:0.8731057 
0 10 0 0 0 0 0 0 0 0 2:1 6:1 8:1 65:2.1597025 67:0.7536853 
0 10 0 0 0 0 0 0 0 0 2:1 6:1 8:1 65:2.6110864 67:0.66512477 
0 6.274024955102859 0 0 0 0 0 0 0 0 2:1 6:1 8:1 65:3.316242 67:1.3702804 
0 10 0 0 0 0 0 0 0 0 2:1 6:1 8:1 65:3.2657337 67:1.315763 
0 10 0 0 0 0 0 0 0 0 2:1 6:1 8:1 65:3.5871553 67:1.1611434 
0 0 0 0 0 0 0 0 0 10 2:1 6:1 8:1 65:0.0085046263 67:0.46630281 
0 0 0 0 0 0 0 0 0 10 2:1 6:1 8:1 65:0.0066234097 67:0.82670677 
10 0 10 0 0 10 10 0 0 10 2:1 6:1 8:1 45:0.020408163 65:0.016120989 67:0.046355717 
0 10 0 0 0 0 0 0 0 0 2:1 6:1 8:1 45:0.25941229 65:2.7490311 67:0.92232883 
0 10 0 0 0 0 0 0 0 0 2:1 6:1 8:1 45:0.20203051 65:2.8461034 67:0.71827847 
0 10 0 0 0 0 0 0 0 0 2:1 6:1 8:1 45:0.045079097 65:2.8183844 67:1.1675934 
0 8.88219383401715 0 0 0 0 0 0 0 10 2:1 6:1 8:1 45:0.024129102 65:4.2973824 67:1.5372521 
10 0 0.8024549201917548 0 0 0 10 0 0 10 2:1 6:1 8:1 45:0.020888116 65:0.085478537 67:0.048296642 
0 0 0 0 0 0 0 0 0 10 2:1 6:1 8:1 45:0.002146662 65:0.011098527 67:0.47899762 
10 0 10 10 0 10 10 0 0 10 2:1 6:1 8:1 45:0.020481765 65:0.018382072 67:0.034433685 
10 0 10 0 0 10 10 0 0 10 2:1 6:1 8:1 45:0.032830983 65:0.047155499 67:0.067158446 
0 0 0 0 0 0 10 0 0 10 2:1 6:1 8:1 30:0.40908137 50:1.2793561 65:3.6319328e-013 67:0.46354991 
0 0 0 0 0 0 10 0 0 10 2:1 6:1 8:1 30:0.38783339 50:1.7108934 67:0.43947279 
10 0 0 0 0 0.5261783092679685 10 0 0 10 2:1 6:1 8:1 30:1.1339855 50:2.1902027 67:0.56259173 
0 0 0 0 0 0 0 0 0 10 2:1 6:1 8:1 30:0.64217025 50:1.2403007 67:0.78214282 
0 0 0 0 0 0 0 0 0 10 2:1 6:1 8:1 30:0.010379715 50:0.020047594 67:0.47619206 
10 0 10 0 0 10 10 0 0 10 2:1 6:1 8:1 30:0.0001483582 45:0.020408163 50:0.00028654208 65:0.044287201 67:0.042131238 
10 0 10 0 0 0 10 0 0 10 2:1 6:1 8:1 30:7.0079448e-005 45:0.030048296 50:0.00013535289 65:0.064463958 67:0.05992984 
0 10 0 0 0 0 0 0 0 0 2:1 6:1 8:1 30:0.00047680776 45:0.2044431 50:0.00077743933 65:2.0832219 67:0.60978216 
0 10 0 0 0 0 0 0 0 0 2:1 6:1 8:1 30:0.00037133822 45:0.15922044 50:0.00047885242 65:2.3275707 67:0.47489879 
0 10 0 0 0 0 0 0 0 0 2:1 6:1 8:1 30:0.00028919851 45:0.12400101 50:0.00027432051 65:2.5178697 67:0.36985153 
0 10 0 0 0 0 0 0 0 0 2:1 6:1 8:1 30:0.00022522802 45:0.096572079 50:0.0001266179 65:2.6660748 67:0.28804064 
0 10 0 0 0 0 0 0 0 0 2:1 6:1 8:1 30:8.7023131e-005 45:0.066372953 50:8.7023131e-005 65:2.5375197 67:0.19796731 
0 10 0 0 0 0 0 0 0 0 2:1 6:1 8:1 30:7.6797638e-005 45:0.058573924 50:7.6797638e-005 65:2.9445093 67:0.17463772 
0 10 0 0 0 0 0 0 0 0 2:1 6:1 8:1 30:3.6276637e-005 45:0.027668364 65:2.0960436 67:0.082493022 
0 10 0 0 0 0 0 0 0 0 2:1 6:1 8:1 45:0.016781712 65:1.9764705 67:0.050034549 
0 10 0 0 0 0 0 0 0 0 2:1 6:1 8:1 45:0.014809808 65:2.4493842 67:0.0441304 
0 10 0 0 0 0 0 0 0 0 2:1 6:1 8:1 45:0.013069609 65:2.8667305 67:0.037583675 
0 10 0 0 0 0 0 0 0 0 2:1 6:1 8:1 45:0.01153389 65:3.233675 67:0.033167474 
0 10 0 0 0 0 0 0 0 0 2:1 6:1 8:1 45:0.010178622 65:3.5588641 67:0.027908923 
0 10 0 0 0 0 0 0 0 0 2:1 6:1 8:1 45:0.0089826025 65:3.8446407 67:0.024629535 
0 10 0 0 0 0 0 0 0 0 2:1 6:1 8:1 45:0.0079271197 65:4.0980396 67:0.02037422 
0 10 0 0 0 0 0 0 0 0 2:1 6:1 8:1 45:0.0061736465 65:3.8955104 67:0.015867459 
0 10 0 0 0 0 0 0 0 0 2:1 6:1 8:1 45:0.004243081 65:3.3824985 67:0.0098453751 
0 10 0 0 0 0 0 0 0 0 2:1 6:1 8:1 45:0.0037445058 65:3.6892645 67:0.0086885132 
0 10 0 0 0 0 0 0 0 0 2:1 6:1 8:1 45:0.0019806372 65:3.5783577 67:0.0067666206 
0 10 0 0 0 0 0 0 0 0 2:1 6:1 8:1 45:0.0012013173 65:2.8755391 67:0.003536701 
0 10 0 0 0 0 0 0 0 0 2:1 6:1 8:1 45:0.00093558681 65:2.944186 67:0.0027543854 
0 10 0 0 0 0 0 0 0 0 2:1 6:1 8:1 45:0.00072863576 65:2.99809 67:0.0017031776 
0 10 0 0 0 0 0 0 0 0 2:1 6:1 8:1 45:0.00034418315 65:2.1210854 67:0.00080452417 
0 10 0 0 0 0 0 0 0 0 2:1 6:1 8:1 45:0.00030374058 65:2.5767386 67:0.00070999004 
0 10 0 0 0 0 0 0 0 0 2:1 6:1 8:1 45:0.00026805012 65:2.9791198 67:0.00039001059 
0 10 0 0 0 0 0 0 0 0 2:1 6:1 8:1 65:2.5120833 67:0.00023655339 
0 10 0 0 0 0 0 0 0 0 2:1 6:1 8:1 65:2.6615684 
0 10 0 0 0 0 0 0 0 0 2:1 6:1 8:1 65:2.5342801 
0 10 0 0 0 0 0 0 0 0 2:1 6:1 8:1 65:2.4466326 67:0.62229776 
0 10 0 0 0 0 0 0 0 0 2:1 6:1 8:1 65:2.4885507 67:0.9766323 
0 0 0 0 0 0 0 0 0 10 2:1 6:1 8:1 65:0.13423868 67:0.51624942 
0 0 0 0 0 0 0 0 0 10 2:1 6:1 8:1 65:0.78081524 67:0.082413979 
0 10 0 0 0 0 0 0 0 10 2:1 6:1 8:1 65:1.3942229 67:0.072728999 
0 10 0 0 0 0 0 0 0 0 2:1 6:1 8:1 65:1.9355519 67:0.064183101 
0 10 0 0 0 0 0 0 0 0 2:1 6:1 8:1 65:2.4132743 67:0.056640305 
0 10 0 0 0 0 0 0 0 10 2:1 6:1 8:1 65:1.5929494 67:0.020836804 
10 0 10 10 0 10 10 4.396989282109393 4.333255262716241 10 2:1 6:1 8:1 45:0.020408163 65:0.031685445 67:0.016308362 
10 0 10 0 0 10 10 0 0 10 2:1 6:1 8:1 45:0.031331867 65:0.048747793 67:0.038648121 
0 0 0 0 0 0 0 0 0 10 2:1 6:1 8:1 45:0.0042317463 65:0.031988457 67:0.759969 
0 3.078225117520341 0 0 0 0 0 0 0 0 2:1 6:1 8:1 30:0.63749999 45:0.00051301729 65:1.5761839 67:1.1396631 
10 0 0 0 0 0 0 0 0 10 2:1 6:1 8:1 30:1.586755 65:0.95576149 67:1.1291453 
10 1.143265044280029 0 0 0 0 10 0 0 10 2:1 6:1 8:1 30:2.0378063 65:0.84310389 67:0.99646699 
10 0 0 0 0 0 0 0 0 10 2:1 6:1 8:1 30:1.5918479 50:0.49798793 65:0.65859699 67:0.77808571 
10 0 0 0 0 4.690283486767886 10 0 0 10 2:1 6:1 8:1 30:2.4358578 50:0.56259173 65:0.74368399 67:0.87902653 
10 0 0 0 0 10 10 0 0 10 2:1 6:1 8:1 30:1.6792052 50:0.88582134 65:0.51267278 67:0.60573065 
10 0 0 0 0 10 10 0 0 10 2:1 6:1 8:1 30:2.7871368 50:1.1339855 65:0.65594631 67:0.77542692 
10 0 0 0 0 10 10 0 0 10 2:1 6:1 8:1 30:0.97037601 50:0.13543525 65:0.078341611 67:0.092563815 
10 0 0 0 0 10 10 0 0 10 2:1 6:1 8:1 30:0.66894728 50:0.59135282 65:0.053969007 67:0.063810639 
10 0 0 0 0 10 10 0 0 10 2:1 6:1 8:1 30:1.4938537 50:0.75702119 65:0.069088511 67:0.081639573 
10 0 0 0 0 10 10 0 0 10 2:1 6:1 8:1 30:1.9558213 50:0.66806883 65:0.060916323 67:0.072046682 
10 0 0 0 0 10 10 0 0 10 2:1 6:1 8:1 30:1.5278046 50:1.0198549 65:0.047585245 67:0.056225572 
10 0 0 0 0 10 10 0 0 10 2:1 6:1 8:1 30:0.97742879 50:0.65246272 65:0.030443147 67:0.49947625 
10 0 0 0 0 10 10 0 0 10 2:1 6:1 8:1 30:1.8237656 50:0.79186749 65:0.036947615 67:0.60607958 
10 0 0 0 0 0 9.787928867297229 0 0 10 2:1 6:1 8:1 30:1.1703036 50:0.50813842 65:0.023709146 67:0.85221249 
10 0 0 0 0 0 0 0 0 10 2:1 6:1 8:1 30:1.0327892 50:0.4484306 65:0.020923248 67:1.2152958 
0 0 0 0 0 0 0 0 0 10 2:1 6:1 8:1 30:0.62641835 50:0.2719869 65:0.012690593 67:1.199967 
10 0 3.34173166401215 0 0 0 0 0 3.470486684214744 10 2:1 6:1 8:1 16:0.040806863 30:0.36101303 34:0.25392461 40:0.15360969 50:0.86196065 67:0.46354991 
10 0 0 0 0 10 10 0 0 10 2:1 6:1 8:1 16:0.049525637 30:1.0756469 34:0.30817801 40:0.1861553 50:1.0461268 67:0.56259173 
10 0 0 0 0 0 0 0 0 10 2:1 6:1 8:1 16:0.028046118 30:0.60913342 34:0.17451966 40:0.10519254 50:0.59241635 67:0.78214282 
0 0 0 0 0 0 0 0 0 10 2:1 6:1 8:1 16:0.042663973 30:0.92661858 34:0.26548064 40:0.15951893 50:0.90118843 65:0.70515573 67:1.1898017 
0 0 0 0 0 0 0 0 0 10 2:1 6:1 8:1 16:0.033226736 30:0.7216512 34:0.20675653 40:0.12373269 50:0.70184624 65:1.2543316 67:0.92661858 
0 0 0 0 0 0 0 0 0 10 2:1 6:1 8:1 16:0.033226736 30:0.7216512 34:0.20675653 40:0.12316523 50:0.70184624 65:1.9594873 67:0.92661858 
10 0 10 2.626203504709292 0 10 10 0 0 10 2:1 6:1 8:1 16:0.0006609158 30:0.014354425 34:0.0041126115 40:0.0024334665 45:0.020408163 50:0.013960483 65:0.038976327 67:0.018431447 
0 0 0 0 0 0 0 0 0 10 2:1 6:1 8:1 65:3.2889881 67:3.286149 
10 0 10 0 0 10 10 0 0 10 2:1 6:1 8:1 45:0.020408163 65:0.056328908 67:0.048343658 
0 0 0 0 0 0 0 0 0 10 2:1 6:1 8:1 45:0.02307879 65:0.096680306 67:0.7713266 
0 0 0 0 0 0 0 0 0 10 2:1 6:1 8:1 45:0.0058352323 65:0.024168 67:0.79138106 
0 10 0 0 0 0 0 0 0 0 2:1 6:1 8:1 45:0.0028818103 65:1.7887893 67:0.64994079 
0 0 0 0 0 0 0 0 0 10 2:1 6:1 8:1 45:0.0006969191 65:0.43253925 67:0.62072748 
10 6.387276033998355 0 0 0 0 0 0 0 10 2:1 6:1 8:1 30:0.63749999 45:0.00065872725 65:0.40883556 67:0.58665705 
10 0 0 0 0 0 0 0 0 10 2:1 6:1 8:1 30:0.43947279 45:0.00045410622 50:0.49798793 65:0.2818386 67:0.40438098 
0 0 0 0 0 0 0 0 0 10 2:1 6:1 8:1 30:0.36101303 45:0.00037303392 50:0.40908137 65:0.23148221 67:0.79573607 
10 10 0 0 0 10 10 0 0 10 2:1 6:1 8:1 30:0.71419233 50:0.58891034 54:0.16853687 65:0.00052024494 67:0.4644222 
10 10 0 0 0 10 10 0 0 10 2:1 6:1 8:1 30:1.5042863 50:0.71473664 54:0.20454639 65:0.00063140021 67:0.56354928 
10 10 0 0 0 0 10 0 0 10 2:1 6:1 8:1 30:1.4684142 50:0.69769269 54:0.19966862 65:0.7057721 67:0.54999882 
10 10 0 0 0 0 0 0 0 10 2:1 6:1 8:1 30:0.85186976 50:0.4047519 54:0.11583358 65:0.40937412 67:0.78262025 
0 10 0 0 0 0 0 0 0 10 2:1 6:1 8:1 30:1.2958711 50:0.61571151 54:0.17620693 65:1.3278987 67:1.1904162 
0 10 0 0 0 0 0 0 0 10 2:1 6:1 8:1 30:0.61212611 50:0.29084158 54:0.083234265 65:1.3324106 67:0.562253 
0 10 0 0 0 0 0 0 0 10 2:1 6:1 8:1 30:0.32764751 50:0.15567626 54:0.044552092 65:1.4183439 67:0.30090579 
0 10 0 0 0 0 0 0 0 10 2:1 6:1 8:1 30:0.32764751 50:0.15567626 54:0.044552092 65:2.1234469 67:0.30090579 
0 10 0 0 0 0 0 0 0 0 2:1 6:1 8:1 30:0.28914788 50:0.13738383 54:0.039317083 65:2.5790379 67:0.26554841 
0 10 0 0 0 0 0 0 0 0 2:1 6:1 8:1 30:0.22514203 50:0.10699464 54:0.030620174 65:2.7137125 67:0.20680931 
0 10 0 0 0 0 0 0 0 0 2:1 6:1 8:1 30:0.079219848 50:0.037631389 54:0.010774201 65:0.95486343 67:0.53631914 
0 10 0 0 0 0 0 0 0 0 2:1 6:1 8:1 30:0.10634957 50:0.050518684 54:0.014463946 65:1.9870229 67:0.71996266 
0 1.857298120180065 0 0 0 0 0 0 0 0 2:1 6:1 8:1 30:0.061677903 50:0.02930736 54:0.0083909566 65:1.1527297 67:0.88122118 
0 2.215665542016545 0 0 0 0 0 0 0 0 2:1 6:1 8:1 30:0.017671015 50:0.0074568987 54:0.0023702397 65:0.3302626 67:2.0954382 
0 0.4989501176634172 0 0 0 0 0 0 0 0 2:1 6:1 8:1 30:0.0045838458 50:0.0010940139 65:0.09462183 67:2.3623171 
10 0 10 0 0 10 10 0 0 10 2:1 6:1 8:1 30:5.0586779e-005 45:0.020408163 65:0.0022297937 67:0.09651266 
0 10 0 0 0 0 0 0 0 0 2:1 6:1 8:1 30:0.0011490254 45:0.46354991 65:0.050647411 67:2.6547191 
10 0 10 0 0 10 10 0 0 10 2:1 6:1 8:1 45:0.021024436 65:0.013647503 67:0.057436686 
0 3.396920575659931 0 0 0 0 0 0 0 0 2:1 6:1 8:1 45:0.47754791 65:0.30998868 67:1.7670147 
0 0 0 0 0 0 0 0 0 10 2:1 6:1 8:1 45:0.00045528536 65:0.75569469 67:0.041026123 
0 10 0 0 0 0 0 0 0 10 2:1 6:1 8:1 45:0.00031291274 65:1.2245368 67:0.028191904 
0 10 0 0 0 0 0 0 0 10 2:1 6:1 8:1 45:0.00018979117 65:1.4478748 67:0.017095432 
0 10 0 0 0 0 0 0 0 0 2:1 6:1 8:1 45:0.00016749011 65:1.9829007 67:0.015082844 
0 0 0 0 0 0 0 0 0 10 2:1 6:1 8:1 45:7.1432937e-006 65:0.79227835 67:0.00066269375 
0 0 0 0 0 0 0 0 0 10 2:1 6:1 8:1 45:4.1440326e-006 65:0.45962372 67:0.46393427 
10 0 10 0 0 0 0 0 0.1798724270969701 10 2:1 7:1 9:1 65:0.70515573 
10 0 0 0 0 0 0 0 0 10 2:1 7:1 9:1 65:0.86249721 
10 0 0 0 0 0 0 0 0 0 2:1 7:1 9:1 65:1.4663069 
0.3677362072685698 0 0 0 0 0 0 0 0 0 2:1 7:1 9:1 65:1.159775 67:0.46354991 
10 0 0 0 0 0 10 0 0 10 2:1 7:1 9:1 30:0.36101303 50:1.2194577 54:0.35923427 67:0.46354991 
10 5.860393807185219 0 0 0 0 10 0 0 10 2:1 7:1 9:1 30:1.0756469 50:1.4800063 54:0.43598807 67:0.56259173 
10 0 0 0 0 0 10 0 0 10 2:1 7:1 9:1 30:0.60913342 50:0.83812028 54:0.24689785 67:0.78214282 
10 0 0 0 0 0 0 0 0 10 2:1 7:1 9:1 30:0.92661858 50:1.2749549 54:0.37558287 65:0.70515573 67:1.1898017 
10 0 0 0 0 0 0 0 0 10 2:1 7:1 9:1 30:0.56202251 50:0.77329934 54:0.22780257 65:1.1328543 67:0.7216512 
10 0 0 0 0 0 0 0 0 5.434121738156192 2:1 7:1 9:1 30:0.38627207 50:0.53148031 54:0.15656625 65:1.4837544 67:0.49598315 
0 10 0 0 0 0 0 0 0 10 3:1 7:1 8:1 30:0.22408767 50:0.30832723 54:0.09082865 65:0.86076909 67:0.75128418 
0 10 0 0 0 0 0 0 0 0 3:1 7:1 8:1 30:0.17451966 50:0.24012546 54:0.070737414 65:0.67036766 67:1.0486506 
0 10 0 0 0 0 0 0 0 0 3:1 7:1 8:1 30:0.26548064 50:0.36528072 54:0.10760631 65:1.7249242 67:1.5952156 
0 10 0 0 0 0 0 0 0 0 3:1 7:1 8:1 30:0.064202189 50:0.08833722 54:0.026022842 65:0.41714498 67:0.84932697 
0 10 0 0 0 0 0 0 0 0 3:1 7:1 8:1 30:0.056658231 50:0.077957325 54:0.022965077 65:0.36812916 67:1.2130783 
0 10 0 0 0 0 0 0 0 0 3:1 7:1 8:1 30:0.038940594 50:0.05357923 54:0.015783651 65:0.25301123 67:1.2972856 
0 10 0 0 0 0 0 0 0 0 3:1 7:1 8:1 30:0.030326966 50:0.041727543 54:0.012136818 65:0.19704531 67:1.473877 
0 5.772795786155055 0 0 0 0 0 0 0 10 3:1 7:1 8:1 30:0.00011435381 50:0.00015734194 54:4.5099834e-005 65:0.7058987 67:0.0055575436 
0 0 0 0 0 0 0 0 0 10 3:1 7:1 8:1 30:7.5173033e-005 50:0.00010343225 54:2.8599607e-005 65:0.46403837 67:0.46720332 
0 10 0 0 0 0 0 0 0 10 3:1 7:1 8:1 30:0.6375711 50:9.7764067e-005 54:2.4059871e-005 65:0.93509406 67:0.44160008 
0 10 0 0 0 0 0 0 0 10 3:1 7:1 8:1 30:0.43952176 50:0.49805531 54:1.5140811e-005 65:0.64462495 67:0.30442551 
0 10 0 0 0 0 0 0 0 10 3:1 7:1 8:1 30:0.36105326 50:0.40913671 54:1.0219557e-005 65:0.52953905 67:0.71362573 
2.246331519283648 0 0 0 0 0 0 0 0 10 3:1 7:1 8:1 30:1.0756958 50:0.49654925 54:1.2403062e-005 65:0.64268011 67:0.8660987 
10 10 0 0 0 0 0 0 0 10 3:1 7:1 8:1 30:0.6544168 50:0.80007166 54:5.4426746e-006 65:0.39098483 67:0.52690518 
10 0 0 0 0 0 0 0 0 10 3:1 7:1 8:1 30:0.35028407 50:0.92623538 54:1.6377627e-006 65:0.20927909 67:0.28203204 
0 0 0 0 0 0 0 0 0 10 3:1 7:1 8:1 30:0.27280149 50:1.2193396 54:1.2754908e-006 65:0.16298673 67:0.21964677 
0 0 0 0 0 0 10 0 0 10 3:1 7:1 8:1 30:0.21245804 50:1.4476105 65:0.12693419 67:0.17106107 
0 0 0 0 0 0 10 0 0 10 3:1 7:1 8:1 30:0.16546249 50:1.6253872 65:0.098856442 67:0.13322249 
10 0 10 0 0 0 10 0 2.251943348799581 10 3:1 7:1 8:1 30:0.036919672 50:0.86066043 65:0.022057854 67:0.029725954 
10 10 0 0 0 0 10 0 0 10 3:1 7:1 8:1 30:0.67430824 50:0.85806328 65:0.021991307 67:0.029636271 
10 0 0 0 0 0 10 0 0 10 3:1 7:1 8:1 30:0.41022587 50:1.0200045 65:0.013378765 67:0.018029701 
10 10 0 0 0 0 10 0 0 10 3:1 7:1 8:1 30:1.0464882 50:1.0169266 65:0.0133384 67:0.017975308 
10 10 0 0 0 0 10 0 0 10 3:1 7:1 8:1 30:1.4525058 50:0.79198325 65:0.010387956 67:0.013998769 
10 10 0 0 0 0 10 0 0 10 3:1 7:1 8:1 30:1.7687124 50:0.61679715 65:0.0080901487 67:0.010902251 
10 10 0 0 0 9.299698752551604 10 0 0 10 3:1 7:1 8:1 30:1.710278 50:0.37410641 65:0.0049069235 67:0.0066122673 
10 10 0 0 0 10 10 0 0 10 3:1 7:1 8:1 30:1.9694661 50:0.29135439 65:0.0038212948 67:0.0051496387 
10 10 0 0 0 0 10 0 0 10 3:1 7:1 8:1 30:1.4320718 50:0.21185459 65:0.0027783404 67:0.46729439 
10 0 0 0 0 0 0 0 0 10 3:1 7:1 8:1 30:0.98424762 50:0.14560537 65:0.0019092587 67:0.78471637 
10 0 0 0 0 0 0 0 0 10 3:1 7:1 8:1 30:0.67646283 50:0.100073 65:0.001312213 67:1.0028769 
0 0 0 0 0 0 0 0 0 10 3:1 7:1 8:1 30:0.10373895 50:0.015346693 65:0.19491155 67:0.72077775 
10 10 0 0 0 0 10 0 0 10 3:1 7:1 8:1 30:0.0016779531 45:0.020408163 50:0.00024603945 65:0.037743714 67:0.063437082 
0 6.85958680821 0 0 0 0 0 0 0 0 3:1 7:1 8:1 30:0.039770652 45:0.48464599 50:0.0057442496 65:1.6014804 67:2.2116373 
0 10 0 0 0 0 0 0 0 0 3:1 7:1 8:1 30:0.035097476 45:0.42769858 50:0.0049067014 65:2.1184573 67:1.9517634 
10 10 0 0 0 0 0 0 0 10 3:1 7:1 8:1 30:0.00079108134 45:0.030048296 50:5.732233e-005 65:0.047749072 67:0.098304063 
0 0.642343725477793 0 0 0 0 0 0 0 0 3:1 7:1 8:1 30:0.0094881337 45:0.38194999 65:1.3121039 67:1.5435154 
0 6.521141384572116 0 0 0 0 0 0 0 0 3:1 7:1 8:1 45:0.014809808 65:2.0330634 67:0.059269689 
0 9.766810894568398 0 0 0 0 0 0 0 0 3:1 7:1 8:1 45:0.005448224 65:2.1633425 67:0.021660624 
0 1.543895388274801 0 0 0 0 0 0 0 0 3:1 7:1 8:1 65:2.7686894 67:2.3430228 
0 0 0 0 0 0 0 0 0 7.593914185972089 3:1 7:1 8:1 65:1.335044 67:0.017048027 
0 0 0 0 0 0 0 0 0 10 3:1 7:1 8:1 65:0.51267147 67:0.49426174 
0 5.403376269977974 0 0 0 0 0 0 0 0 3:1 7:1 8:1 65:1.4855081 67:1.1740592 
0 0 0 0 0 0 0 0 0 10 3:1 7:1 8:1 65:0.25921807 67:0.46405339 
0 0 0 0 0 0 0 0 0 10 3:1 7:1 8:1 65:0.052927189 67:0.52210379 
0 10 0 0 0 0 0 0 0 0 3:1 7:1 8:1 65:1.4309713 67:1.2477183 
10 10 0 0 0 0 10 0 0 10 3:1 7:1 8:1 45:0.020408163 65:0.066482924 67:0.051324021 
0 10 0 0 0 0 0 0 0 0 3:1 7:1 8:1 45:0.36101303 65:1.1760588 67:1.3713591 
0 10 0 0 0 0 0 0 0 0 3:1 7:1 8:1 45:0.42769858 65:2.0984535 67:1.624547 
0 10 0 0 0 0 0 0 0 0 3:1 7:1 8:1 45:0.15734151 65:2.2317629 67:2.4470601 
0 10 0 0 0 0 0 0 0 0 3:1 7:1 8:1 45:0.1388534 65:2.6676047 67:2.7818205 
10 10 0 0 0 0 0 0 0 10 3:1 7:1 8:1 45:0.023537856 65:0.079671733 67:0.10111929 
0 4.594903696177083 0 0 0 0 0 0 0 0 3:1 7:1 8:1 45:0.47181603 65:1.5873984 67:2.4904845 
0 10 0 0 0 0 0 0 0 0 3:1 7:1 8:1 45:0.38417327 65:1.9888088 67:2.0278621 
0 3.606533992859334 0 0 0 0 0 0 0 0 3:1 7:1 8:1 45:0.29919446 65:2.2451649 67:1.5793008 
0 9.113317738719154 0 0 0 0 0 0 0 0 3:1 7:1 8:1 45:0.07235533 65:1.4212424 67:0.84028929 
0 0 0 0 0 0 0 0 0 10 3:1 7:1 8:1 45:0.0076261959 65:0.14937519 67:0.61437148 
0 10 0 0 0 0 0 0 0 0 3:1 7:1 8:1 45:0.0069131032 65:2.1873138 67:1.9682062 
0 1.589207029434912 0 0 0 0 0 0 0 0 3:1 7:1 8:1 45:0.0017479063 65:2.007664 67:1.8963075 
0 0 0 0 0 0 0 0 0 10 3:1 7:1 8:1 65:0.50207394 67:0.48630649 
10 10 0 0 0 0 10 0 0 10 3:1 7:1 8:1 30:0.79857737 50:0.83170491 54:0.155082 67:0.46354991 
10 10 0 0 0 0 10 0 0 10 3:1 7:1 8:1 30:1.6067009 50:1.0094066 54:0.18821675 67:0.56259173 
10 10 0 0 0 0 0 0 0 10 3:1 7:1 8:1 30:0.90986663 50:0.57162184 54:0.1065862 67:0.78214282 
0 10 0 0 0 0 0 0 0 10 3:1 7:1 8:1 30:0.33472127 50:0.21028794 54:0.039210871 67:0.75128418 
0 10 0 0 0 0 0 0 0 10 3:1 7:1 8:1 30:0.29539046 50:0.18557844 54:0.034603469 67:1.1265559 
0 10 0 0 0 0 0 0 0 0 3:1 7:1 8:1 30:0.21225803 50:0.13335067 54:0.024864938 65:0.70515573 67:0.80950665 
0 10 0 0 0 0 0 0 0 0 3:1 7:1 8:1 30:0.13953257 50:0.087661058 54:0.016345521 65:0.46354991 67:0.9956972 
0 10 0 0 0 0 0 0 0 0 3:1 7:1 8:1 30:0.18731706 50:0.11768155 54:0.021943228 65:1.3274535 67:1.3366848 
0 10 0 0 0 0 0 0 0 0 3:1 7:1 8:1 30:0.10866807 50:0.068270497 54:0.012729906 65:0.77009439 67:1.2389997 
0 10 0 0 0 0 0 0 0 0 3:1 7:1 8:1 30:0.16530673 50:0.10385361 54:0.019364832 65:1.8766294 67:1.884776 
0 10 0 0 0 0 0 0 0 0 3:1 7:1 8:1 30:0.14588268 50:0.091650493 54:0.017089404 65:2.3612754 67:1.663309 
0 10 0 0 0 0 0 0 0 0 3:1 7:1 8:1 30:0.128741 50:0.080881275 54:0.015081347 65:2.788974 67:1.4678651 
0 10 0 0 0 0 0 0 0 0 3:1 7:1 8:1 30:0.07808537 50:0.049056973 54:0.0091472985 65:2.396754 67:0.8903051 
0 10 0 0 0 0 0 0 0 0 3:1 7:1 8:1 30:0.068910092 50:0.043292623 54:0.0080724629 65:2.8202837 67:0.7856915 
0 10 0 0 0 0 0 0 0 0 3:1 7:1 8:1 30:0.060812943 50:0.038205605 54:0.0071239229 65:3.1940472 67:0.69337034 
0 10 0 0 0 0 0 0 0 0 3:1 7:1 8:1 30:0.031133926 50:0.019559825 54:0.0031044178 65:2.0443127 67:0.81852931 
0 10 0 0 0 0 0 0 0 10 3:1 7:1 8:1 30:0.46246052 50:0.51168126 54:0.0010893442 65:1.8972504 67:0.60436052 
0 10 0 0 0 0 0 0 0 0 3:1 7:1 8:1 30:0.43047935 50:0.47540137 54:0.0010140113 65:1.7660471 67:1.0261163 
0 10 0 0 0 0 0 0 0 10 3:1 7:1 8:1 30:1.1599554 50:0.57697546 65:2.1433802 67:1.2453557 
0 10 0 0 0 0 0 0 0 10 3:1 7:1 8:1 30:0.90610796 50:0.94639051 65:1.6743175 67:0.97281909 
0 0 0 0 0 0 0 0 0 10 3:1 7:1 8:1 30:0.17790866 50:0.68434328 65:0.32969263 67:0.19155942 
10 10 0 0 0 0 0 0 0 10 3:1 7:1 8:1 30:0.83848864 50:0.77254158 65:0.37246361 67:0.21641041 
10 10 0 0 0 0 10 0 0 10 3:1 7:1 8:1 30:0.57802826 50:1.0301002 65:0.25676489 67:0.14918664 
0 10 0 0 0 0 0 0 0 10 3:1 7:1 8:1 30:0.47440922 50:0.84619474 65:0.21092424 67:0.58610195 
10 0 0 0 0 0 0 0 0 10 3:1 7:1 8:1 30:1.2899344 50:1.1631534 65:0.29007491 67:0.80604047 
10 10 10 10 0 0 10 0 0 10 3:1 7:1 8:1 30:0.032133047 45:0.020408163 50:0.028999276 65:0.0072320323 67:0.020095881 
0 2.02968804928943 0 0 0 0 0 0 0 0 3:1 7:1 8:1 30:0.5678069 45:0.36101303 50:0.51298672 65:0.95249498 67:0.81770629 
0 9.976376687465269 0 0 0 0 0 0 0 0 3:1 7:1 8:1 30:0.76225877 45:0.48464599 50:0.68866467 65:1.9838433 67:1.0948571 
0 10 0 0 0 0 0 0 0 0 3:1 7:1 8:1 30:0.5010879 45:0.31859291 50:0.45270917 65:1.3041238 67:1.1811321 
10 10 10 0 0 0 10 0 0 10 3:1 7:1 8:1 30:0.01718097 45:0.031331867 50:0.015522192 65:0.044559117 67:0.040497873 
0 10 0 0 0 0 0 0 0 0 3:1 7:1 8:1 30:0.24746919 45:0.45129415 50:0.22357671 65:1.3444277 67:1.0657202 
0 0.3524849234108657 0 0 0 0 0 0 0 0 3:1 7:1 8:1 30:0.21839081 45:0.39826569 50:0.19730572 65:1.8916092 67:0.93795151 
0 1.205936393548245 0 0 0 0 0 0 0 0 3:1 7:1 8:1 30:0.076844312 45:0.14013618 50:0.069425195 65:1.84407 67:1.2026647 
0 10 0 0 0 0 0 0 0 0 3:1 7:1 8:1 30:0.067814872 45:0.12366976 50:0.061267518 65:2.0863569 67:1.5248977 
0 10 0 0 0 0 0 0 0 0 3:1 7:1 8:1 30:0.059846409 45:0.10913818 50:0.054068394 65:2.3019969 67:1.8068349 
0 0 0 0 0 0 0 0 0 10 3:1 7:1 8:1 30:0.0032000947 45:0.0061571542 50:0.0028506597 65:0.12986979 67:0.70857251 
0 0 0 0 0 0 0 0 0 10 3:1 7:1 8:1 65:0.0058870022 67:0.66084099 
0 0 0 0 0 0 0 0 0 10 3:1 7:1 8:1 65:0.2621676 67:0.62778765 
0 0 0 0 0 0 0 0 0 10 3:1 7:1 8:1 65:0.72061867 67:0.068010606 
0 0 0 0 0 0 0 0 0 10 3:1 7:1 8:1 65:0.064110331 67:0.46960044 
0 0 0 0 0 0 0 0 0 10 3:1 7:1 8:1 65:0.71239316 67:0.0091763511 
0 0 0 0 0 0 0 0 0 10 3:1 7:1 8:1 65:0.79023898 67:0.0010959589 
0 8.382616818443957 0 0 0 0 0 0 0 10 3:1 7:1 8:1 65:1.0345763 67:0.00045686352 
0 0 0 0 0 0 0 0 0 10 3:1 7:1 8:1 65:0.071682215 67:0.46358153 
0 0 0 0 0 0 0 0 0 10 3:1 7:1 8:1 65:0.70598829 67:0.01148509 
0 0 0 0 0 0 0 0 0 10 3:1 7:1 8:1 65:0.71808636 67:0.00021035675 
0 0 0 0 0 0 0 0 0 10 3:1 7:1 8:1 65:0.71830791 67:3.8528187e-006 
0 0 0 0 0 0 0 0 0 10 3:1 7:1 8:1 65:0.71831203 67:7.0566841e-008 
0 0 0 0 0 0 0 0 0 10 3:1 7:1 8:1 65:0.1533004 67:0.46354991 
0 0 0 0 0 0 0 0 0 10 3:1 7:1 8:1 65:0.020746952 67:0.59737223 
0 0 0 0 0 0 0 0 0 10 3:1 7:1 8:1 65:0.10536174 67:0.567972 
0 0 -0 -0 0 0 0 0 0 10 3:1 7:1 8:1 65:0.7051596 67:4.0413488e-005 
0 0 0 0 0 0 0 0 0 10 3:1 7:1 8:1 65:0.71807116 67:7.401988e-007 
0 0 0 0 0 0 0 0 0 10 3:1 7:1 8:1 65:0.008645718 67:0.46354991 
0 0 0 0 0 0 0 0 0 10 3:1 7:1 8:1 65:8.7581924e-008 67:0.46355996 
0 0 0 0 0 0 0 0 0 10 3:1 7:1 8:1 65:1.5219458e-008 67:0.63538295 
0 0 0 0 0 0 0 0 0 10 3:1 7:1 8:1 65:9.0498199e-011 67:0.47800112 
0 0 0 0 0 0 0 0 0 10 3:1 7:1 8:1 65:5.1055592e-012 67:0.52015066 
0 0 0 0 0 0 0 0 0 10 3:1 7:1 8:1 65:3.6984543e-013 67:0.53928 
0 0 0 0 0 0 0 0 0 10 3:1 7:1 8:1 65:6.4269499e-014 67:0.64854103 
0 0 0 0 0 0 0 0 0 10 3:1 7:1 8:1 65:0.15049262 67:0.65637439 
0 0 0 0 0 0 0 0 0 10 3:1 7:1 8:1 65:0.033579443 67:0.72721058 
0 0 0 0 0 0 0 0 0 10 3:1 7:1 8:1 65:0.0024324867 67:0.55934572 
10 10 0 0 0 0 0 0 0 10 3:1 7:1 8:1 30:0.63749999 65:0.002299184 67:0.52869302 
0 0 0 0 0 0 0 0 0 10 3:1 7:1 8:1 30:0.40908137 65:0.0014753777 67:0.80281025 
-10 10 0 0 0 0 10 0 0 10 2:1 6:1 8:1 30:1.0241632 45:0.095201798 50:0.93463242 65:0.93610734 67:1.1316681 
-10 10 0 0 0 0 10 0 0 10 2:1 6:1 8:1 30:1.6616633 45:0.095201798 50:0.93463242 65:0.93610734 67:1.1290628 
-10 10 0 0 0 0 0 0 0 10 2:1 6:1 8:1 30:1.6453497 45:0.057742808 50:0.56688321 65:0.56777775 67:0.68251199 
-10 0 0 0 0 0 0 0 0 10 2:1 6:1 8:1 30:1.0535095 45:0.014599669 50:0.14333051 65:0.14355671 67:0.17190734 
-10 0 0 0 0 0 0 0 0 10 2:1 6:1 8:1 30:0.89002651 45:0.0023687412 50:0.023254836 65:0.022197518 67:0.49016649 
-0 0 0 0 0 0 0 0 0 10 2:1 6:1 8:1 30:1.216194 45:0.00084838213 50:0.50978881 65:0.010910686 67:0.24842758 
-10 0 0 0 0 0 0 0 0 10 2:1 6:1 8:1 30:0.9990651 45:0.0006969191 50:0.41877544 65:0.0085400809 67:0.66762531 
-9.546688192607531 0 0 0 0 0 0 0 0 10 2:1 6:1 8:1 30:1.8500247 45:0.00084582251 50:0.50825077 65:0.0096183158 67:0.81026983 
-10 0 0 0 0 0 0 0 0 10 2:1 6:1 8:1 30:1.7148228 50:0.8483603 65:0.0066305692 67:0.55799192 
-0 0 0 0 0 10 0 0 0 0 2:1 6:1 8:1 30:2.3471491 50:0.84580088 65:0.0066105649 67:0.55564976 
-10 0 10 0 0 10 10 0 0 10 2:1 6:1 8:1 30:0.63750046 50:1.7782402e-007 65:1.3898276e-009 67:1.1668319e-007 
-0 0 0 0 0 0 0 0 0 10 2:1 6:1 8:1 30:0.82154 50:2.4065866e-008 65:1.668541e-010 67:1.5770112e-008 
-10 0 0 0 0 10 10 0 0 10 2:1 6:1 8:1 30:0.65263611 50:2.3593344e-010 65:1.0654733e-012 67:1.5460473e-010 
-0 0 0 0 0 0 0 0 0 10 2:1 6:1 8:1 30:0.76539665 50:2.1945227e-011 67:1.4380483e-011 
-10 0 10 0 0 10 10 0 0 10 2:1 6:1 8:1 30:0.63759834 50:1.4496251e-015 67:9.4545913e-016 
-10 0 0 0 0 10 10 0 0 10 2:1 6:1 8:1 30:0.65948194 50:2.3325994e-017 67:1.5176911e-017 
-10 0 0 0 0 10 10 0 0 10 2:1 6:1 8:1 30:0.63933343 50:3.0790593e-020 67:2.0136428e-020 
-10 0 0 0 0 10 10 0 0 10 2:1 6:1 8:1 30:0.63785571 50:8.0443057e-024 67:5.260814e-024 
-10 0 10 0 0 10 10 0 0 10 2:1 6:1 8:1 30:0.63750213 50:1.249683e-029 67:8.1726762e-030 
-10 0 0 0 0 10 10 0 0 10 2:1 6:1 8:1 30:0.65689766 50:1.782577e-031 67:1.1657695e-031 
-10 0 0 0 0 10 0 0 0 10 2:1 6:1 8:1 30:0.70236564 50:3.6996209e-033 67:1.7076311e-033 
-10 0 10 0 0 10 10 0 0 10 2:1 6:1 8:1 30:0.63749999 50:6.5762937e-042 
-10 0 10 0 0 10 10 0 0 10 2:1 6:1 8:1 30:0.63761532 50:1.4012985e-045 
-10 0 0 0 0 10 10 0 0 10 2:1 6:1 8:1 30:0.64870244 
-10 0 0 0 0 10 10 0 0 10 2:1 6:1 8:1 30:0.64089853 
-0 0 0 0 0 0 0 0 0 10 2:1 6:1 8:1 30:1.1366323 
-0 0 0 0 0 10 0 0 0 10 2:1 6:1 8:1 30:1.2932882 50:0.88582134 
-0 0 0 0 0 0 0 0 0 10 2:1 6:1 8:1 30:1.1118387 50:0.32489228 
-10 10 0 0 0 0 10 0 0 10 2:1 6:1 8:1 30:0.62962866 50:0.18398488 67:0.46354991 
-0 0 0 0 0 0 0 0 0 10 2:1 6:1 8:1 30:1.503401 50:0.25302637 67:0.63749999 
-10 10 0 10 0 0 10 0 0 10 1:1 5:1 8:1 30:0.63749999 45:1.3403016e-007 65:0.61040813 67:0.62119162 
-10 10 0 0 0 0 10 0 0 10 1:1 5:1 8:1 30:1.2000917 45:1.182812e-007 65:0.53868341 67:0.54819971 
-10 10 0 0 0 0 10 0 0 10 1:1 5:1 8:1 30:1.4623102 45:8.12934e-008 65:0.37023133 67:0.37677172 
-0 0 0 0 0 0 10 0 0 0 1:1 5:1 8:1 30:1.5244359 45:4.9306937e-008 65:0.22455665 67:0.22852352 
-10 10 10 10 10 0 10 0 0 10 1:1 5:1 8:1 30:0.63749999 65:1.2334423e-011 67:1.2552315e-011 
