svm_type c_svc
kernel_type rbf
gamma 0.01
nr_class 2
total_sv 10
rho -0.410302
label 0 25
nr_sv 6 4
SV
9.122362325791423 1:1 5:1 9:1 17:1.1804167e-031 20:1.1020792e-040 34:0.50364965 
3.065644928237181 3:1 7:1 9:1 14:0.0043638665 17:0.75278324 20:0.43295136 
2.061825552357105 3:1 7:1 8:1 14:5.421798e-013 16:2.9020793e-013 17:5.4169821e-008 20:0.69199347 
6.328471838146289 0:1 4:1 9:1 17:0.56722689 
7.335525821064596 3:1 4:1 11:1 17:3.4664899e-032 50:0.93746072 
1.226318463507882 1:1 5:1 9:1 17:5.694144e-027 20:0.69199347 
-3.98408597830127 2:1 6:1 8:1 30:0.5634793 50:0.6138227 54:2.0516751 65:0.13696551 67:0.47530305 
-10 2:1 6:1 9:1 50:0.49798793 
-10 2:1 6:1 9:1 50:0.93746072 
-5.156062950803207 2:1 6:1 9:1 50:1.3252941 
