svm_type c_svc
kernel_type rbf
gamma 0.01
nr_class 3
total_sv 273
rho -0.848114 -1.91816 -1.02952
label 16 8 18
nr_sv 18 165 90
SV
10 10 2:1 6:1 8:1 42:0.18319952 50:1.8483212 58:1.0667655 71:4.0783011e-006 
10 10 2:1 6:1 8:1 42:0.16167301 50:2.1291256 58:0.94141716 71:3.5990884e-006 
10 10 2:1 6:1 8:1 42:0.14267594 50:2.3769348 58:0.83079767 71:3.1761842e-006 
10 9.386920222473343 2:1 6:1 8:1 42:0.12591107 50:2.5956254 58:0.73317641 71:2.8029726e-006 
10 10 2:1 6:1 10:1 54:0.77629381 
10 0 3:1 7:1 9:1 14:0.011538256 16:0.0020457397 17:0.56722689 20:1.018407 
10 10 3:1 7:1 8:1 14:2.5614956e-006 16:4.7166546e-007 17:0.57057649 20:0.00055092119 
10 10 3:1 7:1 8:1 14:2.2339027e-006 16:4.162433e-007 17:1.0707589 20:0.00048618621 
10 10 3:1 7:1 9:1 17:0.56722689 
10 9.520920009364478 3:1 7:1 9:1 17:1.0089836 
10 10 3:1 7:1 9:1 17:0.56722689 
10 10 3:1 7:1 9:1 17:0.69199347 20:0.69199347 
4.289676583327134 0 3:1 7:1 9:1 17:1.0678029 20:0.50057596 
4.543146529266315 0 3:1 7:1 9:1 17:0.11397912 20:1.6197917 22:2.4361885 
0 8.690335322921257 3:1 7:1 8:1 17:0.051137872 20:2.4543209 22:1.3039978 
3.293872063980907 0 3:1 7:1 8:1 17:0.039826218 20:2.5957327 22:1.0155543 
10 10 3:1 7:1 8:1 17:0.56722689 20:2.5666896e-016 22:9.9967176e-018 
10 10 3:1 7:1 8:1 17:1.0678029 20:2.2562303e-016 22:8.8220731e-018 
-10 0 2:1 6:1 10:1 50:0.49798793 
-0 10 3:1 7:1 8:1 30:0.065212704 50:1.4197841 54:0.77629489 
-0 10 3:1 7:1 8:1 30:0.05078771 50:1.1057291 54:1.3808728 
-0 10 3:1 7:1 8:1 30:0.044819996 50:0.97580224 54:1.9949099 
-0 10 3:1 7:1 8:1 30:0.039553508 50:0.86114258 54:2.5367954 
-0 0.09017106377976165 3:1 7:1 8:1 54:2.4425216 
-0 9.763667673288314 3:1 7:1 8:1 54:2.9318116 
-0 9.588357816991866 3:1 7:1 8:1 50:0.49798793 54:1.2926124 
-0 6.330892239397951 3:1 7:1 8:1 50:0.77629381 54:2.7912965 
-0 10 3:1 7:1 8:1 50:1.1381166 54:2.6947222 
-0 9.128329929200215 3:1 7:1 8:1 50:1.0665866 54:1.3462727 
-0 10 3:1 7:1 8:1 50:1.4672923 54:2.6283474 
-0 9.180657066447159 3:1 7:1 8:1 30:0.014003068 45:0.00044307709 50:0.95211381 54:0.32587546 65:0.0037837308 67:0.012902847 
-0 6.72345211063632 3:1 7:1 8:1 54:0.77629381 
-0 10 3:1 7:1 8:1 54:0.77629966 
-10 4.783600734264135 3:1 7:1 8:1 50:0.49798793 54:8.0548473e-010 
-0.5808616743616617 10 3:1 7:1 8:1 50:0.93746072 54:7.1083778e-010 
-0 9.935907751151349 3:1 7:1 8:1 50:0.69030261 54:0.77629381 
-0 1.058204921744789 3:1 7:1 8:1 50:0.60918999 54:1.4613707 
-0 10 3:1 7:1 8:1 30:7.9323454e-038 45:1.9024311e-038 50:8.6519889e-037 54:0.77629381 65:6.0179637e-038 67:1.4455916e-037 
-0 10 3:1 7:1 9:1 30:3.9492823e-039 45:9.4716426e-040 50:4.3075713e-038 54:1.2047411 65:2.9961653e-039 67:6.5402593e-039 
-0 10 3:1 7:1 9:1 30:2.7142997e-039 45:3.858111e-040 50:2.9605482e-038 54:1.6042994 65:2.0592333e-039 67:4.4950516e-039 
-0 10 3:1 7:1 9:1 30:1.5366092e-039 45:2.1841479e-040 50:0.49798793 54:0.90822065 65:1.0156513e-039 67:2.544723e-039 
-0 10 3:1 7:1 9:1 30:1.3560533e-039 45:1.9275001e-040 50:0.93746072 54:0.80150187 65:8.9630973e-040 67:2.1132366e-039 
-10 2.807659096303253 3:1 7:1 9:1 30:3.6138086e-041 50:0.73311901 54:0.0213593 67:2.6696137e-041 
-0.6822085220009116 10 3:1 7:1 9:1 30:0.63749999 50:0.82822633 54:0.024130236 67:1.7874963e-041 
-10 0 3:1 7:1 9:1 30:0.017113257 50:0.019354878 54:0.00028360455 67:0.48407224 
-5.310646007297027 0 3:1 7:1 9:1 30:0.013327818 50:0.015073596 54:0.00022087143 67:0.84054571 
-10 0 3:1 7:1 9:1 30:0.30796909 50:0.50208223 54:5.9993879e-005 67:0.22831202 
-0 10 3:1 7:1 9:1 30:0.2569688 50:1.0235147 54:1.4614198 67:0.19050309 
-0 10 3:1 7:1 9:1 30:0.22677416 50:0.90324843 54:2.0659914 67:0.16811837 
-0 3.760400500217487 3:1 7:1 9:1 30:0.1454743 50:1.0774165 54:1.3253194 67:0.10784695 
-0 9.744726853473219 3:1 7:1 8:1 30:0.12838061 50:1.4488046 54:1.6675681 67:0.095174603 
-0 10 3:1 7:1 8:1 30:8.4510867e-007 50:9.5372434e-006 54:0.77630484 67:6.265189e-007 
-0 8.866205072792168 3:1 7:1 8:1 30:5.1258434e-007 50:5.784515e-006 54:1.7806849 67:3.8000292e-007 
-0 0.03595815546987947 3:1 7:1 8:1 30:4.5235404e-007 50:5.104755e-006 54:2.3477426 67:3.3535139e-007 
-0 10 3:1 7:1 8:1 54:0.77629381 
-0 0.03556406300433276 3:1 7:1 8:1 54:1.994909 
-0 10 3:1 7:1 8:1 54:0.77629381 
-0 9.686553739061452 3:1 7:1 8:1 54:1.3098322 
-0 10 3:1 7:1 8:1 54:0.97716314 
-0 10 3:1 7:1 8:1 54:1.5373092 
-10 10 3:1 7:1 8:1 50:0.49798793 54:5.7488731e-005 
-0 10 3:1 7:1 8:1 50:0.93746072 54:5.0733626e-005 
-0 10 3:1 7:1 8:1 50:1.8379701e-021 54:0.77629381 
-0 0.0586766570291956 3:1 7:1 8:1 50:1.4314126e-021 54:2.065949 
-0 0.02299599127222747 3:1 7:1 8:1 50:1.1147852e-021 54:2.3852563 
-0 0.6815754934322615 3:1 7:1 8:1 50:1.7095785e-022 54:1.1420848 
-0 4.223073499428629 2:1 6:1 8:1 30:0.39562649 50:1.6753427 54:2.2004983 65:0.64950073 67:0.33926141 
-0 0.4143917871329926 2:1 6:1 8:1 30:7.8916946e-007 50:3.3418623e-006 54:1.3808763 65:1.2856469e-006 67:6.7673614e-007 
-0 0.1835373179009588 2:1 6:1 8:1 30:7.3404195e-008 50:3.1084164e-007 54:1.5898123 65:1.1832817e-007 67:6.294627e-008 
-0 5.083481132366505 2:1 6:1 9:1 54:3.59659 
-0 6.505357868792617 2:1 6:1 9:1 54:3.9502735 
-0 1.878487159021694 2:1 6:1 8:1 30:2.3176356e-037 50:2.4433343e-037 54:0.93032116 65:1.5963158e-037 67:2.4457947e-037 
-0 0.3511598136954022 2:1 6:1 8:1 30:1.4867496e-037 50:0.49798793 54:0.59679556 65:9.6019717e-038 67:1.5689632e-037 
-0 2.582029705361083 2:1 6:1 8:1 30:1.8049762e-037 50:0.60457826 54:1.5008287 65:1.0779093e-037 67:1.904787e-037 
-0 0.09161600567183398 2:1 6:1 8:1 30:1.4170343e-010 50:1.0409432e-009 54:0.80662358 65:1.1125326e-010 67:2.1421113e-010 
-4.300730988082981 0 2:1 7:1 9:1 50:0.49798793 54:1.6232653e-012 
-0 1.006251979811142 2:1 7:1 9:1 50:3.238323e-008 54:2.531347 
-10 0.1464009008104347 3:1 7:1 8:1 20:0.40947795 42:0.2276147 50:2.9537799 54:0.77629381 58:1.0542357 
-6.234489796943282 8.655113205244277 3:1 7:1 8:1 20:0.28072187 42:0.15643716 50:2.0301013 54:1.3098322 58:0.72456491 
-0 6.226547451768335 3:1 7:1 8:1 20:0.11565794 42:0.065212704 50:0.84627211 54:2.00739 58:0.30204359 
-0 0.8334446288587274 3:1 7:1 8:1 20:0.047175575 42:0.027184701 50:0.3527787 54:2.2981753 58:0.12591051 
-0 4.241945103298979 3:1 7:1 8:1 20:0.036253851 42:0.021171466 50:0.27474433 54:2.5661142 58:0.098059207 
-0 8.435116002963458 3:1 7:1 8:1 20:0.020643432 42:0.013581371 50:0.67423487 54:1.6461475 58:0.062904403 
-0 10 3:1 7:1 8:1 20:0.01525662 42:0.011985518 50:1.092998 54:1.45272 58:0.055512939 
-0 10 3:1 7:1 8:1 20:0.016914759 42:0.016488355 50:1.5036265 54:2.774786 58:0.076368578 
-0 0.4096272723703271 3:1 7:1 8:1 20:0.0015336558 42:0.0019692532 50:0.17958254 54:1.1076947 58:0.0091209253 
-0 0.4145112782737088 3:1 7:1 8:1 20:0.00070788834 42:0.0015336558 50:0.13985904 54:1.6389674 58:0.0071033849 
-0 10 3:1 7:1 8:1 20:5.5847607e-009 42:7.1709754e-009 50:1.1033934e-006 54:0.77630675 58:5.6040903e-008 
-0 10 3:1 7:1 8:1 42:1.3571433e-013 50:2.0882279e-011 54:0.77632511 58:9.5490814e-013 
-0 10 3:1 7:1 8:1 42:1.1976748e-013 50:1.8428543e-011 54:1.4613984 58:7.3700898e-013 
-0 10 3:1 7:1 8:1 50:8.3089804e-023 54:0.77629381 58:3.3229933e-024 
-0 1.294763630705537 3:1 7:1 8:1 50:7.7285547e-024 54:0.94121546 58:1.8767664e-025 
-0 10 3:1 7:1 8:1 50:5.9620884e-024 54:1.5093131 58:1.4616271e-025 
-0 0.08535388954722248 3:1 7:1 8:1 50:3.577072e-024 54:1.6917385 58:8.865217e-026 
-0 0.03365499494390881 3:1 7:1 8:1 50:3.1567551e-024 54:2.2692478 58:3.9117631e-026 
-0 10 3:1 7:1 8:1 50:5.4085906e-025 54:1.7752082 
-0 8.987181958400978 3:1 7:1 8:1 50:3.5813136e-025 54:2.6009533 
-0 3.359578807351788 3:1 7:1 8:1 50:3.0925221e-025 54:3.0716271 
-0 1.968408390981248 3:1 7:1 8:1 50:0.88582134 54:1.8871979 
-0 10 3:1 7:1 8:1 50:1.2797225 54:1.6654462 
-0 10 3:1 7:1 8:1 50:1.4946369 54:1.297051 
-0 10 3:1 7:1 8:1 50:1.047834 54:0.47715831 
-0 10 3:1 7:1 8:1 50:1.4226984 54:0.42109072 
-0 10 3:1 7:1 8:1 50:1.6059866 54:0.32794577 
-0 10 3:1 7:1 9:1 50:0.0021937254 54:0.77794671 
-0 10 3:1 7:1 9:1 50:0.0017084751 54:1.3821591 
-0 10 3:1 7:1 9:1 50:0.0015077239 54:1.9960451 
-0 10 3:1 7:1 9:1 50:0.0010362425 54:2.1481538 
-0 10 3:1 7:1 9:1 50:1.0158963e-005 54:0.79735351 
-0 10 3:1 7:1 9:1 50:8.9652531e-006 54:1.4799558 
-0 10 3:1 7:1 9:1 50:3.0677413e-007 54:0.82693505 
-0 10 3:1 7:1 9:1 50:2.389159e-007 54:1.4203116 
-0 10 3:1 7:1 9:1 50:1.4490985e-007 54:1.6377562 
-0 10 3:1 7:1 9:1 50:1.1285589e-007 54:2.0517797 
-7.152554841191932 10 3:1 7:1 9:1 50:6.2418834e-011 54:0.77742863 
-0 10 3:1 7:1 9:1 50:3.7858938e-011 54:1.247828 
-0 10 3:1 7:1 9:1 50:3.7858938e-011 54:2.024122 
-0 10 3:1 7:1 9:1 50:2.602004e-011 54:2.1674511 
-0 10 3:1 7:1 9:1 50:2.2962604e-011 54:2.6890624 
-0 10 3:1 7:1 9:1 50:1.5781949e-011 54:2.6244581 
-0 0.3370453181349256 1:1 5:1 8:1 30:2.9529676 50:0.82481021 65:0.28691581 67:0.15736517 
-0 0.2219492937317988 1:1 5:1 8:1 30:1.8792181 50:0.83754122 54:1.4613707 
-0 0.124348991132536 1:1 6:1 9:1 50:0.00033693342 54:2.7722774 
-0 8.645084600971241 2:1 6:1 8:1 50:1.5589339e-025 54:2.1136525 
-10 0.4401943273587683 2:1 6:1 8:1 50:0.49798793 54:2.4012611e-018 
-0 0.4658634304660024 2:1 6:1 8:1 50:0.68507689 54:0.77629381 
-0 3.415165326249709 2:1 6:1 8:1 50:1.2896552 54:1.4613707 
-0 1.335752076855721 2:1 6:1 8:1 50:1.0043844 54:1.9144104 
-0 1.374210274009315 2:1 6:1 8:1 50:0.69030261 54:2.0920477 
-0 0.3188295262985417 2:1 6:1 8:1 50:0.53433722 54:0.20896868 
-0 1.186093709823622 2:1 6:1 8:1 50:0.83295727 54:1.1020468 
-0 0.9553893933014794 2:1 6:1 8:1 50:0.96953887 54:0.623887 
-0 1.667782371667863 2:1 6:1 8:1 50:1.3337848 54:1.6345688 
-0 3.557447684928775 2:1 6:1 8:1 30:1.4541435e-020 50:1.7711002e-020 54:0.87738472 65:4.0665839e-021 67:1.4019648e-020 
-0 8.299599483627336 2:1 6:1 8:1 30:9.10844e-043 50:1.1084271e-042 54:0.88216102 65:2.2140516e-043 67:8.239635e-043 
-3.800330665938362 0 2:1 6:1 9:1 25:0.78846157 
-0 0.07290783507187598 2:1 6:1 8:1 14:8.0381787e-006 16:8.2885202e-007 20:1.735697e-005 42:1.2710858e-007 54:1.7253524 58:1.6321064e-007 
-0 2.589481097980829 2:1 6:1 8:1 14:5.1564448e-006 16:5.3170373e-007 20:1.1070892e-005 42:8.1539405e-008 50:0.49798793 54:1.1068034 58:1.0469866e-007 
-0 1.480124222674538 2:1 6:1 8:1 14:4.5505462e-006 16:4.6922688e-007 20:9.7700276e-006 50:0.93746072 54:0.97675061 58:9.2396249e-008 
-0 0.3092479485014626 2:1 6:1 8:1 14:8.7884054e-008 16:9.2077146e-009 20:1.9030676e-007 50:0.018395942 54:0.80523288 58:1.8131064e-009 
-3.49238721929148 0 2:1 6:1 9:1 65:0.70515573 
-0 1.444730762916328 2:1 6:1 9:1 65:1.3274535 
-0 2.247408801449973 2:1 6:1 8:1 30:0.83754122 50:0.94905853 54:1.4613707 65:0.36998048 67:0.26158246 
-0 2.487052732745836 2:1 6:1 8:1 30:0.082394212 50:1.8364515 54:0.53159767 65:0.036397316 67:0.025733516 
-0 9.746352326829431 2:1 6:1 8:1 30:0.12844111 50:2.8627722 54:1.6049805 65:0.056738347 67:0.040114969 
-0 0.2713542396461849 2:1 6:1 8:1 30:0.068749569 50:1.5323313 54:2.3204551 65:0.030369848 67:0.021471996 
-8.013714802892389 0 2:1 6:1 8:1 30:6.1673577e-006 50:0.4981254 54:0.00020816243 65:2.7244057e-006 67:1.9262009e-006 
-0 0.04215579960800109 2:1 6:1 8:1 30:5.4426746e-006 50:0.93758202 54:0.49817163 65:2.4042795e-006 67:1.5259307e-006 
-0.2371880666708506 0 2:1 6:1 10:1 50:0.49798793 54:0.041189149 
-0 0.9327169879084192 2:1 6:1 8:1 54:1.1949836 
-0 10 2:1 6:1 8:1 54:1.8308631 
-0 4.53164939910921 2:1 6:1 8:1 54:0.77629381 
-0 1.369580930906994 2:1 6:1 8:1 50:0.49798793 54:1.6273391 
-0 2.878068859679689 2:1 6:1 8:1 50:0.93746072 54:1.4361217 
-0 0.02314525365702033 2:1 6:1 8:1 50:0.78221536 54:2.579169 
-0 4.325746838797985 3:1 7:1 8:1 30:0.79445338 45:0.0014088767 50:0.83754122 54:1.380872 65:0.59723026 67:0.99408948 
-0 4.072733677190834 3:1 7:1 8:1 30:0.12183337 45:0.00015795123 50:0.12844111 54:1.6731342 65:0.091588236 67:0.15238275 
-10 0.0833791687122362 3:1 7:1 8:1 30:2.0542081e-017 45:2.6631841e-020 50:0.49798793 54:2.8210379e-016 65:1.5428253e-017 67:2.5692946e-017 
-8.637793014109814 10 3:1 7:1 8:1 30:1.8128322e-017 45:2.3502516e-020 50:0.93746072 54:2.4895574e-016 65:1.3615386e-017 67:2.2661364e-017 
-0 1.326874839858814 3:1 7:1 8:1 50:1.9238773e-029 54:0.77629381 
-0 10 3:1 7:1 8:1 50:1.6978156e-029 54:1.4613707 
-0 10 3:1 7:1 8:1 50:3.0486013e-033 54:1.4616331 
-0 10 3:1 7:1 8:1 50:9.7030293e-036 54:1.4660227 
-0 0.7379683513019411 3:1 7:1 8:1 54:0.77629381 
-0 10 3:1 7:1 8:1 54:1.4613707 
-0 10 3:1 7:1 8:1 54:1.66266 
-0 9.912456531339295 3:1 7:1 8:1 50:0.49798793 54:1.0665866 
-0 10 3:1 7:1 8:1 50:0.88582134 54:0.83065844 
-0 10 3:1 7:1 8:1 50:1.2186153 54:1.9190222 
-3.683789577793662 0 1:1 6:1 9:1 30:0.014389918 45:0.020408163 50:0.0010238132 65:0.044455789 67:0.0082896855 
-10 0 2:1 6:1 8:1 30:0.0014819184 45:0.022559168 50:0.00010790911 65:0.056567233 67:0.025220022 
-0 1.99604605467558 2:1 6:1 8:1 30:0.011613709 45:0.19708306 65:1.889716 67:0.42235956 
-0 0.09424432705854439 2:1 6:1 8:1 30:1.2001039 45:6.9368042e-024 50:1.9301745e-022 65:9.0152242e-023 67:2.1105561e-022 
-0 0.03197402427700127 2:1 6:1 8:1 30:1.5171405 45:2.5519078e-024 50:7.1007156e-023 65:3.1411255e-023 67:7.5889132e-023 
-0 1.745079391505857 2:1 6:1 8:1 30:1.9763718 50:6.2663589e-023 65:2.7720336e-023 67:6.6971924e-023 
-0 0.536901707564592 2:1 6:1 8:1 30:2.3816419 50:5.5300424e-023 65:2.4463112e-023 67:5.685046e-023 
-0 0.7007513516823252 2:1 6:1 8:1 30:0.63749999 
-0 0.0272683527743121 2:1 6:1 8:1 30:1.8878896 
-0 0.03397446685867701 2:1 6:1 8:1 30:2.1077902 
-0 0.009716210248343727 2:1 6:1 8:1 30:2.2790484 
-0 1.899560985251124 2:1 6:1 8:1 30:0.36965129 50:2.3572996 54:1.3098322 65:0.1324902 67:0.098080672 
-0 10 2:1 6:1 8:1 30:0.25405738 50:1.620147 54:1.6765275 65:0.090974554 67:0.067409784 
-0 10 2:1 6:1 8:1 30:0.22420484 50:1.4297746 54:2.2558241 65:0.080105789 67:0.05948893 
-10 -10 2:1 6:1 8:1 14:0.050168231 16:0.017813271 20:0.0066143917 42:0.065212704 50:1.8655164 54:0.77629381 58:0.31575036 
-0.3328614486450628 -10 2:1 6:1 8:1 14:0.039071057 16:0.01387299 20:0.0041213222 42:0.05078771 50:1.4528655 54:1.380872 58:0.24590665 
-0 -10 2:1 6:1 8:1 14:0.034480084 16:0.012242869 20:0.0027281074 42:0.044819996 50:1.2821493 54:1.994909 58:0.21701185 
-0 -10 2:1 6:1 8:1 14:0.030428568 16:0.010804295 20:0.0014985997 42:0.039553508 50:1.1314929 54:2.5367949 58:0.1915123 
-0 -10 2:1 6:1 8:1 14:0.022667823 16:0.0084143933 20:0.0011671105 42:0.030804303 50:0.88120753 54:2.7519515 58:0.14914992 
-0 -10 2:1 6:1 8:1 14:0.020004284 16:0.0074256761 42:0.027184701 50:0.77766293 54:3.2048826 58:0.13162434 
-10 -10 2:1 6:1 8:1 54:0.77629381 
-0 -10 2:1 6:1 8:1 54:1.4613707 
-0 -10 2:1 6:1 8:1 54:1.4665965 
-10 -10 2:1 6:1 8:1 50:0.49798793 54:0.73270589 
-0 -10 2:1 6:1 8:1 50:0.77629381 54:1.9184803 
-10 -10 2:1 6:1 8:1 50:0.88582134 54:0.95846534 
-0 -10 3:1 7:1 8:1 30:0.010543088 50:1.5827941 54:0.77629381 65:0.013445769 67:0.01043791 
-0 -10 3:1 7:1 8:1 30:0.0067633293 50:1.513341 54:0.49798793 65:0.0085639264 67:0.0066958582 
-0 -10 3:1 7:1 8:1 30:0.0093042422 50:2.0818875 54:1.4613707 65:0.011672746 67:0.0092114229 
-0 -10 3:1 7:1 8:1 30:0.0052672862 50:1.6765792 54:0.82730615 65:0.0065292232 67:0.0052147396 
-10 -10 3:1 7:1 8:1 30:0.0010371901 50:0.82812595 54:0.16290626 65:0.0012680728 67:0.0010268431 
-10 -10 3:1 7:1 8:1 30:0.0009153171 50:1.2288065 54:0.14376426 65:0.0010934514 67:0.00090618583 
-0 -10 3:1 7:1 8:1 30:0.00098065997 50:1.3165289 54:0.93032116 65:0.0011715109 67:0.0009309405 
-0 -10 3:1 7:1 8:1 30:0.00086542941 50:1.1618327 54:1.5972993 65:0.0009986111 67:0.00082155218 
-0 -10 3:1 7:1 8:1 30:1.0735262e-038 50:1.441201e-035 54:0.77629381 65:1.238732e-038 67:9.6955925e-039 
-0 -10 3:1 7:1 8:1 30:9.473837e-039 50:1.2718555e-035 54:1.4613707 65:1.049459e-038 67:8.5563298e-039 
-0 -10 3:1 7:1 8:1 54:0.77629381 
-0 -10 3:1 7:1 8:1 54:1.4613707 
-10 -10 3:1 7:1 9:1 54:0.77629381 
-0 -10 3:1 7:1 9:1 54:1.4613707 
-0 -10 3:1 7:1 9:1 54:1.66266 
-0 -10 3:1 7:1 9:1 54:1.9190222 
-0 -10 3:1 7:1 9:1 54:2.4698248 
-0 -10 3:1 7:1 9:1 54:2.9559066 
-0 -10 3:1 7:1 9:1 54:0.80527252 
-0 -10 3:1 7:1 9:1 54:1.4869444 
-10 -10 3:1 7:1 9:1 54:0.77629381 
-0 -10 3:1 7:1 9:1 54:1.4613707 
-0 -10 3:1 7:1 9:1 54:1.9144104 
-0 -10 3:1 7:1 9:1 54:2.465755 
-10 -10 3:1 7:1 9:1 54:0.77629381 
-0 -10 3:1 7:1 9:1 54:1.4613707 
-0.6713996201158021 -10 3:1 7:1 9:1 54:0.78745151 
-0 -10 3:1 7:1 9:1 54:1.4712174 
-0 -10 3:1 7:1 9:1 54:1.1482757 
-0 -10 3:1 7:1 9:1 54:1.7896436 
-0 -10 3:1 7:1 9:1 54:1.0184957 
-0 -10 3:1 7:1 9:1 54:1.4762952 
-0 -10 3:1 7:1 9:1 54:1.3917052 
-0 -10 3:1 7:1 9:1 54:2.0044694 
-0 -10 3:1 7:1 9:1 54:2.5452318 
-0 -10 3:1 7:1 9:1 50:0.49798793 54:1.2715881 
-0 -10 3:1 7:1 9:1 50:0.77629381 54:2.758522 
-0 -10 3:1 7:1 8:1 30:1.1438223 50:1.0202774 54:0.77629381 65:0.45849773 67:0.33395013 
-0 -10 3:1 7:1 8:1 30:0.89080971 50:0.7945928 54:1.380872 65:0.3570784 67:0.25994119 
-0 -10 3:1 7:1 8:1 30:0.61224401 50:0.54601932 54:1.7253524 65:0.24541612 67:0.17865482 
-0 -10 3:1 7:1 8:1 30:0.47672027 50:0.42524028 54:2.1199996 65:0.1911303 67:0.13913652 
-0 -10 3:1 7:1 8:1 30:1.9975026e-032 50:1.7817964e-032 54:0.77629381 65:8.0045236e-033 67:5.8299495e-033 
-0 -10 3:1 7:1 8:1 30:1.7627897e-032 50:1.5724297e-032 54:1.4613707 65:7.0639658e-033 67:5.1403637e-033 
-10 -10 3:1 7:1 8:1 34:0.50364965 54:1.8397281e-034 
-6.59391448599821 -10 3:1 7:1 8:1 34:0.94811893 54:1.6235543e-034 
-0 -10 3:1 7:1 8:1 34:1.1004688e-016 54:0.77629381 
-0 -10 3:1 7:1 8:1 34:9.7116033e-017 54:1.4613707 
-0 -10 3:1 7:1 8:1 34:8.57046e-017 54:2.065949 
-0 -10 3:1 7:1 8:1 34:7.5634047e-017 54:2.5994873 
-0 -10 3:1 7:1 8:1 34:2.7824212e-017 54:1.7325917 
-0 -10 3:1 7:1 8:1 34:2.1669517e-017 54:2.1256375 
-0 -10 3:1 7:1 8:1 34:2.9326502e-018 54:1.0639676 
-0 -10 3:1 7:1 8:1 34:2.2839503e-018 54:1.6049126 
-0 -10 3:1 7:1 8:1 34:3.3002632e-025 54:0.77629399 
-0 -10 3:1 7:1 8:1 34:2.912472e-025 54:1.4613709 
-0 -10 3:1 7:1 8:1 34:9.5125162e-038 54:0.77629381 
-0 -10 3:1 7:1 8:1 34:5.3851934e-038 50:0.49798793 54:0.43947279 
-0 -10 3:1 7:1 8:1 34:6.5378499e-038 50:0.60457826 54:1.3098322 
-0 -10 3:1 7:1 8:1 30:0.25394815 50:2.625217 54:1.9322166 65:0.159853 67:0.11802525 
-0 -10 3:1 7:1 8:1 30:0.19777502 50:2.0445211 54:2.2811055 65:0.12406431 67:0.091918156 
-0 -10 3:1 7:1 8:1 30:0.044129573 50:0.45619431 54:1.2852772 65:0.027543101 67:0.020509712 
-0 -10 3:1 7:1 8:1 30:0.034368142 50:0.35528451 54:1.7772686 65:0.021327576 67:0.015972981 
-10 -10 3:1 7:1 8:1 30:3.8776026e-027 50:0.49798793 54:2.0052122e-025 65:2.388473e-027 67:1.8021593e-027 
-10 -10 3:1 7:1 8:1 30:3.4219723e-027 50:0.93746072 54:1.7695936e-025 65:2.0876262e-027 67:1.5904e-027 
-10 -10 3:1 7:1 8:1 30:1.8316499e-027 50:0.99977446 54:9.4719509e-026 65:1.079699e-027 67:8.5127981e-028 
-0 -10 3:1 7:1 8:1 30:2.519782e-027 50:1.3753796 54:0.77629381 65:1.4098158e-027 67:1.1710969e-027 
-0 -10 3:1 7:1 8:1 30:1.6164253e-027 50:1.3802857 54:0.49798793 65:8.494964e-028 67:7.5125178e-028 
-0 -10 3:1 7:1 8:1 30:1.9624082e-027 50:1.6757249 54:1.380872 65:9.3436125e-028 67:9.1205118e-028 
-0 -10 3:1 7:1 8:1 30:1.348742e-027 50:1.1517078 54:1.7253524 65:5.5660704e-028 67:6.2684301e-028 
-0 -10 3:1 7:1 8:1 30:1.1902607e-027 50:1.0163785 54:2.2989118 65:4.9120395e-028 67:4.5622406e-028 
-0 -10 3:1 7:1 8:1 30:1.0504014e-027 50:0.8969509 54:2.8050766 65:3.479165e-028 67:4.0261633e-028 
-0 -10 3:1 7:1 8:1 30:9.2697589e-028 50:0.79155642 54:3.251765 65:3.0703524e-028 67:2.6973819e-028 
-0 -10 3:1 7:1 8:1 30:3.8642104e-028 50:0.32996979 54:2.1318312 65:9.2320668e-029 67:1.1244361e-028 
-0 -10 3:1 7:1 8:1 30:3.0094504e-028 50:0.25698072 54:2.4365656 65:4.0420157e-029 67:8.7571168e-029 
-0 -10 3:1 7:1 8:1 30:2.760558e-043 50:2.3575132e-016 54:0.77629381 65:3.643376e-044 67:4.7644148e-044 
-0 -10 3:1 7:1 8:1 30:1.7656361e-043 50:0.49798793 54:0.49798793 67:3.0828566e-044 
-0 -10 3:1 7:1 8:1 30:1.3732725e-043 50:0.88582134 54:0.38783339 
-0 -10 3:1 7:1 8:1 30:1.1490647e-043 50:1.380872 54:1.380872 
