svm_type c_svc
kernel_type rbf
gamma 0.01
nr_class 4
total_sv 168
rho -0.24589 -0.0557265 0.294891 0.170467 0.402309 0.083041
label 24 7 15 23
nr_sv 75 6 7 80
SV
0 0 10 3:1 7:1 8:1 30:0.8987357 50:0.58139998 54:0.071629941 67:0.46354991 
0 0 10 3:1 7:1 8:1 30:1.0647482 50:0.68879491 54:0.084861264 65:0.70515573 67:0.54917586 
0 0 10 3:1 7:1 8:1 30:0.6176914 50:0.39959002 54:0.049230486 65:0.40908137 67:0.78214282 
0 0 10 3:1 7:1 8:1 30:0.93963695 50:0.60785943 54:0.074889794 65:1.3274535 67:1.1898017 
0 0 10 3:1 7:1 8:1 30:0.30505544 50:0.19734305 54:0.024313159 65:1.1361167 67:0.38627207 
0 0 10 3:1 7:1 8:1 30:0.23757744 50:0.15369092 54:0.018935107 65:1.5899644 67:0.30082899 
0 0 10 3:1 7:1 8:1 30:0.20966136 50:0.13563175 54:0.016710173 65:2.1082942 67:0.26548064 
0 0 10 3:1 7:1 8:1 30:0.11222364 50:0.072598457 54:0.0089443112 65:1.8336444 67:0.14210156 
0 0 10 3:1 7:1 8:1 30:0.099037006 50:0.064067915 54:0.0078933267 65:2.3233411 67:0.12540418 
0 0 10 3:1 7:1 8:1 30:0.087399855 50:0.056539733 54:0.0069658365 65:2.7554972 67:0.11066879 
0 0 10 3:1 7:1 8:1 30:0.068067074 50:0.044033185 54:0.0054249987 65:2.8511388 67:0.086188942 
0 0 10 3:1 7:1 8:1 30:0.053010691 50:0.034293082 54:0.0042249933 65:2.9256248 67:0.067124017 
0 2.843924587856665 10 3:1 7:1 8:1 30:0.053010691 50:0.034293082 54:0.0042249933 65:3.6307805 67:0.067124017 
8.417744156483437 10 10 3:1 7:1 8:1 30:0.046781771 50:0.030263536 54:0.0037285434 65:3.9093084 67:0.059236735 
0 0 10 3:1 7:1 8:1 30:0.017210051 50:0.011133334 54:0.0013716546 65:2.1433103 67:0.02179198 
0 0 10 3:1 7:1 8:1 30:0.0081294524 50:0.0051323958 54:0.00064792373 65:1.7175838 67:0.010293802 
0 0 10 3:1 7:1 8:1 30:0.006331224 50:0.0038853744 54:0.00050460349 65:2.0428112 67:0.008016821 
0 0 10 3:1 7:1 8:1 30:0.0043513826 50:0.0026703761 54:0.00018422797 65:2.109158 67:0.0055098748 
0 0 10 3:1 7:1 8:1 30:0.0029906586 50:0.001835321 65:2.1547575 67:0.003786878 
0 0 10 3:1 7:1 8:1 30:0.0020554475 50:0.0011627863 65:2.1860979 67:0.0026026806 
0 0 10 3:1 7:1 8:1 30:0.0018139262 50:0.00092754513 65:2.6343803 67:0.0022968575 
0 0 10 3:1 7:1 8:1 30:0.00066730607 50:0.00028141472 65:1.6742899 67:0.00084496674 
0 0 10 3:1 7:1 8:1 30:0.00051969854 50:0.0001663838 65:2.0090945 67:0.00065806072 
0 0 10 3:1 7:1 8:1 30:0.00045863233 50:8.7023131e-005 65:2.4781754 67:0.00058073655 
0 0 10 3:1 7:1 8:1 30:0.00015917238 50:3.6276637e-005 65:1.7382127 67:0.00024208703 
0 0 10 3:1 7:1 8:1 30:0.00014046914 65:2.2391236 67:0.00021364103 
0 0 10 3:1 7:1 8:1 30:8.7686938e-005 65:2.6811755 67:0.00018853755 
0 0 10 3:1 7:1 8:1 30:2.8252274e-005 65:2.3313708 67:0.00011435381 
0 0 10 3:1 7:1 8:1 65:2.3074818 67:7.8594145e-005 
0 0 10 3:1 7:1 8:1 65:2.5022244 67:3.6276637e-005 
0 0 10 3:1 7:1 8:1 65:2.6538651 67:2.8252274e-005 
0 0 10 3:1 7:1 8:1 65:2.7719879 
0 0 10 3:1 7:1 8:1 65:3.1514072 
0 0 10 3:1 7:1 8:1 65:2.8710427 
0 0 10 3:1 7:1 8:1 65:2.6783564 
0 0 10 3:1 7:1 8:1 65:1.760651 67:0.46354991 
0 0 10 3:1 7:1 8:1 65:3.0686929 67:0.62229776 
0 0 10 3:1 7:1 8:1 65:1.5710151 67:0.78214282 
0 0 10 3:1 7:1 8:1 30:0.63749999 65:0.065241046 67:0.032481723 
0 0 10 3:1 7:1 8:1 30:0.38783339 50:0.49798793 65:0.039689016 67:0.01976078 
0 0 10 3:1 7:1 8:1 30:0.34226176 50:0.93746072 65:0.035023794 67:0.017438825 
0 0 10 3:1 7:1 8:1 30:1.0241632 50:1.0590773 65:0.039565574 67:0.01970116 
0 0 10 3:1 7:1 8:1 30:0.70602655 50:1.2280831 65:0.027273836 67:0.013581371 
1.865884018747293 0 10 3:1 7:1 8:1 30:1.5413209 50:1.5721325 65:0.03490961 67:0.017386213 
2.860817607276113 8.47607607812926 10 3:1 7:1 8:1 30:1.837882 50:1.224378 65:0.027179338 67:0.013540396 
0 0 10 3:1 7:1 8:1 30:1.2669791 50:1.3420362 65:0.018729258 67:0.0093343304 
0 0 10 3:1 7:1 8:1 30:0.46609551 50:0.99169546 65:0.00688618 67:0.0034339083 
0 0 10 3:1 7:1 8:1 30:0.36299559 50:1.2703211 65:0.0053585102 67:0.0026743305 
0 0 10 3:1 7:1 8:1 30:1.5581762e-005 50:5.4529159e-005 54:0.77629381 65:2.2973866e-007 67:1.1479695e-007 
0.237557362835074 0.2111497675074993 10 3:1 7:1 8:1 30:1.3750857e-005 50:4.8121809e-005 54:1.4613707 65:2.0246561e-007 67:1.0130795e-007 
0 0 10 3:1 7:1 8:1 30:5.350264e-006 50:0.49800664 54:0.56859869 65:7.8482429e-008 67:3.9417493e-008 
0 0 10 3:1 7:1 8:1 30:0.63750529 50:0.49650416 54:0.56688321 65:7.7869174e-008 67:3.929857e-008 
0 0 10 3:1 7:1 8:1 30:1.2000965 50:0.4381634 54:0.50027263 65:6.8342835e-008 67:3.4680866e-008 
0 0 10 3:1 7:1 8:1 30:0.93746442 50:0.84026253 54:0.39079177 65:5.2681074e-008 67:2.709122e-008 
0 0 10 3:1 7:1 8:1 30:1.8375964 50:1.0756633 54:0.50027263 65:6.6416419e-008 67:3.4680866e-008 
0.5060151688544697 0.9988537441643884 10 3:1 7:1 8:1 30:2.0686214 50:0.83772749 54:0.38961273 65:5.0822074e-008 67:2.7009484e-008 
0 0 10 3:1 7:1 8:1 30:1.033801 50:0.41865727 54:0.19471036 65:2.465441e-008 67:0.46354991 
0 0 10 3:1 7:1 8:1 30:0.805125 50:0.32605064 54:0.15164058 65:1.8357694e-008 67:0.82456291 
0 0 10 3:1 7:1 8:1 30:0.010135029 50:0.0041043712 54:0.0019088732 65:2.1746052e-010 67:0.47392964 
7.81081644910124 0 10 3:1 7:1 8:1 30:0.0069656959 50:0.0028208909 54:0.0013119481 65:1.3743097e-010 67:0.78927672 
0.1188179481530715 1.580020081447312 10 3:1 7:1 8:1 30:0.00030667044 45:0.020408163 50:0.00012419203 54:5.7759578e-005 65:5.3706041e-012 67:0.034748547 
0 0 10 3:1 7:1 8:1 30:0.010596271 45:0.70515573 50:0.00429116 54:0.0019957456 65:0.70515573 67:1.2006538 
0 0 10 3:1 7:1 8:1 30:0.0069656959 45:0.46354991 50:0.0028208909 54:0.0013119481 65:0.46354991 67:1.2528266 
0 0 10 3:1 7:1 8:1 30:0.0054248897 45:0.36101303 50:0.002196912 54:0.0010217461 65:0.36101303 67:1.4392523 
0 0 10 3:1 7:1 8:1 30:0.0054248897 45:0.36101303 50:0.002196912 54:0.0010217461 65:0.36101303 67:1.9028022 
0 0 10 3:1 7:1 8:1 30:0.00021077132 45:0.034434475 50:8.5355845e-005 54:3.9697541e-005 65:0.014026312 67:0.073928908 
0 0 10 3:1 7:1 8:1 30:0.0047874483 45:0.78214282 50:0.001938768 54:0.00090168783 65:0.31859291 67:2.142767 
2.437411796367221 3.964321991384721 10 3:1 7:1 8:1 30:0.0064269616 45:1.0499964 50:0.0026027202 54:0.0012104809 65:1.1328543 67:2.8765814 
0 0 10 3:1 7:1 8:1 30:0.0042249071 45:0.6902386 50:0.0017109552 54:0.00079573673 65:0.74470711 67:2.3545353 
0 0 10 3:1 7:1 8:1 30:0.0044171819 45:0.7216512 50:0.0017888187 54:0.00083195057 65:1.4837544 67:2.4616895 
3.120639775760012 0 10 3:1 7:1 8:1 30:0.0038981475 45:0.63685501 50:0.0015786269 54:0.00073419372 65:2.0145645 67:2.1724334 
0 0 10 3:1 7:1 8:1 30:0.0025625345 45:0.41865087 50:0.0010377447 54:0.00048263872 65:1.324319 67:1.8916475 
0 0 10 3:1 7:1 8:1 30:0.0022614277 45:0.36945808 50:0.00091580639 54:0.00042592717 65:1.1687075 67:2.1329231 
0 0 10 3:1 7:1 8:1 30:0.63963753 45:0.34921139 50:0.00086561934 54:0.00040258592 65:1.104661 67:2.0160367 
0 0 10 3:1 7:1 8:1 30:0.46510416 45:0.25392461 50:0.0006294229 54:0.00029273517 65:0.80324006 67:1.9294851 
-9.000206687926424 4.987336765138758 9.120477851041537 1:1 5:1 8:1 30:1.0212802 50:0.74760222 67:0.93063575 
-0 1.664534952261022 0 1:1 5:1 8:1 30:1.3710289 50:1.0036268 65:0.70515573 67:1.2493424 
-6.698138768774476 8.242574707021129 5.590565239648203 1:1 5:1 8:1 30:0.0010574212 45:0.020408163 50:0.00077405834 65:0.034133643 67:0.03369835 
-1.152492480015471 2.507944146939662 1.727914487454928 1:1 5:1 8:1 30:0.010235769 45:0.29395264 50:0.0091535421 65:3.3375714 67:1.195915 
-10 10 10 1:1 5:1 8:1 30:0.007490512 45:0.25941229 50:0.0080779726 65:3.6505523 67:1.0553911 
-0.5248663468615553 0 1.133016582571507 1:1 5:1 8:1 30:0.0017479063 45:0.76115119 50:0.0013612708 65:2.6591554 67:2.0995526 
-8.123014226786946 -3.639405367220819 7.875201123429162 2:1 6:1 8:1 30:2.2814867 50:1.4078356 65:0.70515573 67:0.54917586 
-0.1482432871546734 -0 0.4780570944122213 2:1 6:1 8:1 65:4.2354198 67:0.12347241 
-10 -5.424143050900637 10 2:1 6:1 8:1 65:4.3212166 67:0.084861264 
-5.916240989590105 -7.425233058632289 6.654679444573364 2:1 6:1 8:1 45:0.020408163 65:0.025983056 67:2.1248563e-005 
-0 -5.404678557244722 1.661529250079786 2:1 6:1 8:1 45:0.057882708 65:3.0539844 67:1.8219427 
-3.886847746958121 -2.749970830722823 1.221614713883927 2:1 6:1 8:1 45:0.83852971 65:1.4348235 67:1.7468001 
-0 -2.758959706639286 0.2651180530641862 2:1 6:1 8:1 45:0.023659827 65:0.15972403 67:0.89964366 
-10 -0 -0 3:1 7:1 8:1 30:0.41024351 50:0.79632354 54:0.068957709 67:0.46354991 
-10 -0 -0 3:1 7:1 8:1 30:0.4407213 50:1.353472 54:0.074080721 67:0.49798793 
-10 -0 -0 3:1 7:1 8:1 30:1.1353959 50:1.5290574 54:0.083691187 67:0.56259173 
-10 -0 -0 3:1 7:1 8:1 30:1.2558917 50:1.6913314 54:0.092573054 65:0.70515573 67:0.62229776 
-1.480710328971547 -0 -0 3:1 7:1 8:1 30:1.1083206 50:1.4925947 54:0.081695423 65:1.3274535 67:0.54917586 
-10 -0 -0 3:1 7:1 8:1 30:0.64296901 50:0.86589766 54:0.047393896 65:0.77009439 67:0.78214282 
-10 -0 -0 3:1 7:1 8:1 30:0.026065199 50:0.034530666 54:0.00095747272 65:2.4171367 67:0.031707142 
-6.323799123416973 -0 -0 3:1 7:1 8:1 30:0.020299599 50:0.026502499 54:0.00044193995 65:3.2099214 67:0.024693545 
-10 -0 -0 3:1 7:1 8:1 30:0.015809342 50:0.020640166 65:3.2050443 67:0.019231353 
-10 -0 -0 3:1 7:1 8:1 30:0.013951697 50:0.017870704 65:3.5335972 67:0.01697161 
-10 -0 -2.075689565641842 3:1 7:1 8:1 30:0.012008589 50:0.01577084 65:3.823545 67:0.014977393 
-10 -6.698052603156924 -10 3:1 7:1 8:1 30:0.010597543 50:0.013649667 65:4.0794225 67:0.013217503 
-10 -0 -0 3:1 7:1 8:1 30:0.003786878 50:0.0050214315 65:2.2058916 67:0.0048624473 
-10 -0 -0 3:1 7:1 8:1 30:0.0020269698 50:0.0026200048 65:1.8858843 67:0.0026026806 
-10 -0 -0 3:1 7:1 8:1 30:0.0015786056 50:0.0017724119 65:2.1738837 67:0.0020269698 
-10 -0 -0 3:1 7:1 8:1 30:0.0013931146 50:0.0012960979 65:2.6236012 67:0.0017887945 
-10 -0 -0 3:1 7:1 8:1 30:0.00050078356 50:0.0007861231 65:2.2964509 67:0.0010849588 
-10 -0 -0 3:1 7:1 8:1 30:0.00050078356 50:0.00044193995 65:3.0016065 67:0.0010849588 
-10 -0 -0 3:1 7:1 8:1 30:0.31175232 50:0.13991256 65:0.95214832 67:0.22307225 
-10 -0 -0 3:1 7:1 8:1 30:0.054174438 50:0.024313159 65:1.0094677 67:0.038764141 
-10 -0 -0 3:1 7:1 8:1 30:0.047808774 50:0.021456286 65:1.5960079 67:0.034209237 
-10 -0 -0 3:1 7:1 8:1 30:0.042191092 50:0.018935107 65:2.1136277 67:0.030189544 
-1.190907475704542 -0 -0 3:1 7:1 8:1 30:0.037233509 50:0.016710173 65:2.5704257 67:0.026642181 
-10 -0 -0 3:1 7:1 8:1 30:0.025590191 50:0.011484724 65:3.0209575 67:0.018310884 
-10 -0 -0 3:1 7:1 8:1 30:0.01208795 50:0.0054249987 65:2.1321554 67:0.0086494498 
-10 -0 -0 3:1 7:1 8:1 30:0.0083079189 50:0.0037285434 65:2.1705627 67:0.0059446739 
-10 -0 -0 3:1 7:1 8:1 30:0.0057099438 50:0.0025625881 65:2.1969604 67:0.0040857103 
-10 -0 -0 3:1 7:1 8:1 30:0.0044469084 50:0.0019957456 65:2.4161503 67:0.0031819544 
-10 -0 -0 3:1 7:1 8:1 30:0.0044469084 50:0.0019957456 65:3.1213059 67:0.0031819544 
-10 -0 -0 3:1 7:1 8:1 30:0.0026971865 50:0.0012104809 65:2.5983238 67:0.001929953 
-10 -0 -0 3:1 7:1 8:1 30:0.0023802586 50:0.0010682456 65:2.9981682 67:0.0017031776 
-10 -0 -0 3:1 7:1 8:1 30:0.0012329539 50:0.00057179073 65:2.3099597 67:0.00091164524 
-10 -0 -0 3:1 7:1 8:1 30:0.00092394877 50:0.00044531102 65:2.5041542 67:0.00070999004 
-10 -0 -0 3:1 7:1 8:1 30:5.3318072e-006 45:0.020408163 50:4.1524158e-006 65:0.075745262 67:0.047942806 
-10 -0 -0 3:1 7:1 8:1 30:0.00012110639 45:0.46354991 65:1.7204733 67:1.5525204 
-10 -1.420045211592184 -0 3:1 7:1 8:1 45:0.030048296 65:0.064048745 67:0.050290965 
-10 -0 -0 3:1 7:1 8:1 45:0.53154349 65:1.1329343 67:1.353179 
-10 -0 -0 3:1 7:1 8:1 45:0.80858815 65:2.4280834 67:2.0584664 
-10 -0 -0 3:1 7:1 8:1 45:0.46908551 65:1.4082726 67:1.6577263 
-8.759262137078276 -0 -0 3:1 7:1 8:1 45:0.71357656 65:2.8448884 67:2.5217459 
-10 -0 -0 3:1 7:1 8:1 45:0.41396651 65:1.6487305 67:1.9264883 
-0 -5.617995427825933 -2.588874234825314 3:1 7:1 8:1 45:0.62972909 65:3.2103353 67:2.9305885 
-10 -0 -0 3:1 7:1 8:1 45:0.32239744 65:1.6418985 67:1.9639004 
-10 -0 -0 3:1 7:1 8:1 45:0.2215803 65:1.1271569 67:1.8133177 
-10 -7.520156024138849 -0 3:1 7:1 8:1 45:0.02061018 65:0.10468643 67:0.63221478 
-10 -0 -0 3:1 7:1 8:1 45:0.024417246 65:0.82878965 67:0.74899602 
-10 -0 -0 3:1 7:1 8:1 45:0.016051224 65:0.54445028 67:0.95591927 
-10 -0 -2.286131149416888 3:1 7:1 8:1 45:0.020492563 65:0.071637034 67:0.005007742 
-10 -0 -0 3:1 7:1 8:1 45:0.46546695 65:1.62716 67:0.57681644 
-10 -0 -0 3:1 7:1 8:1 45:0.41077316 65:1.4355408 67:0.97258872 
-10 -0 -0 3:1 7:1 8:1 45:0.36250603 65:1.2668604 67:1.3214338 
-10 -0 -0 3:1 7:1 8:1 45:0.31948778 65:1.1180001 67:1.6297113 
-1.912250123377616 -0 -0 3:1 7:1 8:1 45:0.48600727 65:2.4058669 67:2.4784863 
-10 -0 -0 3:1 7:1 8:1 45:0.11753298 65:0.99044514 67:1.0629317 
-10 -0 -0 3:1 7:1 8:1 45:0.091534771 65:0.77135938 67:1.2911357 
-9.42992059798109 -0 -0 3:1 7:1 8:1 45:0.043116856 65:0.90176725 67:1.0732836 
-10 -0 -0 3:1 7:1 8:1 45:0.022306418 65:0.08050961 67:0.047235645 
-10 -0 -0 3:1 7:1 8:1 45:0.39459246 65:1.4240303 67:1.2991314 
-10 -0.347509087643458 -0.4960185835854385 3:1 7:1 9:1 30:1.0756469 50:1.7966686 54:0.94399101 67:0.56259173 
-6.310783396437679 -0 -0 3:1 7:1 9:1 30:1.0499964 50:1.7538242 54:0.92148006 65:0.70515573 67:0.54917586 
-10 -0 -0 3:1 7:1 8:1 30:1.1436849 50:1.0923133 54:0.14476572 65:1.1261975 67:1.0909905 
-10 -0 -0 3:1 7:1 8:1 30:0.68774998 50:0.047992893 54:0.0060079703 65:0.049481664 67:0.047934774 
-10 -0 -0 3:1 7:1 8:1 30:1.2444372 50:0.041954048 54:0.0053020148 65:0.043667413 67:0.042302288 
-10 -0 -0 3:1 7:1 8:1 30:0.64403021 50:0.00022015462 54:2.5446681e-005 65:0.00022914555 67:0.00022198205 
-10 -0 -0 3:1 7:1 8:1 30:1.2058545 50:0.00019428576 54:1.976455e-005 65:0.00020222025 67:0.00019589846 
-10 -0 -0 3:1 7:1 8:1 30:1.5766207 50:0.0001513099 54:1.3016906e-005 65:0.0001574893 67:0.00015256587 
-10 -1.704540916416707 -4.095419386485584 3:1 7:1 8:1 30:1.8653734 50:0.00011784027 54:5.6991071e-006 65:0.00012265278 67:0.00011881843 
-10 -0 -0 3:1 7:1 8:1 30:0.68721062 50:2.9884613e-006 54:1.5187607e-007 65:3.2685859e-006 67:3.1664035e-006 
-10 -0 -0 3:1 7:1 8:1 30:1.1098124 50:2.0539371e-006 65:2.246464e-006 67:2.1762353e-006 
-10 -0 -0 3:1 7:1 8:1 30:0.7650705 50:0.49798927 65:1.5486429e-006 67:1.5002295e-006 
-10 -0 -0 3:1 7:1 8:1 30:0.67517227 50:0.93746185 65:1.3666726e-006 67:1.3239478e-006 
-10 -0 -0 3:1 7:1 8:1 30:1.310635 50:0.93463355 65:1.3625494e-006 67:1.3199535e-006 
-10 -0 -0 3:1 7:1 8:1 30:0.9035114 50:1.1422955 65:9.3929941e-007 67:8.3797681e-007 
-10 -0 -0 3:1 7:1 8:1 30:0.74220604 50:0.93835956 65:7.7160485e-007 67:0.4635506 
-10 -0.02402306674852853 -0 3:1 7:1 8:1 30:0.79734594 50:1.50606 65:8.2892882e-007 67:0.49798867 
-9.006250661400364 -4.239651823193592 -6.614066759487581 3:1 7:1 8:1 30:1.4324403 50:1.5015162 65:7.4513457e-007 67:0.49648625 
-5.586116155631914 -0 -0 3:1 7:1 8:1 30:0.24298486 50:0.25470224 65:1.0422254 67:0.22307232 
-10 -0 -0 3:1 7:1 8:1 30:0.010676011 50:0.011190834 65:1.0432382 67:0.0098011103 
-10 -0 -0 3:1 7:1 8:1 30:0.0048234737 50:0.0050560748 65:0.47134027 67:0.46797809 
-10 -0 -0 3:1 7:1 8:1 30:0.0042567011 50:0.0044619692 65:0.41595626 67:0.87653917 
